^relevante&lt;adj&gt;&lt;mf&gt;&lt;pl&gt;$ ^preocupar&lt;vblex&gt;&lt;pri&gt;&lt;p3&gt;&lt;pl&gt;$ 1.0000000
^relevante&lt;adj&gt;&lt;mf&gt;&lt;pl&gt;$ ^me&lt;prn&gt;&lt;pro&gt;&lt;p1&gt;&lt;mf&gt;&lt;sg&gt;$ 0.0555556
^relevante&lt;adj&gt;&lt;mf&gt;&lt;pl&gt;$ ^que&lt;rel&gt;&lt;an&gt;&lt;mf&gt;&lt;sp&gt;$ 0.0044053
^ventilador&lt;n&gt;&lt;m&gt;&lt;pl&gt;$ ^ventilador&lt;n&gt;&lt;m&gt;&lt;pl&gt;$ 1.0000000
^conduzir&lt;vblex&gt;&lt;pri&gt;&lt;p3&gt;&lt;pl&gt;$ ^conducir&lt;vblex&gt;&lt;pri&gt;&lt;p3&gt;&lt;pl&gt;$ 0.2000000
^conduzir&lt;vblex&gt;&lt;pri&gt;&lt;p3&gt;&lt;pl&gt;$ ^estar&lt;vblex&gt;&lt;pri&gt;&lt;p3&gt;&lt;pl&gt;$ 0.0833333
^conduzir&lt;vblex&gt;&lt;pri&gt;&lt;p3&gt;&lt;pl&gt;$ ^originar&lt;vblex&gt;&lt;ger&gt;$ 0.5000000
^pessoal&lt;adj&gt;&lt;mf&gt;&lt;sg&gt;$ ^personal&lt;adj&gt;&lt;mf&gt;&lt;sg&gt;$ 1.0000000
^pessoal&lt;adj&gt;&lt;mf&gt;&lt;sg&gt;$ ^personal&lt;n&gt;&lt;m&gt;&lt;sg&gt;$ 1.0000000
^Membro&lt;n&gt;&lt;m&gt;&lt;pl&gt;$ ^miembro&lt;n&gt;&lt;m&gt;&lt;pl&gt;$ 0.7692308
^Membro&lt;n&gt;&lt;m&gt;&lt;pl&gt;$ ^Miembro&lt;n&gt;&lt;m&gt;&lt;pl&gt;$ 1.0000000
^estar&lt;vblex&gt;&lt;cni&gt;&lt;p3&gt;&lt;pl&gt;$ ^En&lt;pr&gt;$ 0.0222222
^comunicação&lt;n&gt;&lt;f&gt;&lt;pl&gt;$ ^comunicación&lt;n&gt;&lt;f&gt;&lt;pl&gt;$ 1.0000000
^chamar&lt;vblex&gt;&lt;ifi&gt;&lt;p3&gt;&lt;sg&gt;$ ^usted&lt;prn&gt;&lt;tn&gt;&lt;p3&gt;&lt;mf&gt;&lt;sg&gt;$ 0.0666667
^chamar&lt;vblex&gt;&lt;ifi&gt;&lt;p3&gt;&lt;sg&gt;$ ^nombrar&lt;vblex&gt;&lt;pp&gt;&lt;m&gt;&lt;sg&gt;$ 1.0000000
^chamar&lt;vblex&gt;&lt;ifi&gt;&lt;p3&gt;&lt;sg&gt;$ ^haber&lt;vbhaver&gt;&lt;pri&gt;&lt;p3&gt;&lt;sg&gt;$ 0.0098039
^*Exorto$ ^Pedir&lt;vblex&gt;&lt;pri&gt;&lt;p1&gt;&lt;sg&gt;$ 0.2500000
^*Exorto$ ^a&lt;pr&gt;$ 0.0034130
^*intencionado$ ^intención&lt;n&gt;&lt;f&gt;&lt;pl&gt;$ 1.0000000
^algum&lt;prn&gt;&lt;tn&gt;&lt;f&gt;&lt;pl&gt;$ ^alguno&lt;det&gt;&lt;ind&gt;&lt;f&gt;&lt;pl&gt;$ 0.0833333
^algum&lt;prn&gt;&lt;tn&gt;&lt;f&gt;&lt;pl&gt;$ ^subrayar&lt;vblex&gt;&lt;inf&gt;$ 0.1666667
^80&lt;num&gt;$ ^80&lt;num&gt;$ 1.0000000
^acta&lt;n&gt;&lt;f&gt;&lt;sg&gt;$ ^aprobación&lt;n&gt;&lt;f&gt;&lt;sg&gt;$ 0.2000000
^acta&lt;n&gt;&lt;f&gt;&lt;sg&gt;$ ^aprobar&lt;vblex&gt;&lt;pp&gt;&lt;f&gt;&lt;sg&gt;$ 0.2000000
^acta&lt;n&gt;&lt;f&gt;&lt;sg&gt;$ ^Acta&lt;n&gt;&lt;f&gt;&lt;sg&gt;$ 0.7500000
^legislatura&lt;n&gt;&lt;f&gt;&lt;sg&gt;$ ^período&lt;n&gt;&lt;m&gt;&lt;sg&gt;$ 0.1111111
^legislatura&lt;n&gt;&lt;f&gt;&lt;sg&gt;$ ^legislatura&lt;n&gt;&lt;f&gt;&lt;sg&gt;$ 0.5000000
^tão&lt;adv&gt;$ ^tan&lt;adv&gt;$ 0.5000000
^conferir&lt;vblex&gt;&lt;inf&gt;$ ^dar&lt;vblex&gt;&lt;prs&gt;&lt;p3&gt;&lt;pl&gt;$ 0.5000000
^conferir&lt;vblex&gt;&lt;inf&gt;$ ^atribuir&lt;vblex&gt;&lt;ger&gt;$ 0.5000000
^posteriormente&lt;adv&gt;$ ^que&lt;cnjsub&gt;$ 0.0042553
^posteriormente&lt;adv&gt;$ ^agregar&lt;vblex&gt;&lt;fti&gt;&lt;p3&gt;&lt;pl&gt;$ 0.5000000
^posteriormente&lt;adv&gt;$ ^tener&lt;vblex&gt;&lt;prs&gt;&lt;p1&gt;&lt;pl&gt;$ 1.0000000
^estender&lt;vblex&gt;&lt;pri&gt;&lt;p3&gt;&lt;pl&gt;$ ^aumentar&lt;vblex&gt;&lt;pri&gt;&lt;p3&gt;&lt;pl&gt;$ 0.5000000
^caso&lt;n&gt;&lt;m&gt;&lt;pl&gt;$ ^caso&lt;n&gt;&lt;m&gt;&lt;pl&gt;$ 1.0000000
^caso&lt;n&gt;&lt;m&gt;&lt;pl&gt;$ ^el&lt;det&gt;&lt;def&gt;&lt;m&gt;&lt;pl&gt;$ 0.0165975
^utente&lt;n&gt;&lt;mf&gt;&lt;pl&gt;$ ^usuario&lt;n&gt;&lt;m&gt;&lt;pl&gt;$ 1.0000000
^resolver&lt;vblex&gt;&lt;inf&gt;$ ^tener&lt;vblex&gt;&lt;imp&gt;&lt;p3&gt;&lt;sg&gt;$ 0.2500000
^vincular&lt;vblex&gt;&lt;inf&gt;$ ^vincular&lt;vblex&gt;&lt;inf&gt;$ 1.0000000
^legal&lt;adj&gt;&lt;mf&gt;&lt;sg&gt;$ ^legal&lt;adj&gt;&lt;mf&gt;&lt;sg&gt;$ 1.0000000
^pronto&lt;adj&gt;&lt;f&gt;&lt;sg&gt;$ ^amable&lt;adj&gt;&lt;mf&gt;&lt;sg&gt;$ 1.0000000
^pronto&lt;adj&gt;&lt;f&gt;&lt;sg&gt;$ ^haber&lt;vbhaver&gt;&lt;pri&gt;&lt;p3&gt;&lt;sg&gt;$ 0.0098039
^pronto&lt;adj&gt;&lt;f&gt;&lt;sg&gt;$ ^acoger&lt;vblex&gt;&lt;pp&gt;&lt;f&gt;&lt;sg&gt;$ 0.5000000
^pronto&lt;adj&gt;&lt;f&gt;&lt;sg&gt;$ ^que&lt;rel&gt;&lt;an&gt;&lt;mf&gt;&lt;sp&gt;$ 0.0044053
^ser&lt;vbser&gt;&lt;pri&gt;&lt;p3&gt;&lt;pl&gt;$ ^pedir&lt;vblex&gt;&lt;pri&gt;&lt;p3&gt;&lt;sg&gt;$ 0.5000000
^ser&lt;vbser&gt;&lt;pri&gt;&lt;p3&gt;&lt;pl&gt;$ ^proporcionar&lt;vblex&gt;&lt;pri&gt;&lt;p3&gt;&lt;pl&gt;$ 0.3333333
^ser&lt;vbser&gt;&lt;pri&gt;&lt;p3&gt;&lt;pl&gt;$ ^afectar&lt;vblex&gt;&lt;pri&gt;&lt;p3&gt;&lt;pl&gt;$ 0.5000000
^ser&lt;vbser&gt;&lt;pri&gt;&lt;p3&gt;&lt;pl&gt;$ ^señalar&lt;vblex&gt;&lt;pp&gt;&lt;m&gt;&lt;sg&gt;$ 0.5000000
^ser&lt;vbser&gt;&lt;pri&gt;&lt;p3&gt;&lt;pl&gt;$ ^exponer&lt;vblex&gt;&lt;pri&gt;&lt;p3&gt;&lt;pl&gt;$ 0.5000000
^ser&lt;vbser&gt;&lt;pri&gt;&lt;p3&gt;&lt;pl&gt;$ ^volver&lt;vblex&gt;&lt;pp&gt;&lt;m&gt;&lt;sg&gt;$ 1.0000000
^ser&lt;vbser&gt;&lt;pri&gt;&lt;p3&gt;&lt;pl&gt;$ NULL 0.0031949
^ser&lt;vbser&gt;&lt;pri&gt;&lt;p3&gt;&lt;pl&gt;$ ^que&lt;rel&gt;&lt;an&gt;&lt;mf&gt;&lt;sp&gt;$ 0.0088106
^ser&lt;vbser&gt;&lt;pri&gt;&lt;p3&gt;&lt;pl&gt;$ ^mantener&lt;vblex&gt;&lt;pri&gt;&lt;p3&gt;&lt;pl&gt;$ 1.0000000
^ser&lt;vbser&gt;&lt;pri&gt;&lt;p3&gt;&lt;pl&gt;$ ^diferir&lt;vblex&gt;&lt;pri&gt;&lt;p3&gt;&lt;pl&gt;$ 0.5000000
^ser&lt;vbser&gt;&lt;pri&gt;&lt;p3&gt;&lt;pl&gt;$ ^ser&lt;vbser&gt;&lt;pri&gt;&lt;p3&gt;&lt;pl&gt;$ 0.6842105
^ser&lt;vbser&gt;&lt;pri&gt;&lt;p3&gt;&lt;pl&gt;$ ^se&lt;prn&gt;&lt;pro&gt;&lt;ref&gt;&lt;p3&gt;&lt;mf&gt;&lt;sp&gt;$ 0.0143541
^ser&lt;vbser&gt;&lt;pri&gt;&lt;p3&gt;&lt;pl&gt;$ ^encontrar&lt;vblex&gt;&lt;pri&gt;&lt;p3&gt;&lt;pl&gt;$ 0.5000000
^*reflectir$ ^correctamente&lt;adv&gt;$ 0.2500000
^*reflectir$ ^constar&lt;vblex&gt;&lt;pri&gt;&lt;p3&gt;&lt;sg&gt;$ 1.0000000
^aceitação&lt;n&gt;&lt;f&gt;&lt;sg&gt;$ ^aceptación&lt;n&gt;&lt;f&gt;&lt;sg&gt;$ 0.2000000
^constituir&lt;vblex&gt;&lt;inf&gt;$ ^ser&lt;vbser&gt;&lt;inf&gt;$ 0.0588235
^constituir&lt;vblex&gt;&lt;inf&gt;$ ^*barómetro$ 1.0000000
^poder&lt;vbmod&gt;&lt;cni&gt;&lt;p1&gt;&lt;sg&gt;$ ^poder&lt;vbmod&gt;&lt;cni&gt;&lt;p3&gt;&lt;sg&gt;$ 0.2000000
^programa&lt;n&gt;&lt;m&gt;&lt;pl&gt;$ ^ciertamente&lt;adv&gt;$ 0.1666667
^programa&lt;n&gt;&lt;m&gt;&lt;pl&gt;$ ^mismo&lt;adj&gt;&lt;m&gt;&lt;pl&gt;$ 0.2000000
^programa&lt;n&gt;&lt;m&gt;&lt;pl&gt;$ ^programa&lt;n&gt;&lt;m&gt;&lt;pl&gt;$ 0.8181818
^Estar&lt;vblex&gt;&lt;pri&gt;&lt;p1&gt;&lt;pl&gt;$ ^Estar&lt;vblex&gt;&lt;pri&gt;&lt;p1&gt;&lt;pl&gt;$ 1.0000000
^Estar&lt;vblex&gt;&lt;pri&gt;&lt;p1&gt;&lt;pl&gt;$ ^Haber&lt;vbhaver&gt;&lt;pri&gt;&lt;p1&gt;&lt;pl&gt;$ 1.0000000
^incrementar&lt;vblex&gt;&lt;inf&gt;$ ^poner&lt;vblex&gt;&lt;pp&gt;&lt;m&gt;&lt;pl&gt;$ 1.0000000
^incrementar&lt;vblex&gt;&lt;inf&gt;$ ^aumento&lt;n&gt;&lt;m&gt;&lt;sg&gt;$ 0.2000000
^incrementar&lt;vblex&gt;&lt;inf&gt;$ ^el&lt;det&gt;&lt;def&gt;&lt;m&gt;&lt;sg&gt;$ 0.0018182
^conceder&lt;vblex&gt;&lt;imp&gt;&lt;p3&gt;&lt;sg&gt;$ ^conceder&lt;vblex&gt;&lt;imp&gt;&lt;p3&gt;&lt;sg&gt;$ 1.0000000
^*principiar$ ^empezar&lt;vblex&gt;&lt;inf&gt;$ 1.0000000
^regulamento&lt;n&gt;&lt;m&gt;&lt;pl&gt;$ ^redactar&lt;vblex&gt;&lt;pri&gt;&lt;p3&gt;&lt;pl&gt;$ 0.3333333
^regulamento&lt;n&gt;&lt;m&gt;&lt;pl&gt;$ ^reglamento&lt;n&gt;&lt;m&gt;&lt;pl&gt;$ 0.5000000
^regulamento&lt;n&gt;&lt;m&gt;&lt;pl&gt;$ ^regulación&lt;n&gt;&lt;f&gt;&lt;pl&gt;$ 0.1666667
^continuar&lt;vblex&gt;&lt;pri&gt;&lt;p1&gt;&lt;pl&gt;$ ^seguir&lt;vblex&gt;&lt;pri&gt;&lt;p1&gt;&lt;pl&gt;$ 1.0000000
^continuar&lt;vblex&gt;&lt;pri&gt;&lt;p1&gt;&lt;pl&gt;$ ^considerar&lt;vblex&gt;&lt;ger&gt;$ 0.2500000
^Em~seguida&lt;adv&gt;$ ^siempre&lt;adv&gt;$ 0.1428571
^Em~seguida&lt;adv&gt;$ ^Como&lt;adv&gt;&lt;itg&gt;$ 1.0000000
^distorção&lt;n&gt;&lt;f&gt;&lt;pl&gt;$ ^distorsionar&lt;vblex&gt;&lt;prs&gt;&lt;p2&gt;&lt;sg&gt;$ 0.5000000
^valor&lt;n&gt;&lt;m&gt;&lt;pl&gt;$ ^cifra&lt;n&gt;&lt;f&gt;&lt;pl&gt;$ 0.4000000
^encontrar&lt;vblex&gt;&lt;inf&gt;$ ^hallar&lt;vblex&gt;&lt;inf&gt;$ 1.0000000
^encontrar&lt;vblex&gt;&lt;inf&gt;$ ^encontrar&lt;vblex&gt;&lt;inf&gt;$ 0.5000000
^encontrar&lt;vblex&gt;&lt;inf&gt;$ ^topar&lt;vblex&gt;&lt;inf&gt;$ 1.0000000
^caixa&lt;n&gt;&lt;f&gt;&lt;pl&gt;$ ^caja&lt;n&gt;&lt;f&gt;&lt;pl&gt;$ 1.0000000
^chover&lt;vblex&gt;&lt;pis&gt;&lt;p3&gt;&lt;sg&gt;$ ^transferencia&lt;n&gt;&lt;f&gt;&lt;sg&gt;$ 0.3333333
^momento&lt;n&gt;&lt;m&gt;&lt;sg&gt;$ ^necesitar&lt;vblex&gt;&lt;pri&gt;&lt;p1&gt;&lt;pl&gt;$ 0.3333333
^momento&lt;n&gt;&lt;m&gt;&lt;sg&gt;$ ^período&lt;n&gt;&lt;m&gt;&lt;sg&gt;$ 0.1111111
^momento&lt;n&gt;&lt;m&gt;&lt;sg&gt;$ ^Ahora&lt;adv&gt;$ 0.2000000
^momento&lt;n&gt;&lt;m&gt;&lt;sg&gt;$ ^encontrar&lt;vblex&gt;&lt;pri&gt;&lt;p3&gt;&lt;sg&gt;$ 0.1666667
^momento&lt;n&gt;&lt;m&gt;&lt;sg&gt;$ ^*remediando$ 0.2000000
^momento&lt;n&gt;&lt;m&gt;&lt;sg&gt;$ NULL 0.0007987
^momento&lt;n&gt;&lt;m&gt;&lt;sg&gt;$ ^momento&lt;n&gt;&lt;m&gt;&lt;sg&gt;$ 0.1000000
^momento&lt;n&gt;&lt;m&gt;&lt;sg&gt;$ ^destinar&lt;vblex&gt;&lt;inf&gt;$ 0.5000000
^momento&lt;n&gt;&lt;m&gt;&lt;sg&gt;$ ^alcanzar&lt;vblex&gt;&lt;pp&gt;&lt;m&gt;&lt;sg&gt;$ 0.2500000
^ter&lt;vbhaver&gt;&lt;pri&gt;&lt;p3&gt;&lt;pl&gt;$ ^tener&lt;vblex&gt;&lt;pri&gt;&lt;p3&gt;&lt;pl&gt;$ 0.1000000
^ter&lt;vbhaver&gt;&lt;pri&gt;&lt;p3&gt;&lt;pl&gt;$ ^próspero&lt;adj&gt;&lt;f&gt;&lt;pl&gt;$ 0.3333333
^enfraquecer&lt;vblex&gt;&lt;inf&gt;$ ^debilitar&lt;vblex&gt;&lt;cni&gt;&lt;p3&gt;&lt;sg&gt;$ 1.0000000
^enfraquecer&lt;vblex&gt;&lt;inf&gt;$ ^fortalecer&lt;vblex&gt;&lt;inf&gt;$ 1.0000000
^rejeitar&lt;vblex&gt;&lt;inf&gt;$ ^rechazar&lt;vblex&gt;&lt;inf&gt;$ 1.0000000
^acarretar&lt;vblex&gt;&lt;pri&gt;&lt;p3&gt;&lt;sg&gt;$ ^conllevar&lt;vblex&gt;&lt;pri&gt;&lt;p3&gt;&lt;pl&gt;$ 1.0000000
^Actualmente&lt;adv&gt;$ ^Ahora&lt;adv&gt;$ 0.2000000
^reforma&lt;n&gt;&lt;f&gt;&lt;sg&gt;$ ^reforma&lt;n&gt;&lt;f&gt;&lt;pl&gt;$ 0.5000000
^reforma&lt;n&gt;&lt;f&gt;&lt;sg&gt;$ ^reforma&lt;n&gt;&lt;f&gt;&lt;sg&gt;$ 1.0000000
^decorrente&lt;adj&gt;&lt;mf&gt;&lt;pl&gt;$ ^ese&lt;det&gt;&lt;dem&gt;&lt;f&gt;&lt;sg&gt;$ 0.1250000
^decorrente&lt;adj&gt;&lt;mf&gt;&lt;pl&gt;$ ^relación&lt;n&gt;&lt;f&gt;&lt;sg&gt;$ 0.1250000
^decorrente&lt;adj&gt;&lt;mf&gt;&lt;pl&gt;$ ^surgir&lt;vblex&gt;&lt;pp&gt;&lt;m&gt;&lt;sg&gt;$ 0.2500000
^decorrente&lt;adj&gt;&lt;mf&gt;&lt;pl&gt;$ ^haber&lt;vbhaver&gt;&lt;prs&gt;&lt;p3&gt;&lt;pl&gt;$ 0.2500000
^decorrente&lt;adj&gt;&lt;mf&gt;&lt;pl&gt;$ ^que&lt;rel&gt;&lt;an&gt;&lt;mf&gt;&lt;sp&gt;$ 0.0044053
^pedir&lt;vblex&gt;&lt;pp&gt;&lt;m&gt;&lt;pl&gt;$ ^hay&lt;vblex&gt;&lt;pri&gt;&lt;p3&gt;&lt;sg&gt;$ 0.0714286
^pedir&lt;vblex&gt;&lt;pp&gt;&lt;m&gt;&lt;pl&gt;$ ^demanda&lt;n&gt;&lt;f&gt;&lt;pl&gt;$ 0.5000000
^*clivagem$ ^creciente&lt;adj&gt;&lt;mf&gt;&lt;sg&gt;$ 1.0000000
^*congratulo$ ^*novel$ 0.1428571
^ter&lt;vblex&gt;&lt;pri&gt;&lt;p1&gt;&lt;pl&gt;$ ^obligación&lt;n&gt;&lt;f&gt;&lt;sg&gt;$ 0.1666667
^ter&lt;vblex&gt;&lt;pri&gt;&lt;p1&gt;&lt;pl&gt;$ ^sencillamente&lt;adv&gt;$ 1.0000000
^ter&lt;vblex&gt;&lt;pri&gt;&lt;p1&gt;&lt;pl&gt;$ ^tener&lt;vblex&gt;&lt;pri&gt;&lt;p1&gt;&lt;pl&gt;$ 0.3333333
^ocorrer&lt;vblex&gt;&lt;ifi&gt;&lt;p3&gt;&lt;pl&gt;$ ^producir&lt;vblex&gt;&lt;pp&gt;&lt;m&gt;&lt;sg&gt;$ 0.2500000
^ocorrer&lt;vblex&gt;&lt;ifi&gt;&lt;p3&gt;&lt;pl&gt;$ ^se&lt;prn&gt;&lt;pro&gt;&lt;ref&gt;&lt;p3&gt;&lt;mf&gt;&lt;sp&gt;$ 0.0047847
^ocorrer&lt;vblex&gt;&lt;ifi&gt;&lt;p3&gt;&lt;pl&gt;$ ^haber&lt;vbhaver&gt;&lt;pri&gt;&lt;p3&gt;&lt;pl&gt;$ 0.0250000
^investir&lt;vblex&gt;&lt;prs&gt;&lt;p1&gt;&lt;sg&gt;$ ^a&lt;pr&gt;$ 0.0034130
^investir&lt;vblex&gt;&lt;prs&gt;&lt;p1&gt;&lt;sg&gt;$ ^otorgar&lt;vblex&gt;&lt;prs&gt;&lt;p3&gt;&lt;sg&gt;$ 1.0000000
^considerável&lt;adj&gt;&lt;mf&gt;&lt;pl&gt;$ ^considerable&lt;adj&gt;&lt;mf&gt;&lt;pl&gt;$ 1.0000000
^considerável&lt;adj&gt;&lt;mf&gt;&lt;pl&gt;$ ^miembro&lt;n&gt;&lt;m&gt;&lt;pl&gt;$ 0.0384615
^Declarar&lt;vblex&gt;&lt;pri&gt;&lt;p1&gt;&lt;sg&gt;$ ^Declarar&lt;vblex&gt;&lt;pri&gt;&lt;p1&gt;&lt;sg&gt;$ 1.0000000
~^Estar&lt;vblex&gt;&lt;pri&gt;&lt;p3&gt;&lt;sg&gt;$ ^quedar&lt;vblex&gt;&lt;pri&gt;&lt;p3&gt;&lt;sg&gt;$ 0.0769231
^indicar&lt;vblex&gt;&lt;pri&gt;&lt;p3&gt;&lt;sg&gt;$ ^funcionar&lt;vblex&gt;&lt;pri&gt;&lt;p3&gt;&lt;sg&gt;$ 0.1666667
^indicar&lt;vblex&gt;&lt;pri&gt;&lt;p3&gt;&lt;sg&gt;$ ^pensar&lt;vblex&gt;&lt;inf&gt;$ 0.3333333
^indicar&lt;vblex&gt;&lt;pri&gt;&lt;p3&gt;&lt;sg&gt;$ ^nada&lt;n&gt;&lt;f&gt;&lt;sg&gt;$ 0.3333333
^conceito&lt;n&gt;&lt;m&gt;&lt;sg&gt;$ ^concepto&lt;n&gt;&lt;m&gt;&lt;sg&gt;$ 0.3333333
^construir&lt;vblex&gt;&lt;inf&gt;$ ^construir&lt;vblex&gt;&lt;inf&gt;$ 0.6666667
^responsável&lt;adj&gt;&lt;mf&gt;&lt;sg&gt;$ ^a&lt;pr&gt;$ 0.0068259
^responsável&lt;adj&gt;&lt;mf&gt;&lt;sg&gt;$ ^razonable&lt;adj&gt;&lt;mf&gt;&lt;sg&gt;$ 0.2500000
^*ultramarinas$ ^muy~importante&lt;adj&gt;&lt;mf&gt;&lt;sg&gt;$ 0.1250000
^distribuição&lt;n&gt;&lt;f&gt;&lt;sg&gt;$ ^óptimo&lt;adj&gt;&lt;m&gt;&lt;sg&gt;$ 0.5000000
^distribuição&lt;n&gt;&lt;f&gt;&lt;sg&gt;$ ^reparto&lt;n&gt;&lt;m&gt;&lt;sg&gt;$ 0.6666667
^distribuição&lt;n&gt;&lt;f&gt;&lt;sg&gt;$ ^distribución&lt;n&gt;&lt;f&gt;&lt;sg&gt;$ 0.6666667
^caracterizar&lt;vblex&gt;&lt;pri&gt;&lt;p3&gt;&lt;sg&gt;$ ^caracterizar&lt;vblex&gt;&lt;pri&gt;&lt;p3&gt;&lt;sg&gt;$ 1.0000000
^caracterizar&lt;vblex&gt;&lt;pri&gt;&lt;p3&gt;&lt;sg&gt;$ ^Cómo&lt;adv&gt;&lt;itg&gt;$ 0.3333333
^voltar&lt;vblex&gt;&lt;inf&gt;$ ^volver&lt;vblex&gt;&lt;inf&gt;$ 0.5000000
^sequencial&lt;adj&gt;&lt;mf&gt;&lt;sg&gt;$ ^sucesión&lt;n&gt;&lt;f&gt;&lt;sg&gt;$ 1.0000000
^sequencial&lt;adj&gt;&lt;mf&gt;&lt;sg&gt;$ ^equivaler&lt;vblex&gt;&lt;pri&gt;&lt;p3&gt;&lt;sg&gt;$ 0.3333333
^continuar&lt;vblex&gt;&lt;pri&gt;&lt;p3&gt;&lt;sg&gt;$ ^particularmente&lt;adv&gt;$ 0.5000000
^continuar&lt;vblex&gt;&lt;pri&gt;&lt;p3&gt;&lt;sg&gt;$ ^desigual&lt;adj&gt;&lt;mf&gt;&lt;sg&gt;$ 0.5000000
^continuar&lt;vblex&gt;&lt;pri&gt;&lt;p3&gt;&lt;sg&gt;$ ^seguir&lt;vblex&gt;&lt;pri&gt;&lt;p3&gt;&lt;pl&gt;$ 0.2000000
^continuar&lt;vblex&gt;&lt;pri&gt;&lt;p3&gt;&lt;sg&gt;$ ^seguir&lt;vblex&gt;&lt;pri&gt;&lt;p3&gt;&lt;sg&gt;$ 0.1666667
^continuar&lt;vblex&gt;&lt;pri&gt;&lt;p3&gt;&lt;sg&gt;$ ^ser&lt;vbser&gt;&lt;ger&gt;$ 0.1000000
^continuar&lt;vblex&gt;&lt;pri&gt;&lt;p3&gt;&lt;sg&gt;$ ^aun~así&lt;cnjadv&gt;$ 1.0000000
^fortalecer&lt;vblex&gt;&lt;inf&gt;$ ^a&lt;pr&gt;$ 0.0034130
^sair&lt;vblex&gt;&lt;fti&gt;&lt;p3&gt;&lt;pl&gt;$ ^de&lt;pr&gt;$ 0.0009980
^sair&lt;vblex&gt;&lt;fti&gt;&lt;p3&gt;&lt;pl&gt;$ ^allí&lt;adv&gt;$ 0.1666667
^sair&lt;vblex&gt;&lt;fti&gt;&lt;p3&gt;&lt;pl&gt;$ ^salir&lt;vblex&gt;&lt;fti&gt;&lt;p3&gt;&lt;pl&gt;$ 1.0000000
^militar&lt;adj&gt;&lt;mf&gt;&lt;sg&gt;$ ^militar&lt;adj&gt;&lt;mf&gt;&lt;sg&gt;$ 0.5000000
^militar&lt;adj&gt;&lt;mf&gt;&lt;sg&gt;$ ^de~un~golpe&lt;cnjadv&gt;$ 0.2500000
^ver&lt;vblex&gt;&lt;fti&gt;&lt;p1&gt;&lt;pl&gt;$ ^durante&lt;pr&gt;$ 0.2000000
^ver&lt;vblex&gt;&lt;fti&gt;&lt;p1&gt;&lt;pl&gt;$ ^comprobar&lt;vblex&gt;&lt;fti&gt;&lt;p1&gt;&lt;pl&gt;$ 1.0000000
^efectuar&lt;vblex&gt;&lt;inf&gt;$ ^celebrar&lt;vblex&gt;&lt;pri&gt;&lt;p1&gt;&lt;pl&gt;$ 0.1666667
^Presentemente&lt;adv&gt;$ ^Hoy&lt;adv&gt;$ 0.3333333
^deixar&lt;vblex&gt;&lt;inf&gt;$ ^dejar&lt;vblex&gt;&lt;imp&gt;&lt;p3&gt;&lt;sg&gt;$ 0.5000000
^deixar&lt;vblex&gt;&lt;inf&gt;$ ^permitir&lt;vblex&gt;&lt;imp&gt;&lt;p3&gt;&lt;sg&gt;$ 0.2500000
^deixar&lt;vblex&gt;&lt;inf&gt;$ ^decir&lt;vblex&gt;&lt;inf&gt;$ 0.0833333
^deixar&lt;vblex&gt;&lt;inf&gt;$ ^dejar&lt;vblex&gt;&lt;inf&gt;$ 0.1666667
^deixar&lt;vblex&gt;&lt;inf&gt;$ ^muy&lt;preadv&gt;$ 0.0454545
^ir&lt;vblex&gt;&lt;pri&gt;&lt;p3&gt;&lt;pl&gt;$ ^Entonces&lt;adv&gt;$ 0.1666667
^ir&lt;vblex&gt;&lt;pri&gt;&lt;p3&gt;&lt;pl&gt;$ ^rechazar&lt;vblex&gt;&lt;fti&gt;&lt;p3&gt;&lt;pl&gt;$ 1.0000000
^ir&lt;vblex&gt;&lt;pri&gt;&lt;p3&gt;&lt;pl&gt;$ ^sitio&lt;n&gt;&lt;m&gt;&lt;sg&gt;$ 0.2500000
^ir&lt;vblex&gt;&lt;pri&gt;&lt;p3&gt;&lt;pl&gt;$ ^se&lt;prn&gt;&lt;pro&gt;&lt;ref&gt;&lt;p3&gt;&lt;mf&gt;&lt;sp&gt;$ 0.0095694
^ir&lt;vblex&gt;&lt;pri&gt;&lt;p3&gt;&lt;pl&gt;$ ^oscilar&lt;vblex&gt;&lt;pri&gt;&lt;p3&gt;&lt;pl&gt;$ 0.5000000
^Isto~é&lt;adv&gt;$ ^Esto&lt;prn&gt;&lt;tn&gt;&lt;nt&gt;$ 0.0476190
^Isto~é&lt;adv&gt;$ ^resultar&lt;vblex&gt;&lt;pri&gt;&lt;p3&gt;&lt;sg&gt;$ 1.0000000
^aquilo&lt;prn&gt;&lt;tn&gt;&lt;nt&gt;$ ^lo&lt;detnt&gt;$ 0.1282051
^*êxodo$ ^*éxodo$ 1.0000000
^altura&lt;n&gt;&lt;f&gt;&lt;sg&gt;$ NULL 0.0007987
^altura&lt;n&gt;&lt;f&gt;&lt;sg&gt;$ ^*Señoría$ 0.0909091
^altura&lt;n&gt;&lt;f&gt;&lt;sg&gt;$ ^que&lt;cnjsub&gt;$ 0.0085106
^altura&lt;n&gt;&lt;f&gt;&lt;sg&gt;$ ^cuando&lt;rel&gt;&lt;adv&gt;$ 0.1111111
^intervenção&lt;n&gt;&lt;f&gt;&lt;pl&gt;$ ^intervención&lt;n&gt;&lt;f&gt;&lt;pl&gt;$ 1.0000000
^dar&lt;vblex&gt;&lt;pp&gt;&lt;f&gt;&lt;sg&gt;$ ^prestar&lt;vblex&gt;&lt;pri&gt;&lt;p3&gt;&lt;sg&gt;$ 0.3333333
^dar&lt;vblex&gt;&lt;pp&gt;&lt;f&gt;&lt;sg&gt;$ ^se&lt;prn&gt;&lt;pro&gt;&lt;ref&gt;&lt;p3&gt;&lt;mf&gt;&lt;sp&gt;$ 0.0047847
^dar&lt;vblex&gt;&lt;pp&gt;&lt;f&gt;&lt;sg&gt;$ NULL 0.0007987
^dar&lt;vblex&gt;&lt;pp&gt;&lt;f&gt;&lt;sg&gt;$ ^contestar&lt;vblex&gt;&lt;pp&gt;&lt;f&gt;&lt;pl&gt;$ 0.5000000
^dar&lt;vblex&gt;&lt;pp&gt;&lt;f&gt;&lt;sg&gt;$ ^ser&lt;vbser&gt;&lt;pp&gt;&lt;m&gt;&lt;sg&gt;$ 0.0526316
^aprovar&lt;vblex&gt;&lt;pri&gt;&lt;p1&gt;&lt;sg&gt;$ ^mío&lt;det&gt;&lt;pos&gt;&lt;mf&gt;&lt;sg&gt;$ 0.0312500
^aprovar&lt;vblex&gt;&lt;pri&gt;&lt;p1&gt;&lt;sg&gt;$ ^dar&lt;vblex&gt;&lt;pri&gt;&lt;p1&gt;&lt;sg&gt;$ 0.2000000
^aprovar&lt;vblex&gt;&lt;pri&gt;&lt;p1&gt;&lt;sg&gt;$ ^*sincera$ 0.3333333
^aprovar&lt;vblex&gt;&lt;pri&gt;&lt;p1&gt;&lt;sg&gt;$ ^aprobación&lt;n&gt;&lt;f&gt;&lt;sg&gt;$ 0.2000000
^aprovar&lt;vblex&gt;&lt;pri&gt;&lt;p1&gt;&lt;sg&gt;$ ^Por~lo~tanto&lt;cnjadv&gt;$ 0.0769231
^estar&lt;vblex&gt;&lt;ger&gt;$ ^me&lt;prn&gt;&lt;pro&gt;&lt;p1&gt;&lt;mf&gt;&lt;sg&gt;$ 0.0555556
^estar&lt;vblex&gt;&lt;ger&gt;$ ^referir&lt;vblex&gt;&lt;pri&gt;&lt;p3&gt;&lt;sg&gt;$ 0.1428571
^zona&lt;n&gt;&lt;f&gt;&lt;pl&gt;$ NULL 0.0007987
^zona&lt;n&gt;&lt;f&gt;&lt;pl&gt;$ ^zona&lt;n&gt;&lt;f&gt;&lt;pl&gt;$ 0.3333333
^zona&lt;n&gt;&lt;f&gt;&lt;pl&gt;$ ^periférico&lt;adj&gt;&lt;f&gt;&lt;pl&gt;$ 0.3333333
^zona&lt;n&gt;&lt;f&gt;&lt;pl&gt;$ ^respetar&lt;vblex&gt;&lt;pri&gt;&lt;p3&gt;&lt;pl&gt;$ 0.3333333
^zona&lt;n&gt;&lt;f&gt;&lt;pl&gt;$ ^actividad&lt;n&gt;&lt;f&gt;&lt;pl&gt;$ 0.2000000
^zona&lt;n&gt;&lt;f&gt;&lt;pl&gt;$ ^región&lt;n&gt;&lt;f&gt;&lt;pl&gt;$ 0.0465116
^zona&lt;n&gt;&lt;f&gt;&lt;pl&gt;$ ^el&lt;det&gt;&lt;def&gt;&lt;f&gt;&lt;pl&gt;$ 0.0044444
^zona&lt;n&gt;&lt;f&gt;&lt;pl&gt;$ ^ciudad&lt;n&gt;&lt;f&gt;&lt;pl&gt;$ 0.4000000
^global&lt;adj&gt;&lt;mf&gt;&lt;sg&gt;$ ^global&lt;adj&gt;&lt;mf&gt;&lt;sg&gt;$ 1.0000000
^estratégico&lt;adj&gt;&lt;m&gt;&lt;sg&gt;$ ^estratégico&lt;adj&gt;&lt;m&gt;&lt;sg&gt;$ 1.0000000
^importante&lt;adj&gt;&lt;mf&gt;&lt;sg&gt;$ ^punto&lt;n&gt;&lt;m&gt;&lt;sg&gt;$ 0.0357143
^importante&lt;adj&gt;&lt;mf&gt;&lt;sg&gt;$ ^importante&lt;adj&gt;&lt;mf&gt;&lt;sg&gt;$ 0.6000000
^importante&lt;adj&gt;&lt;mf&gt;&lt;sg&gt;$ ^importancia&lt;n&gt;&lt;f&gt;&lt;sg&gt;$ 0.0714286
^importante&lt;adj&gt;&lt;mf&gt;&lt;sg&gt;$ ^uno&lt;det&gt;&lt;ind&gt;&lt;m&gt;&lt;sg&gt;$ 0.0082645
^importante&lt;adj&gt;&lt;mf&gt;&lt;sg&gt;$ ^muy~importante&lt;adj&gt;&lt;mf&gt;&lt;sg&gt;$ 0.1250000
^importante&lt;adj&gt;&lt;mf&gt;&lt;sg&gt;$ NULL 0.0007987
^importante&lt;adj&gt;&lt;mf&gt;&lt;sg&gt;$ ^tener&lt;vblex&gt;&lt;pri&gt;&lt;p1&gt;&lt;pl&gt;$ 0.1111111
^verba&lt;n&gt;&lt;f&gt;&lt;pl&gt;$ ^subvención&lt;n&gt;&lt;f&gt;&lt;pl&gt;$ 0.3333333
^verba&lt;n&gt;&lt;f&gt;&lt;pl&gt;$ ^cómo&lt;adv&gt;&lt;itg&gt;$ 0.1250000
^verba&lt;n&gt;&lt;f&gt;&lt;pl&gt;$ ^recurso&lt;n&gt;&lt;m&gt;&lt;pl&gt;$ 0.2000000
^verba&lt;n&gt;&lt;f&gt;&lt;pl&gt;$ ^gastar&lt;vblex&gt;&lt;inf&gt;$ 0.1666667
^verba&lt;n&gt;&lt;f&gt;&lt;pl&gt;$ ^el&lt;det&gt;&lt;def&gt;&lt;m&gt;&lt;sg&gt;$ 0.0018182
^ser&lt;vbser&gt;&lt;prs&gt;&lt;p3&gt;&lt;pl&gt;$ NULL 0.0007987
^ser&lt;vbser&gt;&lt;prs&gt;&lt;p3&gt;&lt;pl&gt;$ ^ser&lt;vbser&gt;&lt;prs&gt;&lt;p3&gt;&lt;pl&gt;$ 0.5000000
^ser&lt;vbser&gt;&lt;prs&gt;&lt;p3&gt;&lt;pl&gt;$ ^desplazar&lt;vblex&gt;&lt;prs&gt;&lt;p3&gt;&lt;pl&gt;$ 0.3333333
^ser&lt;vbser&gt;&lt;prs&gt;&lt;p3&gt;&lt;pl&gt;$ ^éste&lt;prn&gt;&lt;tn&gt;&lt;m&gt;&lt;pl&gt;$ 0.3333333
^ser&lt;vbser&gt;&lt;prs&gt;&lt;p3&gt;&lt;pl&gt;$ ^adecuado&lt;adj&gt;&lt;f&gt;&lt;pl&gt;$ 0.3333333
^ser&lt;vbser&gt;&lt;prs&gt;&lt;p3&gt;&lt;pl&gt;$ ^ser&lt;vbser&gt;&lt;imp&gt;&lt;p3&gt;&lt;pl&gt;$ 0.5000000
^Iniciativa&lt;n&gt;&lt;f&gt;&lt;pl&gt;$ ^capacidad&lt;n&gt;&lt;f&gt;&lt;sg&gt;$ 1.0000000
^transparente&lt;adj&gt;&lt;mf&gt;&lt;sg&gt;$ ^transparente&lt;adj&gt;&lt;mf&gt;&lt;sg&gt;$ 0.5000000
^Igualmente&lt;adv&gt;$ ^Consciente&lt;n&gt;&lt;m&gt;&lt;sg&gt;$ 0.5000000
^desejar&lt;vblex&gt;&lt;pp&gt;&lt;m&gt;&lt;sg&gt;$ ^desear&lt;vblex&gt;&lt;pp&gt;&lt;m&gt;&lt;sg&gt;$ 1.0000000
^contrapartida&lt;n&gt;&lt;f&gt;&lt;pl&gt;$ ^fondo&lt;n&gt;&lt;m&gt;&lt;pl&gt;$ 0.1111111
^contrapartida&lt;n&gt;&lt;f&gt;&lt;pl&gt;$ ^existir&lt;vblex&gt;&lt;pri&gt;&lt;p3&gt;&lt;pl&gt;$ 0.2500000
^parecer&lt;vblex&gt;&lt;pri&gt;&lt;p3&gt;&lt;sg&gt;$ ^parecer&lt;vblex&gt;&lt;pri&gt;&lt;p3&gt;&lt;sg&gt;$ 0.5714286
^desenvolver&lt;vblex&gt;&lt;pp&gt;&lt;f&gt;&lt;pl&gt;$ ^lento&lt;adj&gt;&lt;m&gt;&lt;pl&gt;$ 1.0000000
^desenvolver&lt;vblex&gt;&lt;pp&gt;&lt;f&gt;&lt;pl&gt;$ ^poder&lt;vbmod&gt;&lt;prs&gt;&lt;p3&gt;&lt;pl&gt;$ 0.2000000
^desenvolver&lt;vblex&gt;&lt;pp&gt;&lt;f&gt;&lt;pl&gt;$ ^integrar&lt;vblex&gt;&lt;inf&gt;$ 0.5000000
^ocupar&lt;vblex&gt;&lt;pp&gt;&lt;m&gt;&lt;sg&gt;$ ^otro&lt;det&gt;&lt;ind&gt;&lt;f&gt;&lt;sg&gt;$ 0.1111111
^ocupar&lt;vblex&gt;&lt;pp&gt;&lt;m&gt;&lt;sg&gt;$ ^ocupar&lt;vblex&gt;&lt;pp&gt;&lt;m&gt;&lt;sg&gt;$ 0.2500000
^ocupar&lt;vblex&gt;&lt;pp&gt;&lt;m&gt;&lt;sg&gt;$ ^vez&lt;n&gt;&lt;f&gt;&lt;sg&gt;$ 0.0909091
^importar&lt;vblex&gt;&lt;pri&gt;&lt;p3&gt;&lt;sg&gt;$ ^estar&lt;vblex&gt;&lt;pri&gt;&lt;p1&gt;&lt;pl&gt;$ 0.1111111
^importar&lt;vblex&gt;&lt;pri&gt;&lt;p3&gt;&lt;sg&gt;$ ^preocupar&lt;vblex&gt;&lt;pp&gt;&lt;m&gt;&lt;pl&gt;$ 0.5000000
^importar&lt;vblex&gt;&lt;pri&gt;&lt;p3&gt;&lt;sg&gt;$ ^clave&lt;n&gt;&lt;f&gt;&lt;sg&gt;$ 0.1428571
^integrar&lt;vblex&gt;&lt;pp&gt;&lt;f&gt;&lt;pl&gt;$ ^integrar&lt;vblex&gt;&lt;pp&gt;&lt;f&gt;&lt;pl&gt;$ 0.5000000
^relatório&lt;n&gt;&lt;m&gt;&lt;sg&gt;$ ^asunto&lt;n&gt;&lt;m&gt;&lt;sg&gt;$ 0.1111111
^relatório&lt;n&gt;&lt;m&gt;&lt;sg&gt;$ ^*Sra$ 0.1000000
^relatório&lt;n&gt;&lt;m&gt;&lt;sg&gt;$ ^informe&lt;n&gt;&lt;m&gt;&lt;sg&gt;$ 0.8305085
^relatório&lt;n&gt;&lt;m&gt;&lt;sg&gt;$ ^retirar&lt;vblex&gt;&lt;pri&gt;&lt;p3&gt;&lt;sg&gt;$ 0.5000000
^dessar&lt;vblex&gt;&lt;imp&gt;&lt;p3&gt;&lt;sg&gt;$ ^frío&lt;n&gt;&lt;m&gt;&lt;sg&gt;$ 1.0000000
^dessar&lt;vblex&gt;&lt;imp&gt;&lt;p3&gt;&lt;sg&gt;$ ^surgir&lt;vblex&gt;&lt;pp&gt;&lt;m&gt;&lt;sg&gt;$ 0.2500000
^ainda~assim&lt;cnjadv&gt;$ ^no~obstante&lt;cnjadv&gt;$ 0.1000000
^até~mesmo&lt;adv&gt;$ ^incluso&lt;adv&gt;$ 0.0833333
^até~mesmo&lt;adv&gt;$ ^en&lt;pr&gt;$ 0.0029499
^referir&lt;vblex&gt;&lt;ifi&gt;&lt;p3&gt;&lt;sg&gt;$ ^recordar&lt;vblex&gt;&lt;pp&gt;&lt;m&gt;&lt;sg&gt;$ 0.2000000
^referir&lt;vblex&gt;&lt;ifi&gt;&lt;p3&gt;&lt;sg&gt;$ ^ponente&lt;n&gt;&lt;mf&gt;&lt;sg&gt;$ 0.0476190
^referir&lt;vblex&gt;&lt;ifi&gt;&lt;p3&gt;&lt;sg&gt;$ ^haber&lt;vbhaver&gt;&lt;pri&gt;&lt;p3&gt;&lt;sg&gt;$ 0.0098039
^demasiado&lt;adv&gt;$ ^ir&lt;vblex&gt;&lt;pp&gt;&lt;m&gt;&lt;sg&gt;$ 0.5000000
^demasiado&lt;adv&gt;$ ^ampliar&lt;vblex&gt;&lt;ger&gt;$ 1.0000000
^social&lt;adj&gt;&lt;mf&gt;&lt;pl&gt;$ ^social&lt;adj&gt;&lt;mf&gt;&lt;pl&gt;$ 0.6666667
^consideração&lt;n&gt;&lt;f&gt;&lt;sg&gt;$ ^consideración&lt;n&gt;&lt;f&gt;&lt;sg&gt;$ 0.5000000
^consideração&lt;n&gt;&lt;f&gt;&lt;sg&gt;$ ^cuenta&lt;n&gt;&lt;f&gt;&lt;sg&gt;$ 0.0714286
^negativo&lt;adj&gt;&lt;m&gt;&lt;sg&gt;$ ^neutralizar&lt;vblex&gt;&lt;pp&gt;&lt;m&gt;&lt;sg&gt;$ 0.2000000
^contribuir&lt;vblex&gt;&lt;ifi&gt;&lt;p3&gt;&lt;sg&gt;$ ^procedimiento&lt;n&gt;&lt;m&gt;&lt;sg&gt;$ 0.1111111
^tratado&lt;n&gt;&lt;m&gt;&lt;sg&gt;$ ^hablar&lt;vblex&gt;&lt;fti&gt;&lt;p3&gt;&lt;sg&gt;$ 0.2500000
^actualmente&lt;adv&gt;$ ^actualmente&lt;adv&gt;$ 1.0000000
^actualmente&lt;adv&gt;$ ^incluir&lt;vblex&gt;&lt;pp&gt;&lt;f&gt;&lt;sg&gt;$ 0.2000000
^actualmente&lt;adv&gt;$ ^estar&lt;vblex&gt;&lt;pri&gt;&lt;p1&gt;&lt;pl&gt;$ 0.1111111
^produzir&lt;vblex&gt;&lt;pri&gt;&lt;p3&gt;&lt;sg&gt;$ ^alcanzar&lt;vblex&gt;&lt;pri&gt;&lt;p3&gt;&lt;sg&gt;$ 1.0000000
^produzir&lt;vblex&gt;&lt;pri&gt;&lt;p3&gt;&lt;sg&gt;$ ^producir&lt;vblex&gt;&lt;pri&gt;&lt;p3&gt;&lt;sg&gt;$ 0.2500000
^produzir&lt;vblex&gt;&lt;pri&gt;&lt;p3&gt;&lt;sg&gt;$ ^resultado&lt;n&gt;&lt;m&gt;&lt;pl&gt;$ 0.1428571
^produzir&lt;vblex&gt;&lt;pri&gt;&lt;p3&gt;&lt;sg&gt;$ ^el&lt;det&gt;&lt;def&gt;&lt;m&gt;&lt;pl&gt;$ 0.0041494
^produzir&lt;vblex&gt;&lt;pri&gt;&lt;p3&gt;&lt;sg&gt;$ ^desear&lt;vblex&gt;&lt;pp&gt;&lt;m&gt;&lt;pl&gt;$ 1.0000000
^existente&lt;adj&gt;&lt;mf&gt;&lt;sg&gt;$ ^deficiencia&lt;n&gt;&lt;f&gt;&lt;pl&gt;$ 0.2500000
^lucro&lt;n&gt;&lt;m&gt;&lt;pl&gt;$ ^arma&lt;n&gt;&lt;f&gt;&lt;pl&gt;$ 0.3333333
^lucro&lt;n&gt;&lt;m&gt;&lt;pl&gt;$ ^beneficio&lt;n&gt;&lt;m&gt;&lt;pl&gt;$ 0.5000000
^*World$ ^*Wide$ 0.5000000
^*World$ ^*World$ 0.5000000
^abrangente&lt;adj&gt;&lt;mf&gt;&lt;sg&gt;$ ^pleno&lt;adj&gt;&lt;f&gt;&lt;sg&gt;$ 0.5000000
^Presidência&lt;n&gt;&lt;f&gt;&lt;sg&gt;$ ^Presidencia&lt;n&gt;&lt;f&gt;&lt;sg&gt;$ 1.0000000
^Presidência&lt;n&gt;&lt;f&gt;&lt;sg&gt;$ ^haber&lt;vbhaver&gt;&lt;pri&gt;&lt;p3&gt;&lt;sg&gt;$ 0.0098039
^esperar&lt;vblex&gt;&lt;pri&gt;&lt;p1&gt;&lt;sg&gt;$ ^esperar&lt;vblex&gt;&lt;pri&gt;&lt;p1&gt;&lt;sg&gt;$ 1.0000000
^esperar&lt;vblex&gt;&lt;pri&gt;&lt;p1&gt;&lt;sg&gt;$ ^examinar&lt;vblex&gt;&lt;prs&gt;&lt;p3&gt;&lt;sg&gt;$ 0.1666667
^ideia&lt;n&gt;&lt;f&gt;&lt;sg&gt;$ ^idea&lt;n&gt;&lt;f&gt;&lt;sg&gt;$ 0.2500000
^concentrar&lt;vblex&gt;&lt;fts&gt;&lt;p3&gt;&lt;pl&gt;$ ^concentrar&lt;vblex&gt;&lt;pri&gt;&lt;p3&gt;&lt;pl&gt;$ 1.0000000
^concentrar&lt;vblex&gt;&lt;fts&gt;&lt;p3&gt;&lt;pl&gt;$ ^europeo&lt;adj&gt;&lt;m&gt;&lt;sg&gt;$ 0.2000000
^princípio&lt;n&gt;&lt;m&gt;&lt;sg&gt;$ ^sentido&lt;n&gt;&lt;m&gt;&lt;sg&gt;$ 0.1250000
^princípio&lt;n&gt;&lt;m&gt;&lt;sg&gt;$ ^planteamiento&lt;n&gt;&lt;m&gt;&lt;sg&gt;$ 0.5000000
^princípio&lt;n&gt;&lt;m&gt;&lt;sg&gt;$ ^compartir&lt;vblex&gt;&lt;pri&gt;&lt;p1&gt;&lt;sg&gt;$ 1.0000000
^princípio&lt;n&gt;&lt;m&gt;&lt;sg&gt;$ ^principio&lt;n&gt;&lt;m&gt;&lt;sg&gt;$ 0.9090909
^Social&lt;adj&gt;&lt;mf&gt;&lt;pl&gt;$ ^Social&lt;adj&gt;&lt;mf&gt;&lt;pl&gt;$ 0.5000000
^sublinhar&lt;vblex&gt;&lt;pri&gt;&lt;p3&gt;&lt;sg&gt;$ ^destacar&lt;vblex&gt;&lt;pri&gt;&lt;p3&gt;&lt;sg&gt;$ 1.0000000
^oferecer&lt;vblex&gt;&lt;inf&gt;$ ^ofrecer&lt;vblex&gt;&lt;inf&gt;$ 1.0000000
^oferecer&lt;vblex&gt;&lt;inf&gt;$ ^uno&lt;det&gt;&lt;ind&gt;&lt;f&gt;&lt;sg&gt;$ 0.0084034
^cada&lt;det&gt;&lt;ind&gt;&lt;mf&gt;&lt;sp&gt;$ ^discutir&lt;vblex&gt;&lt;pri&gt;&lt;p3&gt;&lt;sg&gt;$ 0.2000000
^cada&lt;det&gt;&lt;ind&gt;&lt;mf&gt;&lt;sp&gt;$ ^el&lt;det&gt;&lt;def&gt;&lt;m&gt;&lt;pl&gt;$ 0.0041494
^cada&lt;det&gt;&lt;ind&gt;&lt;mf&gt;&lt;sp&gt;$ ^cada&lt;adv&gt;$ 1.0000000
^*Mediterrâneo$ ^*Mediterráneo$ 1.0000000
^merecer&lt;vblex&gt;&lt;fti&gt;&lt;p3&gt;&lt;sg&gt;$ ^iniciativa&lt;n&gt;&lt;f&gt;&lt;pl&gt;$ 0.1250000
^1998&lt;num&gt;$ ^,&lt;cm&gt;$ 0.0013605
^1998&lt;num&gt;$ ^1998&lt;num&gt;$ 0.8333333
^obra&lt;n&gt;&lt;f&gt;&lt;sg&gt;$ ^trabajador&lt;n&gt;&lt;m&gt;&lt;pl&gt;$ 0.3333333
^obra&lt;n&gt;&lt;f&gt;&lt;sg&gt;$ ^el&lt;det&gt;&lt;def&gt;&lt;m&gt;&lt;pl&gt;$ 0.0041494
^Segundo&lt;pr&gt;$ ^Segundo&lt;adj&gt;&lt;m&gt;&lt;sg&gt;$ 1.0000000
^Segundo&lt;pr&gt;$ ^De&lt;pr&gt;$ 0.0833333
^Segundo&lt;pr&gt;$ ^En&lt;pr&gt;$ 0.0222222
^Segundo&lt;pr&gt;$ ^conformidad&lt;n&gt;&lt;f&gt;&lt;sg&gt;$ 0.1250000
^luz&lt;n&gt;&lt;f&gt;&lt;sg&gt;$ ^todo~esto&lt;prn&gt;&lt;tn&gt;&lt;nt&gt;$ 0.1111111
^luz&lt;n&gt;&lt;f&gt;&lt;sg&gt;$ ^bajar&lt;vblex&gt;&lt;pri&gt;&lt;p1&gt;&lt;sg&gt;$ 0.3333333
^luz&lt;n&gt;&lt;f&gt;&lt;sg&gt;$ ^luz&lt;n&gt;&lt;f&gt;&lt;sg&gt;$ 1.0000000
^pretender&lt;vblex&gt;&lt;pri&gt;&lt;p3&gt;&lt;pl&gt;$ ^pretender&lt;vblex&gt;&lt;pri&gt;&lt;p3&gt;&lt;pl&gt;$ 0.5000000
^fonte&lt;n&gt;&lt;f&gt;&lt;sg&gt;$ ^crear&lt;vblex&gt;&lt;inf&gt;$ 0.1428571
^fonte&lt;n&gt;&lt;f&gt;&lt;sg&gt;$ ^proveedor&lt;n&gt;&lt;m&gt;&lt;sg&gt;$ 1.0000000
^corrida&lt;n&gt;&lt;f&gt;&lt;sg&gt;$ ^competencia&lt;n&gt;&lt;f&gt;&lt;sg&gt;$ 0.0200000
^corrida&lt;n&gt;&lt;f&gt;&lt;sg&gt;$ ^abrir&lt;vblex&gt;&lt;inf&gt;$ 0.5000000
^valioso&lt;adj&gt;&lt;f&gt;&lt;pl&gt;$ ^valioso&lt;adj&gt;&lt;f&gt;&lt;pl&gt;$ 1.0000000
^obrigatório&lt;adj&gt;&lt;f&gt;&lt;pl&gt;$ ^área&lt;n&gt;&lt;f&gt;&lt;pl&gt;$ 1.0000000
^procurar&lt;vblex&gt;&lt;fti&gt;&lt;p1&gt;&lt;pl&gt;$ ^tratar&lt;vblex&gt;&lt;fti&gt;&lt;p1&gt;&lt;pl&gt;$ 1.0000000
^método&lt;n&gt;&lt;m&gt;&lt;sg&gt;$ ^equilibrio&lt;n&gt;&lt;m&gt;&lt;sg&gt;$ 0.3333333
^relação&lt;n&gt;&lt;f&gt;&lt;pl&gt;$ ^interacción&lt;n&gt;&lt;f&gt;&lt;sg&gt;$ 1.0000000
^relação&lt;n&gt;&lt;f&gt;&lt;pl&gt;$ ^relación&lt;n&gt;&lt;f&gt;&lt;pl&gt;$ 0.7500000
^pôr&lt;vblex&gt;&lt;pp&gt;&lt;f&gt;&lt;sg&gt;$ ^tomar&lt;vblex&gt;&lt;pp&gt;&lt;f&gt;&lt;sg&gt;$ 0.5000000
^próprio&lt;adj&gt;&lt;m&gt;&lt;sg&gt;$ NULL 0.0007987
^próprio&lt;adj&gt;&lt;m&gt;&lt;sg&gt;$ ^mismo&lt;adv&gt;$ 0.3333333
^próprio&lt;adj&gt;&lt;m&gt;&lt;sg&gt;$ ^elaborar&lt;vblex&gt;&lt;pp&gt;&lt;m&gt;&lt;sg&gt;$ 0.5000000
^trabalho&lt;n&gt;&lt;m&gt;&lt;pl&gt;$ ^trabajo&lt;n&gt;&lt;m&gt;&lt;pl&gt;$ 0.5000000
^trabalho&lt;n&gt;&lt;m&gt;&lt;pl&gt;$ ^día&lt;n&gt;&lt;m&gt;&lt;sg&gt;$ 0.0666667
^ter&lt;vbhaver&gt;&lt;pii&gt;&lt;p3&gt;&lt;pl&gt;$ ^reproducir&lt;vblex&gt;&lt;pp&gt;&lt;f&gt;&lt;pl&gt;$ 0.2500000
^ter&lt;vbhaver&gt;&lt;pii&gt;&lt;p3&gt;&lt;pl&gt;$ ^estado&lt;n&gt;&lt;m&gt;&lt;sg&gt;$ 0.3333333
^breve&lt;adj&gt;&lt;mf&gt;&lt;sg&gt;$ ^pronto&lt;adv&gt;$ 0.4000000
^breve&lt;adj&gt;&lt;mf&gt;&lt;sg&gt;$ ^plazo&lt;n&gt;&lt;m&gt;&lt;sg&gt;$ 0.5000000
^Não&lt;adv&gt;$ ^Esto&lt;prn&gt;&lt;tn&gt;&lt;nt&gt;$ 0.0952381
^Não&lt;adv&gt;$ ^Naturalmente&lt;adv&gt;$ 0.5000000
^Não&lt;adv&gt;$ NULL 0.0007987
^Não&lt;adv&gt;$ ^No&lt;adv&gt;$ 0.7826087
^estar&lt;vblex&gt;&lt;fts&gt;&lt;p1&gt;&lt;sg&gt;$ ^estar&lt;vblex&gt;&lt;pri&gt;&lt;p3&gt;&lt;sg&gt;$ 0.0833333
^tecnologia&lt;n&gt;&lt;f&gt;&lt;pl&gt;$ ^tecnología&lt;n&gt;&lt;f&gt;&lt;pl&gt;$ 1.0000000
^chegar&lt;vblex&gt;&lt;pri&gt;&lt;p1&gt;&lt;sg&gt;$ ^enlazar&lt;vblex&gt;&lt;pri&gt;&lt;p1&gt;&lt;sg&gt;$ 0.5000000
^chegar&lt;vblex&gt;&lt;pri&gt;&lt;p1&gt;&lt;sg&gt;$ ^esto&lt;prn&gt;&lt;tn&gt;&lt;nt&gt;$ 0.0555556
^*Bourlanges$ ^*Bourlanges$ 1.0000000
^*Bourlanges$ ^figurar&lt;vblex&gt;&lt;pis&gt;&lt;p3&gt;&lt;sg&gt;$ 1.0000000
^privado&lt;adj&gt;&lt;m&gt;&lt;sg&gt;$ ^privado&lt;adj&gt;&lt;m&gt;&lt;sg&gt;$ 1.0000000
^sector&lt;n&gt;&lt;m&gt;&lt;sg&gt;$ ^sector&lt;n&gt;&lt;m&gt;&lt;sg&gt;$ 0.5000000
^sector&lt;n&gt;&lt;m&gt;&lt;sg&gt;$ NULL 0.0015974
^túnel&lt;n&gt;&lt;m&gt;&lt;sg&gt;$ ^túnel&lt;n&gt;&lt;m&gt;&lt;sg&gt;$ 1.0000000
^55&lt;num&gt;$ ^55&lt;num&gt;$ 1.0000000
^ponto&lt;n&gt;&lt;m&gt;&lt;sg&gt;$ ^punto&lt;n&gt;&lt;m&gt;&lt;sg&gt;$ 0.6428571
^ponto&lt;n&gt;&lt;m&gt;&lt;sg&gt;$ ^al~punto&lt;adv&gt;$ 0.3333333
^ponto&lt;n&gt;&lt;m&gt;&lt;sg&gt;$ ^cumplido&lt;n&gt;&lt;m&gt;&lt;sg&gt;$ 0.1428571
^ponto&lt;n&gt;&lt;m&gt;&lt;sg&gt;$ ^aspecto&lt;n&gt;&lt;m&gt;&lt;sg&gt;$ 0.2500000
^ponto&lt;n&gt;&lt;m&gt;&lt;sg&gt;$ ^citar&lt;vblex&gt;&lt;inf&gt;$ 0.3333333
^ponto&lt;n&gt;&lt;m&gt;&lt;sg&gt;$ ^cuestión&lt;n&gt;&lt;f&gt;&lt;sg&gt;$ 0.2666667
^ponto&lt;n&gt;&lt;m&gt;&lt;sg&gt;$ ^idea&lt;n&gt;&lt;f&gt;&lt;sg&gt;$ 0.2500000
^ponto&lt;n&gt;&lt;m&gt;&lt;sg&gt;$ ^ser&lt;vbser&gt;&lt;pri&gt;&lt;p3&gt;&lt;sg&gt;$ 0.0163934
^*sazonal$ ^*estacional$ 1.0000000
^entender&lt;vblex&gt;&lt;inf&gt;$ ^plano&lt;adj&gt;&lt;m&gt;&lt;sg&gt;$ 0.2000000
^autarquia&lt;n&gt;&lt;f&gt;&lt;pl&gt;$ ^autoridad&lt;n&gt;&lt;f&gt;&lt;pl&gt;$ 0.1250000
^esse&lt;prn&gt;&lt;tn&gt;&lt;m&gt;&lt;pl&gt;$ ^ser&lt;vbser&gt;&lt;imp&gt;&lt;p3&gt;&lt;pl&gt;$ 0.5000000
^necessitar&lt;vblex&gt;&lt;pri&gt;&lt;p3&gt;&lt;pl&gt;$ NULL 0.0007987
^necessitar&lt;vblex&gt;&lt;pri&gt;&lt;p3&gt;&lt;pl&gt;$ ^necesitar&lt;vblex&gt;&lt;pri&gt;&lt;p3&gt;&lt;pl&gt;$ 0.5000000
^esse&lt;prn&gt;&lt;tn&gt;&lt;m&gt;&lt;sg&gt;$ ^dar&lt;vblex&gt;&lt;pri&gt;&lt;p1&gt;&lt;sg&gt;$ 0.2000000
^esse&lt;prn&gt;&lt;tn&gt;&lt;m&gt;&lt;sg&gt;$ ^este&lt;det&gt;&lt;dem&gt;&lt;m&gt;&lt;sg&gt;$ 0.0142857
^esse&lt;prn&gt;&lt;tn&gt;&lt;m&gt;&lt;sg&gt;$ NULL 0.0007987
^esse&lt;prn&gt;&lt;tn&gt;&lt;m&gt;&lt;sg&gt;$ ^tener&lt;vblex&gt;&lt;prs&gt;&lt;p3&gt;&lt;pl&gt;$ 0.5000000
^24%&lt;num&gt;&lt;percent&gt;$ ^el&lt;det&gt;&lt;def&gt;&lt;m&gt;&lt;sg&gt;$ 0.0018182
^24%&lt;num&gt;&lt;percent&gt;$ ^24%&lt;num&gt;&lt;percent&gt;$ 1.0000000
^*how$ ^hacer&lt;vblex&gt;&lt;inf&gt;$ 0.0555556
^*Mathies$ ^*Mathies$ 1.0000000
^segundo&lt;adj&gt;&lt;f&gt;&lt;sg&gt;$ ^lunes&lt;n&gt;&lt;m&gt;&lt;sp&gt;$ 1.0000000
^*Monti$ ^*Monti$ 0.6000000
^*Monti$ ^le&lt;prn&gt;&lt;enc&gt;&lt;p3&gt;&lt;mf&gt;&lt;sg&gt;$ 0.0769231
^exercer&lt;vblex&gt;&lt;pri&gt;&lt;p3&gt;&lt;pl&gt;$ ^tener&lt;vblex&gt;&lt;pri&gt;&lt;p3&gt;&lt;pl&gt;$ 0.1000000
^exercer&lt;vblex&gt;&lt;pri&gt;&lt;p3&gt;&lt;pl&gt;$ ^adoptar&lt;vblex&gt;&lt;pp&gt;&lt;f&gt;&lt;pl&gt;$ 1.0000000
^ler&lt;vblex&gt;&lt;prs&gt;&lt;p1&gt;&lt;sg&gt;$ ^volver&lt;vblex&gt;&lt;prs&gt;&lt;p3&gt;&lt;sg&gt;$ 1.0000000
^ler&lt;vblex&gt;&lt;prs&gt;&lt;p1&gt;&lt;sg&gt;$ ^a&lt;pr&gt;$ 0.0034130
^fundamento&lt;n&gt;&lt;m&gt;&lt;pl&gt;$ ^noción&lt;n&gt;&lt;f&gt;&lt;pl&gt;$ 0.5000000
^escrever&lt;vblex&gt;&lt;ifi&gt;&lt;p3&gt;&lt;sg&gt;$ ^incluso&lt;adv&gt;$ 0.0833333
^poder&lt;vbmod&gt;&lt;pri&gt;&lt;p1&gt;&lt;pl&gt;$ ^poder&lt;vbmod&gt;&lt;pri&gt;&lt;p1&gt;&lt;pl&gt;$ 0.4285714
^poder&lt;vbmod&gt;&lt;pri&gt;&lt;p1&gt;&lt;pl&gt;$ ^poder&lt;vbmod&gt;&lt;pri&gt;&lt;p3&gt;&lt;sg&gt;$ 0.0625000
^prazo&lt;n&gt;&lt;m&gt;&lt;sg&gt;$ ^breve&lt;adj&gt;&lt;mf&gt;&lt;sg&gt;$ 1.0000000
^prazo&lt;n&gt;&lt;m&gt;&lt;sg&gt;$ ^plazo&lt;n&gt;&lt;m&gt;&lt;sg&gt;$ 0.5000000
^conseguir&lt;vblex&gt;&lt;pp&gt;&lt;m&gt;&lt;sg&gt;$ ^realizar&lt;vblex&gt;&lt;pp&gt;&lt;m&gt;&lt;sg&gt;$ 0.1250000
^Manter&lt;vblex&gt;&lt;pri&gt;&lt;p3&gt;&lt;sg&gt;$ ^mantener&lt;vblex&gt;&lt;pri&gt;&lt;p3&gt;&lt;sg&gt;$ 0.5000000
^Manter&lt;vblex&gt;&lt;pri&gt;&lt;p3&gt;&lt;sg&gt;$ ^Se&lt;prn&gt;&lt;pro&gt;&lt;ref&gt;&lt;p3&gt;&lt;mf&gt;&lt;sp&gt;$ 0.0833333
^solto&lt;adj&gt;&lt;f&gt;&lt;sg&gt;$ ^*caótica$ 0.3333333
^efectivamente&lt;adv&gt;$ ^de~verdad&lt;adv&gt;$ 0.2500000
^efectivamente&lt;adv&gt;$ ^hacer&lt;vblex&gt;&lt;pp&gt;&lt;m&gt;&lt;sg&gt;$ 0.0625000
^efectivamente&lt;adv&gt;$ ^haber&lt;vbhaver&gt;&lt;pri&gt;&lt;p3&gt;&lt;pl&gt;$ 0.0250000
^resolver&lt;vblex&gt;&lt;pp&gt;&lt;f&gt;&lt;sg&gt;$ ^*remediando$ 0.2000000
^maneira&lt;n&gt;&lt;f&gt;&lt;pl&gt;$ ^distinto&lt;adj&gt;&lt;f&gt;&lt;pl&gt;$ 0.5000000
^contributo&lt;n&gt;&lt;m&gt;&lt;sg&gt;$ ^contribución&lt;n&gt;&lt;f&gt;&lt;sg&gt;$ 0.6666667
^17&lt;num&gt;$ ^17&lt;num&gt;$ 1.0000000
^*PSE$ ^*PSE$ 1.0000000
^*PSE$ ^Mío&lt;det&gt;&lt;pos&gt;&lt;mf&gt;&lt;sg&gt;$ 0.2500000
^o&lt;det&gt;&lt;def&gt;&lt;m&gt;&lt;pl&gt;$ ^el&lt;det&gt;&lt;def&gt;&lt;f&gt;&lt;pl&gt;$ 0.1022222
^o&lt;det&gt;&lt;def&gt;&lt;m&gt;&lt;pl&gt;$ ^ayuda&lt;n&gt;&lt;f&gt;&lt;pl&gt;$ 0.0357143
^o&lt;det&gt;&lt;def&gt;&lt;m&gt;&lt;pl&gt;$ ^cifra&lt;n&gt;&lt;f&gt;&lt;pl&gt;$ 0.2000000
^o&lt;det&gt;&lt;def&gt;&lt;m&gt;&lt;pl&gt;$ ^permitir&lt;vblex&gt;&lt;pri&gt;&lt;p3&gt;&lt;pl&gt;$ 0.2500000
^o&lt;det&gt;&lt;def&gt;&lt;m&gt;&lt;pl&gt;$ ^el&lt;det&gt;&lt;def&gt;&lt;m&gt;&lt;pl&gt;$ 0.6556017
^o&lt;det&gt;&lt;def&gt;&lt;m&gt;&lt;pl&gt;$ ^aspirar&lt;vblex&gt;&lt;inf&gt;$ 0.3333333
^o&lt;det&gt;&lt;def&gt;&lt;m&gt;&lt;pl&gt;$ ^elemento&lt;n&gt;&lt;m&gt;&lt;pl&gt;$ 0.3333333
^o&lt;det&gt;&lt;def&gt;&lt;m&gt;&lt;pl&gt;$ ^esto&lt;prn&gt;&lt;tn&gt;&lt;nt&gt;$ 0.0555556
^o&lt;det&gt;&lt;def&gt;&lt;m&gt;&lt;pl&gt;$ ^Socialista&lt;adj&gt;&lt;mf&gt;&lt;sg&gt;$ 0.3333333
^o&lt;det&gt;&lt;def&gt;&lt;m&gt;&lt;pl&gt;$ ^este&lt;det&gt;&lt;dem&gt;&lt;m&gt;&lt;pl&gt;$ 0.0714286
^o&lt;det&gt;&lt;def&gt;&lt;m&gt;&lt;pl&gt;$ ^Político&lt;n&gt;&lt;f&gt;&lt;sg&gt;$ 0.5000000
^o&lt;det&gt;&lt;def&gt;&lt;m&gt;&lt;pl&gt;$ ^*asesorara$ 0.2500000
^o&lt;det&gt;&lt;def&gt;&lt;m&gt;&lt;pl&gt;$ ^evitar&lt;vblex&gt;&lt;inf&gt;$ 0.1666667
^o&lt;det&gt;&lt;def&gt;&lt;m&gt;&lt;pl&gt;$ ^*cuestores$ 0.2500000
^o&lt;det&gt;&lt;def&gt;&lt;m&gt;&lt;pl&gt;$ ^conformidad&lt;n&gt;&lt;f&gt;&lt;sg&gt;$ 0.1250000
^o&lt;det&gt;&lt;def&gt;&lt;m&gt;&lt;pl&gt;$ ^Económico&lt;adj&gt;&lt;f&gt;&lt;sg&gt;$ 0.3333333
^o&lt;det&gt;&lt;def&gt;&lt;m&gt;&lt;pl&gt;$ ^Asunto&lt;n&gt;&lt;m&gt;&lt;pl&gt;$ 0.5000000
^o&lt;det&gt;&lt;def&gt;&lt;m&gt;&lt;pl&gt;$ ^transporte&lt;n&gt;&lt;m&gt;&lt;sg&gt;$ 0.1666667
^o&lt;det&gt;&lt;def&gt;&lt;m&gt;&lt;pl&gt;$ ^Presupuesto&lt;n&gt;&lt;m&gt;&lt;pl&gt;$ 0.5000000
^o&lt;det&gt;&lt;def&gt;&lt;m&gt;&lt;pl&gt;$ ^nuestro&lt;det&gt;&lt;pos&gt;&lt;m&gt;&lt;pl&gt;$ 0.1428571
^o&lt;det&gt;&lt;def&gt;&lt;m&gt;&lt;pl&gt;$ ^Europa&lt;np&gt;&lt;loc&gt;&lt;f&gt;&lt;sg&gt;$ 0.0625000
^o&lt;det&gt;&lt;def&gt;&lt;m&gt;&lt;pl&gt;$ ^dar&lt;vblex&gt;&lt;pri&gt;&lt;p1&gt;&lt;pl&gt;$ 0.2000000
^o&lt;det&gt;&lt;def&gt;&lt;m&gt;&lt;pl&gt;$ ^Suyo&lt;det&gt;&lt;pos&gt;&lt;mf&gt;&lt;pl&gt;$ 0.1666667
^o&lt;det&gt;&lt;def&gt;&lt;m&gt;&lt;pl&gt;$ ^además&lt;adv&gt;$ 1.0000000
^o&lt;det&gt;&lt;def&gt;&lt;m&gt;&lt;pl&gt;$ ^resultar&lt;vblex&gt;&lt;pp&gt;&lt;m&gt;&lt;sg&gt;$ 0.2000000
^o&lt;det&gt;&lt;def&gt;&lt;m&gt;&lt;pl&gt;$ ^haber&lt;vbhaver&gt;&lt;pri&gt;&lt;p3&gt;&lt;pl&gt;$ 0.0250000
^o&lt;det&gt;&lt;def&gt;&lt;m&gt;&lt;pl&gt;$ ^establecer&lt;vblex&gt;&lt;pri&gt;&lt;p3&gt;&lt;sg&gt;$ 0.2500000
^o&lt;det&gt;&lt;def&gt;&lt;m&gt;&lt;pl&gt;$ ^El&lt;det&gt;&lt;def&gt;&lt;m&gt;&lt;pl&gt;$ 0.1111111
^o&lt;det&gt;&lt;def&gt;&lt;m&gt;&lt;pl&gt;$ ^Ayuda&lt;n&gt;&lt;f&gt;&lt;pl&gt;$ 0.5000000
^o&lt;det&gt;&lt;def&gt;&lt;m&gt;&lt;pl&gt;$ NULL 0.0103834
^o&lt;det&gt;&lt;def&gt;&lt;m&gt;&lt;pl&gt;$ ^mucho&lt;adj&gt;&lt;m&gt;&lt;pl&gt;$ 0.1666667
^o&lt;det&gt;&lt;def&gt;&lt;m&gt;&lt;pl&gt;$ ^el&lt;det&gt;&lt;def&gt;&lt;m&gt;&lt;sg&gt;$ 0.0090909
^o&lt;det&gt;&lt;def&gt;&lt;m&gt;&lt;pl&gt;$ ^otro&lt;prn&gt;&lt;tn&gt;&lt;m&gt;&lt;pl&gt;$ 0.2500000
^ouvir&lt;vblex&gt;&lt;pp&gt;&lt;f&gt;&lt;pl&gt;$ ^oír&lt;vblex&gt;&lt;pp&gt;&lt;f&gt;&lt;pl&gt;$ 1.0000000
^alteração&lt;n&gt;&lt;f&gt;&lt;sg&gt;$ ^*instauración$ 0.5000000
^alteração&lt;n&gt;&lt;f&gt;&lt;sg&gt;$ ^modificación&lt;n&gt;&lt;f&gt;&lt;sg&gt;$ 1.0000000
^alteração&lt;n&gt;&lt;f&gt;&lt;sg&gt;$ ^noche&lt;n&gt;&lt;f&gt;&lt;sg&gt;$ 0.5000000
^alteração&lt;n&gt;&lt;f&gt;&lt;sg&gt;$ ^enmienda&lt;n&gt;&lt;f&gt;&lt;sg&gt;$ 0.7272727
^*encoraja$ ^animar&lt;vblex&gt;&lt;pri&gt;&lt;p3&gt;&lt;sg&gt;$ 1.0000000
^setentrional&lt;adj&gt;&lt;mf&gt;&lt;pl&gt;$ ^septentrional&lt;adj&gt;&lt;mf&gt;&lt;pl&gt;$ 0.6666667
^setentrional&lt;adj&gt;&lt;mf&gt;&lt;pl&gt;$ ^hecho&lt;n&gt;&lt;m&gt;&lt;sg&gt;$ 0.5000000
^referência&lt;n&gt;&lt;f&gt;&lt;sg&gt;$ ^referencia&lt;n&gt;&lt;f&gt;&lt;sg&gt;$ 0.5000000
^referência&lt;n&gt;&lt;f&gt;&lt;sg&gt;$ ^todo&lt;predet&gt;&lt;f&gt;&lt;sg&gt;$ 0.0909091
^capacidade&lt;n&gt;&lt;f&gt;&lt;sg&gt;$ ^fomentar&lt;vblex&gt;&lt;inf&gt;$ 1.0000000
^compromisso&lt;n&gt;&lt;m&gt;&lt;sg&gt;$ ^compromiso&lt;n&gt;&lt;m&gt;&lt;sg&gt;$ 0.5000000
^chapéu&lt;n&gt;&lt;m&gt;&lt;sg&gt;$ ^sombrero&lt;n&gt;&lt;m&gt;&lt;sg&gt;$ 1.0000000
^chapéu&lt;n&gt;&lt;m&gt;&lt;sg&gt;$ ^él&lt;prn&gt;&lt;tn&gt;&lt;p3&gt;&lt;f&gt;&lt;sg&gt;$ 0.2500000
^haver&lt;vblex&gt;&lt;ger&gt;$ ^pero&lt;cnjcoo&gt;$ 0.0476190
^situar&lt;vblex&gt;&lt;pri&gt;&lt;p3&gt;&lt;sg&gt;$ ^ascender&lt;vblex&gt;&lt;pri&gt;&lt;p3&gt;&lt;sg&gt;$ 0.5000000
^repetidamente&lt;adv&gt;$ ^ocupar&lt;vblex&gt;&lt;pp&gt;&lt;m&gt;&lt;sg&gt;$ 0.2500000
^estar&lt;vblex&gt;&lt;fti&gt;&lt;p3&gt;&lt;sg&gt;$ ^estar&lt;vblex&gt;&lt;fti&gt;&lt;p3&gt;&lt;sg&gt;$ 0.3333333
^acontecer&lt;vblex&gt;&lt;pri&gt;&lt;p3&gt;&lt;sg&gt;$ ^frecuente&lt;adj&gt;&lt;mf&gt;&lt;sg&gt;$ 1.0000000
^acontecer&lt;vblex&gt;&lt;pri&gt;&lt;p3&gt;&lt;sg&gt;$ NULL 0.0007987
^aquele&lt;prn&gt;&lt;tn&gt;&lt;m&gt;&lt;sg&gt;$ ^ser&lt;vbser&gt;&lt;pri&gt;&lt;p3&gt;&lt;sg&gt;$ 0.0081967
^tornar&lt;vblex&gt;&lt;pp&gt;&lt;m&gt;&lt;sg&gt;$ ^poner&lt;vblex&gt;&lt;pp&gt;&lt;m&gt;&lt;sg&gt;$ 0.5000000
^tornar&lt;vblex&gt;&lt;pp&gt;&lt;m&gt;&lt;sg&gt;$ ^haber&lt;vbhaver&gt;&lt;prs&gt;&lt;p3&gt;&lt;sg&gt;$ 0.1428571
^Simpson&lt;np&gt;&lt;ant&gt;$ ^Simpson&lt;np&gt;&lt;ant&gt;$ 1.0000000
^resumo&lt;n&gt;&lt;m&gt;&lt;sp&gt;$ ^*Brevísimamente$ 0.3333333
^resumo&lt;n&gt;&lt;m&gt;&lt;sp&gt;$ ^Decir&lt;vblex&gt;&lt;pp&gt;&lt;m&gt;&lt;sg&gt;$ 0.2000000
^resumo&lt;n&gt;&lt;m&gt;&lt;sp&gt;$ ^forma&lt;n&gt;&lt;f&gt;&lt;sg&gt;$ 0.1000000
^resumo&lt;n&gt;&lt;m&gt;&lt;sp&gt;$ ^de&lt;pr&gt;$ 0.0009980
^resumo&lt;n&gt;&lt;m&gt;&lt;sp&gt;$ ^otro&lt;det&gt;&lt;ind&gt;&lt;f&gt;&lt;sg&gt;$ 0.1111111
^fazer&lt;vblex&gt;&lt;ifi&gt;&lt;p3&gt;&lt;sg&gt;$ ^hacer&lt;vblex&gt;&lt;pp&gt;&lt;m&gt;&lt;sg&gt;$ 0.0625000
^fazer&lt;vblex&gt;&lt;ifi&gt;&lt;p3&gt;&lt;sg&gt;$ ^haber&lt;vbhaver&gt;&lt;pri&gt;&lt;p3&gt;&lt;sg&gt;$ 0.0098039
^fazer&lt;vblex&gt;&lt;ifi&gt;&lt;p3&gt;&lt;sg&gt;$ ^contribuir&lt;vblex&gt;&lt;pp&gt;&lt;m&gt;&lt;sg&gt;$ 0.2000000
^Ser&lt;vbser&gt;&lt;cni&gt;&lt;p1&gt;&lt;sg&gt;$ ^Ser&lt;vbser&gt;&lt;cni&gt;&lt;p3&gt;&lt;sg&gt;$ 1.0000000
^Ser&lt;vbser&gt;&lt;cni&gt;&lt;p1&gt;&lt;sg&gt;$ ^que&lt;rel&gt;&lt;an&gt;&lt;mf&gt;&lt;sp&gt;$ 0.0044053
^apoiar&lt;vblex&gt;&lt;prs&gt;&lt;p1&gt;&lt;sg&gt;$ ^apoyar&lt;vblex&gt;&lt;imp&gt;&lt;p3&gt;&lt;sg&gt;$ 0.5000000
^efeito&lt;n&gt;&lt;m&gt;&lt;sg&gt;$ ^sentido&lt;n&gt;&lt;m&gt;&lt;sg&gt;$ 0.0625000
^efeito&lt;n&gt;&lt;m&gt;&lt;sg&gt;$ ^neutralizar&lt;vblex&gt;&lt;pp&gt;&lt;m&gt;&lt;sg&gt;$ 0.2000000
^efeito&lt;n&gt;&lt;m&gt;&lt;sg&gt;$ ^Estar&lt;vblex&gt;&lt;pri&gt;&lt;p3&gt;&lt;sg&gt;$ 0.2500000
^efeito&lt;n&gt;&lt;m&gt;&lt;sg&gt;$ ^efecto&lt;n&gt;&lt;m&gt;&lt;sg&gt;$ 0.4000000
^efeito&lt;n&gt;&lt;m&gt;&lt;sg&gt;$ NULL 0.0007987
^efeito&lt;n&gt;&lt;m&gt;&lt;sg&gt;$ ^en&lt;pr&gt;$ 0.0029499
^efeito&lt;n&gt;&lt;m&gt;&lt;sg&gt;$ ^*Señoría$ 0.0909091
^efeito&lt;n&gt;&lt;m&gt;&lt;sg&gt;$ ^entonces&lt;adv&gt;$ 0.5000000
^efeito&lt;n&gt;&lt;m&gt;&lt;sg&gt;$ ^efectivamente&lt;adv&gt;$ 0.5000000
^transparência&lt;n&gt;&lt;f&gt;&lt;sg&gt;$ ^transparente&lt;adj&gt;&lt;mf&gt;&lt;pl&gt;$ 1.0000000
^transparência&lt;n&gt;&lt;f&gt;&lt;sg&gt;$ ^transparente&lt;adj&gt;&lt;mf&gt;&lt;sg&gt;$ 0.5000000
^transparência&lt;n&gt;&lt;f&gt;&lt;sg&gt;$ ^transparencia&lt;n&gt;&lt;f&gt;&lt;sg&gt;$ 1.0000000
^partida&lt;n&gt;&lt;f&gt;&lt;sg&gt;$ ^partida&lt;n&gt;&lt;f&gt;&lt;sg&gt;$ 0.5000000
^este&lt;det&gt;&lt;dem&gt;&lt;m&gt;&lt;pl&gt;$ ^el&lt;det&gt;&lt;def&gt;&lt;m&gt;&lt;pl&gt;$ 0.0082988
^este&lt;det&gt;&lt;dem&gt;&lt;m&gt;&lt;pl&gt;$ NULL 0.0023962
^este&lt;det&gt;&lt;dem&gt;&lt;m&gt;&lt;pl&gt;$ ^este&lt;det&gt;&lt;dem&gt;&lt;m&gt;&lt;pl&gt;$ 0.3571429
^Seguir&lt;vblex&gt;&lt;pri&gt;&lt;p3&gt;&lt;sg&gt;$ ^De&lt;pr&gt;$ 0.0833333
^depender&lt;vblex&gt;&lt;pii&gt;&lt;p3&gt;&lt;pl&gt;$ ^depender&lt;vblex&gt;&lt;pii&gt;&lt;p3&gt;&lt;pl&gt;$ 1.0000000
^Estado&lt;n&gt;&lt;m&gt;&lt;sg&gt;$ ^estatal&lt;adj&gt;&lt;mf&gt;&lt;sg&gt;$ 0.2500000
^Estado&lt;n&gt;&lt;m&gt;&lt;sg&gt;$ ^Estado&lt;n&gt;&lt;m&gt;&lt;pl&gt;$ 0.0344828
^vir&lt;vblex&gt;&lt;pri&gt;&lt;p3&gt;&lt;sg&gt;$ ^solicitar&lt;vblex&gt;&lt;pri&gt;&lt;p3&gt;&lt;sg&gt;$ 0.3333333
^cultura&lt;n&gt;&lt;f&gt;&lt;sg&gt;$ ^cultura&lt;n&gt;&lt;f&gt;&lt;sg&gt;$ 1.0000000
^cultura&lt;n&gt;&lt;f&gt;&lt;sg&gt;$ NULL 0.0007987
^dia&lt;n&gt;&lt;m&gt;&lt;pl&gt;$ ^día&lt;n&gt;&lt;m&gt;&lt;pl&gt;$ 1.0000000
^Esperar&lt;vblex&gt;&lt;pri&gt;&lt;p1&gt;&lt;sg&gt;$ ^Tener&lt;vblex&gt;&lt;pri&gt;&lt;p1&gt;&lt;sg&gt;$ 0.5000000
^Esperar&lt;vblex&gt;&lt;pri&gt;&lt;p1&gt;&lt;sg&gt;$ ^Esperar&lt;vblex&gt;&lt;pri&gt;&lt;p1&gt;&lt;sg&gt;$ 0.6666667
^influenciar&lt;vblex&gt;&lt;pri&gt;&lt;p3&gt;&lt;sg&gt;$ ^en&lt;pr&gt;$ 0.0029499
^influenciar&lt;vblex&gt;&lt;pri&gt;&lt;p3&gt;&lt;sg&gt;$ ^influir&lt;vblex&gt;&lt;pri&gt;&lt;p3&gt;&lt;sg&gt;$ 0.5000000
^impedir&lt;vblex&gt;&lt;inf&gt;$ ^evitar&lt;vblex&gt;&lt;inf&gt;$ 0.1666667
^monopólio&lt;n&gt;&lt;m&gt;&lt;pl&gt;$ ^pasar&lt;vblex&gt;&lt;pp&gt;&lt;m&gt;&lt;pl&gt;$ 0.5000000
^desenvolver&lt;vblex&gt;&lt;pri&gt;&lt;p3&gt;&lt;pl&gt;$ ^mucho&lt;adj&gt;&lt;f&gt;&lt;sg&gt;$ 0.5000000
^desenvolver&lt;vblex&gt;&lt;pri&gt;&lt;p3&gt;&lt;pl&gt;$ ^con&lt;pr&gt;$ 0.0133333
^desenvolver&lt;vblex&gt;&lt;pri&gt;&lt;p3&gt;&lt;pl&gt;$ ^*nórdica$ 1.0000000
^desenvolver&lt;vblex&gt;&lt;pri&gt;&lt;p3&gt;&lt;pl&gt;$ ^desarrollar&lt;vblex&gt;&lt;pri&gt;&lt;p3&gt;&lt;pl&gt;$ 1.0000000
^legitimidade&lt;n&gt;&lt;f&gt;&lt;sg&gt;$ ^legitimidad&lt;n&gt;&lt;f&gt;&lt;sg&gt;$ 0.5000000
^centralizado&lt;adj&gt;&lt;m&gt;&lt;sg&gt;$ ^centralizado&lt;adj&gt;&lt;m&gt;&lt;sg&gt;$ 1.0000000
^centralizado&lt;adj&gt;&lt;m&gt;&lt;sg&gt;$ ^todo&lt;predet&gt;&lt;f&gt;&lt;sg&gt;$ 0.0909091
^europeu&lt;adj&gt;&lt;m&gt;&lt;sg&gt;$ ^europeo&lt;adj&gt;&lt;m&gt;&lt;sg&gt;$ 0.6000000
^europeu&lt;adj&gt;&lt;m&gt;&lt;sg&gt;$ ^uno&lt;det&gt;&lt;ind&gt;&lt;f&gt;&lt;sg&gt;$ 0.0084034
^europeu&lt;adj&gt;&lt;m&gt;&lt;sg&gt;$ ^europeo&lt;n&gt;&lt;m&gt;&lt;sg&gt;$ 1.0000000
^europeu&lt;adj&gt;&lt;m&gt;&lt;sg&gt;$ ^Oficina&lt;n&gt;&lt;f&gt;&lt;sg&gt;$ 0.5000000
^símbolo&lt;n&gt;&lt;m&gt;&lt;sg&gt;$ ^sello&lt;n&gt;&lt;m&gt;&lt;sg&gt;$ 1.0000000
^serviço&lt;n&gt;&lt;m&gt;&lt;pl&gt;$ ^servicio&lt;n&gt;&lt;m&gt;&lt;pl&gt;$ 0.8333333
^mão&lt;n&gt;&lt;f&gt;&lt;pl&gt;$ ^mano&lt;n&gt;&lt;f&gt;&lt;pl&gt;$ 0.3333333
^Agora&lt;adv&gt;$ ^él&lt;prn&gt;&lt;tn&gt;&lt;p3&gt;&lt;m&gt;&lt;sg&gt;$ 0.1428571
^Agora&lt;adv&gt;$ ^Y&lt;cnjcoo&gt;$ 0.1250000
^seu&lt;det&gt;&lt;pos&gt;&lt;m&gt;&lt;sg&gt;$ ^que&lt;cnjsub&gt;$ 0.0042553
^chegar&lt;vblex&gt;&lt;ifi&gt;&lt;p1&gt;&lt;pl&gt;$ ^alcanzar&lt;vblex&gt;&lt;pp&gt;&lt;m&gt;&lt;sg&gt;$ 0.2500000
^chegar&lt;vblex&gt;&lt;ifi&gt;&lt;p1&gt;&lt;pl&gt;$ ^haber&lt;vbhaver&gt;&lt;pri&gt;&lt;p1&gt;&lt;pl&gt;$ 0.0769231
^recordar&lt;vblex&gt;&lt;pp&gt;&lt;f&gt;&lt;pl&gt;$ ^haber&lt;vbhaver&gt;&lt;pri&gt;&lt;p3&gt;&lt;sg&gt;$ 0.0098039
^recordar&lt;vblex&gt;&lt;pp&gt;&lt;f&gt;&lt;pl&gt;$ ^recordar&lt;vblex&gt;&lt;pp&gt;&lt;m&gt;&lt;sg&gt;$ 0.2000000
^três&lt;num&gt;&lt;mf&gt;&lt;sp&gt;$ ^tres&lt;num&gt;&lt;mf&gt;&lt;sp&gt;$ 1.0000000
^três&lt;num&gt;&lt;mf&gt;&lt;sp&gt;$ ^el&lt;det&gt;&lt;def&gt;&lt;f&gt;&lt;pl&gt;$ 0.0044444
^proporcionar&lt;vblex&gt;&lt;pri&gt;&lt;p3&gt;&lt;pl&gt;$ ^crear&lt;vblex&gt;&lt;pri&gt;&lt;p3&gt;&lt;sg&gt;$ 1.0000000
^razoável&lt;adj&gt;&lt;mf&gt;&lt;sg&gt;$ ^razonable&lt;adj&gt;&lt;mf&gt;&lt;sg&gt;$ 0.2500000
^Fornecer&lt;vblex&gt;&lt;inf&gt;$ ^No~obstante&lt;cnjadv&gt;$ 0.2500000
^futuro&lt;n&gt;&lt;m&gt;&lt;sg&gt;$ ^futuro&lt;n&gt;&lt;m&gt;&lt;sg&gt;$ 0.7000000
^futuro&lt;n&gt;&lt;m&gt;&lt;sg&gt;$ ^idoneidad&lt;n&gt;&lt;f&gt;&lt;sg&gt;$ 0.2000000
^futuro&lt;n&gt;&lt;m&gt;&lt;sg&gt;$ NULL 0.0007987
^riqueza&lt;n&gt;&lt;f&gt;&lt;sg&gt;$ ^riqueza&lt;n&gt;&lt;f&gt;&lt;sg&gt;$ 1.0000000
^trabalhar&lt;vblex&gt;&lt;pri&gt;&lt;p3&gt;&lt;pl&gt;$ ^si&lt;cnjadv&gt;$ 0.0526316
^trabalhar&lt;vblex&gt;&lt;pri&gt;&lt;p3&gt;&lt;pl&gt;$ ^trabajar&lt;vblex&gt;&lt;pri&gt;&lt;p3&gt;&lt;pl&gt;$ 0.5000000
^recusar&lt;vblex&gt;&lt;inf&gt;$ ^Entonces&lt;adv&gt;$ 0.1666667
^eficiência&lt;n&gt;&lt;f&gt;&lt;sg&gt;$ ^El&lt;det&gt;&lt;def&gt;&lt;f&gt;&lt;sg&gt;$ 0.0238095
^eficiência&lt;n&gt;&lt;f&gt;&lt;sg&gt;$ ^eficiencia&lt;n&gt;&lt;f&gt;&lt;sg&gt;$ 1.0000000
^eficiência&lt;n&gt;&lt;f&gt;&lt;sg&gt;$ ^óptimo&lt;adj&gt;&lt;f&gt;&lt;sg&gt;$ 0.2500000
^artigo&lt;n&gt;&lt;m&gt;&lt;pl&gt;$ ^artículo&lt;n&gt;&lt;m&gt;&lt;pl&gt;$ 0.5000000
^maneira&lt;n&gt;&lt;f&gt;&lt;sg&gt;$ ^considerar&lt;vblex&gt;&lt;inf&gt;$ 0.3333333
^Cumprir&lt;vblex&gt;&lt;pri&gt;&lt;p3&gt;&lt;sg&gt;$ ^El&lt;det&gt;&lt;def&gt;&lt;f&gt;&lt;pl&gt;$ 0.0625000
^iniciativa&lt;n&gt;&lt;f&gt;&lt;sg&gt;$ ^iniciativa&lt;n&gt;&lt;f&gt;&lt;sg&gt;$ 0.6666667
^iniciativa&lt;n&gt;&lt;f&gt;&lt;sg&gt;$ ^iniciativa&lt;n&gt;&lt;f&gt;&lt;pl&gt;$ 0.1250000
^iniciativa&lt;n&gt;&lt;f&gt;&lt;sg&gt;$ ^emprender&lt;vblex&gt;&lt;pri&gt;&lt;p3&gt;&lt;pl&gt;$ 1.0000000
^*posteriori$ ^*posteriori$ 0.5000000
^deficiência&lt;n&gt;&lt;f&gt;&lt;pl&gt;$ ^deficiencia&lt;n&gt;&lt;f&gt;&lt;pl&gt;$ 0.2500000
^deficiência&lt;n&gt;&lt;f&gt;&lt;pl&gt;$ ^el&lt;det&gt;&lt;def&gt;&lt;f&gt;&lt;pl&gt;$ 0.0044444
^competência&lt;n&gt;&lt;f&gt;&lt;pl&gt;$ ^facultad&lt;n&gt;&lt;f&gt;&lt;pl&gt;$ 1.0000000
^competência&lt;n&gt;&lt;f&gt;&lt;pl&gt;$ ^competencia&lt;n&gt;&lt;f&gt;&lt;pl&gt;$ 1.0000000
^guarda&lt;n&gt;&lt;mf&gt;&lt;sg&gt;$ ^guardar&lt;vblex&gt;&lt;pri&gt;&lt;p3&gt;&lt;sg&gt;$ 1.0000000
^mencionar&lt;vblex&gt;&lt;ifi&gt;&lt;p3&gt;&lt;pl&gt;$ ^mencionar&lt;vblex&gt;&lt;ifi&gt;&lt;p3&gt;&lt;pl&gt;$ 1.0000000
^incêndio&lt;n&gt;&lt;m&gt;&lt;sg&gt;$ ^incendio&lt;n&gt;&lt;m&gt;&lt;sg&gt;$ 1.0000000
^incêndio&lt;n&gt;&lt;m&gt;&lt;sg&gt;$ ^ni&lt;cnjcoo&gt;$ 0.0625000
^justificar&lt;vblex&gt;&lt;inf&gt;$ ^justificar&lt;vblex&gt;&lt;inf&gt;$ 0.6666667
^justificar&lt;vblex&gt;&lt;inf&gt;$ ^para&lt;pr&gt;$ 0.0097087
^justificar&lt;vblex&gt;&lt;inf&gt;$ ^lo&lt;prn&gt;&lt;enc&gt;&lt;p3&gt;&lt;f&gt;&lt;sg&gt;$ 0.2500000
^*apreço$ ^se&lt;prn&gt;&lt;pro&gt;&lt;ref&gt;&lt;p3&gt;&lt;mf&gt;&lt;sp&gt;$ 0.0047847
^*apreço$ ^someter&lt;vblex&gt;&lt;pri&gt;&lt;p3&gt;&lt;sg&gt;$ 1.0000000
^planeamento&lt;n&gt;&lt;m&gt;&lt;sg&gt;$ ^planificación&lt;n&gt;&lt;f&gt;&lt;sg&gt;$ 0.5000000
^planeamento&lt;n&gt;&lt;m&gt;&lt;sg&gt;$ ^planificar&lt;vblex&gt;&lt;inf&gt;$ 0.5000000
^presente~a&lt;pr&gt;$ ^recordar&lt;vblex&gt;&lt;inf&gt;$ 0.1428571
^presente~a&lt;pr&gt;$ ^también&lt;adv&gt;$ 0.0153846
^representante&lt;n&gt;&lt;mf&gt;&lt;pl&gt;$ ^representante&lt;n&gt;&lt;mf&gt;&lt;pl&gt;$ 1.0000000
^Este&lt;prn&gt;&lt;tn&gt;&lt;f&gt;&lt;sg&gt;$ ^En&lt;pr&gt;$ 0.0222222
^*Kumar$ ^*Kumar$ 1.0000000
^diversificar&lt;vblex&gt;&lt;pp&gt;&lt;f&gt;&lt;sg&gt;$ ^diversificar&lt;vblex&gt;&lt;pp&gt;&lt;f&gt;&lt;sg&gt;$ 1.0000000
^permitir&lt;vblex&gt;&lt;pp&gt;&lt;m&gt;&lt;sg&gt;$ ^dar&lt;vblex&gt;&lt;inf&gt;$ 0.1111111
^permitir&lt;vblex&gt;&lt;pp&gt;&lt;m&gt;&lt;sg&gt;$ ^permitir&lt;vblex&gt;&lt;imp&gt;&lt;p3&gt;&lt;sg&gt;$ 0.2500000
^permitir&lt;vblex&gt;&lt;pp&gt;&lt;m&gt;&lt;sg&gt;$ ^permitir&lt;vblex&gt;&lt;pis&gt;&lt;p3&gt;&lt;sg&gt;$ 0.5000000
^permitir&lt;vblex&gt;&lt;pp&gt;&lt;m&gt;&lt;sg&gt;$ ^le&lt;prn&gt;&lt;enc&gt;&lt;p3&gt;&lt;mf&gt;&lt;sg&gt;$ 0.0769231
^primeiro&lt;adj&gt;&lt;f&gt;&lt;sg&gt;$ ^primero&lt;adj&gt;&lt;f&gt;&lt;sg&gt;$ 0.3333333
^primeiro&lt;adj&gt;&lt;f&gt;&lt;sg&gt;$ ^contener&lt;vblex&gt;&lt;pp&gt;&lt;f&gt;&lt;sg&gt;$ 0.5000000
^primeiro&lt;adj&gt;&lt;f&gt;&lt;sg&gt;$ ^propuesta&lt;n&gt;&lt;f&gt;&lt;sg&gt;$ 0.0588235
^primeiro&lt;adj&gt;&lt;f&gt;&lt;sg&gt;$ ^el&lt;det&gt;&lt;def&gt;&lt;m&gt;&lt;sg&gt;$ 0.0018182
^primeiro&lt;adj&gt;&lt;f&gt;&lt;sg&gt;$ ^en&lt;pr&gt;$ 0.0029499
^votar&lt;vblex&gt;&lt;ger&gt;$ ^gente&lt;n&gt;&lt;f&gt;&lt;sg&gt;$ 0.2500000
^votar&lt;vblex&gt;&lt;ger&gt;$ ^votar&lt;vblex&gt;&lt;ger&gt;$ 0.3333333
^4%&lt;num&gt;&lt;percent&gt;$ ^es~decir&lt;adv&gt;$ 0.2000000
^avaliar&lt;vblex&gt;&lt;fts&gt;&lt;p1&gt;&lt;pl&gt;$ ^consecución&lt;n&gt;&lt;f&gt;&lt;sg&gt;$ 0.5000000
^avaliar&lt;vblex&gt;&lt;fts&gt;&lt;p1&gt;&lt;pl&gt;$ ^el&lt;det&gt;&lt;def&gt;&lt;f&gt;&lt;sg&gt;$ 0.0017212
^avaliar&lt;vblex&gt;&lt;fts&gt;&lt;p1&gt;&lt;pl&gt;$ ^evaluar&lt;vblex&gt;&lt;inf&gt;$ 0.2500000
^esse&lt;det&gt;&lt;dem&gt;&lt;f&gt;&lt;sg&gt;$ ^sensible&lt;adj&gt;&lt;mf&gt;&lt;pl&gt;$ 0.2000000
^esse&lt;det&gt;&lt;dem&gt;&lt;f&gt;&lt;sg&gt;$ ^Suyo&lt;det&gt;&lt;pos&gt;&lt;mf&gt;&lt;sg&gt;$ 0.2000000
^esse&lt;det&gt;&lt;dem&gt;&lt;f&gt;&lt;sg&gt;$ ^fuerte&lt;adj&gt;&lt;mf&gt;&lt;sg&gt;$ 0.5000000
^esse&lt;det&gt;&lt;dem&gt;&lt;f&gt;&lt;sg&gt;$ ^ese&lt;det&gt;&lt;dem&gt;&lt;f&gt;&lt;sg&gt;$ 0.5000000
^esse&lt;det&gt;&lt;dem&gt;&lt;f&gt;&lt;sg&gt;$ ^Por~consiguiente&lt;cnjadv&gt;$ 0.1428571
^esse&lt;det&gt;&lt;dem&gt;&lt;f&gt;&lt;sg&gt;$ NULL 0.0015974
^esse&lt;det&gt;&lt;dem&gt;&lt;f&gt;&lt;sg&gt;$ ^tema&lt;n&gt;&lt;m&gt;&lt;sg&gt;$ 0.0769231
^esse&lt;det&gt;&lt;dem&gt;&lt;f&gt;&lt;sg&gt;$ ^concepto&lt;n&gt;&lt;m&gt;&lt;sg&gt;$ 0.3333333
^esse&lt;det&gt;&lt;dem&gt;&lt;f&gt;&lt;sg&gt;$ ^incluir&lt;vblex&gt;&lt;inf&gt;$ 0.2500000
^esse&lt;det&gt;&lt;dem&gt;&lt;f&gt;&lt;sg&gt;$ ^lo&lt;prn&gt;&lt;enc&gt;&lt;p3&gt;&lt;f&gt;&lt;pl&gt;$ 0.2000000
^esse&lt;det&gt;&lt;dem&gt;&lt;f&gt;&lt;sg&gt;$ ^uno&lt;det&gt;&lt;ind&gt;&lt;m&gt;&lt;sg&gt;$ 0.0165289
^esse&lt;det&gt;&lt;dem&gt;&lt;f&gt;&lt;sg&gt;$ ^este&lt;det&gt;&lt;dem&gt;&lt;m&gt;&lt;sg&gt;$ 0.0714286
^interior&lt;n&gt;&lt;m&gt;&lt;sg&gt;$ ^seno&lt;n&gt;&lt;m&gt;&lt;sg&gt;$ 0.5000000
^interior&lt;n&gt;&lt;m&gt;&lt;sg&gt;$ ^dentro&lt;adv&gt;$ 0.0769231
^via&lt;n&gt;&lt;f&gt;&lt;sg&gt;$ ^y&lt;cnjcoo&gt;$ 0.0032154
^via&lt;n&gt;&lt;f&gt;&lt;sg&gt;$ ^camino&lt;n&gt;&lt;m&gt;&lt;sg&gt;$ 0.2000000
^via&lt;n&gt;&lt;f&gt;&lt;sg&gt;$ ^*fluviales$ 0.5000000
^via&lt;n&gt;&lt;f&gt;&lt;sg&gt;$ ^mar.&lt;n&gt;&lt;m&gt;&lt;sg&gt;$ 0.3333333
^via&lt;n&gt;&lt;f&gt;&lt;sg&gt;$ ^vía&lt;n&gt;&lt;f&gt;&lt;sg&gt;$ 0.5000000
^familiarizar&lt;vblex&gt;&lt;ifi&gt;&lt;p3&gt;&lt;pl&gt;$ ^familiarizar&lt;vblex&gt;&lt;pp&gt;&lt;m&gt;&lt;sg&gt;$ 0.5000000
^requerer&lt;vblex&gt;&lt;pri&gt;&lt;p3&gt;&lt;sg&gt;$ ^requerir&lt;vblex&gt;&lt;pri&gt;&lt;p3&gt;&lt;sg&gt;$ 1.0000000
^requerer&lt;vblex&gt;&lt;pri&gt;&lt;p3&gt;&lt;sg&gt;$ ^uno&lt;det&gt;&lt;ind&gt;&lt;f&gt;&lt;sg&gt;$ 0.0084034
^requerer&lt;vblex&gt;&lt;pri&gt;&lt;p3&gt;&lt;sg&gt;$ ^pedir&lt;vblex&gt;&lt;ger&gt;$ 1.0000000
^traduzir&lt;vblex&gt;&lt;pri&gt;&lt;p3&gt;&lt;sg&gt;$ ^Tristemente&lt;adv&gt;$ 0.2500000
^Solicitar&lt;vblex&gt;&lt;inf&gt;$ ^Le&lt;prn&gt;&lt;pro&gt;&lt;p3&gt;&lt;mf&gt;&lt;sg&gt;$ 0.2500000
^Solicitar&lt;vblex&gt;&lt;inf&gt;$ ^agradecer&lt;vblex&gt;&lt;cni&gt;&lt;p3&gt;&lt;sg&gt;$ 0.3333333
^conduzir&lt;vblex&gt;&lt;pri&gt;&lt;p3&gt;&lt;sg&gt;$ ^a&lt;pr&gt;$ 0.0034130
^conduzir&lt;vblex&gt;&lt;pri&gt;&lt;p3&gt;&lt;sg&gt;$ ^conducir&lt;vblex&gt;&lt;pri&gt;&lt;p3&gt;&lt;sg&gt;$ 1.0000000
^assembleia&lt;n&gt;&lt;f&gt;&lt;sg&gt;$ ^Asamblea&lt;n&gt;&lt;f&gt;&lt;sg&gt;$ 0.5714286
^assembleia&lt;n&gt;&lt;f&gt;&lt;sg&gt;$ NULL 0.0007987
^assembleia&lt;n&gt;&lt;f&gt;&lt;sg&gt;$ ^Cámara&lt;n&gt;&lt;f&gt;&lt;sg&gt;$ 0.5000000
^assembleia&lt;n&gt;&lt;f&gt;&lt;sg&gt;$ ^inmenso&lt;adj&gt;&lt;f&gt;&lt;sg&gt;$ 0.3333333
^fornecer&lt;vblex&gt;&lt;pp&gt;&lt;m&gt;&lt;pl&gt;$ ^proporcionar&lt;vblex&gt;&lt;pri&gt;&lt;p3&gt;&lt;pl&gt;$ 0.3333333
^fornecer&lt;vblex&gt;&lt;pp&gt;&lt;m&gt;&lt;pl&gt;$ ^proporcionar&lt;vblex&gt;&lt;pp&gt;&lt;m&gt;&lt;pl&gt;$ 1.0000000
^Sempre~que&lt;cnjadv&gt;$ ^Cuando&lt;rel&gt;&lt;adv&gt;$ 0.3333333
^peça&lt;n&gt;&lt;f&gt;&lt;sg&gt;$ ^pedir&lt;vblex&gt;&lt;prs&gt;&lt;p3&gt;&lt;sg&gt;$ 1.0000000
^peça&lt;n&gt;&lt;f&gt;&lt;sg&gt;$ ^exigencia&lt;n&gt;&lt;f&gt;&lt;sg&gt;$ 1.0000000
^Senhor&lt;n&gt;&lt;m&gt;&lt;sg&gt;$ ^*Hänsch$ 0.2222222
^Senhor&lt;n&gt;&lt;m&gt;&lt;sg&gt;$ ^formular&lt;vblex&gt;&lt;pri&gt;&lt;p3&gt;&lt;sg&gt;$ 0.3333333
^Senhor&lt;n&gt;&lt;m&gt;&lt;sg&gt;$ NULL 0.0015974
^Senhor&lt;n&gt;&lt;m&gt;&lt;sg&gt;$ ^*Berend$ 0.1666667
^Senhor&lt;n&gt;&lt;m&gt;&lt;sg&gt;$ ^estimar&lt;vblex&gt;&lt;pp&gt;&lt;m&gt;&lt;sg&gt;$ 1.0000000
^Senhor&lt;n&gt;&lt;m&gt;&lt;sg&gt;$ ^recordar&lt;vblex&gt;&lt;pri&gt;&lt;p1&gt;&lt;sg&gt;$ 0.2000000
^Senhor&lt;n&gt;&lt;m&gt;&lt;sg&gt;$ ^Comisario&lt;n&gt;&lt;m&gt;&lt;sg&gt;$ 0.0869565
^Senhor&lt;n&gt;&lt;m&gt;&lt;sg&gt;$ ^.&lt;sent&gt;$ 0.0014706
^Senhor&lt;n&gt;&lt;m&gt;&lt;sg&gt;$ ^señor&lt;n&gt;&lt;m&gt;&lt;sg&gt;$ 0.7857143
^Senhor&lt;n&gt;&lt;m&gt;&lt;sg&gt;$ ^Señor&lt;n&gt;&lt;m&gt;&lt;sg&gt;$ 1.0000000
^*Plooij$ ^*Plooij$ 0.5000000
^*Plooij$ ^ir&lt;vblex&gt;&lt;pri&gt;&lt;p3&gt;&lt;pl&gt;$ 0.3333333
^*vergue$ ^se&lt;prn&gt;&lt;pro&gt;&lt;ref&gt;&lt;p3&gt;&lt;mf&gt;&lt;sp&gt;$ 0.0047847
^*vergue$ ^*dobleguen$ 0.5000000
^Orar&lt;vblex&gt;&lt;pri&gt;&lt;p3&gt;&lt;sg&gt;$ ^cierto&lt;adj&gt;&lt;m&gt;&lt;sg&gt;$ 0.2000000
^Orar&lt;vblex&gt;&lt;pri&gt;&lt;p3&gt;&lt;sg&gt;$ ^Ser&lt;vbser&gt;&lt;pri&gt;&lt;p3&gt;&lt;sg&gt;$ 0.0500000
^Orar&lt;vblex&gt;&lt;pri&gt;&lt;p3&gt;&lt;sg&gt;$ ^que&lt;rel&gt;&lt;an&gt;&lt;mf&gt;&lt;sp&gt;$ 0.0044053
^risco&lt;n&gt;&lt;m&gt;&lt;sg&gt;$ ^mercancía&lt;n&gt;&lt;f&gt;&lt;pl&gt;$ 0.0909091
^risco&lt;n&gt;&lt;m&gt;&lt;sg&gt;$ ^riesgo&lt;n&gt;&lt;m&gt;&lt;sg&gt;$ 1.0000000
^Internet&lt;n&gt;&lt;f&gt;&lt;sg&gt;$ ^Internet&lt;n&gt;&lt;f&gt;&lt;sg&gt;$ 0.3333333
^inferir&lt;vblex&gt;&lt;pri&gt;&lt;p3&gt;&lt;sg&gt;$ ^desprender&lt;vblex&gt;&lt;pri&gt;&lt;p3&gt;&lt;sg&gt;$ 0.5000000
^incompatível&lt;adj&gt;&lt;mf&gt;&lt;pl&gt;$ ^incompatible&lt;adj&gt;&lt;mf&gt;&lt;pl&gt;$ 0.5000000
^incompatível&lt;adj&gt;&lt;mf&gt;&lt;pl&gt;$ ^principio&lt;n&gt;&lt;m&gt;&lt;sg&gt;$ 0.0909091
^incompatível&lt;adj&gt;&lt;mf&gt;&lt;pl&gt;$ ^por&lt;pr&gt;$ 0.0092593
^o~vosso&lt;prn&gt;&lt;tn&gt;&lt;pos&gt;&lt;m&gt;&lt;sg&gt;$ ^el&lt;det&gt;&lt;def&gt;&lt;m&gt;&lt;sg&gt;$ 0.0018182
^cidadão&lt;n&gt;&lt;m&gt;&lt;sg&gt;$ ^ciudadano&lt;n&gt;&lt;m&gt;&lt;sg&gt;$ 1.0000000
^SER&lt;vbser&gt;&lt;pri&gt;&lt;p3&gt;&lt;sg&gt;$ ^Eso&lt;prn&gt;&lt;tn&gt;&lt;nt&gt;$ 0.2500000
^SER&lt;vbser&gt;&lt;pri&gt;&lt;p3&gt;&lt;sg&gt;$ NULL 0.0023962
^SER&lt;vbser&gt;&lt;pri&gt;&lt;p3&gt;&lt;sg&gt;$ ^que&lt;rel&gt;&lt;an&gt;&lt;mf&gt;&lt;sp&gt;$ 0.0044053
^SER&lt;vbser&gt;&lt;pri&gt;&lt;p3&gt;&lt;sg&gt;$ ^Primero&lt;adv&gt;$ 1.0000000
^SER&lt;vbser&gt;&lt;pri&gt;&lt;p3&gt;&lt;sg&gt;$ ^Ser&lt;vbser&gt;&lt;pri&gt;&lt;p3&gt;&lt;sg&gt;$ 0.3000000
^SER&lt;vbser&gt;&lt;pri&gt;&lt;p3&gt;&lt;sg&gt;$ ^dar&lt;vblex&gt;&lt;pri&gt;&lt;p1&gt;&lt;sg&gt;$ 0.2000000
^SER&lt;vbser&gt;&lt;pri&gt;&lt;p3&gt;&lt;sg&gt;$ ^Hay&lt;vblex&gt;&lt;pri&gt;&lt;p3&gt;&lt;sg&gt;$ 0.2500000
^SER&lt;vbser&gt;&lt;pri&gt;&lt;p3&gt;&lt;sg&gt;$ ^Lo&lt;detnt&gt;$ 0.2000000
^SER&lt;vbser&gt;&lt;pri&gt;&lt;p3&gt;&lt;sg&gt;$ ^En&lt;pr&gt;$ 0.0666667
^SER&lt;vbser&gt;&lt;pri&gt;&lt;p3&gt;&lt;sg&gt;$ ^También&lt;adv&gt;$ 0.0833333
^SER&lt;vbser&gt;&lt;pri&gt;&lt;p3&gt;&lt;sg&gt;$ ^Se&lt;prn&gt;&lt;pro&gt;&lt;ref&gt;&lt;p3&gt;&lt;mf&gt;&lt;sp&gt;$ 0.0833333
^SER&lt;vbser&gt;&lt;pri&gt;&lt;p3&gt;&lt;sg&gt;$ ^Bien&lt;adv&gt;$ 0.5000000
^momento&lt;n&gt;&lt;m&gt;&lt;pl&gt;$ ^uno&lt;det&gt;&lt;ind&gt;&lt;m&gt;&lt;sg&gt;$ 0.0082645
^momento&lt;n&gt;&lt;m&gt;&lt;pl&gt;$ ^momento&lt;n&gt;&lt;m&gt;&lt;sg&gt;$ 0.1000000
^preciso&lt;adj&gt;&lt;m&gt;&lt;sg&gt;$ ^recordar&lt;vblex&gt;&lt;pri&gt;&lt;p1&gt;&lt;sg&gt;$ 0.2000000
^preciso&lt;adj&gt;&lt;m&gt;&lt;sg&gt;$ ^revisar&lt;vblex&gt;&lt;inf&gt;$ 0.2000000
^preciso&lt;adj&gt;&lt;m&gt;&lt;sg&gt;$ ^tener&lt;vblex&gt;&lt;pri&gt;&lt;p3&gt;&lt;sg&gt;$ 0.1000000
^preciso&lt;adj&gt;&lt;m&gt;&lt;sg&gt;$ ^que&lt;cnjsub&gt;$ 0.0170213
^preciso&lt;adj&gt;&lt;m&gt;&lt;sg&gt;$ ^Hay&lt;vblex&gt;&lt;pri&gt;&lt;p3&gt;&lt;sg&gt;$ 0.1250000
^preciso&lt;adj&gt;&lt;m&gt;&lt;sg&gt;$ NULL 0.0015974
^*rodoviário$ NULL 0.0007987
^*rodoviário$ ^por&lt;pr&gt;$ 0.0092593
^atenção&lt;n&gt;&lt;f&gt;&lt;sg&gt;$ NULL 0.0023962
^atenção&lt;n&gt;&lt;f&gt;&lt;sg&gt;$ ^plano&lt;adj&gt;&lt;m&gt;&lt;sg&gt;$ 0.2000000
^atenção&lt;n&gt;&lt;f&gt;&lt;sg&gt;$ ^centrar&lt;vblex&gt;&lt;prs&gt;&lt;p1&gt;&lt;pl&gt;$ 0.3333333
^atenção&lt;n&gt;&lt;f&gt;&lt;sg&gt;$ ^uno&lt;det&gt;&lt;ind&gt;&lt;f&gt;&lt;sg&gt;$ 0.0084034
^atenção&lt;n&gt;&lt;f&gt;&lt;sg&gt;$ ^contemplar&lt;vblex&gt;&lt;inf&gt;$ 0.2500000
^atenção&lt;n&gt;&lt;f&gt;&lt;sg&gt;$ ^que&lt;cnjsub&gt;$ 0.0042553
^atenção&lt;n&gt;&lt;f&gt;&lt;sg&gt;$ ^atención&lt;n&gt;&lt;f&gt;&lt;sg&gt;$ 0.7272727
^*legitimados$ ^*legitimados$ 1.0000000
^alerta&lt;adv&gt;$ ^ser&lt;vbser&gt;&lt;pri&gt;&lt;p3&gt;&lt;sg&gt;$ 0.0081967
^plano&lt;n&gt;&lt;m&gt;&lt;pl&gt;$ ^elaboración&lt;n&gt;&lt;f&gt;&lt;sg&gt;$ 0.1666667
^plano&lt;n&gt;&lt;m&gt;&lt;pl&gt;$ ^encargar&lt;vblex&gt;&lt;pri&gt;&lt;p3&gt;&lt;sg&gt;$ 0.2000000
^plano&lt;n&gt;&lt;m&gt;&lt;pl&gt;$ ^el&lt;det&gt;&lt;def&gt;&lt;f&gt;&lt;sg&gt;$ 0.0017212
^estrutural&lt;adj&gt;&lt;mf&gt;&lt;sg&gt;$ ^estructural&lt;adj&gt;&lt;mf&gt;&lt;sg&gt;$ 1.0000000
^Ásia&lt;np&gt;&lt;loc&gt;&lt;f&gt;&lt;sg&gt;$ ^Asia&lt;np&gt;&lt;loc&gt;&lt;f&gt;&lt;sg&gt;$ 0.5000000
^obrigar&lt;vblex&gt;&lt;pri&gt;&lt;p3&gt;&lt;sg&gt;$ ^obligar&lt;vblex&gt;&lt;pri&gt;&lt;p3&gt;&lt;sg&gt;$ 0.5000000
^obrigar&lt;vblex&gt;&lt;pri&gt;&lt;p3&gt;&lt;sg&gt;$ ^a&lt;pr&gt;$ 0.0068259
^*Dir$ ^Suyo&lt;det&gt;&lt;pos&gt;&lt;mf&gt;&lt;sg&gt;$ 0.2000000
^*Dir$ ^*Señoría$ 0.0909091
^dever&lt;vbmod&gt;&lt;cni&gt;&lt;p1&gt;&lt;sg&gt;$ ^deber&lt;vbmod&gt;&lt;cni&gt;&lt;p3&gt;&lt;sg&gt;$ 1.0000000
^dever&lt;vbmod&gt;&lt;cni&gt;&lt;p1&gt;&lt;sg&gt;$ ^deber&lt;vbmod&gt;&lt;pri&gt;&lt;p3&gt;&lt;sg&gt;$ 0.1111111
^dever&lt;vbmod&gt;&lt;cni&gt;&lt;p1&gt;&lt;sg&gt;$ NULL 0.0007987
^diferente&lt;adj&gt;&lt;mf&gt;&lt;pl&gt;$ ^forma&lt;n&gt;&lt;f&gt;&lt;pl&gt;$ 0.5000000
^diferente&lt;adj&gt;&lt;mf&gt;&lt;pl&gt;$ ^sí&lt;prn&gt;&lt;tn&gt;&lt;ref&gt;&lt;p3&gt;&lt;mf&gt;&lt;sp&gt;$ 0.1428571
^diferente&lt;adj&gt;&lt;mf&gt;&lt;pl&gt;$ ^diferente&lt;adj&gt;&lt;mf&gt;&lt;pl&gt;$ 0.3333333
^analisar&lt;vblex&gt;&lt;inf&gt;$ ^analizar&lt;vblex&gt;&lt;inf&gt;$ 1.0000000
^analisar&lt;vblex&gt;&lt;inf&gt;$ ^tratar&lt;vblex&gt;&lt;ger&gt;$ 1.0000000
^*disparidade$ ^disparidad&lt;n&gt;&lt;f&gt;&lt;sg&gt;$ 1.0000000
^o&lt;prn&gt;&lt;pro&gt;&lt;p3&gt;&lt;nt&gt;$ ^así~como&lt;cnjadv&gt;$ 0.2000000
^o&lt;prn&gt;&lt;pro&gt;&lt;p3&gt;&lt;nt&gt;$ ^saber&lt;vblex&gt;&lt;pri&gt;&lt;p1&gt;&lt;pl&gt;$ 0.2500000
^o&lt;prn&gt;&lt;pro&gt;&lt;p3&gt;&lt;nt&gt;$ ^leer&lt;vblex&gt;&lt;imp&gt;&lt;p3&gt;&lt;sg&gt;$ 0.3333333
^o&lt;prn&gt;&lt;pro&gt;&lt;p3&gt;&lt;nt&gt;$ ^en&lt;pr&gt;$ 0.0029499
^o&lt;prn&gt;&lt;pro&gt;&lt;p3&gt;&lt;nt&gt;$ NULL 0.0007987
^o&lt;prn&gt;&lt;pro&gt;&lt;p3&gt;&lt;nt&gt;$ ^usted&lt;prn&gt;&lt;tn&gt;&lt;p3&gt;&lt;mf&gt;&lt;sg&gt;$ 0.0666667
^o&lt;prn&gt;&lt;pro&gt;&lt;p3&gt;&lt;nt&gt;$ ^*objeción$ 0.2500000
^o&lt;prn&gt;&lt;pro&gt;&lt;p3&gt;&lt;nt&gt;$ ^lo&lt;prn&gt;&lt;pro&gt;&lt;p3&gt;&lt;nt&gt;$ 0.0833333
^o&lt;prn&gt;&lt;pro&gt;&lt;p3&gt;&lt;nt&gt;$ ^*Wogau$ 0.2000000
^*assassínios$ ^asesinato&lt;n&gt;&lt;m&gt;&lt;pl&gt;$ 0.5000000
^ser&lt;vbser&gt;&lt;cni&gt;&lt;p1&gt;&lt;sg&gt;$ ^el&lt;det&gt;&lt;def&gt;&lt;f&gt;&lt;sg&gt;$ 0.0017212
^ser&lt;vbser&gt;&lt;cni&gt;&lt;p1&gt;&lt;sg&gt;$ ^;&lt;sent&gt;$ 0.0625000
^ser&lt;vbser&gt;&lt;cni&gt;&lt;p1&gt;&lt;sg&gt;$ ^ser&lt;vbser&gt;&lt;cni&gt;&lt;p3&gt;&lt;sg&gt;$ 0.6666667
^ser&lt;vbser&gt;&lt;cni&gt;&lt;p1&gt;&lt;sg&gt;$ ^necesidad&lt;n&gt;&lt;f&gt;&lt;sg&gt;$ 0.2000000
^eficácia&lt;n&gt;&lt;f&gt;&lt;sg&gt;$ ^eficacia&lt;n&gt;&lt;f&gt;&lt;sg&gt;$ 1.0000000
^eficácia&lt;n&gt;&lt;f&gt;&lt;sg&gt;$ ^efecto&lt;n&gt;&lt;m&gt;&lt;sg&gt;$ 0.2000000
^praticamente&lt;adv&gt;$ ^afectar&lt;vblex&gt;&lt;pp&gt;&lt;f&gt;&lt;pl&gt;$ 0.3333333
^praticamente&lt;adv&gt;$ ^se&lt;prn&gt;&lt;pro&gt;&lt;ref&gt;&lt;p3&gt;&lt;mf&gt;&lt;sp&gt;$ 0.0095694
^pretensamente&lt;adv&gt;$ ^supuestamente&lt;adv&gt;$ 1.0000000
^*Fund$ ^*Fund$ 1.0000000
^Finalmente&lt;adv&gt;$ ^Finalmente&lt;adv&gt;$ 0.3333333
^Finalmente&lt;adv&gt;$ ^Por&lt;pr&gt;$ 0.0869565
^Finalmente&lt;adv&gt;$ ^último&lt;adj&gt;&lt;m&gt;&lt;sg&gt;$ 0.2000000
^formação&lt;n&gt;&lt;f&gt;&lt;sg&gt;$ ^perfeccionamiento&lt;n&gt;&lt;m&gt;&lt;sg&gt;$ 1.0000000
^formação&lt;n&gt;&lt;f&gt;&lt;sg&gt;$ ^formación&lt;n&gt;&lt;f&gt;&lt;sg&gt;$ 0.6666667
^breve&lt;adj&gt;&lt;mf&gt;&lt;pl&gt;$ ^breve&lt;adj&gt;&lt;mf&gt;&lt;pl&gt;$ 1.0000000
^positivo&lt;adj&gt;&lt;f&gt;&lt;sg&gt;$ ^positivo&lt;adj&gt;&lt;m&gt;&lt;sg&gt;$ 0.3333333
^positivo&lt;adj&gt;&lt;f&gt;&lt;sg&gt;$ ^positivo&lt;adj&gt;&lt;f&gt;&lt;sg&gt;$ 1.0000000
^participar&lt;vblex&gt;&lt;prs&gt;&lt;p3&gt;&lt;pl&gt;$ ^participar&lt;vblex&gt;&lt;imp&gt;&lt;p3&gt;&lt;pl&gt;$ 0.5000000
^participar&lt;vblex&gt;&lt;prs&gt;&lt;p3&gt;&lt;pl&gt;$ ^participar&lt;vblex&gt;&lt;inf&gt;$ 0.5000000
^participar&lt;vblex&gt;&lt;prs&gt;&lt;p3&gt;&lt;pl&gt;$ ^tener&lt;vblex&gt;&lt;pri&gt;&lt;p3&gt;&lt;pl&gt;$ 0.1000000
^*árduo$ ^*arduo$ 1.0000000
^tempo&lt;n&gt;&lt;m&gt;&lt;sg&gt;$ ^tiempo&lt;n&gt;&lt;m&gt;&lt;sg&gt;$ 0.5000000
^vantagem&lt;n&gt;&lt;f&gt;&lt;sg&gt;$ ^dar&lt;vblex&gt;&lt;pri&gt;&lt;p3&gt;&lt;sg&gt;$ 0.5000000
^amplamente&lt;adv&gt;$ ^en~gran~medida&lt;adv&gt;$ 1.0000000
^palavra&lt;n&gt;&lt;f&gt;&lt;pl&gt;$ ^brevemente&lt;adv&gt;$ 0.2500000
^palavra&lt;n&gt;&lt;f&gt;&lt;pl&gt;$ ^palabra&lt;n&gt;&lt;f&gt;&lt;pl&gt;$ 0.7500000
^palavra&lt;n&gt;&lt;f&gt;&lt;pl&gt;$ ^el&lt;det&gt;&lt;def&gt;&lt;f&gt;&lt;pl&gt;$ 0.0044444
^Pescar&lt;vblex&gt;&lt;pri&gt;&lt;p2&gt;&lt;sg&gt;$ ^Pescar&lt;vblex&gt;&lt;pri&gt;&lt;p3&gt;&lt;sg&gt;$ 0.5000000
^maioritariamente&lt;adv&gt;$ ^mayoritariamente&lt;adv&gt;$ 1.0000000
^o&lt;prn&gt;&lt;enc&gt;&lt;p3&gt;&lt;m&gt;&lt;pl&gt;$ NULL 0.0007987
^o&lt;prn&gt;&lt;enc&gt;&lt;p3&gt;&lt;m&gt;&lt;pl&gt;$ ^todo&lt;predet&gt;&lt;m&gt;&lt;pl&gt;$ 0.0384615
^o&lt;prn&gt;&lt;enc&gt;&lt;p3&gt;&lt;m&gt;&lt;pl&gt;$ ^a&lt;pr&gt;$ 0.0034130
^o&lt;prn&gt;&lt;enc&gt;&lt;p3&gt;&lt;m&gt;&lt;pl&gt;$ ^Invitar&lt;vblex&gt;&lt;pri&gt;&lt;p1&gt;&lt;sg&gt;$ 0.5000000
^adicional&lt;adj&gt;&lt;mf&gt;&lt;sg&gt;$ ^capa&lt;n&gt;&lt;f&gt;&lt;pl&gt;$ 1.0000000
^leitura&lt;n&gt;&lt;f&gt;&lt;sg&gt;$ ^lectura&lt;n&gt;&lt;f&gt;&lt;sg&gt;$ 0.3333333
^leitura&lt;n&gt;&lt;f&gt;&lt;sg&gt;$ ^elaboración&lt;n&gt;&lt;f&gt;&lt;sg&gt;$ 0.1666667
^contrariamente&lt;adv&gt;$ ^contrariamente&lt;adv&gt;$ 0.5000000
^empreendedor&lt;n&gt;&lt;m&gt;&lt;sg&gt;$ ^emprendedor&lt;n&gt;&lt;m&gt;&lt;sg&gt;$ 1.0000000
^elaboração&lt;n&gt;&lt;f&gt;&lt;sg&gt;$ ^práctico&lt;adj&gt;&lt;f&gt;&lt;sg&gt;$ 0.3333333
^elaboração&lt;n&gt;&lt;f&gt;&lt;sg&gt;$ ^este&lt;det&gt;&lt;dem&gt;&lt;m&gt;&lt;sg&gt;$ 0.0142857
^elaboração&lt;n&gt;&lt;f&gt;&lt;sg&gt;$ ^elaboración&lt;n&gt;&lt;f&gt;&lt;sg&gt;$ 0.5000000
^aliado&lt;n&gt;&lt;m&gt;&lt;sg&gt;$ ^unir&lt;vblex&gt;&lt;pp&gt;&lt;m&gt;&lt;sg&gt;$ 0.3333333
^aliado&lt;n&gt;&lt;m&gt;&lt;sg&gt;$ ^a&lt;pr&gt;$ 0.0034130
^ter#~de&lt;vblex&gt;&lt;pri&gt;&lt;p1&gt;&lt;pl&gt;$ ^preciso&lt;adj&gt;&lt;m&gt;&lt;sg&gt;$ 0.1000000
^ter#~de&lt;vblex&gt;&lt;pri&gt;&lt;p1&gt;&lt;pl&gt;$ ^ser&lt;vbser&gt;&lt;pri&gt;&lt;p3&gt;&lt;sg&gt;$ 0.0081967
^ter#~de&lt;vblex&gt;&lt;pri&gt;&lt;p1&gt;&lt;pl&gt;$ ^reaccionar&lt;vblex&gt;&lt;inf&gt;$ 0.2500000
^assinar&lt;vblex&gt;&lt;pp&gt;&lt;m&gt;&lt;sg&gt;$ ^y&lt;cnjcoo&gt;$ 0.0032154
^assinar&lt;vblex&gt;&lt;pp&gt;&lt;m&gt;&lt;sg&gt;$ ^firmar&lt;vblex&gt;&lt;pp&gt;&lt;m&gt;&lt;sg&gt;$ 0.3333333
^controlar&lt;vblex&gt;&lt;inf&gt;$ ^controlar&lt;vblex&gt;&lt;inf&gt;$ 0.5000000
^existir&lt;vblex&gt;&lt;pri&gt;&lt;p3&gt;&lt;sg&gt;$ ^tener&lt;vblex&gt;&lt;cni&gt;&lt;p3&gt;&lt;pl&gt;$ 0.5000000
^existir&lt;vblex&gt;&lt;pri&gt;&lt;p3&gt;&lt;sg&gt;$ ^existir&lt;vblex&gt;&lt;pri&gt;&lt;p3&gt;&lt;sg&gt;$ 0.2500000
^existir&lt;vblex&gt;&lt;pri&gt;&lt;p3&gt;&lt;sg&gt;$ ^ser&lt;vbser&gt;&lt;pri&gt;&lt;p3&gt;&lt;sg&gt;$ 0.0081967
^existir&lt;vblex&gt;&lt;pri&gt;&lt;p3&gt;&lt;sg&gt;$ ^se&lt;prn&gt;&lt;pro&gt;&lt;ref&gt;&lt;p3&gt;&lt;mf&gt;&lt;sp&gt;$ 0.0047847
^bastante&lt;adj&gt;&lt;mf&gt;&lt;sg&gt;$ ^muy&lt;preadv&gt;$ 0.0454545
^residir&lt;vblex&gt;&lt;pri&gt;&lt;p3&gt;&lt;sg&gt;$ ^éste&lt;prn&gt;&lt;tn&gt;&lt;m&gt;&lt;sg&gt;$ 0.2500000
^levar&lt;vblex&gt;&lt;cni&gt;&lt;p3&gt;&lt;pl&gt;$ ^llevar&lt;vblex&gt;&lt;cni&gt;&lt;p3&gt;&lt;pl&gt;$ 1.0000000
^insistir&lt;vblex&gt;&lt;ifi&gt;&lt;p3&gt;&lt;sg&gt;$ ^*Petersen$ 0.5000000
^equilíbrio&lt;n&gt;&lt;m&gt;&lt;sg&gt;$ ^equilibrio&lt;n&gt;&lt;m&gt;&lt;sg&gt;$ 0.3333333
^estado&lt;n&gt;&lt;m&gt;&lt;sg&gt;$ ^estado&lt;n&gt;&lt;m&gt;&lt;sg&gt;$ 0.3333333
^Em&lt;pr&gt;$ ^Decir&lt;vblex&gt;&lt;pp&gt;&lt;m&gt;&lt;sg&gt;$ 0.4000000
^Em&lt;pr&gt;$ ^A&lt;pr&gt;$ 0.1428571
^Em&lt;pr&gt;$ ^En&lt;pr&gt;$ 0.4222222
^Em&lt;pr&gt;$ ^Caber&lt;vblex&gt;&lt;pri&gt;&lt;p3&gt;&lt;sg&gt;$ 1.0000000
^Em&lt;pr&gt;$ ^Caso&lt;n&gt;&lt;m&gt;&lt;pl&gt;$ 1.0000000
^Em&lt;pr&gt;$ ^Justo&lt;adv&gt;$ 1.0000000
^Em&lt;pr&gt;$ ^El&lt;det&gt;&lt;def&gt;&lt;f&gt;&lt;pl&gt;$ 0.0625000
^Em&lt;pr&gt;$ NULL 0.0031949
^Em&lt;pr&gt;$ ^en&lt;pr&gt;$ 0.0029499
^Em&lt;pr&gt;$ ^*asesorara$ 0.2500000
^Em&lt;pr&gt;$ ^De&lt;pr&gt;$ 0.0833333
^Um&lt;det&gt;&lt;ind&gt;&lt;m&gt;&lt;sg&gt;$ ^Creer#~que&lt;vblex&gt;&lt;pri&gt;&lt;p1&gt;&lt;sg&gt;$ 0.1111111
^Um&lt;det&gt;&lt;ind&gt;&lt;m&gt;&lt;sg&gt;$ ^Actualmente&lt;adv&gt;$ 1.0000000
^Um&lt;det&gt;&lt;ind&gt;&lt;m&gt;&lt;sg&gt;$ ^Uno&lt;det&gt;&lt;ind&gt;&lt;m&gt;&lt;sg&gt;$ 1.0000000
^Um&lt;det&gt;&lt;ind&gt;&lt;m&gt;&lt;sg&gt;$ ^Por~lo~tanto&lt;cnjadv&gt;$ 0.0769231
^Um&lt;det&gt;&lt;ind&gt;&lt;m&gt;&lt;sg&gt;$ ^Francamente&lt;adv&gt;$ 0.3333333
^situar&lt;vblex&gt;&lt;pri&gt;&lt;p3&gt;&lt;pl&gt;$ ^beneficiar&lt;vblex&gt;&lt;pri&gt;&lt;p3&gt;&lt;pl&gt;$ 0.3333333
^realçar&lt;vblex&gt;&lt;ifi&gt;&lt;p3&gt;&lt;sg&gt;$ ^*Señoría$ 0.0909091
^realçar&lt;vblex&gt;&lt;ifi&gt;&lt;p3&gt;&lt;sg&gt;$ ^haber&lt;vbhaver&gt;&lt;pri&gt;&lt;p3&gt;&lt;sg&gt;$ 0.0098039
^realçar&lt;vblex&gt;&lt;ifi&gt;&lt;p3&gt;&lt;sg&gt;$ ^subrayar&lt;vblex&gt;&lt;pp&gt;&lt;m&gt;&lt;sg&gt;$ 0.5000000
^convite&lt;n&gt;&lt;m&gt;&lt;sg&gt;$ ^invitación&lt;n&gt;&lt;f&gt;&lt;sg&gt;$ 1.0000000
^lhe&lt;prn&gt;&lt;pro&gt;&lt;p3&gt;&lt;mf&gt;&lt;sg&gt;$ ^descubrir&lt;vblex&gt;&lt;prs&gt;&lt;p1&gt;&lt;pl&gt;$ 0.5000000
^lhe&lt;prn&gt;&lt;pro&gt;&lt;p3&gt;&lt;mf&gt;&lt;sg&gt;$ ^disipar&lt;vblex&gt;&lt;inf&gt;$ 1.0000000
^lhe&lt;prn&gt;&lt;pro&gt;&lt;p3&gt;&lt;mf&gt;&lt;sg&gt;$ ^le&lt;prn&gt;&lt;enc&gt;&lt;p3&gt;&lt;mf&gt;&lt;sg&gt;$ 0.3846154
^lhe&lt;prn&gt;&lt;pro&gt;&lt;p3&gt;&lt;mf&gt;&lt;sg&gt;$ ^dejar&lt;vblex&gt;&lt;inf&gt;$ 0.1666667
^lhe&lt;prn&gt;&lt;pro&gt;&lt;p3&gt;&lt;mf&gt;&lt;sg&gt;$ ^le&lt;prn&gt;&lt;pro&gt;&lt;p3&gt;&lt;mf&gt;&lt;sg&gt;$ 0.1875000
^lhe&lt;prn&gt;&lt;pro&gt;&lt;p3&gt;&lt;mf&gt;&lt;sg&gt;$ ^que&lt;cnjsub&gt;$ 0.0127660
^lhe&lt;prn&gt;&lt;pro&gt;&lt;p3&gt;&lt;mf&gt;&lt;sg&gt;$ ^agradecer&lt;vblex&gt;&lt;cni&gt;&lt;p3&gt;&lt;sg&gt;$ 0.3333333
^lhe&lt;prn&gt;&lt;pro&gt;&lt;p3&gt;&lt;mf&gt;&lt;sg&gt;$ ^manifestar&lt;vblex&gt;&lt;inf&gt;$ 0.3333333
^grupo&lt;n&gt;&lt;m&gt;&lt;sg&gt;$ ^grupo&lt;n&gt;&lt;m&gt;&lt;sg&gt;$ 0.5000000
^grupo&lt;n&gt;&lt;m&gt;&lt;sg&gt;$ ^Grupo&lt;n&gt;&lt;m&gt;&lt;sg&gt;$ 0.6315789
^parecer&lt;vblex&gt;&lt;inf&gt;$ ^leer&lt;vblex&gt;&lt;imp&gt;&lt;p3&gt;&lt;sg&gt;$ 0.3333333
^parecer&lt;vblex&gt;&lt;inf&gt;$ ^opinión&lt;n&gt;&lt;f&gt;&lt;sg&gt;$ 0.2000000
^parecer&lt;vblex&gt;&lt;inf&gt;$ NULL 0.0007987
^parecer&lt;vblex&gt;&lt;inf&gt;$ ^el&lt;det&gt;&lt;def&gt;&lt;f&gt;&lt;sg&gt;$ 0.0017212
^parecer&lt;vblex&gt;&lt;inf&gt;$ ^143&lt;num&gt;$ 0.3333333
^*Ahern$ ^*Ahern$ 1.0000000
^mínimo&lt;adj&gt;&lt;f&gt;&lt;pl&gt;$ ^examen&lt;n&gt;&lt;m&gt;&lt;sg&gt;$ 0.2500000
^mínimo&lt;adj&gt;&lt;f&gt;&lt;pl&gt;$ ^mínimo&lt;adj&gt;&lt;f&gt;&lt;pl&gt;$ 1.0000000
^antecessor&lt;n&gt;&lt;m&gt;&lt;pl&gt;$ ^predecesor&lt;n&gt;&lt;m&gt;&lt;pl&gt;$ 1.0000000
^*regulamentador$ ^europeo&lt;adj&gt;&lt;f&gt;&lt;sg&gt;$ 0.1250000
^*regulamentador$ ^defensa&lt;n&gt;&lt;f&gt;&lt;sg&gt;$ 0.5000000
^*regulamentador$ ^Oficina&lt;n&gt;&lt;f&gt;&lt;sg&gt;$ 0.5000000
^lição&lt;n&gt;&lt;f&gt;&lt;sg&gt;$ ^enseñanza&lt;n&gt;&lt;f&gt;&lt;sg&gt;$ 1.0000000
^Penso&lt;n&gt;&lt;m&gt;&lt;sg&gt;$ ^Sin~embargo&lt;cnjadv&gt;$ 0.0625000
^Penso&lt;n&gt;&lt;m&gt;&lt;sg&gt;$ ^Creer#~que&lt;vblex&gt;&lt;pri&gt;&lt;p1&gt;&lt;sg&gt;$ 0.1111111
^*Rapkay$ ^*Rapkay$ 1.0000000
^lhe&lt;prn&gt;&lt;enc&gt;&lt;p3&gt;&lt;mf&gt;&lt;pl&gt;$ ^que&lt;cnjsub&gt;$ 0.0042553
^lhe&lt;prn&gt;&lt;enc&gt;&lt;p3&gt;&lt;mf&gt;&lt;pl&gt;$ ^proporcionar&lt;vblex&gt;&lt;inf&gt;$ 0.5000000
^ganhar&lt;vblex&gt;&lt;inf&gt;$ ^sitio&lt;n&gt;&lt;m&gt;&lt;sg&gt;$ 0.2500000
^dizer&lt;vblex&gt;&lt;cni&gt;&lt;p1&gt;&lt;sg&gt;$ ^decir&lt;vblex&gt;&lt;cni&gt;&lt;p3&gt;&lt;sg&gt;$ 0.5000000
^dizer&lt;vblex&gt;&lt;cni&gt;&lt;p1&gt;&lt;sg&gt;$ ^que&lt;cnjsub&gt;$ 0.0042553
^dizer&lt;vblex&gt;&lt;cni&gt;&lt;p1&gt;&lt;sg&gt;$ ^incluso&lt;adv&gt;$ 0.0833333
^Ocorrer&lt;vblex&gt;&lt;pri&gt;&lt;p3&gt;&lt;pl&gt;$ ^venir&lt;vblex&gt;&lt;pri&gt;&lt;p3&gt;&lt;sg&gt;$ 0.5000000
^Ocorrer&lt;vblex&gt;&lt;pri&gt;&lt;p3&gt;&lt;pl&gt;$ ^Me&lt;prn&gt;&lt;pro&gt;&lt;p1&gt;&lt;mf&gt;&lt;sg&gt;$ 0.1250000
^perda&lt;n&gt;&lt;f&gt;&lt;sg&gt;$ ^pérdida&lt;n&gt;&lt;f&gt;&lt;sg&gt;$ 1.0000000
^perda&lt;n&gt;&lt;f&gt;&lt;sg&gt;$ ^*detrimento$ 0.5000000
^o~meu&lt;det&gt;&lt;pos&gt;&lt;m&gt;&lt;pl&gt;$ ^reiterar&lt;vblex&gt;&lt;pri&gt;&lt;p1&gt;&lt;sg&gt;$ 0.2500000
^o~meu&lt;det&gt;&lt;pos&gt;&lt;m&gt;&lt;pl&gt;$ ^desear&lt;vblex&gt;&lt;pri&gt;&lt;p1&gt;&lt;sg&gt;$ 0.3333333
^o~meu&lt;det&gt;&lt;pos&gt;&lt;m&gt;&lt;pl&gt;$ ^mío&lt;det&gt;&lt;pos&gt;&lt;mf&gt;&lt;sg&gt;$ 0.0625000
^o~meu&lt;det&gt;&lt;pos&gt;&lt;m&gt;&lt;pl&gt;$ ^reiterar&lt;vblex&gt;&lt;inf&gt;$ 0.3333333
^o~meu&lt;det&gt;&lt;pos&gt;&lt;m&gt;&lt;pl&gt;$ ^dar#~las~gracias&lt;vblex&gt;&lt;inf&gt;$ 0.1666667
^o~meu&lt;det&gt;&lt;pos&gt;&lt;m&gt;&lt;pl&gt;$ ^querer&lt;vbmod&gt;&lt;pri&gt;&lt;p1&gt;&lt;sg&gt;$ 0.0625000
^o~meu&lt;det&gt;&lt;pos&gt;&lt;m&gt;&lt;pl&gt;$ ^Ante~todo&lt;adv&gt;$ 0.5000000
^próprio&lt;adj&gt;&lt;f&gt;&lt;sg&gt;$ ^suyo&lt;det&gt;&lt;pos&gt;&lt;mf&gt;&lt;pl&gt;$ 0.0454545
^próprio&lt;adj&gt;&lt;f&gt;&lt;sg&gt;$ ^Incluso&lt;adv&gt;$ 0.5000000
^próprio&lt;adj&gt;&lt;f&gt;&lt;sg&gt;$ ^propio&lt;adj&gt;&lt;m&gt;&lt;pl&gt;$ 0.5000000
^próprio&lt;adj&gt;&lt;f&gt;&lt;sg&gt;$ ^el&lt;det&gt;&lt;def&gt;&lt;f&gt;&lt;sg&gt;$ 0.0017212
^adoptar&lt;vblex&gt;&lt;pp&gt;&lt;f&gt;&lt;pl&gt;$ ^ser&lt;vbser&gt;&lt;pp&gt;&lt;m&gt;&lt;sg&gt;$ 0.0526316
^adoptar&lt;vblex&gt;&lt;pp&gt;&lt;f&gt;&lt;pl&gt;$ ^que&lt;rel&gt;&lt;an&gt;&lt;mf&gt;&lt;sp&gt;$ 0.0044053
^adoptar&lt;vblex&gt;&lt;pp&gt;&lt;f&gt;&lt;pl&gt;$ ^haber&lt;vbhaver&gt;&lt;pri&gt;&lt;p3&gt;&lt;pl&gt;$ 0.0250000
^adoptar&lt;vblex&gt;&lt;pp&gt;&lt;f&gt;&lt;pl&gt;$ ^aprobar&lt;vblex&gt;&lt;pp&gt;&lt;f&gt;&lt;pl&gt;$ 1.0000000
^adoptar&lt;vblex&gt;&lt;pp&gt;&lt;f&gt;&lt;pl&gt;$ ^recoger&lt;vblex&gt;&lt;pp&gt;&lt;f&gt;&lt;pl&gt;$ 1.0000000
^quotidiano&lt;adj&gt;&lt;f&gt;&lt;sg&gt;$ ^cotidiano&lt;adj&gt;&lt;f&gt;&lt;sg&gt;$ 1.0000000
^agente&lt;n&gt;&lt;mf&gt;&lt;pl&gt;$ ^agente&lt;n&gt;&lt;mf&gt;&lt;pl&gt;$ 0.5000000
^quinto&lt;adj&gt;&lt;m&gt;&lt;pl&gt;$ ^quinto&lt;adj&gt;&lt;f&gt;&lt;pl&gt;$ 1.0000000
^quinto&lt;adj&gt;&lt;m&gt;&lt;pl&gt;$ ^parte&lt;n&gt;&lt;f&gt;&lt;pl&gt;$ 0.5000000
^mercadoria&lt;n&gt;&lt;f&gt;&lt;pl&gt;$ ^mercancía&lt;n&gt;&lt;f&gt;&lt;pl&gt;$ 0.8181818
^posição&lt;n&gt;&lt;f&gt;&lt;pl&gt;$ ^posición&lt;n&gt;&lt;f&gt;&lt;pl&gt;$ 0.6666667
^posição&lt;n&gt;&lt;f&gt;&lt;pl&gt;$ ^conclusión&lt;n&gt;&lt;f&gt;&lt;pl&gt;$ 0.2500000
^*descontrolada$ ^*migratorios$ 0.5000000
^*descontrolada$ ^ejemplo&lt;n&gt;&lt;m&gt;&lt;sg&gt;$ 0.1250000
^*descontrolada$ ^Por&lt;pr&gt;$ 0.0434783
^posição&lt;n&gt;&lt;f&gt;&lt;sg&gt;$ ^*desafortunada$ 0.5000000
^posição&lt;n&gt;&lt;f&gt;&lt;sg&gt;$ ^situación&lt;n&gt;&lt;f&gt;&lt;sg&gt;$ 0.1000000
^posição&lt;n&gt;&lt;f&gt;&lt;sg&gt;$ ^posición&lt;n&gt;&lt;f&gt;&lt;sg&gt;$ 1.0000000
^posição&lt;n&gt;&lt;f&gt;&lt;sg&gt;$ NULL 0.0023962
^posição&lt;n&gt;&lt;f&gt;&lt;sg&gt;$ ^zona&lt;n&gt;&lt;f&gt;&lt;sg&gt;$ 0.3333333
^melhorar&lt;vblex&gt;&lt;ger&gt;$ ^mejorar&lt;vblex&gt;&lt;ger&gt;$ 1.0000000
^melhorar&lt;vblex&gt;&lt;ger&gt;$ ^que&lt;cnjsub&gt;$ 0.0042553
^melhorar&lt;vblex&gt;&lt;ger&gt;$ ^ir&lt;vblex&gt;&lt;inf&gt;$ 0.3333333
^registar&lt;vblex&gt;&lt;inf&gt;$ ^experimentar&lt;vblex&gt;&lt;ger&gt;$ 1.0000000
^Segundo&lt;adj&gt;&lt;m&gt;&lt;sg&gt;$ ^En&lt;pr&gt;$ 0.0222222
^Segundo&lt;adj&gt;&lt;m&gt;&lt;sg&gt;$ ^segundo&lt;adj&gt;&lt;m&gt;&lt;sg&gt;$ 0.1111111
^Segundo&lt;adj&gt;&lt;m&gt;&lt;sg&gt;$ ^lugar&lt;n&gt;&lt;m&gt;&lt;sg&gt;$ 0.0833333
^centena&lt;n&gt;&lt;f&gt;&lt;pl&gt;$ ^ciento&lt;num&gt;&lt;mf&gt;&lt;pl&gt;$ 1.0000000
^mim&lt;prn&gt;&lt;tn&gt;&lt;p1&gt;&lt;mf&gt;&lt;sg&gt;$ ^mí&lt;prn&gt;&lt;tn&gt;&lt;p1&gt;&lt;mf&gt;&lt;sg&gt;$ 0.3333333
^mim&lt;prn&gt;&lt;tn&gt;&lt;p1&gt;&lt;mf&gt;&lt;sg&gt;$ ^sentido&lt;n&gt;&lt;m&gt;&lt;sg&gt;$ 0.0625000
^precioso&lt;adj&gt;&lt;m&gt;&lt;sg&gt;$ ^precioso&lt;adj&gt;&lt;m&gt;&lt;sg&gt;$ 1.0000000
^suficiente&lt;adj&gt;&lt;mf&gt;&lt;pl&gt;$ ^descender&lt;vblex&gt;&lt;prs&gt;&lt;p3&gt;&lt;sg&gt;$ 0.2500000
^Dever&lt;vbmod&gt;&lt;pii&gt;&lt;p1&gt;&lt;sg&gt;$ ^Comisión&lt;n&gt;&lt;f&gt;&lt;sg&gt;$ 0.0113636
^Dever&lt;vbmod&gt;&lt;pii&gt;&lt;p1&gt;&lt;sg&gt;$ ^deber&lt;vbmod&gt;&lt;pri&gt;&lt;p3&gt;&lt;sg&gt;$ 0.0555556
^Dever&lt;vbmod&gt;&lt;pii&gt;&lt;p1&gt;&lt;sg&gt;$ ^El&lt;det&gt;&lt;def&gt;&lt;f&gt;&lt;sg&gt;$ 0.0238095
^Dever&lt;vbmod&gt;&lt;pii&gt;&lt;p1&gt;&lt;sg&gt;$ ^continuar&lt;vblex&gt;&lt;inf&gt;$ 0.3333333
^*revitalização$ ^incrementar&lt;vblex&gt;&lt;prs&gt;&lt;p3&gt;&lt;sg&gt;$ 1.0000000
^mesmo&lt;adj&gt;&lt;m&gt;&lt;pl&gt;$ ^esto&lt;prn&gt;&lt;tn&gt;&lt;nt&gt;$ 0.0555556
^defender&lt;vblex&gt;&lt;ifi&gt;&lt;p3&gt;&lt;sg&gt;$ ^deseo&lt;n&gt;&lt;m&gt;&lt;sg&gt;$ 0.2000000
^defender&lt;vblex&gt;&lt;ifi&gt;&lt;p3&gt;&lt;sg&gt;$ ^*Berend$ 0.1666667
^defender&lt;vblex&gt;&lt;ifi&gt;&lt;p3&gt;&lt;sg&gt;$ ^expresar&lt;vblex&gt;&lt;ifi&gt;&lt;p3&gt;&lt;sg&gt;$ 1.0000000
^defender&lt;vblex&gt;&lt;ifi&gt;&lt;p3&gt;&lt;sg&gt;$ ^suyo&lt;det&gt;&lt;pos&gt;&lt;mf&gt;&lt;sg&gt;$ 0.0212766
^ser&lt;vbser&gt;&lt;prs&gt;&lt;p1&gt;&lt;pl&gt;$ ^ser&lt;vbser&gt;&lt;inf&gt;$ 0.0588235
^ver&lt;vblex&gt;&lt;ifi&gt;&lt;p1&gt;&lt;sg&gt;$ ^haber&lt;vbhaver&gt;&lt;pri&gt;&lt;p1&gt;&lt;sg&gt;$ 0.1250000
^ver&lt;vblex&gt;&lt;ifi&gt;&lt;p1&gt;&lt;sg&gt;$ ^advertir&lt;vblex&gt;&lt;pp&gt;&lt;m&gt;&lt;sg&gt;$ 0.5000000
^o~meu&lt;prn&gt;&lt;tn&gt;&lt;pos&gt;&lt;f&gt;&lt;pl&gt;$ ^mío&lt;det&gt;&lt;pos&gt;&lt;mf&gt;&lt;pl&gt;$ 0.2500000
^o~meu&lt;prn&gt;&lt;tn&gt;&lt;pos&gt;&lt;f&gt;&lt;pl&gt;$ ^*felicitaciones$ 0.5000000
^temático&lt;adj&gt;&lt;f&gt;&lt;sg&gt;$ ^cuestión&lt;n&gt;&lt;f&gt;&lt;sg&gt;$ 0.0666667
^ter&lt;vblex&gt;&lt;fti&gt;&lt;p3&gt;&lt;sg&gt;$ ^consignar&lt;vblex&gt;&lt;fti&gt;&lt;p3&gt;&lt;sg&gt;$ 0.5000000
^ter&lt;vblex&gt;&lt;fti&gt;&lt;p3&gt;&lt;sg&gt;$ ^tener&lt;vblex&gt;&lt;fti&gt;&lt;p3&gt;&lt;sg&gt;$ 0.8000000
^*levantá$ ^volver&lt;vblex&gt;&lt;fti&gt;&lt;p1&gt;&lt;sg&gt;$ 0.3333333
^atribuir&lt;vblex&gt;&lt;pp&gt;&lt;m&gt;&lt;sg&gt;$ ^proponer&lt;vblex&gt;&lt;pri&gt;&lt;p3&gt;&lt;sg&gt;$ 0.2500000
^atribuir&lt;vblex&gt;&lt;pp&gt;&lt;m&gt;&lt;sg&gt;$ ^asignar&lt;vblex&gt;&lt;inf&gt;$ 1.0000000
^atribuir&lt;vblex&gt;&lt;pp&gt;&lt;m&gt;&lt;sg&gt;$ ^le&lt;prn&gt;&lt;enc&gt;&lt;p3&gt;&lt;mf&gt;&lt;pl&gt;$ 0.3333333
^contexto&lt;n&gt;&lt;m&gt;&lt;sg&gt;$ ^esto&lt;prn&gt;&lt;tn&gt;&lt;nt&gt;$ 0.0555556
^contexto&lt;n&gt;&lt;m&gt;&lt;sg&gt;$ ^respecto&lt;n&gt;&lt;m&gt;&lt;sg&gt;$ 0.1428571
^contexto&lt;n&gt;&lt;m&gt;&lt;sg&gt;$ ^contexto&lt;n&gt;&lt;m&gt;&lt;sg&gt;$ 0.7500000
^esquecer&lt;vblex&gt;&lt;imp&gt;&lt;p1&gt;&lt;pl&gt;$ ^así&lt;adv&gt;$ 0.1666667
^esquecer&lt;vblex&gt;&lt;imp&gt;&lt;p1&gt;&lt;pl&gt;$ ^dejar&lt;vblex&gt;&lt;imp&gt;&lt;p1&gt;&lt;pl&gt;$ 1.0000000
^lacuna&lt;n&gt;&lt;f&gt;&lt;sg&gt;$ ^el&lt;det&gt;&lt;def&gt;&lt;f&gt;&lt;pl&gt;$ 0.0044444
^dessar&lt;vblex&gt;&lt;pri&gt;&lt;p3&gt;&lt;sg&gt;$ ^provocar&lt;vblex&gt;&lt;pri&gt;&lt;p3&gt;&lt;sg&gt;$ 0.2500000
^encontrar&lt;vblex&gt;&lt;pri&gt;&lt;p3&gt;&lt;sg&gt;$ NULL 0.0007987
^encontrar&lt;vblex&gt;&lt;pri&gt;&lt;p3&gt;&lt;sg&gt;$ ^incluir&lt;vblex&gt;&lt;pp&gt;&lt;f&gt;&lt;sg&gt;$ 0.2000000
^encontrar&lt;vblex&gt;&lt;pri&gt;&lt;p3&gt;&lt;sg&gt;$ ^encontrar&lt;vblex&gt;&lt;pri&gt;&lt;p3&gt;&lt;sg&gt;$ 0.1666667
^encontrar&lt;vblex&gt;&lt;pri&gt;&lt;p3&gt;&lt;sg&gt;$ ^se&lt;prn&gt;&lt;pro&gt;&lt;ref&gt;&lt;p3&gt;&lt;mf&gt;&lt;sp&gt;$ 0.0047847
^dessar&lt;vblex&gt;&lt;pri&gt;&lt;p2&gt;&lt;sg&gt;$ ^ese&lt;det&gt;&lt;dem&gt;&lt;f&gt;&lt;pl&gt;$ 0.2500000
^abordar&lt;vblex&gt;&lt;inf&gt;$ ^debatir&lt;vblex&gt;&lt;inf&gt;$ 1.0000000
^abordar&lt;vblex&gt;&lt;inf&gt;$ ^ya&lt;adv&gt;$ 0.0833333
^propor&lt;vblex&gt;&lt;pri&gt;&lt;p3&gt;&lt;sg&gt;$ ^informe&lt;n&gt;&lt;m&gt;&lt;sg&gt;$ 0.0169492
^propor&lt;vblex&gt;&lt;pri&gt;&lt;p3&gt;&lt;sg&gt;$ ^*Wogau$ 0.2000000
^propor&lt;vblex&gt;&lt;pri&gt;&lt;p3&gt;&lt;sg&gt;$ ^estipular&lt;vblex&gt;&lt;pri&gt;&lt;p3&gt;&lt;sg&gt;$ 0.3333333
^propor&lt;vblex&gt;&lt;pri&gt;&lt;p3&gt;&lt;sg&gt;$ ^representar&lt;vblex&gt;&lt;pri&gt;&lt;p3&gt;&lt;sg&gt;$ 0.5000000
^sobretudo&lt;adv&gt;$ ^depender&lt;vblex&gt;&lt;pri&gt;&lt;p3&gt;&lt;sg&gt;$ 0.3333333
^sobretudo&lt;adv&gt;$ ^sobre~todo&lt;adv&gt;$ 0.2500000
^sobretudo&lt;adv&gt;$ ^especialmente&lt;adv&gt;$ 0.2222222
^sobretudo&lt;adv&gt;$ ^Sobre~todo&lt;adv&gt;$ 1.0000000
^sobretudo&lt;adv&gt;$ ^,&lt;cm&gt;$ 0.0027211
^sobretudo&lt;adv&gt;$ ^en~cuanto~a&lt;pr&gt;$ 0.1000000
^reduzir&lt;vblex&gt;&lt;ifi&gt;&lt;p3&gt;&lt;pl&gt;$ ^reducir&lt;vblex&gt;&lt;pp&gt;&lt;m&gt;&lt;sg&gt;$ 0.5000000
^reduzir&lt;vblex&gt;&lt;ifi&gt;&lt;p3&gt;&lt;pl&gt;$ ^haber&lt;vbhaver&gt;&lt;pri&gt;&lt;p3&gt;&lt;pl&gt;$ 0.0250000
^fornecer&lt;vblex&gt;&lt;inf&gt;$ ^dar&lt;vblex&gt;&lt;cni&gt;&lt;p3&gt;&lt;sg&gt;$ 1.0000000
^dia&lt;n&gt;&lt;m&gt;&lt;sg&gt;$ ^día&lt;n&gt;&lt;m&gt;&lt;sg&gt;$ 0.8000000
^dia&lt;n&gt;&lt;m&gt;&lt;sg&gt;$ NULL 0.0023962
^dia&lt;n&gt;&lt;m&gt;&lt;sg&gt;$ ^económico&lt;adj&gt;&lt;m&gt;&lt;sg&gt;$ 1.0000000
^votar&lt;vblex&gt;&lt;fti&gt;&lt;p1&gt;&lt;pl&gt;$ ^voto&lt;n&gt;&lt;m&gt;&lt;sg&gt;$ 0.1250000
^votar&lt;vblex&gt;&lt;fti&gt;&lt;p1&gt;&lt;pl&gt;$ ^nuestro&lt;det&gt;&lt;pos&gt;&lt;m&gt;&lt;sg&gt;$ 0.1000000
^votar&lt;vblex&gt;&lt;fti&gt;&lt;p1&gt;&lt;pl&gt;$ ^favorable&lt;adj&gt;&lt;mf&gt;&lt;sg&gt;$ 0.3333333
^votar&lt;vblex&gt;&lt;fti&gt;&lt;p1&gt;&lt;pl&gt;$ ^dar&lt;vblex&gt;&lt;fti&gt;&lt;p1&gt;&lt;pl&gt;$ 1.0000000
^votar&lt;vblex&gt;&lt;fti&gt;&lt;p1&gt;&lt;pl&gt;$ ^le&lt;prn&gt;&lt;pro&gt;&lt;p3&gt;&lt;mf&gt;&lt;sg&gt;$ 0.0625000
^acontecer&lt;vblex&gt;&lt;ifi&gt;&lt;p3&gt;&lt;sg&gt;$ ^producir&lt;vblex&gt;&lt;pp&gt;&lt;m&gt;&lt;sg&gt;$ 0.2500000
^acontecer&lt;vblex&gt;&lt;ifi&gt;&lt;p3&gt;&lt;sg&gt;$ ^se&lt;prn&gt;&lt;pro&gt;&lt;ref&gt;&lt;p3&gt;&lt;mf&gt;&lt;sp&gt;$ 0.0095694
^acontecer&lt;vblex&gt;&lt;ifi&gt;&lt;p3&gt;&lt;sg&gt;$ ^así&lt;adv&gt;$ 0.1666667
^acontecer&lt;vblex&gt;&lt;ifi&gt;&lt;p3&gt;&lt;sg&gt;$ ^hacer&lt;vblex&gt;&lt;pp&gt;&lt;m&gt;&lt;sg&gt;$ 0.0625000
^acontecer&lt;vblex&gt;&lt;ifi&gt;&lt;p3&gt;&lt;sg&gt;$ ^haber&lt;vbhaver&gt;&lt;pri&gt;&lt;p3&gt;&lt;sg&gt;$ 0.0392157
^acontecer&lt;vblex&gt;&lt;ifi&gt;&lt;p3&gt;&lt;sg&gt;$ ^ocurrir&lt;vblex&gt;&lt;pp&gt;&lt;m&gt;&lt;sg&gt;$ 0.4000000
^direito&lt;n&gt;&lt;m&gt;&lt;pl&gt;$ ^!&lt;sent&gt;$ 0.1428571
^direito&lt;n&gt;&lt;m&gt;&lt;pl&gt;$ ^derecho&lt;n&gt;&lt;m&gt;&lt;pl&gt;$ 1.0000000
^agora&lt;adv&gt;$ ^suceder&lt;vblex&gt;&lt;pri&gt;&lt;p3&gt;&lt;sg&gt;$ 0.5000000
^agora&lt;adv&gt;$ ^ahora&lt;adv&gt;$ 0.4375000
^agora&lt;adv&gt;$ ^manifestar&lt;vblex&gt;&lt;prs&gt;&lt;p3&gt;&lt;sg&gt;$ 0.5000000
^agora&lt;adv&gt;$ ^originar&lt;vblex&gt;&lt;ger&gt;$ 0.5000000
^agora&lt;adv&gt;$ ^pedir&lt;vblex&gt;&lt;pri&gt;&lt;p1&gt;&lt;sg&gt;$ 0.1666667
^enquadrar&lt;vblex&gt;&lt;inf&gt;$ ^a&lt;pr&gt;$ 0.0034130
^enquadrar&lt;vblex&gt;&lt;inf&gt;$ ^poner&lt;vblex&gt;&lt;inf&gt;$ 0.2000000
^enquadrar&lt;vblex&gt;&lt;inf&gt;$ ^marco&lt;n&gt;&lt;m&gt;&lt;sg&gt;$ 0.1428571
^relevar&lt;vblex&gt;&lt;pri&gt;&lt;p3&gt;&lt;sg&gt;$ ^bien&lt;adv&gt;$ 0.0909091
^relevar&lt;vblex&gt;&lt;pri&gt;&lt;p3&gt;&lt;sg&gt;$ ^depender&lt;vblex&gt;&lt;pri&gt;&lt;p3&gt;&lt;sg&gt;$ 0.3333333
^adquirir&lt;vblex&gt;&lt;pp&gt;&lt;m&gt;&lt;sg&gt;$ ^adquirir&lt;vblex&gt;&lt;pp&gt;&lt;m&gt;&lt;sg&gt;$ 1.0000000
^comercializar&lt;vblex&gt;&lt;inf&gt;$ ^el&lt;det&gt;&lt;def&gt;&lt;f&gt;&lt;sg&gt;$ 0.0017212
^comercializar&lt;vblex&gt;&lt;inf&gt;$ ^comercialización&lt;n&gt;&lt;f&gt;&lt;sg&gt;$ 1.0000000
^Porque&lt;cnjadv&gt;$ ^Por~qué&lt;adv&gt;&lt;itg&gt;$ 0.3750000
^Porque&lt;cnjadv&gt;$ ^¿&lt;lquest&gt;$ 0.1250000
^específico&lt;adj&gt;&lt;f&gt;&lt;pl&gt;$ ^entre&lt;pr&gt;$ 0.0285714
^ser&lt;vbser&gt;&lt;ger&gt;$ ^ver&lt;vblex&gt;&lt;ger&gt;$ 0.5000000
^ser&lt;vbser&gt;&lt;ger&gt;$ ^admitir&lt;vblex&gt;&lt;pri&gt;&lt;p3&gt;&lt;pl&gt;$ 0.3333333
^ser&lt;vbser&gt;&lt;ger&gt;$ ^se&lt;prn&gt;&lt;pro&gt;&lt;ref&gt;&lt;p3&gt;&lt;mf&gt;&lt;sp&gt;$ 0.0047847
^ser&lt;vbser&gt;&lt;ger&gt;$ ^acuerdo&lt;n&gt;&lt;m&gt;&lt;sg&gt;$ 0.0714286
^11&lt;num&gt;$ ^11&lt;num&gt;$ 1.0000000
^si~próprio&lt;prn&gt;&lt;tn&gt;&lt;m&gt;&lt;sg&gt;$ ^sanidad&lt;n&gt;&lt;f&gt;&lt;sg&gt;$ 0.5000000
^salientar&lt;vblex&gt;&lt;pri&gt;&lt;p1&gt;&lt;sg&gt;$ ^subrayar&lt;vblex&gt;&lt;pri&gt;&lt;p1&gt;&lt;sg&gt;$ 1.0000000
^salientar&lt;vblex&gt;&lt;pri&gt;&lt;p1&gt;&lt;sg&gt;$ ^lo&lt;prn&gt;&lt;pro&gt;&lt;p3&gt;&lt;nt&gt;$ 0.0833333
^Responsável&lt;adj&gt;&lt;mf&gt;&lt;sg&gt;$ ^ser&lt;vbser&gt;&lt;pri&gt;&lt;p3&gt;&lt;pl&gt;$ 0.0526316
^Responsável&lt;adj&gt;&lt;mf&gt;&lt;sg&gt;$ ^todo~esto&lt;prn&gt;&lt;tn&gt;&lt;nt&gt;$ 0.1111111
^Responsável&lt;adj&gt;&lt;mf&gt;&lt;sg&gt;$ ^responsable&lt;adj&gt;&lt;mf&gt;&lt;pl&gt;$ 1.0000000
^Responsável&lt;adj&gt;&lt;mf&gt;&lt;sg&gt;$ ^De&lt;pr&gt;$ 0.0833333
^debater&lt;vblex&gt;&lt;pp&gt;&lt;m&gt;&lt;sg&gt;$ ^ni&lt;cnjcoo&gt;$ 0.0625000
^debater&lt;vblex&gt;&lt;pp&gt;&lt;m&gt;&lt;sg&gt;$ ^examinar&lt;vblex&gt;&lt;pp&gt;&lt;m&gt;&lt;sg&gt;$ 0.5000000
^O&lt;detnt&gt;$ ^El&lt;det&gt;&lt;def&gt;&lt;f&gt;&lt;sg&gt;$ 0.0476190
^O&lt;detnt&gt;$ ^¿&lt;lquest&gt;$ 0.0416667
^O&lt;detnt&gt;$ ^Lo&lt;detnt&gt;$ 0.6000000
^O&lt;detnt&gt;$ ^*World$ 0.5000000
^O&lt;detnt&gt;$ ^Y&lt;cnjcoo&gt;$ 0.1250000
^O&lt;detnt&gt;$ ^clave&lt;n&gt;&lt;f&gt;&lt;sg&gt;$ 0.1428571
^funcionamento&lt;n&gt;&lt;m&gt;&lt;sg&gt;$ ^para&lt;pr&gt;$ 0.0097087
^funcionamento&lt;n&gt;&lt;m&gt;&lt;sg&gt;$ ^funcionamiento&lt;n&gt;&lt;m&gt;&lt;sg&gt;$ 0.5714286
^Existir&lt;vblex&gt;&lt;pri&gt;&lt;p3&gt;&lt;pl&gt;$ ^También&lt;adv&gt;$ 0.0833333
^Existir&lt;vblex&gt;&lt;pri&gt;&lt;p3&gt;&lt;pl&gt;$ ^existir&lt;vblex&gt;&lt;pri&gt;&lt;p3&gt;&lt;pl&gt;$ 0.2500000
^Existir&lt;vblex&gt;&lt;pri&gt;&lt;p3&gt;&lt;pl&gt;$ ^acuerdo&lt;n&gt;&lt;m&gt;&lt;pl&gt;$ 0.1111111
^francês&lt;adj&gt;&lt;m&gt;&lt;sg&gt;$ ^francés&lt;n&gt;&lt;m&gt;&lt;sg&gt;$ 1.0000000
^ver&lt;vblex&gt;&lt;inf&gt;$ NULL 0.0007987
^ver&lt;vblex&gt;&lt;inf&gt;$ ^relativo&lt;adj&gt;&lt;f&gt;&lt;sg&gt;$ 0.1250000
^ver&lt;vblex&gt;&lt;inf&gt;$ ^afectar&lt;vblex&gt;&lt;pri&gt;&lt;p3&gt;&lt;sg&gt;$ 0.2500000
^ver&lt;vblex&gt;&lt;inf&gt;$ ^el&lt;det&gt;&lt;def&gt;&lt;m&gt;&lt;pl&gt;$ 0.0041494
^classificação&lt;n&gt;&lt;f&gt;&lt;sg&gt;$ ^clasificación&lt;n&gt;&lt;f&gt;&lt;sg&gt;$ 1.0000000
^mês&lt;n&gt;&lt;m&gt;&lt;sg&gt;$ ^mes&lt;n&gt;&lt;m&gt;&lt;sg&gt;$ 1.0000000
^Algum&lt;det&gt;&lt;ind&gt;&lt;m&gt;&lt;sg&gt;$ ^¿&lt;lquest&gt;$ 0.0416667
^Algum&lt;det&gt;&lt;ind&gt;&lt;m&gt;&lt;sg&gt;$ ^Alguno&lt;det&gt;&lt;ind&gt;&lt;m&gt;&lt;sg&gt;$ 1.0000000
^estrutural&lt;adj&gt;&lt;mf&gt;&lt;pl&gt;$ ^estructural&lt;adj&gt;&lt;mf&gt;&lt;pl&gt;$ 0.1428571
^estrutural&lt;adj&gt;&lt;mf&gt;&lt;pl&gt;$ ^empleo&lt;n&gt;&lt;m&gt;&lt;sg&gt;$ 0.0769231
^precisar&lt;vblex&gt;&lt;fts&gt;&lt;p1&gt;&lt;pl&gt;$ ^por&lt;pr&gt;$ 0.0092593
^ter&lt;vbhaver&gt;&lt;pri&gt;&lt;p3&gt;&lt;sg&gt;$ ^y&lt;cnjcoo&gt;$ 0.0032154
^ter&lt;vbhaver&gt;&lt;pri&gt;&lt;p3&gt;&lt;sg&gt;$ ^haber&lt;vbhaver&gt;&lt;pri&gt;&lt;p3&gt;&lt;sg&gt;$ 0.0294118
^ter&lt;vbhaver&gt;&lt;pri&gt;&lt;p3&gt;&lt;sg&gt;$ ^afectar&lt;vblex&gt;&lt;pri&gt;&lt;p3&gt;&lt;sg&gt;$ 0.2500000
^ter&lt;vbhaver&gt;&lt;pri&gt;&lt;p3&gt;&lt;sg&gt;$ ^tener&lt;vblex&gt;&lt;pri&gt;&lt;p3&gt;&lt;sg&gt;$ 0.1000000
^ter&lt;vbhaver&gt;&lt;pri&gt;&lt;p3&gt;&lt;sg&gt;$ ^uno&lt;det&gt;&lt;ind&gt;&lt;f&gt;&lt;sg&gt;$ 0.0084034
^ter&lt;vbhaver&gt;&lt;pri&gt;&lt;p3&gt;&lt;sg&gt;$ ^ocupar&lt;vblex&gt;&lt;pp&gt;&lt;m&gt;&lt;sg&gt;$ 0.2500000
^ter&lt;vbhaver&gt;&lt;pri&gt;&lt;p3&gt;&lt;sg&gt;$ ^ya&lt;ij&gt;$ 0.1666667
^não&lt;adv&gt;$ ^poder&lt;vbmod&gt;&lt;pri&gt;&lt;p3&gt;&lt;pl&gt;$ 0.1428571
^não&lt;adv&gt;$ ^papeleo&lt;n&gt;&lt;m&gt;&lt;pl&gt;$ 1.0000000
^não&lt;adv&gt;$ ^guardar&lt;vblex&gt;&lt;inf&gt;$ 0.1666667
^não&lt;adv&gt;$ ^tampoco&lt;adv&gt;$ 0.5000000
^não&lt;adv&gt;$ ^todo&lt;prn&gt;&lt;tn&gt;&lt;nt&gt;&lt;sg&gt;$ 0.1666667
^não&lt;adv&gt;$ ^afectar&lt;vblex&gt;&lt;pp&gt;&lt;f&gt;&lt;pl&gt;$ 0.3333333
^não&lt;adv&gt;$ ^no&lt;adv&gt;$ 0.7642276
^não&lt;adv&gt;$ ^provechoso&lt;adj&gt;&lt;f&gt;&lt;sg&gt;$ 0.3333333
^não&lt;adv&gt;$ ^*Jungfernrede$ 0.5000000
^não&lt;adv&gt;$ ^sobre~todo&lt;adv&gt;$ 0.1250000
^não&lt;adv&gt;$ ^competitivo&lt;adj&gt;&lt;f&gt;&lt;sg&gt;$ 0.2000000
^não&lt;adv&gt;$ ^*mejorable$ 0.2000000
^não&lt;adv&gt;$ ^destruir&lt;vblex&gt;&lt;prs&gt;&lt;p3&gt;&lt;sg&gt;$ 0.2500000
^não&lt;adv&gt;$ NULL 0.0023962
^não&lt;adv&gt;$ ^*Bernié$ 0.3333333
^não&lt;adv&gt;$ ^advertir&lt;vblex&gt;&lt;pp&gt;&lt;m&gt;&lt;sg&gt;$ 0.5000000
^não&lt;adv&gt;$ ^ni&lt;cnjcoo&gt;$ 0.0625000
^não&lt;adv&gt;$ ^Seguridad&lt;n&gt;&lt;f&gt;&lt;sg&gt;$ 0.2500000
^Defender&lt;vblex&gt;&lt;pri&gt;&lt;p1&gt;&lt;sg&gt;$ ^general&lt;n&gt;&lt;mf&gt;&lt;sg&gt;$ 1.0000000
^Defender&lt;vblex&gt;&lt;pri&gt;&lt;p1&gt;&lt;sg&gt;$ ^En&lt;pr&gt;$ 0.0222222
^enquanto&lt;adv&gt;$ ^motor&lt;n&gt;&lt;m&gt;&lt;pl&gt;$ 0.5000000
^enquanto&lt;adv&gt;$ ^mientras~que&lt;cnjadv&gt;$ 1.0000000
^enquanto&lt;adv&gt;$ ^liberal&lt;adj&gt;&lt;mf&gt;&lt;pl&gt;$ 0.5000000
^ter#~de&lt;vblex&gt;&lt;fti&gt;&lt;p3&gt;&lt;sg&gt;$ ^pues&lt;cnjadv&gt;$ 0.1000000
^ter#~de&lt;vblex&gt;&lt;fti&gt;&lt;p3&gt;&lt;sg&gt;$ ^hay&lt;vblex&gt;&lt;pri&gt;&lt;p3&gt;&lt;sg&gt;$ 0.0714286
^se&lt;prn&gt;&lt;enc&gt;&lt;ref&gt;&lt;p3&gt;&lt;mf&gt;&lt;sp&gt;$ ^resultar&lt;vblex&gt;&lt;pri&gt;&lt;p3&gt;&lt;pl&gt;$ 0.5000000
^se&lt;prn&gt;&lt;enc&gt;&lt;ref&gt;&lt;p3&gt;&lt;mf&gt;&lt;sp&gt;$ ^mantener&lt;vblex&gt;&lt;ger&gt;$ 0.3333333
^se&lt;prn&gt;&lt;enc&gt;&lt;ref&gt;&lt;p3&gt;&lt;mf&gt;&lt;sp&gt;$ ^familiarizar&lt;vblex&gt;&lt;pp&gt;&lt;m&gt;&lt;sg&gt;$ 0.5000000
^se&lt;prn&gt;&lt;enc&gt;&lt;ref&gt;&lt;p3&gt;&lt;mf&gt;&lt;sp&gt;$ ^unir&lt;vblex&gt;&lt;fti&gt;&lt;p3&gt;&lt;pl&gt;$ 0.5000000
^se&lt;prn&gt;&lt;enc&gt;&lt;ref&gt;&lt;p3&gt;&lt;mf&gt;&lt;sp&gt;$ ^que&lt;cnjsub&gt;$ 0.0042553
^se&lt;prn&gt;&lt;enc&gt;&lt;ref&gt;&lt;p3&gt;&lt;mf&gt;&lt;sp&gt;$ ^claramente&lt;adv&gt;$ 0.5000000
^se&lt;prn&gt;&lt;enc&gt;&lt;ref&gt;&lt;p3&gt;&lt;mf&gt;&lt;sp&gt;$ ^y&lt;cnjcoo&gt;$ 0.0064309
^se&lt;prn&gt;&lt;enc&gt;&lt;ref&gt;&lt;p3&gt;&lt;mf&gt;&lt;sp&gt;$ ^precisamente&lt;adv&gt;$ 0.3333333
^se&lt;prn&gt;&lt;enc&gt;&lt;ref&gt;&lt;p3&gt;&lt;mf&gt;&lt;sp&gt;$ ^reforzar&lt;vblex&gt;&lt;pp&gt;&lt;f&gt;&lt;sg&gt;$ 0.3333333
^se&lt;prn&gt;&lt;enc&gt;&lt;ref&gt;&lt;p3&gt;&lt;mf&gt;&lt;sp&gt;$ ^incluir&lt;vblex&gt;&lt;pp&gt;&lt;f&gt;&lt;sg&gt;$ 0.2000000
^se&lt;prn&gt;&lt;enc&gt;&lt;ref&gt;&lt;p3&gt;&lt;mf&gt;&lt;sp&gt;$ ^ir&lt;vblex&gt;&lt;prs&gt;&lt;p3&gt;&lt;pl&gt;$ 0.5000000
^se&lt;prn&gt;&lt;enc&gt;&lt;ref&gt;&lt;p3&gt;&lt;mf&gt;&lt;sp&gt;$ ^agravar&lt;vblex&gt;&lt;pri&gt;&lt;p3&gt;&lt;sg&gt;$ 1.0000000
^se&lt;prn&gt;&lt;enc&gt;&lt;ref&gt;&lt;p3&gt;&lt;mf&gt;&lt;sp&gt;$ ^sostenible&lt;adj&gt;&lt;mf&gt;&lt;sg&gt;$ 0.2000000
^se&lt;prn&gt;&lt;enc&gt;&lt;ref&gt;&lt;p3&gt;&lt;mf&gt;&lt;sp&gt;$ ^superar&lt;vblex&gt;&lt;inf&gt;$ 0.5000000
^se&lt;prn&gt;&lt;enc&gt;&lt;ref&gt;&lt;p3&gt;&lt;mf&gt;&lt;sp&gt;$ ^ascender&lt;vblex&gt;&lt;pri&gt;&lt;p3&gt;&lt;sg&gt;$ 0.5000000
^se&lt;prn&gt;&lt;enc&gt;&lt;ref&gt;&lt;p3&gt;&lt;mf&gt;&lt;sp&gt;$ ^sino&lt;cnjcoo&gt;$ 0.1428571
^se&lt;prn&gt;&lt;enc&gt;&lt;ref&gt;&lt;p3&gt;&lt;mf&gt;&lt;sp&gt;$ ^pan&lt;n&gt;&lt;m&gt;&lt;sg&gt;$ 1.0000000
^se&lt;prn&gt;&lt;enc&gt;&lt;ref&gt;&lt;p3&gt;&lt;mf&gt;&lt;sp&gt;$ ^mantener&lt;vblex&gt;&lt;pri&gt;&lt;p3&gt;&lt;sg&gt;$ 0.5000000
^se&lt;prn&gt;&lt;enc&gt;&lt;ref&gt;&lt;p3&gt;&lt;mf&gt;&lt;sp&gt;$ ^deber&lt;vbmod&gt;&lt;cni&gt;&lt;p3&gt;&lt;pl&gt;$ 0.1666667
^se&lt;prn&gt;&lt;enc&gt;&lt;ref&gt;&lt;p3&gt;&lt;mf&gt;&lt;sp&gt;$ ^sustituir&lt;vblex&gt;&lt;inf&gt;$ 0.5000000
^se&lt;prn&gt;&lt;enc&gt;&lt;ref&gt;&lt;p3&gt;&lt;mf&gt;&lt;sp&gt;$ ^encontrar&lt;vblex&gt;&lt;pri&gt;&lt;p3&gt;&lt;sg&gt;$ 0.1666667
^se&lt;prn&gt;&lt;enc&gt;&lt;ref&gt;&lt;p3&gt;&lt;mf&gt;&lt;sp&gt;$ ^dramáticamente&lt;adv&gt;$ 0.3333333
^se&lt;prn&gt;&lt;enc&gt;&lt;ref&gt;&lt;p3&gt;&lt;mf&gt;&lt;sp&gt;$ ^pasarse&lt;vblex&gt;&lt;cni&gt;&lt;p3&gt;&lt;sg&gt;$ 0.3333333
^se&lt;prn&gt;&lt;enc&gt;&lt;ref&gt;&lt;p3&gt;&lt;mf&gt;&lt;sp&gt;$ ^se&lt;prn&gt;&lt;pro&gt;&lt;ref&gt;&lt;p3&gt;&lt;mf&gt;&lt;sp&gt;$ 0.0191388
^se&lt;prn&gt;&lt;enc&gt;&lt;ref&gt;&lt;p3&gt;&lt;mf&gt;&lt;sp&gt;$ ^ser&lt;vbser&gt;&lt;ger&gt;$ 0.1000000
^se&lt;prn&gt;&lt;enc&gt;&lt;ref&gt;&lt;p3&gt;&lt;mf&gt;&lt;sp&gt;$ ^recordar&lt;vblex&gt;&lt;pp&gt;&lt;m&gt;&lt;sg&gt;$ 0.2000000
^se&lt;prn&gt;&lt;enc&gt;&lt;ref&gt;&lt;p3&gt;&lt;mf&gt;&lt;sp&gt;$ ^permanecer&lt;vblex&gt;&lt;inf&gt;$ 0.5000000
^se&lt;prn&gt;&lt;enc&gt;&lt;ref&gt;&lt;p3&gt;&lt;mf&gt;&lt;sp&gt;$ ^el&lt;det&gt;&lt;def&gt;&lt;m&gt;&lt;sg&gt;$ 0.0036364
^se&lt;prn&gt;&lt;enc&gt;&lt;ref&gt;&lt;p3&gt;&lt;mf&gt;&lt;sp&gt;$ NULL 0.0047923
^se&lt;prn&gt;&lt;enc&gt;&lt;ref&gt;&lt;p3&gt;&lt;mf&gt;&lt;sp&gt;$ ^aludir&lt;vblex&gt;&lt;pri&gt;&lt;p3&gt;&lt;sg&gt;$ 0.5000000
^se&lt;prn&gt;&lt;enc&gt;&lt;ref&gt;&lt;p3&gt;&lt;mf&gt;&lt;sp&gt;$ ^consolidar&lt;vblex&gt;&lt;pp&gt;&lt;m&gt;&lt;sg&gt;$ 0.5000000
^se&lt;prn&gt;&lt;enc&gt;&lt;ref&gt;&lt;p3&gt;&lt;mf&gt;&lt;sp&gt;$ ^pie&lt;n&gt;&lt;m&gt;&lt;sg&gt;$ 0.5000000
^*burocracia$ ^*burocracia$ 1.0000000
^*bastantes$ ^*disentido$ 0.3333333
^*bastantes$ ^repetidamente&lt;adv&gt;$ 0.5000000
^ontem~à~noite&lt;adv&gt;$ NULL 0.0007987
^receber&lt;vblex&gt;&lt;prs&gt;&lt;p1&gt;&lt;sg&gt;$ ^recibir&lt;vblex&gt;&lt;prs&gt;&lt;p3&gt;&lt;sg&gt;$ 1.0000000
^apresentar&lt;vblex&gt;&lt;pp&gt;&lt;f&gt;&lt;pl&gt;$ ^presente&lt;n&gt;&lt;m&gt;&lt;pl&gt;$ 1.0000000
^apresentar&lt;vblex&gt;&lt;pp&gt;&lt;f&gt;&lt;pl&gt;$ ^dar&lt;vblex&gt;&lt;pri&gt;&lt;p1&gt;&lt;pl&gt;$ 0.2000000
^apresentar&lt;vblex&gt;&lt;pp&gt;&lt;f&gt;&lt;pl&gt;$ ^en&lt;pr&gt;$ 0.0058997
^apresentar&lt;vblex&gt;&lt;pp&gt;&lt;f&gt;&lt;pl&gt;$ NULL 0.0007987
^apresentar&lt;vblex&gt;&lt;pp&gt;&lt;f&gt;&lt;pl&gt;$ ^informe&lt;n&gt;&lt;m&gt;&lt;pl&gt;$ 0.1428571
^gigantesco&lt;adj&gt;&lt;f&gt;&lt;pl&gt;$ ^absorción&lt;n&gt;&lt;f&gt;&lt;pl&gt;$ 1.0000000
^algo&lt;prn&gt;&lt;tn&gt;&lt;nt&gt;&lt;sg&gt;$ ^contribuir&lt;vblex&gt;&lt;pp&gt;&lt;m&gt;&lt;sg&gt;$ 0.2000000
^algo&lt;prn&gt;&lt;tn&gt;&lt;nt&gt;&lt;sg&gt;$ NULL 0.0007987
^algo&lt;prn&gt;&lt;tn&gt;&lt;nt&gt;&lt;sg&gt;$ ^resaltar&lt;vblex&gt;&lt;inf&gt;$ 0.2500000
^ter#~de&lt;vblex&gt;&lt;ifi&gt;&lt;p3&gt;&lt;sg&gt;$ ^deber&lt;vbmod&gt;&lt;pp&gt;&lt;m&gt;&lt;sg&gt;$ 0.5000000
^ter#~de&lt;vblex&gt;&lt;ifi&gt;&lt;p3&gt;&lt;sg&gt;$ ^haber&lt;vbhaver&gt;&lt;pri&gt;&lt;p3&gt;&lt;sg&gt;$ 0.0098039
^contrapartida&lt;n&gt;&lt;f&gt;&lt;sg&gt;$ ^cambio&lt;n&gt;&lt;m&gt;&lt;sg&gt;$ 0.1111111
^presente&lt;adj&gt;&lt;mf&gt;&lt;sg&gt;$ ^Este&lt;det&gt;&lt;dem&gt;&lt;f&gt;&lt;sg&gt;$ 0.2500000
^presente&lt;adj&gt;&lt;mf&gt;&lt;sg&gt;$ ^el&lt;det&gt;&lt;def&gt;&lt;m&gt;&lt;sg&gt;$ 0.0018182
^presente&lt;adj&gt;&lt;mf&gt;&lt;sg&gt;$ ^presente&lt;adj&gt;&lt;mf&gt;&lt;sg&gt;$ 0.5000000
^presente&lt;adj&gt;&lt;mf&gt;&lt;sg&gt;$ ^aquí&lt;adv&gt;$ 0.1111111
^ser&lt;vbser&gt;&lt;ifi&gt;&lt;p3&gt;&lt;sg&gt;$ ^Ser&lt;vbser&gt;&lt;pii&gt;&lt;p3&gt;&lt;sg&gt;$ 0.5000000
^ser&lt;vbser&gt;&lt;ifi&gt;&lt;p3&gt;&lt;sg&gt;$ ^firmar&lt;vblex&gt;&lt;pp&gt;&lt;m&gt;&lt;sg&gt;$ 0.3333333
^ser&lt;vbser&gt;&lt;ifi&gt;&lt;p3&gt;&lt;sg&gt;$ NULL 0.0007987
^ser&lt;vbser&gt;&lt;ifi&gt;&lt;p3&gt;&lt;sg&gt;$ ^datar&lt;vblex&gt;&lt;pri&gt;&lt;p3&gt;&lt;sg&gt;$ 0.5000000
^ser&lt;vbser&gt;&lt;ifi&gt;&lt;p3&gt;&lt;sg&gt;$ ^Así&lt;adv&gt;$ 0.2000000
^ser&lt;vbser&gt;&lt;ifi&gt;&lt;p3&gt;&lt;sg&gt;$ ^se&lt;prn&gt;&lt;pro&gt;&lt;ref&gt;&lt;p3&gt;&lt;mf&gt;&lt;sp&gt;$ 0.0622010
^ser&lt;vbser&gt;&lt;ifi&gt;&lt;p3&gt;&lt;sg&gt;$ ^hacer&lt;vblex&gt;&lt;pii&gt;&lt;p3&gt;&lt;sg&gt;$ 0.5000000
^ser&lt;vbser&gt;&lt;ifi&gt;&lt;p3&gt;&lt;sg&gt;$ ^ser&lt;vbser&gt;&lt;ifi&gt;&lt;p3&gt;&lt;sg&gt;$ 0.5714286
^ser&lt;vbser&gt;&lt;ifi&gt;&lt;p3&gt;&lt;sg&gt;$ ^también&lt;adv&gt;$ 0.0307692
^ser&lt;vbser&gt;&lt;ifi&gt;&lt;p3&gt;&lt;sg&gt;$ ^ir&lt;vblex&gt;&lt;pri&gt;&lt;p3&gt;&lt;sg&gt;$ 0.1428571
^ser&lt;vbser&gt;&lt;ifi&gt;&lt;p3&gt;&lt;sg&gt;$ ^de~verdad&lt;adv&gt;$ 0.2500000
^ser&lt;vbser&gt;&lt;ifi&gt;&lt;p3&gt;&lt;sg&gt;$ ^tomar&lt;vblex&gt;&lt;pp&gt;&lt;m&gt;&lt;sg&gt;$ 0.3333333
^ser&lt;vbser&gt;&lt;ifi&gt;&lt;p3&gt;&lt;sg&gt;$ ^ser&lt;vbser&gt;&lt;pp&gt;&lt;m&gt;&lt;sg&gt;$ 0.4210526
^ser&lt;vbser&gt;&lt;ifi&gt;&lt;p3&gt;&lt;sg&gt;$ ^haber&lt;vbhaver&gt;&lt;pri&gt;&lt;p1&gt;&lt;pl&gt;$ 0.0769231
^ser&lt;vbser&gt;&lt;ifi&gt;&lt;p3&gt;&lt;sg&gt;$ ^haber&lt;vbhaver&gt;&lt;pri&gt;&lt;p3&gt;&lt;sg&gt;$ 0.1764706
^mercado&lt;n&gt;&lt;m&gt;&lt;sg&gt;$ ^mercado&lt;n&gt;&lt;m&gt;&lt;sg&gt;$ 0.9696970
^mercado&lt;n&gt;&lt;m&gt;&lt;sg&gt;$ ^mercado&lt;n&gt;&lt;m&gt;&lt;pl&gt;$ 0.5000000
^mercado&lt;n&gt;&lt;m&gt;&lt;sg&gt;$ ^dominante&lt;adj&gt;&lt;mf&gt;&lt;sg&gt;$ 0.3333333
^mercado&lt;n&gt;&lt;m&gt;&lt;sg&gt;$ ^Mercado&lt;n&gt;&lt;m&gt;&lt;sg&gt;$ 1.0000000
^político&lt;adj&gt;&lt;f&gt;&lt;sg&gt;$ ^político&lt;adj&gt;&lt;m&gt;&lt;pl&gt;$ 1.0000000
^político&lt;adj&gt;&lt;f&gt;&lt;sg&gt;$ ^político&lt;adj&gt;&lt;f&gt;&lt;sg&gt;$ 1.0000000
^periférico&lt;adj&gt;&lt;f&gt;&lt;pl&gt;$ ^cuenta&lt;n&gt;&lt;f&gt;&lt;sg&gt;$ 0.0714286
^costume&lt;n&gt;&lt;m&gt;&lt;sg&gt;$ ^a&lt;pr&gt;$ 0.0034130
^costume&lt;n&gt;&lt;m&gt;&lt;sg&gt;$ ^escuchar&lt;vblex&gt;&lt;fti&gt;&lt;p1&gt;&lt;pl&gt;$ 0.1666667
^Deslocar&lt;vblex&gt;&lt;ger&gt;$ ^trasladar&lt;vblex&gt;&lt;ger&gt;$ 1.0000000
^Deslocar&lt;vblex&gt;&lt;ger&gt;$ ^Poder&lt;vbmod&gt;&lt;pri&gt;&lt;p1&gt;&lt;pl&gt;$ 0.5000000
^Deslocar&lt;vblex&gt;&lt;ger&gt;$ ^evitar&lt;vblex&gt;&lt;inf&gt;$ 0.1666667
^naturalmente&lt;adv&gt;$ ^también&lt;adv&gt;$ 0.0307692
^naturalmente&lt;adv&gt;$ ^con&lt;pr&gt;$ 0.0133333
^naturalmente&lt;adv&gt;$ ^,&lt;cm&gt;$ 0.0027211
^naturalmente&lt;adv&gt;$ ^compartir&lt;vblex&gt;&lt;pri&gt;&lt;p3&gt;&lt;pl&gt;$ 1.0000000
^clima&lt;n&gt;&lt;m&gt;&lt;sg&gt;$ ^frío&lt;adj&gt;&lt;m&gt;&lt;sg&gt;$ 0.5000000
^estimado&lt;n&gt;&lt;m&gt;&lt;pl&gt;$ ^*Señorías$ 0.0625000
^decisão&lt;n&gt;&lt;f&gt;&lt;pl&gt;$ ^decisión&lt;n&gt;&lt;f&gt;&lt;pl&gt;$ 1.0000000
^decisão&lt;n&gt;&lt;f&gt;&lt;pl&gt;$ ^existir&lt;vblex&gt;&lt;pri&gt;&lt;p3&gt;&lt;pl&gt;$ 0.2500000
^reabrir&lt;vblex&gt;&lt;pp&gt;&lt;f&gt;&lt;sg&gt;$ ^reanudar&lt;vblex&gt;&lt;pp&gt;&lt;m&gt;&lt;sg&gt;$ 1.0000000
^Poder&lt;vbmod&gt;&lt;pri&gt;&lt;p1&gt;&lt;sg&gt;$ ^Le&lt;prn&gt;&lt;pro&gt;&lt;p3&gt;&lt;mf&gt;&lt;pl&gt;$ 1.0000000
^Poder&lt;vbmod&gt;&lt;pri&gt;&lt;p1&gt;&lt;sg&gt;$ ^Poder&lt;vbmod&gt;&lt;pri&gt;&lt;p1&gt;&lt;sg&gt;$ 0.5000000
^Poder&lt;vbmod&gt;&lt;pri&gt;&lt;p1&gt;&lt;sg&gt;$ ^poder&lt;vbmod&gt;&lt;pri&gt;&lt;p1&gt;&lt;sg&gt;$ 0.1666667
^Poder&lt;vbmod&gt;&lt;pri&gt;&lt;p1&gt;&lt;sg&gt;$ ^No&lt;adv&gt;$ 0.0434783
^ter&lt;vbhaver&gt;&lt;prs&gt;&lt;p1&gt;&lt;sg&gt;$ ^haber&lt;vbhaver&gt;&lt;pri&gt;&lt;p3&gt;&lt;sg&gt;$ 0.0098039
^ter&lt;vbhaver&gt;&lt;prs&gt;&lt;p1&gt;&lt;sg&gt;$ ^votar&lt;vblex&gt;&lt;ifi&gt;&lt;p1&gt;&lt;sg&gt;$ 0.5000000
^legítimo&lt;adj&gt;&lt;m&gt;&lt;pl&gt;$ ^legítimo&lt;adj&gt;&lt;m&gt;&lt;pl&gt;$ 1.0000000
^proporcionar&lt;vblex&gt;&lt;inf&gt;$ ^equilibrio&lt;n&gt;&lt;m&gt;&lt;sg&gt;$ 0.3333333
^dois&lt;num&gt;&lt;f&gt;&lt;sp&gt;$ ^dos&lt;num&gt;&lt;mf&gt;&lt;sp&gt;$ 0.5555556
^dois&lt;num&gt;&lt;f&gt;&lt;sp&gt;$ ^ambas&lt;prn&gt;&lt;tn&gt;&lt;f&gt;&lt;pl&gt;$ 0.5000000
^país&lt;n&gt;&lt;m&gt;&lt;pl&gt;$ ^retraso&lt;n&gt;&lt;m&gt;&lt;sg&gt;$ 0.2500000
^país&lt;n&gt;&lt;m&gt;&lt;pl&gt;$ ^país&lt;n&gt;&lt;m&gt;&lt;pl&gt;$ 0.7857143
^extraordinariamente&lt;adv&gt;$ ^extraordinariamente&lt;adv&gt;$ 0.4000000
^7&lt;num&gt;$ ^7&lt;num&gt;$ 1.0000000
^estimulante&lt;adj&gt;&lt;mf&gt;&lt;pl&gt;$ ^estímulo&lt;n&gt;&lt;m&gt;&lt;pl&gt;$ 1.0000000
^tornar&lt;vblex&gt;&lt;pri&gt;&lt;p3&gt;&lt;sg&gt;$ NULL 0.0015974
^leve&lt;adj&gt;&lt;mf&gt;&lt;sg&gt;$ ^esto&lt;prn&gt;&lt;tn&gt;&lt;nt&gt;$ 0.0555556
^leve&lt;adj&gt;&lt;mf&gt;&lt;sg&gt;$ ^tomar&lt;vblex&gt;&lt;prs&gt;&lt;p3&gt;&lt;sg&gt;$ 0.5000000
^caso&lt;n&gt;&lt;m&gt;&lt;sg&gt;$ ^notificar&lt;vblex&gt;&lt;inf&gt;$ 0.2500000
^caso&lt;n&gt;&lt;m&gt;&lt;sg&gt;$ ^especialmente&lt;adv&gt;$ 0.1111111
^caso&lt;n&gt;&lt;m&gt;&lt;sg&gt;$ ^caso&lt;n&gt;&lt;m&gt;&lt;sg&gt;$ 0.6363636
^caso&lt;n&gt;&lt;m&gt;&lt;sg&gt;$ NULL 0.0015974
^caso&lt;n&gt;&lt;m&gt;&lt;sg&gt;$ ^estreno&lt;n&gt;&lt;m&gt;&lt;sg&gt;$ 1.0000000
^código&lt;n&gt;&lt;m&gt;&lt;sg&gt;$ ^código&lt;n&gt;&lt;m&gt;&lt;sg&gt;$ 1.0000000
^código&lt;n&gt;&lt;m&gt;&lt;sg&gt;$ ^Código&lt;n&gt;&lt;m&gt;&lt;sg&gt;$ 1.0000000
^utilização&lt;n&gt;&lt;f&gt;&lt;sg&gt;$ ^adecuado&lt;adj&gt;&lt;m&gt;&lt;sg&gt;$ 0.3333333
^servir&lt;vblex&gt;&lt;inf&gt;$ ^a&lt;pr&gt;$ 0.0034130
^servir&lt;vblex&gt;&lt;inf&gt;$ ^servicio&lt;n&gt;&lt;m&gt;&lt;sg&gt;$ 1.0000000
^quatro&lt;num&gt;&lt;mf&gt;&lt;sp&gt;$ ^cuatro&lt;num&gt;&lt;mf&gt;&lt;sp&gt;$ 1.0000000
^sequência&lt;n&gt;&lt;f&gt;&lt;sg&gt;$ ^consecutivo&lt;adj&gt;&lt;f&gt;&lt;sg&gt;$ 0.2000000
