^el~mismo<det><ind><m><pl>$ NULL 0.0010499
^término<n><m><pl>$ ^reason<n><pl>$ 0.1666667
^término<n><m><pl>$ ^for<pr>$ 0.0066225
^de~manera~que<cnjadv>$ ^so<cnjadv>$ 0.1428571
^de~manera~que<cnjadv>$ ^so<preadv>$ 0.0555556
^de~manera~que<cnjadv>$ ^and<cnjcoo>$ 0.0029499
^centro<n><m><pl>$ ^strong<adj><sint><sup>$ 1.0000000
^85<num>$ ^85<num>$ 1.0000000
^financiación<n><f><sg>$ ^scheme<n><pl>$ 0.3333333
^financiación<n><f><sg>$ ^to<pr>$ 0.0045147
^financiación<n><f><sg>$ ^link<vblex><inf>$ 0.2000000
^*CEN$ ^have<vbhaver><pri><p3><sg>$ 0.0133333
^*CEN$ ^*CEN$ 0.8000000
^*CEN$ ^work<n><sg>$ 0.0370370
^propuesta<n><f><sg>$ ^thing<n><sg>$ 0.2000000
^propuesta<n><f><sg>$ ^164<num>$ 0.5000000
^propuesta<n><f><sg>$ ^*PPE$ 0.3333333
^propuesta<n><f><sg>$ ^*s$ 0.0338983
^propuesta<n><f><sg>$ NULL 0.0005249
^propuesta<n><f><sg>$ ^'<apos>$ 0.0307692
^propuesta<n><f><sg>$ ^proposal<n><pl>$ 0.0909091
^propuesta<n><f><sg>$ ^take#~responsibility<vblex><inf>$ 1.0000000
^propuesta<n><f><sg>$ ^proposal<n><sg>$ 1.0000000
^plano<n><m><sg>$ ^again<adv>$ 0.0833333
^plano<n><m><sg>$ ^*forefront$ 0.5000000
^plano<n><m><sg>$ ^at<pr>$ 0.0312500
^seriamente<adv>$ ^considerable<adj>$ 0.5000000
^seriamente<adv>$ ^be<vbser><inf>$ 0.0071429
^seriamente<adv>$ ^behind<adv>$ 0.2000000
^seriamente<adv>$ ^disadvantage<n><sg>$ 0.5000000
^el~que<rel><nn><f><pl>$ ^be<vbser><pri><p3><sg>$ 0.0039062
^el~que<rel><nn><f><pl>$ ^knowledge<n><sg>$ 0.2000000
^*comitología$ ^unanimously<adv>$ 0.2000000
^encabezar<vblex><pri><p3><pl>$ ^benefit<n><sg>$ 0.2500000
^encabezar<vblex><pri><p3><pl>$ ^from<pr>$ 0.0277778
^de~momento<adv>$ ^at~present<adv>$ 0.2500000
^inspiración<n><f><sg>$ ^which<prn><itg><m><sp>$ 0.0169492
^inspiración<n><f><sg>$ ^prpers<prn><obj><p1><mf><pl>$ 0.0322581
^inspiración<n><f><sg>$ ^this<prn><tn><mf><sg>$ 0.0128205
^inspiración<n><f><sg>$ ^inspire<vblex><past>$ 0.2500000
^haber<vbhaver><pis><p3><pl>$ ^take#~place<vblex><pp>$ 0.1666667
^haber<vbhaver><pis><p3><pl>$ ^have<vbhaver><inf>$ 0.0400000
^problema<n><m><sg>$ ^refer<vblex><inf>$ 0.1428571
^problema<n><m><sg>$ ^matter<n><sg>$ 0.0588235
^problema<n><m><sg>$ ^problem<n><sg>$ 0.6000000
^problema<n><m><sg>$ ^great<adj><sint><sup>$ 0.2000000
^existir<vblex><pp><m><sg>$ ^without<pr>$ 0.2000000
^existir<vblex><pp><m><sg>$ ^take#~place<vblex><pp>$ 0.1666667
^miércoles<n><m><sp>$ ^sit<vblex><ger>$ 0.1000000
^miércoles<n><m><sp>$ ^Wednesday<n><sg>$ 1.0000000
^miércoles<n><m><sp>$ ^relate<vblex><ger>$ 0.2500000
^precedente<n><m><sg>$ ^as<cnjadv>$ 0.0344828
^precedente<n><m><sg>$ ^test<n><sg>$ 0.2500000
^precedente<n><m><sg>$ ^good<adj><sint>$ 0.1250000
^especializado<adj><m><pl>$ ^lawyer<n><pl>$ 0.2000000
^jueves<n><m><sp>$ ^on<adv>$ 0.0363636
^jueves<n><m><sp>$ ^Thursday<n><sg>$ 0.8000000
^jueves<n><m><sp>$ ^president<n><pl>$ 0.2500000
^globalización<n><f><sg>$ ^globalisation<n><sg>$ 0.5000000
^globalización<n><f><sg>$ ^*eastward$ 0.3333333
^globalización<n><f><sg>$ ^how<adv><itg>$ 0.0909091
^*Ginebra$ ^in<pr>$ 0.0032787
^*Ginebra$ ^Geneva<np><ant><f><sg>$ 0.5000000
^hacer<vblex><pp><f><sg>$ ^yesterday~afternoon<adv>$ 0.5000000
^hacer<vblex><pp><f><sg>$ ^invitation<n><sg>$ 0.3333333
^*ultramar$ ^remote<adj>$ 0.3333333
^seguro<adj><m><sg>$ ^hat<n><sg>$ 0.2500000
^tecnología<n><f><pl>$ ^technology<n><sg>$ 0.5000000
^aplauso<n><m><pl>$ ^from<pr>$ 0.0277778
^aplauso<n><m><pl>$ ^applause<n><sg>$ 1.0000000
^poder<vbmod><pri><p1><sg>$ ^imagine<vblex><inf>$ 0.1666667
^poder<vbmod><pri><p1><sg>$ ^live<vblex><inf>$ 0.2000000
^poder<vbmod><pri><p1><sg>$ ^share<vblex><inf>$ 0.3333333
^poder<vbmod><pri><p1><sg>$ ^object<n><sg>$ 0.1428571
^poder<vbmod><pri><p1><sg>$ ^tell<vblex><inf>$ 0.1111111
^poder<vbmod><pri><p1><sg>$ ^can<vaux><pres>$ 0.0909091
^poder<vbmod><pri><p1><sg>$ ^prpers<prn><subj><p1><mf><sg>$ 0.0190476
^paso<n><m><pl>$ ^step#~forward<n><pl>$ 0.1111111
^ir<vblex><pri><p3><sg>$ ^beyond<adv>$ 0.5000000
^ir<vblex><pri><p3><sg>$ NULL 0.0005249
^ir<vblex><pri><p3><sg>$ ^shortly<adv>$ 0.2500000
^ir<vblex><pri><p3><sg>$ ^so~much<adv>$ 0.2500000
^ir<vblex><pri><p3><sg>$ ^will<vaux><inf>$ 0.0375000
^ir<vblex><pri><p3><sg>$ ^less<adv>$ 0.3333333
^para<pr>$ ^living<adj>$ 1.0000000
^para<pr>$ ^evening<n><sg>$ 0.5000000
^para<pr>$ ^goal<n><pl>$ 0.1666667
^para<pr>$ ^young<adj><sint>$ 0.2500000
^para<pr>$ ^regulate<vblex><inf>$ 0.1666667
^para<pr>$ ^propose<vblex><inf>$ 0.1250000
^para<pr>$ ^county<n><pl>$ 0.2500000
^para<pr>$ ^*DE$ 0.2000000
^para<pr>$ ^endorse<vblex><inf>$ 0.2500000
^para<pr>$ ^basic<adj>$ 0.2500000
^para<pr>$ ^forthcoming<adj>$ 0.3333333
^para<pr>$ ^conclude<vblex><inf>$ 0.2500000
^para<pr>$ ^challenge<vblex><inf>$ 0.3333333
^para<pr>$ ^obstacle<n><sg>$ 0.3333333
^para<pr>$ ^powerful<adj>$ 0.3333333
^para<pr>$ ^achieve<vblex><ger>$ 0.2000000
^para<pr>$ ^advise<vblex><inf>$ 0.5000000
^para<pr>$ ^attend<vblex><inf>$ 0.5000000
^para<pr>$ ^creation<n><sg>$ 0.2000000
^para<pr>$ ^core<n><sg>$ 1.0000000
^para<pr>$ ^chance<n><sg>$ 0.2857143
^para<pr>$ ^cross<n><sg>$ 0.2000000
^para<pr>$ ^prevent<vblex><inf>$ 0.5000000
^para<pr>$ ^for<pr>$ 0.2119205
^para<pr>$ ^consequence<n><pl>$ 0.3333333
^para<pr>$ ^regard<vblex><ger>$ 0.5000000
^para<pr>$ ^lay<vblex><pp>$ 0.2500000
^para<pr>$ ^out<pr>$ 0.2500000
^para<pr>$ ^comment<vblex><inf>$ 0.2000000
^para<pr>$ ^can<n><sg>$ 0.2500000
^para<pr>$ ^vital<adj>$ 0.5000000
^para<pr>$ ^uniform<adj>$ 0.2000000
^para<pr>$ ^to<pr>$ 0.0654628
^para<pr>$ ^test<n><sg>$ 0.2500000
^para<pr>$ ^good<adj><sint><comp>$ 0.3333333
^para<pr>$ ^develop<vblex><inf>$ 0.1428571
^para<pr>$ ^alleviate<vblex><inf>$ 0.2500000
^para<pr>$ ^force<vblex><inf>$ 0.1666667
^para<pr>$ ^meeting<n><sg>$ 0.3333333
^para<pr>$ ^*compliments$ 0.5000000
^para<pr>$ ^effect<n><pl>$ 0.1428571
^para<pr>$ ^in~order~to<pr>$ 0.5555556
^para<pr>$ NULL 0.0052493
^una~vez<adv>$ ^*s$ 0.0169492
^ello<prn><tn><nt>$ ^set<vblex><pp>$ 0.3333333
^ello<prn><tn><nt>$ ^oblige<vblex><pp>$ 0.2500000
^ello<prn><tn><nt>$ ^follow<vblex><pri><p3><sg>$ 0.3333333
^ello<prn><tn><nt>$ ^this<det><dem><sg>$ 0.0152672
^ello<prn><tn><nt>$ ^be<vbser><pri><p3><sg>$ 0.0078125
^ello<prn><tn><nt>$ NULL 0.0005249
^ello<prn><tn><nt>$ ^this<prn><tn><mf><sg>$ 0.0384615
^ello<prn><tn><nt>$ ^lay<vblex><pp>$ 0.2500000
^ello<prn><tn><nt>$ ^note<n><sg>$ 0.3333333
^ello<prn><tn><nt>$ ^contribution<n><sg>$ 0.2000000
^ello<prn><tn><nt>$ ^to<pr>$ 0.0022573
^ello<prn><tn><nt>$ ^chance<n><sg>$ 0.2857143
^ello<prn><tn><nt>$ ^challenge<vblex><inf>$ 0.3333333
^7<num>$ ^7<num>$ 1.0000000
^González<np><cog><mf><sg>$ ^González<np><cog><sg>$ 1.0000000
^traducir<vblex><pp><m><sg>$ ^contain<vblex><pp>$ 0.3333333
^reestructurar<vblex><prs><p3><sg>$ ^see<vblex><inf>$ 0.0909091
^escuchar<vblex><prs><p1><pl>$ ^shall<vaux><inf>$ 0.0526316
^escuchar<vblex><prs><p1><pl>$ ^prpers<prn><subj><p1><mf><pl>$ 0.0057803
^escuchar<vblex><prs><p1><pl>$ ^now<adv>$ 0.0476190
^uso<n><m><sg>$ ^proper<adj>$ 0.2000000
^Sánchez<np><cog><mf><sg>$ ^Sánchez<np><cog><sg>$ 0.3333333
^camino<n><m><sg>$ ^right<adj>$ 0.1250000
^camino<n><m><sg>$ ^go#~in<vblex><ger>$ 0.3333333
^camino<n><m><sg>$ ^path<n><sg>$ 0.6666667
^camino<n><m><sg>$ ^forward<adv>$ 0.2000000
^camino<n><m><sg>$ ^way<n><sg>$ 0.0869565
^ágil<adj><mf><sg>$ ^quick<adj><sint>$ 0.3333333
^siguiente<adj><mf><pl>$ ^on<pr>$ 0.0091743
^siguiente<adj><mf><pl>$ ^following<adj>$ 1.0000000
^encontrar<vblex><pri><p3><pl>$ ^find<vblex><ger>$ 0.5000000
^escándalo<n><m><sg>$ ^nuisance<n><sg>$ 1.0000000
^por~eso<cnjadv>$ NULL 0.0005249
^sacar#~adelante<vblex><inf>$ ^drive<vblex><inf>$ 1.0000000
^sacar#~adelante<vblex><inf>$ ^describe<vblex><pp>$ 1.0000000
^sacar#~adelante<vblex><inf>$ ^forward<adv>$ 0.2000000
^sacar#~adelante<vblex><inf>$ ^as<pr>$ 0.0769231
^sacar#~adelante<vblex><inf>$ ^what<prn><itg><m><sp>$ 0.0769231
^eurodiputado<n><m><sg>$ ^maiden<adj>$ 0.2500000
^traer<vblex><pri><p3><sg>$ ^respond<vblex><pres>$ 0.1666667
^responder<vblex><inf>$ ^question<vblex><pri><p3><sg>$ 0.2500000
^responder<vblex><inf>$ ^just<adv>$ 0.0588235
^responder<vblex><inf>$ ^answer<vblex><pp>$ 0.3333333
^responder<vblex><inf>$ ^must<vaux><inf>$ 0.0263158
^responder<vblex><inf>$ ^be<vbser><inf>$ 0.0071429
^responder<vblex><inf>$ ^two<num><sp>$ 0.0769231
^responder<vblex><inf>$ ^which<prn><itg><m><sp>$ 0.0169492
^reunión<n><f><sg>$ ^meet<vblex><ger>$ 1.0000000
^reunión<n><f><sg>$ ^*Quaestors$ 0.2500000
^minuto<n><m><pl>$ ^minute<n><pl>$ 0.1111111
^herramienta<n><f><sg>$ ^tool<n><sg>$ 1.0000000
^millón~de<num><mf><sp>$ ^*EUR$ 1.0000000
^millón~de<num><mf><sp>$ ^million<num><sp>$ 0.6666667
^millón~de<num><mf><sp>$ ^capital<n><sg>$ 0.1666667
^clave<n><f><sg>$ ^key<adj>$ 0.3333333
^a~la~larga<adv>$ ^onto<pr>$ 1.0000000
^general<adj><mf><sg>$ ^'<apos>$ 0.0153846
^general<adj><mf><sg>$ ^general<adj>$ 0.2222222
^general<adj><mf><sg>$ ^attentive<adj>$ 1.0000000
^general<adj><mf><sg>$ NULL 0.0005249
^general<adj><mf><sg>$ ^in~general<adv>$ 0.3000000
^exclusión<n><f><sg>$ ^exclusion<n><sg>$ 1.0000000
^división<n><f><sg>$ ^player<n><pl>$ 0.5000000
^división<n><f><sg>$ ^zoning<n><sg>$ 0.3333333
^País~Vasco<np><loc><m><sg>$ ^Basque~Country<np><loc><sg>$ 1.0000000
^en~especial<adv>$ ^think<vblex><ger>$ 0.2500000
^en~especial<adv>$ ^in~particular<adv>$ 0.6666667
^querer<vbmod><pis><p3><sg>$ ^begin<vblex><inf>$ 0.1250000
^querer<vbmod><pis><p3><sg>$ ^would<vaux><inf>$ 0.0930233
^querer<vbmod><pis><p3><sg>$ ^prpers<prn><subj><p1><mf><sg>$ 0.0619048
^querer<vbmod><pis><p3><sg>$ ^*commend$ 0.2500000
^querer<vbmod><pis><p3><sg>$ ^comment<vblex><ger>$ 0.3333333
^querer<vbmod><pis><p3><sg>$ ^should<vaux><inf>$ 0.0701754
^querer<vbmod><pis><p3><sg>$ ^like<vblex><inf>$ 0.1896552
^querer<vbmod><pis><p3><sg>$ ^like<vblex><pres>$ 0.1538462
^*revitalizar$ ^*revitalising$ 1.0000000
^*revitalizar$ ^relation<n><pl>$ 0.3333333
^aportación<n><f><pl>$ ^all<prn><tn><mf><sp>$ 0.0416667
^aportación<n><f><pl>$ ^accept<vblex><pri><p3><sg>$ 1.0000000
^aportación<n><f><pl>$ ^contribution<n><pl>$ 1.0000000
^cambiar<vblex><cni><p3><sg>$ ^difference<n><sg>$ 0.5000000
^cambiar<vblex><cni><p3><sg>$ ^any<det><ind><sp>$ 0.0625000
^cambiar<vblex><cni><p3><sg>$ ^make<vblex><inf>$ 0.0476190
^*renacionalización$ ^*renationalisation$ 1.0000000
^fuera~de<pr>$ ^work<n><sg>$ 0.0370370
^fuera~de<pr>$ ^outside<adj>$ 1.0000000
^fuera~de<pr>$ ^out~of<pr>$ 0.5000000
^presentar<vblex><pis><p3><sg>$ ^recommend<vblex><pp>$ 0.1666667
^ofrecer<vblex><prs><p3><pl>$ ^have<vblex><inf>$ 0.0476190
^diferente<adj><mf><pl>$ ^again<adv>$ 0.0833333
^diferente<adj><mf><pl>$ ^certain<adj>$ 0.0769231
^alguno<det><qnt><m><pl>$ ^delay<n><pl>$ 0.1428571
^alguno<det><qnt><m><pl>$ ^number<n><sg>$ 0.1428571
^alguno<det><qnt><m><pl>$ ^cause<vblex><pri><p3><sg>$ 0.5000000
^alguno<det><qnt><m><pl>$ ^some<det><qnt><sp>$ 0.3076923
^alguno<det><qnt><m><pl>$ ^specific<adj>$ 0.2000000
^alguno<det><qnt><m><pl>$ ^partially<adv>$ 0.5000000
^alguno<det><qnt><m><pl>$ ^of<pr>$ 0.0020000
^animar<vblex><pri><p3><sg>$ ^continue<vblex><inf>$ 0.0909091
^animar<vblex><pri><p3><sg>$ ^encourage<vblex><inf>$ 0.5000000
^animar<vblex><pri><p3><sg>$ ^along<pr>$ 0.3333333
^animar<vblex><pri><p3><sg>$ ^prpers<prn><obj><p3><f><sg>$ 0.2500000
^animar<vblex><pri><p3><sg>$ ^will<vaux><inf>$ 0.0125000
^final<n><m><sg>$ ^end<n><sg>$ 0.2500000
^acabar<vblex><pri><p1><pl>$ ^prpers<prn><subj><p1><mf><pl>$ 0.0057803
^voz<n><f><pl>$ ^voice<n><pl>$ 0.3333333
^voz<n><f><pl>$ ^in~favour<adv>$ 0.0769231
^basar<vblex><pp><f><sg>$ ^*unimpeded$ 0.2500000
^basar<vblex><pp><f><sg>$ ^subsidy<n><sg>$ 0.5000000
^basar<vblex><pp><f><sg>$ ^competition<n><sg>$ 0.0113636
^provechoso<adj><m><sg>$ ^extraordinarily<adv>$ 0.5000000
^provechoso<adj><m><sg>$ ^,<cm>$ 0.0012547
^provechoso<adj><m><sg>$ ^positive<adj>$ 0.1666667
^pues<adv>$ ^therefore<adv>$ 0.1627907
^pues<adv>$ ^consequently<adv>$ 0.2857143
^*dramatizar$ ^that<det><dem><sg>$ 0.0714286
^*dramatizar$ ^*dramatised$ 0.1428571
^*dramatizar$ ^into<pr>$ 0.0384615
^*dramatizar$ ^more~than<pr>$ 0.3333333
^*dramatizar$ ^something<prn><tn><nt><sg>$ 0.0625000
^preparar<vblex><prs><p3><sg>$ ^prepare<vblex><inf>$ 1.0000000
^votar<vblex><pri><p1><pl>$ ^on<adv>$ 0.0181818
^votar<vblex><pri><p1><pl>$ ^vote<vblex><pres>$ 0.3333333
^unánimemente<adv>$ ^specialise<vblex><past>$ 0.3333333
^estar<vblex><prs><p1><pl>$ ^work<vblex><ger>$ 0.1250000
^adoptar<vblex><prs><p1><pl>$ ^arrangement<n><sg>$ 0.3333333
^activamente<adv>$ ^-<guio>$ 0.0153846
^activamente<adv>$ ^in<pr>$ 0.0065574
^activamente<adv>$ ^prpers<prn><obj><p1><mf><pl>$ 0.0322581
^activamente<adv>$ ^active<adj>$ 1.0000000
^activamente<adv>$ ^supporting<adj>$ 0.3333333
^ya~que<cnjadv>$ ^since<pr>$ 0.1428571
^ya~que<cnjadv>$ ^message<n><sg>$ 0.5000000
^ya~que<cnjadv>$ ^floor<n><sg>$ 0.2500000
^ya~que<cnjadv>$ ^remove<vblex><pp>$ 1.0000000
^ya~que<cnjadv>$ ^because<cnjadv>$ 0.1111111
^trabajo<n><m><sg>$ ^quality<n><sg>$ 0.1111111
^trabajo<n><m><sg>$ ^redundant<adj>$ 1.0000000
^trabajo<n><m><sg>$ ^job<n><pl>$ 0.5555556
^trabajo<n><m><sg>$ ^work<n><sg>$ 0.3703704
^trabajo<n><m><sg>$ NULL 0.0026247
^trabajo<n><m><sg>$ ^job<n><sg>$ 0.1428571
^trabajo<n><m><sg>$ ^magnificent<adj>$ 0.5000000
^trabajo<n><m><sg>$ ^there<adv>$ 0.0169492
^economía<n><f><sg>$ ^market~economy<n><sg>$ 0.2000000
^economía<n><f><sg>$ ^at<pr>$ 0.0312500
^economía<n><f><sg>$ NULL 0.0005249
^economía<n><f><sg>$ ^social<adj>$ 0.0400000
^economía<n><f><sg>$ ^economy<n><sg>$ 0.8888889
^economía<n><f><sg>$ ^size<n><sg>$ 1.0000000
^beneficiar<vblex><pri><p3><sg>$ ^european<adj>$ 0.0222222
^número<n><m><sg>$ ^number<n><sg>$ 0.1428571
^subsidiariedad<n><f><sg>$ ^deliberation<n><pl>$ 1.0000000
^subsidiariedad<n><f><sg>$ ^*subsidiarity$ 0.4166667
^todavía<adv>$ ^be#~still~in<vblex><pres>$ 0.3333333
^todavía<adv>$ ^prpers<prn><subj><p3><mf><pl>$ 0.0285714
^todavía<adv>$ ^train<vblex><ger>$ 0.2500000
^añadir<vblex><inf>$ ^regardless<adv>$ 0.2000000
^añadir<vblex><inf>$ ^add<vblex><inf>$ 1.0000000
^central<adj><mf><pl>$ ^a<det><ind><sg>$ 0.0042918
^central<adj><mf><pl>$ ^experience<vblex><inf>$ 0.5000000
^central<adj><mf><pl>$ ^key~point<n><pl>$ 0.5000000
^saber<vblex><pp><m><sg>$ ^know<vblex><pres>$ 0.1666667
^saber<vblex><pp><m><sg>$ ^all<prn><tn><mf><sp>$ 0.0416667
^saber<vblex><pp><m><sg>$ ^prpers<prn><subj><p1><mf><pl>$ 0.0057803
^pobre<adj><mf><pl>$ ^widen<vblex><pres>$ 1.0000000
^pobre<adj><mf><pl>$ ^poor<adj><sint>$ 0.5714286
^*Berend$ ^*Berend$ 0.5000000
^elegir<vblex><pp><m><pl>$ ^elected<n><pl>$ 1.0000000
^levantar<vblex><pri><p3><sg>$ ^sit<vblex><ger>$ 0.1000000
^levantar<vblex><pri><p3><sg>$ ^close<vblex><pp>$ 0.2000000
^levantar<vblex><pri><p3><sg>$ ^be<vbser><past><p3><sg>$ 0.0270270
^peligroso<adj><f><pl>$ ^container<n><pl>$ 0.1666667
^peligroso<adj><f><pl>$ ^good<n><pl>$ 0.1666667
^peligroso<adj><f><pl>$ ^dangerous<adj>$ 0.3478261
^es~decir<adv>$ ^reach<vblex><ger>$ 1.0000000
^es~decir<adv>$ ^prpers<prn><subj><p2><mf><sp>$ 0.0285714
^es~decir<adv>$ ^may<vaux><inf>$ 0.0833333
^es~decir<adv>$ NULL 0.0010499
^es~decir<adv>$ ^i.e.<adv>$ 1.0000000
^es~decir<adv>$ ^namely<adv>$ 0.5000000
^silencio<n><m><sg>$ ^*s$ 0.0338983
^silencio<n><m><sg>$ ^silence<n><sg>$ 0.5000000
^silencio<n><m><sg>$ ^'<apos>$ 0.0153846
^mencionar<vblex><prs><p3><sg>$ ^one<prn><tn><mf><sg>$ 0.0344828
^mencionar<vblex><prs><p3><sg>$ ^final<adj>$ 0.3333333
^mencionar<vblex><prs><p3><sg>$ ^mention<vblex><inf>$ 0.2500000
^por~cierto<adv>$ ^a<det><ind><sg>$ 0.0042918
^por~cierto<adv>$ ^minimum<n><sg>$ 1.0000000
^pauta<n><f><pl>$ ^appropriate<adj>$ 0.2000000
^pauta<n><f><pl>$ ^guidance<n><sg>$ 0.5000000
^pauta<n><f><pl>$ ^detail<vblex><pp>$ 0.5000000
^descenso<n><m><sg>$ ^in<pr>$ 0.0032787
^descenso<n><m><sg>$ ^and<cnjcoo>$ 0.0029499
^descenso<n><m><sg>$ ^fall<n><sg>$ 0.5000000
^deber<vbmod><pri><p1><pl>$ ^prpers<prn><subj><p1><mf><pl>$ 0.0289017
^deber<vbmod><pri><p1><pl>$ ^pay<vblex><inf>$ 0.1250000
^deber<vbmod><pri><p1><pl>$ ^give<vblex><inf>$ 0.0833333
^deber<vbmod><pri><p1><pl>$ ^question<vblex><pri><p3><sg>$ 0.2500000
^deber<vbmod><pri><p1><pl>$ ^lack<n><sg>$ 0.1111111
^deber<vbmod><pri><p1><pl>$ ^must<vaux><inf>$ 0.0263158
^deber<vbmod><pri><p1><pl>$ ^find<vblex><inf>$ 0.5000000
^fondo<n><m><sg>$ ^fund<n><sg>$ 0.4000000
^fondo<n><m><sg>$ ^assistance<n><sg>$ 0.5000000
^proceder<vblex><pri><p3><sg>$ ^next<adj>$ 0.3333333
^pequeño<adj><m><sg>$ ^small<adj><sint>$ 0.1666667
^supresión<n><f><sg>$ ^drop<vblex><ger>$ 0.5000000
^de~verdad<adv>$ ^do<vblex><pp>$ 0.0909091
^materia<n><f><sg>$ ^on<pr>$ 0.0275229
^materia<n><f><sg>$ NULL 0.0005249
^materia<n><f><sg>$ ^issue<n><sg>$ 0.0526316
^materia<n><f><sg>$ ^repayment<n><sg>$ 0.5000000
^materia<n><f><sg>$ ^field<n><sg>$ 0.3333333
^materia<n><f><sg>$ ^the<det><def><sp>$ 0.0019102
^económico<adj><f><pl>$ ^theory<n><sg>$ 0.3333333
^económico<adj><f><pl>$ ^relationship<n><pl>$ 0.3333333
^económico<adj><f><pl>$ ^*livelihood$ 0.3333333
^informe<n><m><pl>$ ^report<n><pl>$ 0.5000000
^informe<n><m><pl>$ ^report<vblex><pri><p3><sg>$ 0.3333333
^informe<n><m><pl>$ ^which<det><itg><sp>$ 0.0270270
^informe<n><m><pl>$ NULL 0.0005249
^informe<n><m><pl>$ ^technical<adj>$ 0.1428571
^comité<n><m><sg>$ ^committee<n><sg>$ 0.1200000
^presentar<vblex><pri><p1><pl>$ ^sit<vblex><ger>$ 0.1000000
^presentar<vblex><pri><p1><pl>$ ^plenary<n><sg>$ 0.3333333
^colega<n><mf><sg>$ ^Mr.<n><sg>$ 0.0106383
^colega<n><mf><sg>$ NULL 0.0010499
^colega<n><mf><sg>$ ^*s$ 0.0169492
^colega<n><mf><sg>$ ^a<det><ind><sg>$ 0.0042918
^colega<n><mf><sg>$ ^*Fischler$ 0.3333333
^colega<n><mf><sg>$ ^*Jonckheer$ 0.2500000
^colega<n><mf><sg>$ ^who<prn><itg><m><sp>$ 0.0555556
^colega<n><mf><sg>$ ^wish<vblex><pri><p3><sg>$ 0.3333333
^colega<n><mf><sg>$ ^fellow<adj>$ 0.3333333
^colega<n><mf><sg>$ ^,<cm>$ 0.0037641
^control<n><m><sg>$ ^of<pr>$ 0.0040000
^control<n><m><sg>$ NULL 0.0005249
^control<n><m><sg>$ ^enforcement<n><sg>$ 0.3333333
^emprender<vblex><inf>$ ^work<vblex><inf>$ 0.2000000
^emprender<vblex><inf>$ ^take<vblex><ger>$ 0.2500000
^emprender<vblex><inf>$ ^towards<pr>$ 0.1111111
^tratar<vblex><ger>$ ^here<adv>$ 0.1250000
^tratar<vblex><ger>$ ^do<vbdo><pri><p3><sg>$ 0.0625000
^tratar<vblex><ger>$ ^discuss<vblex><ger>$ 0.1428571
^bien<preadv>$ ^think#~that<vblex><pres>$ 0.5000000
^bien<preadv>$ ^this<det><dem><sg>$ 0.0076336
^bien<preadv>$ ^extremely<adv>$ 0.1666667
^bien<preadv>$ NULL 0.0005249
^bien<preadv>$ ^carry<vblex><pp>$ 0.2500000
^bien<preadv>$ ^out<adv>$ 0.1666667
^frecuencia<n><f><sg>$ NULL 0.0005249
^frecuencia<n><f><sg>$ ^often<adv>$ 0.2000000
^parlamentario<adj><f><sg>$ ^committee<n><sg>$ 0.0800000
^parlamentario<adj><f><sg>$ ^champion<vblex><pp>$ 0.5000000
^parlamentario<adj><f><sg>$ ^parliamentary<adj>$ 0.1250000
^hijo<n><m><pl>$ ^easy<adj><sint><comp>$ 0.1666667
^hijo<n><m><pl>$ ^little<det><qnt><sg>$ 0.3333333
^regular<vblex><pp><m><sg>$ ^obtain<vblex><ger>$ 0.3333333
^regular<vblex><pp><m><sg>$ ^be<vbser><pres>$ 0.0081967
^regular<vblex><pp><m><sg>$ ^common<adj>$ 0.1111111
^regular<vblex><pp><m><sg>$ ^now<adv>$ 0.0476190
^presente<adj><mf><pl>$ ^raise<vblex><pp>$ 0.2000000
^presente<adj><mf><pl>$ ^be<vbser><pp>$ 0.0144928
^cuestión<n><f><pl>$ ^issue<vblex><pri><p3><sg>$ 0.1250000
^cuestión<n><f><pl>$ ^issue<n><pl>$ 0.8000000
^cuestión<n><f><pl>$ ^point<n><pl>$ 0.1428571
^rendirse<vblex><pron><inf>$ ^accountability<n><sg>$ 0.3333333
^paro<n><m><sg>$ ^unemployment<n><sg>$ 0.1250000
^paro<n><m><sg>$ NULL 0.0010499
^opinión<n><f><sg>$ NULL 0.0015748
^opinión<n><f><sg>$ ^comment<vblex><inf>$ 0.2000000
^opinión<n><f><sg>$ ^on<adv>$ 0.0181818
^opinión<n><f><sg>$ ^opinion<n><sg>$ 0.2500000
^expresar<vblex><pri><p1><pl>$ ^*opposed$ 0.1666667
^expresar<vblex><pri><p1><pl>$ ^be<vbser><pres>$ 0.0081967
^expresar<vblex><pri><p1><pl>$ ^totally<adv>$ 0.3333333
^tercer<det><ord><f><sg>$ ^third<det><ord><sp>$ 0.3333333
^tercer<det><ord><f><sg>$ ^matter<vblex><inf>$ 0.5000000
^reestructuración<n><f><pl>$ ^restructuring<n><sg>$ 0.3333333
^infraestructura<n><f><sg>$ ^over<adv>$ 0.2500000
^infraestructura<n><f><sg>$ ^many~times<adv>$ 1.0000000
^reglamento<n><m><sg>$ ^regulation<n><sg>$ 0.6250000
^reglamento<n><m><sg>$ NULL 0.0005249
^reglamento<n><m><sg>$ ^110<num>$ 1.0000000
^*descomunales$ ^huge<adj>$ 1.0000000
^planteamiento<n><m><sg>$ ^of~course<adv>$ 0.1666667
^explosión<n><f><pl>$ ^explosion<n><pl>$ 1.0000000
^estatal<adj><mf><sg>$ ^*unlawful$ 0.1666667
^estatal<adj><mf><sg>$ ^state<adj>$ 0.0769231
^estatal<adj><mf><sg>$ ^interventionism<n><sg>$ 1.0000000
^cuarto<det><ord><f><pl>$ ^quarter<n><pl>$ 0.2500000
^regulación<n><f><pl>$ ^work<vblex><inf>$ 0.2000000
^regulación<n><f><pl>$ ^reason<n><sg>$ 0.1666667
^regulación<n><f><pl>$ ^interpretative<adj>$ 0.1250000
^regulación<n><f><pl>$ ^permissible<adj>$ 0.2500000
^regulación<n><f><pl>$ ^flexibility<n><sg>$ 0.1428571
^regulación<n><f><pl>$ ^regulation<n><pl>$ 0.0714286
^18<num>$ ^18<num>$ 1.0000000
^pensar<vblex><pri><p1><pl>$ ^lead<vblex><inf>$ 0.1666667
^pensar<vblex><pri><p1><pl>$ ^here<adv>$ 0.1250000
^capacidad<n><f><sg>$ ^own~initiative<n><sg>$ 1.0000000
^capacidad<n><f><sg>$ ^must<vaux><inf>$ 0.0263158
^resultar<vblex><pri><p3><sg>$ ^be<vbser><pri><p3><sg>$ 0.0039062
^incluir<vblex><pp><m><sg>$ ^prpers<prn><obj><p3><mf><pl>$ 0.1000000
^incluir<vblex><pp><m><sg>$ ^issue<vblex><pri><p3><sg>$ 0.1250000
^incluir<vblex><pp><m><sg>$ ^include<vblex><pp>$ 0.1666667
^sanción<n><f><sg>$ ^inform<vblex><pp>$ 1.0000000
^estancamiento<n><m><sg>$ ^stagnation<n><sg>$ 1.0000000
^turno<n><m><sg>$ ^turn<n><sg>$ 0.5000000
^proponer<vblex><ifi><p1><sg>$ ^*tabled$ 0.0769231
^proponer<vblex><ifi><p1><sg>$ ^consequently<adv>$ 0.1428571
^proponer<vblex><ifi><p1><sg>$ ^some<det><qnt><sp>$ 0.0769231
^proponer<vblex><ifi><p1><sg>$ ^have<vbhaver><pres>$ 0.0250000
^proponer<vblex><ifi><p1><sg>$ ^prpers<prn><subj><p1><mf><sg>$ 0.0047619
^rendimiento<n><m><sg>$ ^return<n><sg>$ 0.2500000
^rendimiento<n><m><sg>$ ^efficiency<n><sg>$ 0.5000000
^rendimiento<n><m><sg>$ ^high<adj><sint><comp>$ 0.5000000
^sin<pr>$ ^drag<vblex><inf>$ 0.3333333
^sin<pr>$ NULL 0.0005249
^sin<pr>$ ^without<pr>$ 0.8000000
^posición<n><f><sg>$ ^position<n><sg>$ 0.2000000
^posición<n><f><sg>$ ^raise<vblex><ger>$ 0.2500000
^decidir<vblex><pp><f><sg>$ ^act<vblex><inf>$ 0.5000000
^decidir<vblex><pp><f><sg>$ ^decisively<adv>$ 0.5000000
^decidir<vblex><pp><f><sg>$ ^must<vaux><inf>$ 0.0263158
^Pöttering<np><cog><mf><sg>$ ^Pöttering<np><cog><sg>$ 1.0000000
^cinco<num><mf><sp>$ ^five<num><sp>$ 0.7500000
^señor<n><m><sg>$ NULL 0.0010499
^señor<n><m><sg>$ ^commissioner<n><sg>$ 0.3478261
^señor<n><m><sg>$ ^Mr.<n><sg>$ 0.4787234
^contra<pr>$ ^against<pr>$ 0.5000000
^contra<pr>$ ^of<pr>$ 0.0020000
^*regulatorios$ ^its<det><pos><sp>$ 0.0384615
^social<adj><mf><pl>$ ^social<adj>$ 0.2000000
^certificar<vblex><pp><m><pl>$ ^analysis<n><pl>$ 0.3333333
^mínimo<adj><f><pl>$ ^minimum<adj>$ 0.3333333
^mínimo<adj><f><pl>$ ^standard<n><pl>$ 0.5000000
^discurso<n><m><sg>$ ^as~a<pr>$ 0.1000000
^parecer<vblex><pri><p3><pl>$ ^seem<vblex><pres>$ 1.0000000
^parecer<vblex><pri><p3><pl>$ ^figure<n><pl>$ 0.2000000
^parecer<vblex><pri><p3><pl>$ ^somewhat<adv>$ 0.3333333
^lo<prn><enc><p3><nt>$ ^position<n><sg>$ 0.2000000
^lo<prn><enc><p3><nt>$ ^a<det><ind><sg>$ 0.0042918
^lo<prn><enc><p3><nt>$ NULL 0.0005249
^lo<prn><enc><p3><nt>$ ^offer<vblex><inf>$ 1.0000000
^lo<prn><enc><p3><nt>$ ^on<adv>$ 0.0181818
^lo<prn><enc><p3><nt>$ ^so<preadv>$ 0.0555556
^lo<prn><enc><p3><nt>$ ^explain<vblex><inf>$ 0.2000000
^lo<prn><enc><p3><nt>$ ^so<cnjadv>$ 0.1428571
^lo<prn><enc><p3><nt>$ ^everything<prn><tn><m><sg>$ 0.1666667
^lo<prn><enc><p3><nt>$ ^withdraw<vblex><pp>$ 0.1111111
^lo<prn><enc><p3><nt>$ ^prpers<prn><obj><p3><m><sg>$ 0.1428571
^llegar<vblex><ifi><p3><sg>$ ^distinguish<vblex><pp>$ 1.0000000
^llegar<vblex><ifi><p3><sg>$ ^reach<vblex><pp>$ 0.3333333
^llegar<vblex><ifi><p3><sg>$ ^September<n><sg>$ 0.5000000
^europeo<adj><m><pl>$ ^consumer<n><pl>$ 0.2000000
^europeo<adj><m><pl>$ ^socialist<n><pl>$ 0.2500000
^europeo<adj><m><pl>$ ^european<adj>$ 0.0888889
^querer<vbmod><pri><p3><sg>$ ^which<rel><an><mf><sp>$ 0.1428571
^querer<vbmod><pri><p3><sg>$ ^can<n><sg>$ 0.2500000
^obviamente<adv>$ ^of~course<adv>$ 0.1666667
^volver<vblex><prs><p3><sg>$ ^go#~back<vblex><pri><p3><sg>$ 1.0000000
^ilegal<adj><mf><pl>$ ^illegal<adj>$ 1.0000000
^depender<vblex><pri><p3><sg>$ ^depend<vblex><pri><p3><sg>$ 0.3333333
^depender<vblex><pri><p3><sg>$ ^rather<preadv>$ 0.3333333
^depender<vblex><pri><p3><sg>$ ^more<preadv>$ 0.0384615
^*desfavorablemente$ ^*unfavourable$ 0.5000000
^*desfavorablemente$ ^effect<n><sg>$ 0.1666667
^Japón<np><loc><m><sg>$ ^have<vbhaver><pri><p3><sg>$ 0.0133333
^Japón<np><loc><m><sg>$ ^show<vblex><pp>$ 0.2000000
^Japón<np><loc><m><sg>$ ^Japan<np><loc><sg>$ 0.5000000
^constituir<vblex><pp><m><sg>$ ^be<vbser><pp>$ 0.0144928
^o<cnjcoo>$ ^qualify<vblex><ger>$ 1.0000000
^o<cnjcoo>$ ^or<cnjcoo>$ 0.7241379
^o<cnjcoo>$ ^grant<vblex><ger>$ 0.1666667
^o<cnjcoo>$ NULL 0.0010499
^o<cnjcoo>$ ^in~other~words<adv>$ 0.3333333
^real<adj><mf><sg>$ ^world<n><sg>$ 0.2500000
^real<adj><mf><sg>$ ^effective<adj>$ 0.3333333
^real<adj><mf><sg>$ ^monitor<vblex><inf>$ 0.2500000
^real<adj><mf><sg>$ ^way<n><sg>$ 0.0434783
^real<adj><mf><sg>$ ^no<adv>$ 0.1666667
^agrícola<adj><mf><pl>$ ^example<n><sg>$ 0.1666667
^acerca~de<pr>$ ^comment<vblex><inf>$ 0.2000000
^acerca~de<pr>$ NULL 0.0005249
^acerca~de<pr>$ ^*s$ 0.0169492
^acerca~de<pr>$ ^on<pr>$ 0.0091743
^acerca~de<pr>$ ^this<det><dem><sg>$ 0.0076336
^acerca~de<pr>$ ^opinion<n><sg>$ 0.2500000
^acerca~de<pr>$ ^'<apos>$ 0.0153846
^agravar<vblex><pri><p3><sg>$ ^aggravate<vblex><pri><p3><sg>$ 0.5000000
^agravar<vblex><pri><p3><sg>$ ^prpers<prn><obj><p3><nt><sg>$ 0.0312500
^realmente<adv>$ ^circumstance<n><pl>$ 1.0000000
^realmente<adv>$ ^which<det><itg><sp>$ 0.0540541
^realmente<adv>$ ^break<vblex><past>$ 0.5000000
^realmente<adv>$ ^in<pr>$ 0.0065574
^*movilizados$ ^use<vblex><pp>$ 0.2500000
^*movilizados$ ^in~order~to<pr>$ 0.1111111
^*Echternach$ ^where<rel><adv>$ 0.0400000
^*Echternach$ ^*Echternach$ 1.0000000
^*Echternach$ ^procession<n><sg>$ 0.3333333
^*renacionalizar$ ^*re$ 0.5000000
^obligación<n><f><sg>$ ^moral<adj>$ 0.2500000
^obligación<n><f><sg>$ ^participate<vblex><inf>$ 0.3333333
^obligación<n><f><sg>$ ^oblige<vblex><pp>$ 0.2500000
^obligación<n><f><sg>$ NULL 0.0005249
^desafortunado<adj><f><sg>$ ^day<n><sg>$ 0.1428571
^desafortunado<adj><f><sg>$ ^position<n><sg>$ 0.2000000
^desafortunado<adj><f><sg>$ ^*unfortunate$ 0.2500000
^primer<det><ord><f><sg>$ ^very<preadv>$ 0.0370370
^primer<det><ord><f><sg>$ NULL 0.0005249
^primer<det><ord><f><sg>$ ^first<det><ord><sp>$ 0.3750000
^cambiar<vblex><inf>$ ^shift<vblex><ger>$ 0.3333333
^cambiar<vblex><inf>$ ^prpers<prn><subj><p3><mf><pl>$ 0.0285714
^decidir<vblex><imp><p2><sg>$ ^decide<vblex><pri><p3><sg>$ 0.5000000
^poder<vbmod><pri><p3><pl>$ ^may<vaux><inf>$ 0.0833333
^poder<vbmod><pri><p3><pl>$ ^can<vaux><pres>$ 0.0909091
^poder<vbmod><pri><p3><pl>$ ^which<prn><itg><m><sp>$ 0.0338983
^poder<vbmod><pri><p3><pl>$ ^*advisors$ 0.3333333
^poder<vbmod><pri><p3><pl>$ NULL 0.0005249
^poder<vbmod><pri><p3><pl>$ ^horizontal<adj>$ 0.3333333
^poder<vbmod><pri><p3><pl>$ ^assimilate<vblex><pp>$ 0.2500000
^querer<vblex><pp><m><pl>$ ^prpers<prn><subj><p1><mf><sg>$ 0.0095238
^nivel#~de~vida<n><m><sg>$ ^standard#~of~living<n><sg>$ 1.0000000
^contexto<n><m><sg>$ ^too<adv>$ 0.1250000
^contexto<n><m><sg>$ ^context<n><sg>$ 0.3333333
^contexto<n><m><sg>$ ^connection<n><sg>$ 0.3333333
^nada<adv>$ ^there<adv>$ 0.0169492
^nada<adv>$ ^wrong<adv>$ 0.5000000
^nada<adv>$ ^to<pr>$ 0.0022573
^nada<adv>$ ^seriously<adv>$ 0.5000000
^valor<n><m><sg>$ ^add<vblex><pp>$ 1.0000000
^rapidez<n><f><sg>$ NULL 0.0005249
^exceso<n><m><sg>$ ^pressure<n><sg>$ 0.2500000
^terminar<vblex><pp><m><sg>$ ^be<vbser><pres>$ 0.0081967
^terminar<vblex><pp><m><sg>$ ^come#~to~an~end<vblex><ger>$ 0.5000000
^terminar<vblex><pp><m><sg>$ ^of<pr>$ 0.0020000
^terminar<vblex><pp><m><sg>$ ^,<cm>$ 0.0012547
^comercialización<n><f><sg>$ ^create<vblex><past>$ 0.5000000
^comercialización<n><f><sg>$ ^means<n><sg>$ 1.0000000
^comercialización<n><f><sg>$ ^a<det><ind><sg>$ 0.0042918
^de~todas~formas<adv>$ ^meaningful<adj>$ 0.2000000
^interno<adj><f><sg>$ ^a<det><ind><sg>$ 0.0042918
^interno<adj><f><sg>$ ^internal<adj>$ 0.0833333
^interno<adj><f><sg>$ ^coherence<n><sg>$ 0.1428571
^político<adj><f><sg>$ ^dimension<n><sg>$ 0.5000000
^político<adj><f><sg>$ ^work<vblex><ger>$ 0.1250000
^político<adj><f><sg>$ ^which<rel><an><mf><sp>$ 0.1428571
^político<adj><f><sg>$ ^political<adj>$ 0.1428571
^derecho<n><m><pl>$ ^employment<n><sg>$ 0.0555556
^decir<vblex><inf>$ ^say<vblex><inf>$ 0.2500000
^decir<vblex><inf>$ ^intervention<n><pl>$ 0.3333333
^decir<vblex><inf>$ ^tell<vblex><inf>$ 0.4444444
^decir<vblex><inf>$ ^tell<vblex><pres>$ 0.2500000
^decir<vblex><inf>$ ^like<vblex><inf>$ 0.0172414
^decir<vblex><inf>$ ^*Mathies$ 0.3333333
^decir<vblex><inf>$ ^to<pr>$ 0.0135440
^decir<vblex><inf>$ ^left<adj>$ 0.5000000
^suyo<det><pos><mf><pl>$ ^easy<adj><sint><comp>$ 0.1666667
^suyo<det><pos><mf><pl>$ ^lady<n><pl>$ 1.0000000
^suyo<det><pos><mf><pl>$ ^predecessor<n><pl>$ 0.5000000
^suyo<det><pos><mf><pl>$ ^bear<vblex><inf>$ 0.3333333
^suyo<det><pos><mf><pl>$ ^strategic<adj>$ 0.3333333
^suyo<det><pos><mf><pl>$ ^your<det><pos><sp>$ 0.0952381
^suyo<det><pos><mf><pl>$ ^in<pr>$ 0.0065574
^suyo<det><pos><mf><pl>$ ^product<n><pl>$ 0.5000000
^suyo<det><pos><mf><pl>$ ^office<n><pl>$ 0.5000000
^suyo<det><pos><mf><pl>$ ^part<n><sg>$ 0.1250000
^suyo<det><pos><mf><pl>$ ^prpers<prn><obj><p2><mf><sp>$ 0.0400000
^suyo<det><pos><mf><pl>$ ^his<det><pos><sp>$ 0.1176471
^suyo<det><pos><mf><pl>$ ^endeavour<vblex><inf>$ 1.0000000
^suyo<det><pos><mf><pl>$ ^implement<vblex><pri><p3><sg>$ 0.3333333
^suyo<det><pos><mf><pl>$ ^their<det><pos><sp>$ 0.2051282
^suyo<det><pos><mf><pl>$ ^support<vblex><inf>$ 0.1111111
^suyo<det><pos><mf><pl>$ NULL 0.0031496
^suyo<det><pos><mf><pl>$ ^comment<vblex><past>$ 1.0000000
^suyo<det><pos><mf><pl>$ ^*curb$ 0.2500000
^suyo<det><pos><mf><pl>$ ^available<adj>$ 0.3333333
^armonizar<vblex><inf>$ ^harmonise<vblex><ger>$ 0.5000000
^uniforme<adj><mf><sg>$ ^uniform<adj>$ 0.2000000
^Bélgica<np><loc><f><sg>$ ^Belgium<np><loc><sg>$ 1.0000000
^octubre<n><m><sg>$ ^October<n><sg>$ 1.0000000
^por~parte~de<pr>$ ^*LTCM$ 0.2000000
^por~parte~de<pr>$ ^government<n><pl>$ 0.2000000
^por~parte~de<pr>$ ^irresponsible<adj>$ 0.5000000
^por~parte~de<pr>$ ^save<vblex><inf>$ 0.2000000
^zona<n><f><sg>$ ^base<n><sg>$ 0.5000000
^zona<n><f><sg>$ ^successful<adj>$ 0.3333333
^zona<n><f><sg>$ NULL 0.0005249
^zona<n><f><sg>$ ^northern<adj>$ 0.1666667
^punto<n><m><sg>$ ^point<n><sg>$ 0.4736842
^punto<n><m><sg>$ ^*mid$ 0.3333333
^punto<n><m><sg>$ ^*Fifthly$ 0.1428571
^punto<n><m><sg>$ ^item<n><sg>$ 0.7500000
^punto<n><m><sg>$ ^as~well<adv>$ 0.5000000
^punto<n><m><sg>$ ^of<pr>$ 0.0040000
^experimentar<vblex><ger>$ ^rapid<adj>$ 0.2000000
^izquierdo<adj><f><sg>$ ^left<adj>$ 0.5000000
^proponer<vblex><pp><f><pl>$ ^propose<vblex><pp>$ 0.1428571
^proponer<vblex><pp><f><pl>$ ^have<vbhaver><pres>$ 0.0250000
^reconocer<vblex><inf>$ ^would<vaux><inf>$ 0.0116279
^reconocer<vblex><inf>$ ^recognise<vblex><inf>$ 0.5000000
^reconocer<vblex><inf>$ ^concede<vblex><pp>$ 1.0000000
^figurar<vblex><pis><p3><sg>$ ^*Bourlanges$ 0.5000000
^contener<vblex><pri><p3><sg>$ ^*intentioned$ 0.2500000
^proponer<vblex><pri><p1><sg>$ ^propose<vblex><pres>$ 0.2500000
^proponer<vblex><pri><p1><sg>$ ^prpers<prn><subj><p1><mf><pl>$ 0.0057803
^proponer<vblex><pri><p1><sg>$ ^prpers<prn><subj><p1><mf><sg>$ 0.0047619
^proponer<vblex><pri><p1><sg>$ ^vote<vblex><pres>$ 0.3333333
^prioridad<n><f><pl>$ ^priority<n><pl>$ 0.6666667
^corolario<n><m><sg>$ ^by<pr>$ 0.0142857
^corolario<n><m><sg>$ ^a<det><ind><sg>$ 0.0042918
^corolario<n><m><sg>$ ^offset<n><sg>$ 0.3333333
^existir<vblex><pri><p3><pl>$ ^be<vbser><pp>$ 0.0144928
^existir<vblex><pri><p3><pl>$ ^exist<vblex><pri><p3><sg>$ 1.0000000
^existir<vblex><pri><p3><pl>$ ^be<vbser><pres>$ 0.0081967
^existir<vblex><pri><p3><pl>$ ^adopt<vblex><pp>$ 0.2500000
^existir<vblex><pri><p3><pl>$ ^there<adv>$ 0.0338983
^muchas~gracias<ij>$ ^thank~you~very~much<ij>$ 0.8000000
^el~cual<rel><nn><m><pl>$ ^though<adv>$ 0.5000000
^*irreparablemente$ ^*irreparably$ 0.3333333
^*irreparablemente$ ^have<vbhaver><inf>$ 0.0400000
^*irreparablemente$ ^be<vbser><pp>$ 0.0144928
^*irreparablemente$ ^damage<vblex><pp>$ 0.5000000
^ocasión<n><f><sg>$ ^while<cnjadv>$ 0.2500000
^ocasión<n><f><sg>$ ^prpers<prn><subj><p3><nt><sg>$ 0.0104167
^ocasión<n><f><sg>$ ^prpers<prn><subj><p1><mf><sg>$ 0.0047619
^recurso<n><m><sg>$ ^appeal<vblex><ger>$ 0.3333333
^dar<vblex><pri><p1><sg>$ ^there<adv>$ 0.0169492
^dar<vblex><pri><p1><sg>$ ^in~favour<adv>$ 0.0769231
^conocimiento<n><m><sg>$ ^knowledge<n><sg>$ 0.2000000
^conocimiento<n><m><sg>$ ^evocation<n><sg>$ 0.5000000
^conocimiento<n><m><sg>$ ^pass<vblex><inf>$ 0.2500000
^suscribir<vblex><pp><m><sg>$ ^endorse<vblex><past>$ 1.0000000
^negativo<adj><f><pl>$ ^adverse<adj>$ 0.5000000
^negativo<adj><f><pl>$ ^on<adv>$ 0.0181818
^plantear<vblex><pri><p1><pl>$ ^will<vaux><inf>$ 0.0125000
^norma<n><f><pl>$ NULL 0.0005249
^norma<n><f><pl>$ ^standard<n><pl>$ 0.2500000
^norma<n><f><pl>$ ^flexible<adj>$ 0.5000000
^norma<n><f><pl>$ ^rule<n><pl>$ 0.4666667
^norma<n><f><pl>$ ^minimum<adj>$ 0.5000000
^norma<n><f><pl>$ ^regulation<n><pl>$ 0.0714286
^interpretación<n><f><sg>$ ^personal<adj>$ 0.5000000
^encargo<n><m><pl>$ ^-<guio>$ 0.0153846
^apoyar<vblex><fti><p3><sg>$ ^any<det><ind><sp>$ 0.0625000
^apoyar<vblex><fti><p3><sg>$ ^support<vblex><inf>$ 0.1111111
^apoyar<vblex><fti><p3><sg>$ ^will<vaux><inf>$ 0.0125000
^llevar<vblex><fti><p3><sg>$ ^effect<vblex><inf>$ 0.3333333
^llevar<vblex><fti><p3><sg>$ ^will<vaux><inf>$ 0.0125000
^llevar<vblex><fti><p3><sg>$ ^into<pr>$ 0.0384615
^llevar<vblex><fti><p3><sg>$ ^put<vblex><pp>$ 0.1428571
^llevar<vblex><fti><p3><sg>$ ^be<vbser><inf>$ 0.0071429
^que<cnjsub>$ ^your<det><pos><sp>$ 0.0952381
^que<cnjsub>$ ^hope<n><sg>$ 0.1250000
^que<cnjsub>$ ^learn<vblex><inf>$ 0.1666667
^que<cnjsub>$ ^appreciate<vblex><inf>$ 0.3333333
^que<cnjsub>$ ^that<cnjsub>$ 0.4251497
^que<cnjsub>$ ^discover<vblex><inf>$ 0.2500000
^que<cnjsub>$ ^as~well~as<cnjadv>$ 0.1250000
^que<cnjsub>$ ^think#~that<vblex><inf>$ 0.1666667
^que<cnjsub>$ ^expect<vblex><inf>$ 0.5000000
^que<cnjsub>$ ^for<pr>$ 0.0066225
^que<cnjsub>$ ^everybody<prn><tn><m><sg>$ 0.2500000
^que<cnjsub>$ ^SME<n><pl>$ 0.5000000
^que<cnjsub>$ ^hope<vblex><pres>$ 0.2000000
^que<cnjsub>$ ^feel<vblex><pres>$ 0.2000000
^que<cnjsub>$ ^for~the~record<cnjadv>$ 0.2500000
^que<cnjsub>$ ^invalidity<n><sg>$ 0.2500000
^que<cnjsub>$ ^far<adv>$ 0.2000000
^que<cnjsub>$ ^role<n><sg>$ 0.1250000
^que<cnjsub>$ ^which<det><itg><sp>$ 0.0270270
^que<cnjsub>$ ^deserve<vblex><pri><p3><sg>$ 0.5000000
^que<cnjsub>$ ^ambition<n><sg>$ 0.1666667
^que<cnjsub>$ ^look<vblex><pres>$ 0.2500000
^que<cnjsub>$ ^take<vblex><pp>$ 0.0909091
^que<cnjsub>$ ^see<vblex><inf>$ 0.0909091
^que<cnjsub>$ ^draw<vblex><inf>$ 0.1428571
^que<cnjsub>$ ^wish<n><pl>$ 0.2500000
^que<cnjsub>$ ^suggest<vblex><pres>$ 0.3333333
^que<cnjsub>$ ^of~course<adv>$ 0.1666667
^que<cnjsub>$ ^learn<vblex><pri><p3><sg>$ 0.3333333
^que<cnjsub>$ ^say<vblex><inf>$ 0.0625000
^que<cnjsub>$ ^mind<n><pl>$ 0.2500000
^que<cnjsub>$ ^imagine<vblex><inf>$ 0.1666667
^que<cnjsub>$ ^than<cnjcoo>$ 0.3636364
^que<cnjsub>$ ^rise<n><sg>$ 0.1250000
^que<cnjsub>$ ^please<vblex><inf>$ 0.2000000
^que<cnjsub>$ ^demand<vblex><pres>$ 0.2500000
^que<cnjsub>$ ^remind<vblex><inf>$ 0.1111111
^que<cnjsub>$ ^would<vaux><inf>$ 0.0232558
^que<cnjsub>$ ^agree<vblex><inf>$ 0.3333333
^que<cnjsub>$ ^*curb$ 0.2500000
^que<cnjsub>$ ^magnificently<adv>$ 0.2500000
^que<cnjsub>$ NULL 0.0131234
^que<cnjsub>$ ^agree<vblex><past>$ 0.5000000
^*cortapisas$ ^hinder<vblex><pri><p3><sg>$ 0.3333333
^sanidad<n><f><sg>$ ^health<n><sg>$ 0.6666667
^decisión<n><f><pl>$ ^make<vblex><ger>$ 0.1000000
^decisión<n><f><pl>$ NULL 0.0005249
^decisión<n><f><pl>$ ^decision<n><pl>$ 0.6000000
^inicial<adj><mf><sg>$ ^start<n><sg>$ 0.1666667
^proteger<vblex><inf>$ ^protection<n><sg>$ 1.0000000
^alcanzar<vblex><pri><p3><sg>$ ^produce<vblex><ger>$ 0.2500000
^tradición<n><f><sg>$ ^tradition<n><sg>$ 0.5000000
^tradición<n><f><sg>$ ^continental<adj>$ 1.0000000
^Aparicio<np><ant><m><sg>$ ^Aparicio<np><ant><m><sg>$ 1.0000000
^guardar<vblex><pri><p3><sg>$ ^and<cnjcoo>$ 0.0029499
^guardar<vblex><pri><p3><sg>$ ^observe<vblex><past>$ 0.3333333
^este<det><dem><m><pl>$ ^worthwhile<adj>$ 0.2000000
^este<det><dem><m><pl>$ ^this<prn><tn><mf><pl>$ 0.1428571
^este<det><dem><m><pl>$ NULL 0.0005249
^este<det><dem><m><pl>$ ^drive<vblex><past>$ 0.3333333
^este<det><dem><m><pl>$ ^this<det><dem><pl>$ 0.2571429
^este<det><dem><m><pl>$ ^contribute<vblex><pp>$ 0.5000000
^este<det><dem><m><pl>$ ^such<det><ind><sp>$ 0.1428571
^este<det><dem><m><pl>$ ^spend<vblex><pp>$ 0.1666667
^mediante<pr>$ ^on<pr>$ 0.0091743
^mediante<pr>$ ^approve<vblex><ger>$ 0.3333333
^mediante<pr>$ ^by<pr>$ 0.0142857
^determinado<adj><m><pl>$ ^certain<adj>$ 0.0769231
^tránsito<n><m><sg>$ ^*transit$ 1.0000000
^tránsito<n><m><sg>$ ^country<n><pl>$ 0.0476190
^pagar<vblex><inf>$ ^afford<vblex><inf>$ 1.0000000
^pagar<vblex><inf>$ ^*advisors$ 0.3333333
^pagar<vblex><inf>$ ^safety<n><sg>$ 0.0416667
^pagar<vblex><inf>$ ^not<adv>$ 0.0073529
^intensificar<vblex><ger>$ ^prpers<prn><obj><p3><nt><sg>$ 0.0312500
^intensificar<vblex><ger>$ ^intensify<vblex><ger>$ 0.3333333
^proporcionar<vblex><prs><p3><sg>$ ^prpers<prn><obj><p1><mf><pl>$ 0.0322581
^proporcionar<vblex><prs><p3><sg>$ ^with<pr>$ 0.0178571
^proporcionar<vblex><prs><p3><sg>$ ^yet<cnjadv>$ 0.2500000
^votar<vblex><pri><p3><sg>$ ^proceed<vblex><inf>$ 0.2500000
^votar<vblex><pri><p3><sg>$ ^shall<vaux><inf>$ 0.0526316
^blanco<adj><m><sg>$ ^paper<n><sg>$ 0.9090909
^*Segni$ ^*Segni$ 1.0000000
^uno<det><ind><f><sg>$ ^get<vblex><inf>$ 0.1666667
^uno<det><ind><f><sg>$ NULL 0.0089239
^uno<det><ind><f><sg>$ ^loose<adj><sint>$ 0.3333333
^uno<det><ind><f><sg>$ ^comprehensive<adj>$ 0.3333333
^uno<det><ind><f><sg>$ ^one<num><sg>$ 0.0909091
^uno<det><ind><f><sg>$ ^constructive<adj>$ 0.5000000
^uno<det><ind><f><sg>$ ^towards<pr>$ 0.4444444
^uno<det><ind><f><sg>$ ^reform<vblex><inf>$ 1.0000000
^uno<det><ind><f><sg>$ ^business<adj>$ 0.1111111
^uno<det><ind><f><sg>$ ^submit<vblex><ger>$ 0.5000000
^uno<det><ind><f><sg>$ ^arrangement<n><sg>$ 0.3333333
^uno<det><ind><f><sg>$ ^test<n><sg>$ 0.2500000
^uno<det><ind><f><sg>$ ^moral<adj>$ 0.2500000
^uno<det><ind><f><sg>$ ^coherence<n><sg>$ 0.1428571
^uno<det><ind><f><sg>$ ^significance<n><sg>$ 0.1666667
^uno<det><ind><f><sg>$ ^require<vblex><pp>$ 0.2500000
^uno<det><ind><f><sg>$ ^training<n><sg>$ 0.3333333
^uno<det><ind><f><sg>$ ^include<vblex><pp>$ 0.1666667
^uno<det><ind><f><sg>$ ^marker<n><sg>$ 0.3333333
^uno<det><ind><f><sg>$ ^attach<vblex><inf>$ 0.5000000
^uno<det><ind><f><sg>$ ^certificate<n><pl>$ 1.0000000
^uno<det><ind><f><sg>$ ^a<det><ind><sg>$ 0.2918455
^uno<det><ind><f><sg>$ ^revision<n><sg>$ 0.3333333
^uno<det><ind><f><sg>$ ^justify<vblex><past>$ 0.2500000
^uno<det><ind><f><sg>$ ^urgent<adj>$ 0.3333333
^uno<det><ind><f><sg>$ ^waste<vblex><inf>$ 0.1666667
^uno<det><ind><f><sg>$ ^ensure<vblex><inf>$ 0.0909091
^uno<det><ind><f><sg>$ ^over~here<adv>$ 1.0000000
^uno<det><ind><f><sg>$ ^modernisation<n><sg>$ 0.3333333
^uno<det><ind><f><sg>$ ^only<adv>$ 0.0625000
^uno<det><ind><f><sg>$ ^proper<adj>$ 0.2000000
^uno<det><ind><f><sg>$ ^follow-up<n><sg>$ 0.5000000
^uno<det><ind><f><sg>$ ^strategic<adj>$ 0.1666667
^uno<det><ind><f><sg>$ ^together<adj>$ 0.1666667
^uno<det><ind><f><sg>$ ^learn<vblex><inf>$ 0.1666667
^uno<det><ind><f><sg>$ ^pass<vblex><pres>$ 0.5000000
^uno<det><ind><f><sg>$ ^decentralise<vblex><pp>$ 0.3333333
^uno<det><ind><f><sg>$ ^major<adj>$ 0.1250000
^uno<det><ind><f><sg>$ ^one<prn><tn><mf><sg>$ 0.1034483
^uno<det><ind><f><sg>$ ^pay<vblex><inf>$ 0.1250000
^uno<det><ind><f><sg>$ ^coherent<adj>$ 0.2500000
^uno<det><ind><f><sg>$ ^easy<adj><sint><comp>$ 0.1666667
^*CECA$ ^be#~due~to<vblex><pri><p3><sg>$ 1.0000000
^seriedad<n><f><sg>$ ^prpers<prn><obj><p3><nt><sg>$ 0.0312500
^seriedad<n><f><sg>$ ^into<pr>$ 0.0384615
^seriedad<n><f><sg>$ ^look<n><sg>$ 0.1428571
^seriedad<n><f><sg>$ ^therefore<adv>$ 0.0232558
^área<n><f><pl>$ ^-<guio>$ 0.0153846
^área<n><f><pl>$ ^smoke<vblex><ger>$ 0.3333333
^autónomo<adj><f><sg>$ ^destroy<vblex><pp>$ 1.0000000
^alguno<prn><tn><f><sg>$ ^object<n><sg>$ 0.1428571
^alguno<prn><tn><f><sg>$ ^that<prn><tn><mf><sg>$ 0.0434783
^uno<det><ind><m><sg>$ ^rigorous<adj>$ 0.3333333
^uno<det><ind><m><sg>$ ^one<prn><tn><mf><sg>$ 0.0344828
^uno<det><ind><m><sg>$ ^speaker<n><sg>$ 0.3333333
^uno<det><ind><m><sg>$ ^talk<vblex><inf>$ 0.2000000
^uno<det><ind><m><sg>$ ^regardless<adv>$ 0.2000000
^uno<det><ind><m><sg>$ ^*lament$ 0.2000000
^uno<det><ind><m><sg>$ ^directly<adv>$ 0.2000000
^uno<det><ind><m><sg>$ ^interesting<adj>$ 0.5000000
^uno<det><ind><m><sg>$ ^as~a~result~of<pr>$ 0.2500000
^uno<det><ind><m><sg>$ ^examine<vblex><pp>$ 0.2500000
^uno<det><ind><m><sg>$ ^like<pr>$ 0.2500000
^uno<det><ind><m><sg>$ ^a<det><ind><sg>$ 0.3347639
^uno<det><ind><m><sg>$ ^assess<vblex><pp>$ 0.2000000
^uno<det><ind><m><sg>$ ^make<vblex><ger>$ 0.1000000
^uno<det><ind><m><sg>$ ^confuse<vblex><past>$ 0.3333333
^uno<det><ind><m><sg>$ ^provide<vblex><inf>$ 0.1428571
^uno<det><ind><m><sg>$ ^monitor<vblex><inf>$ 0.2500000
^uno<det><ind><m><sg>$ ^recognise<vblex><inf>$ 0.5000000
^uno<det><ind><m><sg>$ ^*sceptical$ 0.2500000
^uno<det><ind><m><sg>$ ^rapid<adj>$ 0.2000000
^uno<det><ind><m><sg>$ ^matter<n><sg>$ 0.0588235
^uno<det><ind><m><sg>$ ^appeal<vblex><ger>$ 0.3333333
^uno<det><ind><m><sg>$ ^provide<vblex><pri><p3><sg>$ 0.3333333
^uno<det><ind><m><sg>$ ^like<vblex><pres>$ 0.0769231
^uno<det><ind><m><sg>$ ^text<n><sg>$ 0.2000000
^uno<det><ind><m><sg>$ ^give<vblex><pres>$ 0.1428571
^uno<det><ind><m><sg>$ ^privilege<n><sg>$ 0.3333333
^uno<det><ind><m><sg>$ ^perspective<n><sg>$ 0.3333333
^uno<det><ind><m><sg>$ NULL 0.0104987
^uno<det><ind><m><sg>$ ^silence<n><sg>$ 0.2500000
^regularmente<adv>$ ^regular<adj>$ 0.2500000
^actor<n><m><pl>$ ^more<preadv>$ 0.0384615
^actor<n><m><pl>$ ^*onus$ 0.3333333
^útil<adj><mf><sg>$ ^meaningful<adj>$ 0.2000000
^útil<adj><mf><sg>$ ^probably<adv>$ 0.5000000
^útil<adj><mf><sg>$ ^for~the~record<cnjadv>$ 0.2500000
^útil<adj><mf><sg>$ ^also<adv>$ 0.0175439
^útil<adj><mf><sg>$ ^worthwhile<adj>$ 0.2000000
^bastar<vblex><pp><m><sg>$ ^have<vbhaver><inf>$ 0.0400000
^lectura<n><f><sg>$ ^read<vblex><ger>$ 1.0000000
^lectura<n><f><sg>$ ^have<vblex><pres>$ 0.1111111
^lectura<n><f><sg>$ ^reading<n><sg>$ 1.0000000
^lectura<n><f><sg>$ ^satisfactorily<adv>$ 1.0000000
^hospital<n><m><pl>$ ^hospital<n><pl>$ 0.3333333
^constructivo<adj><f><sg>$ ^action<n><sg>$ 0.1666667
^objetivo<n><m><sg>$ ^objective<adj>$ 0.7500000
^objetivo<n><m><sg>$ ^objective<n><sg>$ 0.8888889
^objetivo<n><m><sg>$ ^end<n><sg>$ 0.2500000
^objetivo<n><m><sg>$ ^goal<n><sg>$ 0.3333333
^objetivo<n><m><sg>$ NULL 0.0005249
^objetivo<n><m><sg>$ ^key<adj>$ 0.1666667
^objetivo<n><m><sg>$ ^aim<n><sg>$ 1.0000000
^rico<adj><f><pl>$ ^rich<adj><sint>$ 0.2500000
^haber<vbhaver><pp><m><sg>$ ^be<vbser><pp>$ 0.0144928
^haber<vbhaver><pp><m><sg>$ ^enough<det><qnt><sp>$ 0.5000000
^haber<vbhaver><pp><m><sg>$ ^there<adv>$ 0.0338983
^significativamente<adv>$ ^interpret<vblex><inf>$ 0.2500000
^otorgar<vblex><prs><p3><sg>$ ^be<vbser><inf>$ 0.0071429
^otorgar<vblex><prs><p3><sg>$ ^grant<vblex><pp>$ 0.1428571
^otorgar<vblex><prs><p3><sg>$ ^investigation<n><sg>$ 1.0000000
^de~nuevo<adv>$ ^like<vblex><pres>$ 0.0769231
^de~nuevo<adv>$ ^before<pr>$ 0.5000000
^enseñanza<n><f><sg>$ NULL 0.0005249
^enseñanza<n><f><sg>$ ^learn<vblex><inf>$ 0.1666667
^impuesto<n><m><sg>$ ^capital<adj>$ 0.5000000
^impuesto<n><m><sg>$ ^kind<n><sg>$ 0.2000000
^impuesto<n><m><sg>$ ^tax<n><sg>$ 0.3333333
^negativa<n><f><sg>$ ^negative<adj>$ 0.5000000
^*codecisión$ ^*codecision$ 0.3333333
^*codecisión$ ^in<pr>$ 0.0098361
^añadir<vblex><pp><m><sg>$ ^value<n><sg>$ 1.0000000
^*contabilizado$ ^have<vblex><pri><p3><sg>$ 0.0625000
^afirmar<vblex><pri><p1><pl>$ ^say<vblex><pres>$ 1.0000000
^afirmar<vblex><pri><p1><pl>$ ^every<det><ind><sg>$ 0.1111111
^intervención<n><f><sg>$ ^begin<vblex><inf>$ 0.1250000
^intervención<n><f><sg>$ ^for<pr>$ 0.0066225
^intervención<n><f><sg>$ ^contribution<n><sg>$ 0.2000000
^intervención<n><f><sg>$ ^be<vbser><pres>$ 0.0081967
^intervención<n><f><sg>$ ^speech<n><sg>$ 0.2500000
^intervención<n><f><sg>$ ^say<vblex><ger>$ 0.3333333
^intervención<n><f><sg>$ ^intervention<n><sg>$ 0.4000000
^intervención<n><f><sg>$ ^various<det><ind><pl>$ 0.2000000
^cierre<n><m><sg>$ ^close<adj><sint>$ 1.0000000
^desleal<adj><mf><sg>$ ^unfair<adj>$ 1.0000000
^desleal<adj><mf><sg>$ ^into<pr>$ 0.0384615
^previsto<adj><m><pl>$ ^*underspends$ 0.2000000
^tomar<vblex><pp><m><sg>$ ^prevail<vblex><pri><p3><sg>$ 0.3333333
^tomar<vblex><pp><m><sg>$ ^give<vblex><pp>$ 0.1000000
^unir<vblex><pp><f><pl>$ ^belong<vblex><pres>$ 0.5000000
^considerablemente<adv>$ ^considerably<adv>$ 0.3333333
^considerablemente<adv>$ ^fall<vblex><inf>$ 0.2500000
^considerablemente<adv>$ ^than<cnjcoo>$ 0.0909091
^alto<adj><m><pl>$ ^*stringent$ 1.0000000
^alto<adj><m><pl>$ ^pursue<vblex><ger>$ 0.1428571
^analizar<vblex><inf>$ ^analyse<vblex><inf>$ 1.0000000
^nuestro<adj><pos><f><pl>$ ^suggestion<n><pl>$ 0.3333333
^nuestro<adj><pos><f><pl>$ ^prpers<prn><subj><p1><mf><pl>$ 0.0057803
^dejar<vblex><pp><f><pl>$ ^leave<vblex><past>$ 1.0000000
^*indefectiblemente$ ^result<vblex><pp>$ 0.5000000
^suprimir<vblex><prs><p3><sg>$ ^take<vblex><pp>$ 0.0909091
^suprimir<vblex><prs><p3><sg>$ ^raise<vblex><inf>$ 0.1250000
^sin~duda<adv>$ ^no~doubt<adv>$ 1.0000000
^sin~duda<adv>$ ^certainly<adv>$ 0.1666667
^sin~duda<adv>$ ^will<vaux><inf>$ 0.0250000
^sin~duda<adv>$ ^undoubtedly<adv>$ 0.3333333
^sin~duda<adv>$ ^quite<preadv>$ 0.1000000
^dejar<vblex><prs><p1><pl>$ ^let<vblex><pp>$ 0.0909091
^dejar<vblex><prs><p1><pl>$ ^leave<vblex><inf>$ 0.1666667
^dejar<vblex><prs><p1><pl>$ ^make<vblex><pp>$ 0.0666667
^dejar<vblex><prs><p1><pl>$ ^so<preadv>$ 0.0555556
^dejar<vblex><prs><p1><pl>$ ^prpers<prn><obj><p1><mf><pl>$ 0.0322581
^50%<num><percent>$ ^50%<num><percent>$ 1.0000000
^consiguiente<adj><mf><sg>$ ^be<vbser><inf>$ 0.0071429
^consiguiente<adj><mf><sg>$ ^traffic<n><sg>$ 0.2500000
^consiguiente<adj><mf><sg>$ ^which<rel><an><mf><sp>$ 0.1428571
^consiguiente<adj><mf><sg>$ ^because~of<pr>$ 0.3333333
^antiguo<adj><f><sg>$ ^idea<n><sg>$ 0.3333333
^agotamiento<n><m><sg>$ ^exhaustion<n><sg>$ 1.0000000
^al~fin~y~al~cabo<adv>$ ^prpers<prn><subj><p3><nt><sg>$ 0.0104167
^riguroso<adj><m><sg>$ ^rigorous<adj>$ 0.3333333
^posible<adj><mf><sg>$ ^with<pr>$ 0.0178571
^posible<adj><mf><sg>$ ^be<vbser><inf>$ 0.0142857
^posible<adj><mf><sg>$ ^adapt<vblex><pp>$ 0.2000000
^posible<adj><mf><sg>$ ^as~soon~as~possible<adv>$ 0.2500000
^posible<adj><mf><sg>$ NULL 0.0005249
^posible<adj><mf><sg>$ ^safe<adj><sint>$ 0.2500000
^posible<adj><mf><sg>$ ^will<vaux><inf>$ 0.0125000
^posible<adj><mf><sg>$ ^where<rel><adv>$ 0.0400000
^posible<adj><mf><sg>$ ^feasible<adj>$ 0.5000000
^posible<adj><mf><sg>$ ^as~far~as~possible<adv>$ 1.0000000
^posible<adj><mf><sg>$ ^possible<adj>$ 0.3750000
^posible<adj><mf><sg>$ ^force<vblex><inf>$ 0.1666667
^posible<adj><mf><sg>$ ^individually<adv>$ 0.2000000
^posible<adj><mf><sg>$ ^can<n><sg>$ 0.2500000
^empresarial<adj><mf><sg>$ ^non<adv>$ 0.3333333
^empresarial<adj><mf><sg>$ ^activity<n><sg>$ 0.5000000
^empresarial<adj><mf><sg>$ ^viable<adj>$ 0.5000000
^empresarial<adj><mf><sg>$ ^management<n><sg>$ 0.5000000
^empresarial<adj><mf><sg>$ ^-<guio>$ 0.0153846
^razón<n><f><sg>$ ^and<cnjcoo>$ 0.0029499
^razón<n><f><sg>$ ^rightly<adv>$ 0.2000000
^razón<n><f><sg>$ ^file<vblex><pp>$ 0.2000000
^razón<n><f><sg>$ ^highlight<vblex><inf>$ 0.1428571
^razón<n><f><sg>$ NULL 0.0010499
^en~todo~caso<adv>$ ^nevertheless<adv>$ 0.3333333
^ramo<n><m><pl>$ ^sector<n><pl>$ 0.3333333
^preocupar<vblex><pri><p3><pl>$ ^dear<adj><sint>$ 0.2000000
^modificar<vblex><prs><p3><sg>$ ^amend<vblex><pp>$ 0.3333333
^modificar<vblex><prs><p3><sg>$ ^be<vbser><inf>$ 0.0071429
^material<n><m><pl>$ ^material<n><pl>$ 0.5000000
^material<n><m><pl>$ ^which<det><itg><sp>$ 0.0270270
^razonable<adj><mf><sg>$ ^starting~point<n><sg>$ 1.0000000
^razonable<adj><mf><sg>$ ^cooperation<n><sg>$ 0.1250000
^razonable<adj><mf><sg>$ ^reasonable<adj>$ 0.5000000
^razonable<adj><mf><sg>$ NULL 0.0005249
^razonable<adj><mf><sg>$ ^be<vbser><pri><p3><sg>$ 0.0039062
^reforzar<vblex><pp><f><sg>$ ^strengthen<vblex><pp>$ 0.2000000
^programa<n><m><sg>$ ^programme<n><sg>$ 1.0000000
^libremente<adv>$ NULL 0.0005249
^adopción<n><f><sg>$ ^part<n><sg>$ 0.1250000
^*homogéneas$ ^ensure<vblex><inf>$ 0.0909091
^*homogéneas$ ^uniform<adj>$ 0.2000000
^leer<vblex><inf>$ ^and<cnjcoo>$ 0.0029499
^leer<vblex><inf>$ ^read<vblex><pri><p3><sg>$ 0.5000000
^flexible<adj><mf><pl>$ ^*flexibly$ 1.0000000
^flexible<adj><mf><pl>$ ^more<preadv>$ 0.0384615
^flexible<adj><mf><pl>$ ^be<vbser><pri><p3><sg>$ 0.0039062
^necesario<adj><m><sg>$ ^to<pr>$ 0.0112867
^necesario<adj><m><sg>$ ^raise<vblex><inf>$ 0.1250000
^necesario<adj><m><sg>$ ^strike<vblex><inf>$ 0.3333333
^necesario<adj><m><sg>$ ^necessary<adj>$ 0.5000000
^necesario<adj><m><sg>$ ^prpers<prn><subj><p3><nt><sg>$ 0.0104167
^necesario<adj><m><sg>$ ^align<vblex><pp>$ 0.1666667
^punto#~de~vista<n><m><sg>$ NULL 0.0005249
^punto#~de~vista<n><m><sg>$ ^term<n><pl>$ 0.0833333
^punto#~de~vista<n><m><sg>$ ^as~far~as<adv>$ 0.2000000
^punto#~de~vista<n><m><sg>$ ^point#~of~view<n><sg>$ 1.0000000
^recomendar<vblex><pii><p3><sg>$ ^recommend<vblex><pp>$ 0.1666667
^recomendar<vblex><pii><p3><sg>$ ^which<prn><itg><m><sp>$ 0.0169492
^escéptico<n><m><sg>$ ^*sceptical$ 0.2500000
^señalar<vblex><inf>$ ^agree<vblex><inf>$ 0.1666667
^señalar<vblex><inf>$ ^on<pr>$ 0.0091743
^inexistente<adj><mf><sg>$ ^have<vbhaver><pri><p3><sg>$ 0.0133333
^inexistente<adj><mf><sg>$ ^be<vbser><pp>$ 0.0144928
^inexistente<adj><mf><sg>$ ^at~all<adv>$ 0.2000000
^inexistente<adj><mf><sg>$ ^give<vblex><pp>$ 0.1000000
^funcionario<n><m><sg>$ ^official<n><sg>$ 1.0000000
^funcionario<n><m><sg>$ ^a<det><ind><sg>$ 0.0042918
^parcialmente<adv>$ ^container<n><pl>$ 0.1666667
^*oponemos$ ^optimism<n><sg>$ 0.2000000
^*oponemos$ ^*liberals$ 0.5000000
^*oponemos$ ^'<apos>$ 0.0153846
^*oponemos$ ^on<pr>$ 0.0091743
^*oponemos$ ^naïve<adj><sint>$ 1.0000000
^fundamental<adj><mf><sg>$ ^get<vblex><inf>$ 0.1666667
^fundamental<adj><mf><sg>$ ^one<prn><tn><mf><sg>$ 0.0344828
^fundamental<adj><mf><sg>$ ^at<pr>$ 0.0312500
^fundamental<adj><mf><sg>$ ^to<pr>$ 0.0022573
^fundamental<adj><mf><sg>$ ^fundamental<adj>$ 0.2000000
^fundamental<adj><mf><sg>$ ^play<vblex><inf>$ 0.5000000
^repetir<vblex><pri><p1><sg>$ ^prpers<prn><subj><p1><mf><sg>$ 0.0047619
^repetir<vblex><pri><p1><sg>$ ^would<vaux><inf>$ 0.0116279
^repetir<vblex><pri><p1><sg>$ ^*emphasise$ 1.0000000
^agradecer<vblex><inf>$ ^for<pr>$ 0.0132450
^agradecer<vblex><inf>$ ^like<vblex><inf>$ 0.0172414
^agradecer<vblex><inf>$ ^thank<vblex><inf>$ 0.2666667
^intervenir<vblex><pp><m><sg>$ ^speaker<n><pl>$ 0.2000000
^intervenir<vblex><pp><m><sg>$ ^the<det><def><sp>$ 0.0009551
^*prioritario$ ^for<pr>$ 0.0066225
^*prioritario$ ^priority<n><sg>$ 0.5000000
^dotación<n><f><sg>$ ^provision<n><sg>$ 0.1666667
^aplicar<vblex><inf>$ ^should<vaux><inf>$ 0.0175439
^aplicar<vblex><inf>$ NULL 0.0005249
^asesor<n><m><pl>$ ^legal<adj>$ 0.1250000
^seguir#~siendo<vblex><pri><p3><pl>$ ^area<n><pl>$ 0.0500000
^seguir#~siendo<vblex><pri><p3><pl>$ ^within<pr>$ 0.0384615
^seguir#~siendo<vblex><pri><p3><pl>$ ^still<adv>$ 0.0714286
^fumador<n><m><pl>$ ^enforce<vblex><pp>$ 1.0000000
^desviación<n><f><pl>$ ^witness<vblex><pp>$ 0.3333333
^en~forma<adv>$ ^form<n><sg>$ 1.0000000
^en~forma<adv>$ ^annual<adj>$ 0.5000000
^iniciativa<n><f><pl>$ ^initiative<n><pl>$ 0.6666667
^iniciativa<n><f><pl>$ ^take<vblex><ger>$ 0.2500000
^1998<num>$ ^1998<num>$ 0.5833333
^inadmisible<adj><mf><sg>$ ^inadmissible<adj>$ 0.5000000
^artículo<n><m><pl>$ ^*modernise$ 0.5000000
^artículo<n><m><pl>$ ^article<n><pl>$ 0.7500000
^vincular<vblex><inf>$ ^link<vblex><inf>$ 0.2000000
^vincular<vblex><inf>$ ^link<vblex><ger>$ 1.0000000
^favorable<adj><mf><sg>$ ^of<pr>$ 0.0020000
^favorable<adj><mf><sg>$ ^environment<n><sg>$ 0.5000000
^favorable<adj><mf><sg>$ ^vote<vblex><inf>$ 0.1428571
^ir<vblex><pp><m><sg>$ ^large<adj><sint>$ 0.1666667
^ir<vblex><pp><m><sg>$ ^when<adv><itg>$ 0.1052632
^propietario<n><m><sg>$ ^owner<n><sg>$ 1.0000000
^cultural<adj><mf><sg>$ ^diversity<n><sg>$ 0.2000000
^propio<adj><m><sg>$ NULL 0.0005249
^propio<adj><m><sg>$ ^own<adj>$ 0.3333333
^perder<vblex><ger>$ ^lose<vblex><ger>$ 0.2500000
^perder<vblex><ger>$ ^ground<n><sg>$ 0.5000000
^exigencia<n><f><pl>$ ^maximum<adj>$ 1.0000000
^caso<n><m><pl>$ ^here<adv>$ 0.1250000
^caso<n><m><pl>$ ^precisely<adv>$ 0.1818182
^caso<n><m><pl>$ ^everybody<prn><tn><m><sg>$ 0.2500000
^caso<n><m><pl>$ ^case<n><pl>$ 0.2000000
^al~menos<adv>$ ^our<det><pos><sp>$ 0.0238095
^al~menos<adv>$ ^bureaucratic<adj>$ 0.5000000
^al~menos<adv>$ ^thinking<n><sg>$ 0.3333333
^revisión<n><f><sg>$ ^revision<n><sg>$ 0.6666667
^próximo<adj><f><pl>$ ^forthcoming<adj>$ 0.3333333
^consciente<adj><mf><sg>$ ^realise<vblex><inf>$ 0.3333333
^consciente<adj><mf><sg>$ ^prpers<prn><subj><p1><mf><sg>$ 0.0047619
^consciente<adj><mf><sg>$ ^do<vbdo><pres>$ 0.0384615
^consciente<adj><mf><sg>$ ^aware<adj>$ 0.3333333
^objeción<n><f><sg>$ ^kind<adj><sint>$ 0.5000000
^objeción<n><f><sg>$ ^object<n><sg>$ 0.1428571
^objeción<n><f><sg>$ ^that<det><dem><sg>$ 0.0714286
^objeción<n><f><sg>$ ^comment<n><pl>$ 0.1250000
^otro<prn><tn><m><sg>$ ^against<adv>$ 0.3333333
^otro<prn><tn><m><sg>$ ^one<prn><tn><mf><sg>$ 0.0344828
^otro<prn><tn><m><sg>$ ^secondly<adv>$ 0.2000000
^concesión<n><f><sg>$ ^granting<n><sg>$ 1.0000000
^concesión<n><f><sg>$ ^way<n><sg>$ 0.0434783
^concesión<n><f><sg>$ ^some<det><qnt><sp>$ 0.0769231
^expresar<vblex><ger>$ ^want#~to<vbmod><pres>$ 0.0909091
^vacaciones<n><f><pl>$ ^enjoy<vblex><past>$ 1.0000000
^vacaciones<n><f><pl>$ ^prpers<prn><obj><p2><mf><sp>$ 0.0400000
^vacaciones<n><f><pl>$ ^festive<adj>$ 0.5000000
^vacaciones<n><f><pl>$ ^hope<n><sg>$ 0.1250000
^palo<n><m><pl>$ ^hit<n><sg>$ 0.5000000
^palo<n><m><pl>$ ^hard<adj><sint><sup>$ 0.2000000
^retirar<vblex><prs><p3><sg>$ ^take<vblex><pp>$ 0.0909091
^vicepresidente<n><f><sg>$ ^vice-president<n><sg>$ 1.0000000
^septiembre<n><m><sg>$ NULL 0.0005249
^septiembre<n><m><sg>$ ^September<n><sg>$ 0.5000000
^procesión<n><f><sg>$ ^kind<n><sg>$ 0.2000000
^idea<n><f><pl>$ ^general<n><sg>$ 0.3333333
^reparto<n><m><sg>$ ^distribution<n><sg>$ 0.5000000
^reparto<n><m><sg>$ ^for<pr>$ 0.0066225
^deberse#~a<vblex><pron><pri><p3><sg>$ ^because~of<pr>$ 0.3333333
^deberse#~a<vblex><pron><pri><p3><sg>$ ^be<vbser><past><p3><sg>$ 0.0270270
^seguir<vblex><pri><p3><pl>$ ^rapid<adj>$ 0.2000000
^seguir<vblex><pri><p3><pl>$ ^obstacle<n><pl>$ 1.0000000
^unánime<adj><mf><sg>$ ^draft<n><sg>$ 0.3333333
^restringir<vblex><inf>$ ^can<n><sg>$ 0.2500000
^restringir<vblex><inf>$ ^keep<vblex><inf>$ 0.3333333
^próximo<adj><m><pl>$ ^coming<adj>$ 0.5000000
^próximo<adj><m><pl>$ ^next<adj>$ 0.3333333
^desfavorecido<adj><m><pl>$ ^vulnerable<adj>$ 0.3333333
^entorno<n><m><sg>$ ^favourable<adj>$ 1.0000000
^entorno<n><m><sg>$ ^environment<n><sg>$ 0.5000000
^cumplir<vblex><pri><p3><sg>$ ^do<vbdo><pri><p3><sg>$ 0.0625000
^cumplir<vblex><pri><p3><sg>$ ^adhere<vblex><inf>$ 0.3333333
^unos~cuantos<det><qnt><m><pl>$ ^study<vblex><inf>$ 0.5000000
^unos~cuantos<det><qnt><m><pl>$ ^several<det><ind><pl>$ 0.5000000
^parte<n><f><pl>$ ^of<pr>$ 0.0040000
^parte<n><f><pl>$ ^*fifths$ 0.5000000
^parte<n><f><pl>$ ^quarter<n><pl>$ 0.2500000
^por~lo~que~respecta~a<pr>$ ^as~for<pr>$ 0.1666667
^estructural<adj><mf><pl>$ ^fund<n><pl>$ 0.0454545
^estructural<adj><mf><pl>$ ^structural<adj>$ 0.6451613
^británico<n><m><pl>$ ^*Conservatives$ 1.0000000
^por~un~lado<adv>$ ^firstly<adv>$ 0.1250000
^por~un~lado<adv>$ ^:<sent>$ 0.1111111
^por~un~lado<adv>$ ^thing<n><pl>$ 0.3333333
^planear<vblex><pp><m><sg>$ ^with<pr>$ 0.0178571
^planear<vblex><pp><m><sg>$ ^planned<adj>$ 0.5000000
^adaptar<vblex><inf>$ ^adapt<vblex><pp>$ 0.2000000
^estimar<vblex><pri><p3><pl>$ ^sit<vblex><ger>$ 0.1000000
^precisamente<adv>$ NULL 0.0005249
^precisamente<adv>$ ^this<prn><tn><mf><sg>$ 0.0128205
^precisamente<adv>$ ^precisely<adv>$ 0.1818182
^precisamente<adv>$ ^be<vbser><pri><p3><sg>$ 0.0039062
^asunto<n><m><sg>$ ^impact<n><sg>$ 0.5000000
^asunto<n><m><sg>$ ^matter<n><sg>$ 0.1764706
^asunto<n><m><sg>$ NULL 0.0005249
^asunto<n><m><sg>$ ^very<preadv>$ 0.0370370
^asunto<n><m><sg>$ ^issue<n><sg>$ 0.0526316
^antes~de<pr>$ ^procession<n><sg>$ 0.3333333
^antes~de<pr>$ ^prior~to<pr>$ 0.5000000
^general<adj><mf><pl>$ NULL 0.0005249
^general<adj><mf><pl>$ ^your<det><pos><sp>$ 0.0476190
^ejército<n><m><sg>$ ^american<adj>$ 0.5000000
^simulacro#~de~incendio<n><m><pl>$ ^be<vbser><pp>$ 0.0144928
^simulacro#~de~incendio<n><m><pl>$ ^have<vblex><pri><p3><sg>$ 0.0625000
^simulacro#~de~incendio<n><m><pl>$ ^fire~drill<n><sg>$ 0.3333333
^simulacro#~de~incendio<n><m><pl>$ ^there<adv>$ 0.0169492
^simulacro#~de~incendio<n><m><pl>$ ^no<det><ind><sp>$ 0.0454545
^junta<n><f><sg>$ ^college<n><sg>$ 1.0000000
^caracterizar<vblex><pri><p3><sg>$ ^overriding<adj>$ 0.2500000
^caracterizar<vblex><pri><p3><sg>$ ^the<det><def><sp>$ 0.0009551
^caracterizar<vblex><pri><p3><sg>$ ^feature<n><pl>$ 0.5000000
^igualdad<n><f><sg>$ ^equal<adj>$ 1.0000000
^gustar<vblex><cni><p3><sg>$ ^like<vblex><inf>$ 0.0862069
^gustar<vblex><cni><p3><sg>$ ^ambition<n><sg>$ 0.1666667
^gustar<vblex><cni><p3><sg>$ ^should<vaux><inf>$ 0.0175439
^gustar<vblex><cni><p3><sg>$ ^would<vaux><inf>$ 0.0581395
^ferrocarril<n><m><sg>$ ^rail<n><sg>$ 0.2500000
^*férreas$ ^rail<n><sg>$ 0.2500000
^criticar<vblex><inf>$ ^criticise<vblex><ger>$ 1.0000000
^uniforme<n><m><sg>$ ^uniform<adj>$ 0.2000000
^hablar<vblex><fti><p3><sg>$ ^that<prn><tn><mf><sg>$ 0.0434783
^hablar<vblex><fti><p3><sg>$ ^on<adv>$ 0.0181818
^hablar<vblex><fti><p3><sg>$ NULL 0.0005249
^hablar<vblex><fti><p3><sg>$ ^up<adv>$ 0.1000000
^hablar<vblex><fti><p3><sg>$ ^come<vblex><inf>$ 0.3333333
^hablar<vblex><fti><p3><sg>$ ^will<vaux><inf>$ 0.0125000
^finalmente<adv>$ ^draw<vblex><inf>$ 0.1428571
^finalmente<adv>$ ^comment<vblex><ger>$ 0.3333333
^estreno<n><m><sg>$ ^maiden<adj>$ 0.2500000
^documento<n><m><pl>$ ^document<n><pl>$ 0.5000000
^causar<vblex><fti><p3><sg>$ ^other<det><ind><sp>$ 0.1000000
^causar<vblex><fti><p3><sg>$ ^*cargo$ 0.2000000
^causar<vblex><fti><p3><sg>$ ^which<prn><itg><m><sp>$ 0.0169492
^apartado<n><m><sg>$ ^paragraph<n><sg>$ 0.5000000
^apartado<n><m><sg>$ ^(<lpar>$ 0.0909091
^marco<n><m><sg>$ NULL 0.0020997
^marco<n><m><sg>$ ^regulate<vblex><inf>$ 0.1666667
^marco<n><m><sg>$ ^United~Nations<np><al><pl>$ 1.0000000
^marco<n><m><sg>$ ^within<pr>$ 0.0769231
^marco<n><m><sg>$ ^context<n><sg>$ 0.3333333
^horizontal<adj><mf><pl>$ ^permissible<adj>$ 0.2500000
^horizontal<adj><mf><pl>$ ^be<vbser><pres>$ 0.0081967
^acumulación<n><f><sg>$ ^from<pr>$ 0.0277778
^acumulación<n><f><sg>$ ^accumulation<n><sg>$ 1.0000000
^acumulación<n><f><sg>$ ^money<n><sg>$ 0.1666667
^interponer<vblex><fti><p3><sg>$ ^appeal<vblex><ger>$ 0.3333333
^interponer<vblex><fti><p3><sg>$ ^be<vbser><pri><p3><sg>$ 0.0039062
^nuevo<adj><m><sg>$ ^change<n><sg>$ 0.2500000
^nuevo<adj><m><sg>$ ^new<adj><sint>$ 0.2142857
^nuevo<adj><m><sg>$ ^of<pr>$ 0.0020000
^nuevo<adj><m><sg>$ ^year<n><sg>$ 0.2500000
^predecesor<n><m><pl>$ ^predecessor<n><pl>$ 0.5000000
^prpers<prn><enc><p1><mf><pl>$ ^late<adv>$ 0.3333333
^prpers<prn><enc><p1><mf><pl>$ ^end#~up<vblex><ger>$ 0.5000000
^prpers<prn><enc><p1><mf><pl>$ ^*enlighten$ 0.5000000
^prpers<prn><enc><p1><mf><pl>$ ^indicator<n><sg>$ 0.5000000
^prpers<prn><enc><p1><mf><pl>$ ^content<vblex><inf>$ 0.1428571
^prpers<prn><enc><p1><mf><pl>$ ^remember<vblex><inf>$ 0.3333333
^prpers<prn><enc><p1><mf><pl>$ ^prpers<prn><obj><p1><mf><pl>$ 0.0322581
^embarcación<n><f><pl>$ ^obvious<adj>$ 1.0000000
^enmienda<n><f><sg>$ ^propose<vblex><pp>$ 0.2857143
^enmienda<n><f><sg>$ NULL 0.0005249
^enmienda<n><f><sg>$ ^by<pr>$ 0.0285714
^enmienda<n><f><sg>$ ^*tabled$ 0.0769231
^enmienda<n><f><sg>$ ^amendment<n><sg>$ 0.6428571
^realizar<vblex><pis><p3><sg>$ ^implement<vblex><pp>$ 0.5000000
^realizar<vblex><pis><p3><sg>$ ^be<vbser><inf>$ 0.0071429
^verificar<vblex><inf>$ ^check<vblex><inf>$ 0.5000000
^prpers<prn><tn><p3><mf><sg>$ ^either<adv>$ 0.1666667
^prpers<prn><tn><p3><mf><sg>$ ^read<vblex><pp>$ 0.5000000
^prpers<prn><tn><p3><mf><sg>$ ^thank~you<ij>$ 0.2500000
^prpers<prn><tn><p3><mf><sg>$ NULL 0.0015748
^prpers<prn><tn><p3><mf><sg>$ ^prpers<prn><obj><p2><mf><sp>$ 0.0400000
^prpers<prn><tn><p3><mf><sg>$ ^that<rel><an><mf><sp>$ 0.1428571
^prpers<prn><tn><p3><mf><sg>$ ^prpers<prn><subj><p2><mf><sp>$ 0.2000000
^en~muchos~aspectos<adv>$ ^state<n><sg>$ 0.3333333
^en~muchos~aspectos<adv>$ ^to<pr>$ 0.0022573
^en~muchos~aspectos<adv>$ ^another<prn><tn><m><sg>$ 0.3333333
^fomento<n><m><sg>$ NULL 0.0005249
^fomento<n><m><sg>$ ^boost<vblex><ger>$ 0.3333333
^una~vez~más<adv>$ ^once~again<adv>$ 0.6000000
^una~vez~más<adv>$ ^prpers<prn><subj><p1><mf><pl>$ 0.0057803
^una~vez~más<adv>$ ^over<adv>$ 0.2500000
^imponer<vblex><inf>$ NULL 0.0005249
^pasado<n><m><sg>$ ^numerous<adj>$ 0.3333333
^pasado<n><m><sg>$ ^in~the~past<adv>$ 0.2500000
^pasado<n><m><sg>$ ^case<n><sg>$ 0.0666667
^permitir<vblex><imp><p3><pl>$ ^prpers<prn><subj><p1><mf><sg>$ 0.0047619
^permitir<vblex><imp><p3><pl>$ ^allow<vblex><pres>$ 0.2500000
^estar<vblex><pri><p1><sg>$ ^prpers<prn><subj><p1><mf><sg>$ 0.0142857
^estar<vblex><pri><p1><sg>$ ^be<vbser><pri><p1><sg>$ 0.1176471
^estar<vblex><pri><p1><sg>$ ^personally<adv>$ 0.2000000
^obligatorio<adj><m><sg>$ ^compulsory<adj>$ 0.5000000
^preocupar<vblex><pp><m><pl>$ ^with<pr>$ 0.0178571
^preocupar<vblex><pp><m><pl>$ ^concern<vblex><pp>$ 0.0769231
^dólar<n><m><sg>$ ^dollar<n><sg>$ 1.0000000
^extraordinariamente<adv>$ ^welcome<vblex><past>$ 0.2000000
^extraordinariamente<adv>$ ^extraordinarily<adv>$ 0.5000000
^extraordinariamente<adv>$ ^*exceptionally$ 0.3333333
^extraordinariamente<adv>$ ^magnificently<adv>$ 0.2500000
^competir<vblex><inf>$ ^competition<n><sg>$ 0.0113636
^de~alguna~manera<adv>$ ^in<pr>$ 0.0065574
^de~alguna~manera<adv>$ ^some<det><qnt><sp>$ 0.0769231
^de~alguna~manera<adv>$ ^a<det><ind><sg>$ 0.0042918
^de~alguna~manera<adv>$ ^hide<vblex><pp>$ 0.2500000
^de~alguna~manera<adv>$ ^way<n><sg>$ 0.0869565
^programar<vblex><pp><m><pl>$ ^schedule<vblex><past>$ 1.0000000
^programar<vblex><pp><m><pl>$ ^debate<n><pl>$ 1.0000000
^gracias~a<pr>$ ^cause<n><sg>$ 0.3333333
^gracias~a<pr>$ ^thank<vblex><inf>$ 0.1333333
^claro<adj><f><sg>$ ^lie<n><pl>$ 0.3333333
^claro<adj><f><sg>$ ^clearly<adv>$ 0.1666667
^ocupar<vblex><pri><p3><pl>$ ^form<vblex><pri><p3><sg>$ 0.3333333
^comunitario<adj><m><sg>$ ^on<adv>$ 0.0181818
^comunitario<adj><m><sg>$ ^community<adj>$ 0.2222222
^poner#~en~marcha<vblex><pp><f><sg>$ ^implementation<n><sg>$ 0.1111111
^entre<pr>$ ^balance<n><sg>$ 0.1666667
^entre<pr>$ ^between<pr>$ 0.8333333
^entre<pr>$ ^reduce<vblex><inf>$ 0.1428571
^entre<pr>$ ^another<prn><tn><m><sg>$ 0.3333333
^entre<pr>$ NULL 0.0015748
^entre<pr>$ ^expire<vblex><pri><p3><sg>$ 0.1428571
^entre<pr>$ ^legitimate<vblex><inf>$ 0.5000000
^entre<pr>$ ^in<pr>$ 0.0065574
^entre<pr>$ ^force<vblex><inf>$ 0.1666667
^entre<pr>$ ^amongst<pr>$ 0.5000000
^entre<pr>$ ^laughter<n><sg>$ 0.3333333
^entre<pr>$ ^among<pr>$ 0.3333333
^*siderúrgica$ ^consolidation<n><sg>$ 0.3333333
^*siderúrgica$ ^steel<n><sg>$ 0.1818182
^local<adj><mf><sg>$ ^scheme<n><pl>$ 0.3333333
^local<adj><mf><sg>$ ^local<adj>$ 0.2000000
^señor<n><f><pl>$ ^help<vblex><inf>$ 0.2500000
^señor<n><f><pl>$ ^*steer$ 0.2000000
^productor<n><m><pl>$ ^profit<n><sg>$ 0.5000000
^productor<n><m><pl>$ ^producer<n><pl>$ 0.1666667
^inviable<adj><mf><pl>$ ^should<vaux><inf>$ 0.0175439
^aspecto<n><m><pl>$ ^in~many~respects<adv>$ 0.3333333
^aspecto<n><m><pl>$ NULL 0.0015748
^aspecto<n><m><pl>$ ^dear<adj><sint>$ 0.2000000
^aspecto<n><m><pl>$ ^issue<n><pl>$ 0.2000000
^continuación<n><f><sg>$ ^now<adv>$ 0.0476190
^continuación<n><f><sg>$ ^prpers<prn><obj><p1><mf><sg>$ 0.0909091
^continuación<n><f><sg>$ ^let<vblex><pp>$ 0.0909091
^continuación<n><f><sg>$ ^come<vblex><pp>$ 0.1111111
^*especuladores$ ^economy<n><pl>$ 1.0000000
^12.00<num>$ ^12<num>$ 0.5000000
^decir<vblex><cni><p3><sg>$ ^magnificently<adv>$ 0.2500000
^decir<vblex><cni><p3><sg>$ ^say<vblex><inf>$ 0.0625000
^decir<vblex><cni><p3><sg>$ ^quite<preadv>$ 0.1000000
^decir<vblex><cni><p3><sg>$ ^prpers<prn><subj><p1><mf><sg>$ 0.0047619
^decir<vblex><cni><p3><sg>$ ^shape<n><sg>$ 0.3333333
^decir<vblex><cni><p3><sg>$ ^would<vaux><inf>$ 0.0116279
^tener<vblex><fti><p3><sg>$ ^be<vbser><inf>$ 0.0071429
^tener<vblex><fti><p3><sg>$ ^will<vaux><inf>$ 0.0125000
^tener<vblex><fti><p3><sg>$ ^enlargement<n><sg>$ 0.1666667
^tener<vblex><fti><p3><sg>$ ^on<pr>$ 0.0091743
^construir<vblex><inf>$ NULL 0.0005249
^construir<vblex><inf>$ ^build<vblex><inf>$ 0.3333333
^*in$ ^state<vblex><pri><p3><sg>$ 0.2000000
^día<n><m><pl>$ ^few<det><qnt><pl>$ 0.1666667
^día<n><m><pl>$ ^day<n><pl>$ 0.5000000
^examen<n><m><pl>$ ^also<adv>$ 0.0175439
^expirar<vblex><prs><p3><sg>$ ^be<vbser><pres>$ 0.0081967
^expirar<vblex><prs><p3><sg>$ ^this<det><dem><sg>$ 0.0076336
^expirar<vblex><prs><p3><sg>$ ^state<adj>$ 0.0384615
^a~pesar~de<pr>$ ^and<cnjcoo>$ 0.0029499
^a~pesar~de<pr>$ ^despite<pr>$ 1.0000000
^determinado<adj><f><pl>$ ^some<det><qnt><sp>$ 0.0769231
^determinado<adj><f><pl>$ ^impose<vblex><inf>$ 0.2500000
^determinado<adj><f><pl>$ ^certain<adj>$ 0.1538462
^determinado<adj><f><pl>$ ^municipality<n><pl>$ 0.5000000
^tener<vblex><prs><p3><sg>$ NULL 0.0005249
^volver<vblex><pp><m><sg>$ ^*retabled$ 0.3333333
^incremento<n><m><sg>$ ^in<pr>$ 0.0032787
^incremento<n><m><sg>$ ^increase<n><sg>$ 0.1666667
^ser<vbser><prs><p3><pl>$ ^technical<adj>$ 0.1428571
^ser<vbser><prs><p3><pl>$ NULL 0.0020997
^ser<vbser><prs><p3><pl>$ ^afterwards<adv>$ 0.3333333
^ser<vbser><prs><p3><pl>$ ^competitive<adj>$ 0.5000000
^ser<vbser><prs><p3><pl>$ ^apply<vblex><pres>$ 0.5000000
^ser<vbser><prs><p3><pl>$ ^be<vbser><pres>$ 0.0327869
^pleno<adj><f><sg>$ ^certain<adj>$ 0.0769231
^pleno<adj><f><sg>$ ^be<vbser><pri><p1><sg>$ 0.0588235
^pleno<adj><f><sg>$ ^partnership<n><sg>$ 0.5000000
^constatar<vblex><pri><p3><sg>$ ^improve<vblex><ger>$ 0.1428571
^constatar<vblex><pri><p3><sg>$ ^directly<adv>$ 0.2000000
^ideólogo<n><m><sg>$ ^*ideologue$ 1.0000000
^suavizar<vblex><inf>$ ^watering<n><sg>$ 0.1666667
^suavizar<vblex><inf>$ ^down<adv>$ 0.1428571
^suavizar<vblex><inf>$ ^no<det><ind><sp>$ 0.0454545
^suavizar<vblex><inf>$ ^-<guio>$ 0.0153846
^contestar<vblex><pp><f><pl>$ ^answer<vblex><past>$ 0.5000000
^contestar<vblex><pp><f><pl>$ ^answer<vblex><pp>$ 0.3333333
^asegurar<vblex><inf>$ ^reassure<vblex><inf>$ 0.3333333
^asegurar<vblex><inf>$ ^ensure<vblex><inf>$ 0.0909091
^asegurar<vblex><inf>$ ^prpers<prn><obj><p1><mf><pl>$ 0.0322581
^asegurar<vblex><inf>$ NULL 0.0005249
^trabajador<n><m><pl>$ ^worker<n><pl>$ 0.3333333
^neutralizar<vblex><pp><m><sg>$ ^*chipped$ 1.0000000
^neutralizar<vblex><pp><m><sg>$ ^away<adv>$ 0.5000000
^neutralizar<vblex><pp><m><sg>$ ^at<pr>$ 0.0312500
^-<guio>$ ^1998<num>$ 0.0833333
^-<guio>$ ^*Plooij$ 0.3333333
^-<guio>$ ^represent<vblex><pres>$ 0.3333333
^-<guio>$ ^-<guio>$ 0.1384615
^-<guio>$ ^for<pr>$ 0.0066225
^-<guio>$ ^*Wulf$ 0.5000000
^-<guio>$ ^parliamentary<adj>$ 0.1250000
^-<guio>$ NULL 0.0015748
^-<guio>$ ^2000<num>$ 0.5000000
^17<num>$ ^17<num>$ 1.0000000
^preocupar<vblex><pp><f><sg>$ ^have<vblex><pres>$ 0.1111111
^preocupar<vblex><pp><f><sg>$ ^concern<n><pl>$ 0.5000000
^preocupar<vblex><pp><f><sg>$ ^my<det><pos><sp>$ 0.0192308
^alguno<prn><tn><m><pl>$ ^quarter<n><pl>$ 0.2500000
^alguno<prn><tn><m><pl>$ ^some<prn><tn><mf><pl>$ 0.3333333
^*sobradamente$ ^demonstrate<vblex><inf>$ 0.5000000
^emitir<vblex><inf>$ ^down<adv>$ 0.1428571
^cuenta<n><f><pl>$ ^accountability<n><sg>$ 0.3333333
^cuenta<n><f><pl>$ ^belong<vblex><pres>$ 0.5000000
^estructural<adj><mf><sg>$ ^link<vblex><inf>$ 0.2000000
^estructural<adj><mf><sg>$ ^structural<adj>$ 0.1612903
^mayoría<n><f><sg>$ ^majority<n><sg>$ 0.6000000
^mayoría<n><f><sg>$ ^significant<adj>$ 0.1666667
^exigir<vblex><pri><p1><pl>$ ^prpers<prn><subj><p1><mf><pl>$ 0.0057803
^exigir<vblex><pri><p1><pl>$ ^demand<vblex><pres>$ 0.2500000
^apreciación<n><f><sg>$ ^evaluation<n><sg>$ 1.0000000
^beneficio<n><m><sg>$ ^benefit<n><sg>$ 0.2500000
^beneficio<n><m><sg>$ ^the<det><def><sp>$ 0.0009551
^pese~a<pr>$ ^respectfully<adv>$ 0.5000000
^ronda<n><f><sg>$ ^round<n><sg>$ 1.0000000
^dispuesto<adj><m><sg>$ ^prepare<vblex><past>$ 1.0000000
^precedente<n><m><pl>$ ^report<n><pl>$ 0.0833333
^precedente<n><m><pl>$ ^compare<vblex><pp>$ 0.5000000
^precedente<n><m><pl>$ ^previous<adj>$ 0.2000000
^privado<adj><f><sg>$ ^place<n><sg>$ 0.3333333
^privado<adj><f><sg>$ ^industry<n><sg>$ 0.0769231
^áspero<adj><f><pl>$ ^to<pr>$ 0.0022573
^áspero<adj><f><pl>$ ^bitter<adj>$ 1.0000000
^requerir<vblex><pri><p3><pl>$ ^what<rel><nn><mf><sg>$ 0.1666667
^examinar<vblex><pp><m><sg>$ ^discussed<adj>$ 0.5000000
^naturalmente<adv>$ ^naturally<adv>$ 0.3333333
^naturalmente<adv>$ ^have<vblex><pri><p3><sg>$ 0.0625000
^naturalmente<adv>$ ^the~same<adv>$ 0.2500000
^burocracia<n><f><sg>$ ^tape<n><sg>$ 0.3333333
^burocracia<n><f><sg>$ ^bureaucracy<n><sg>$ 0.3333333
^burocracia<n><f><sg>$ ^red<adj>$ 0.5000000
^discutir<vblex><pri><p3><sg>$ ^discuss<vblex><ger>$ 0.1428571
^devolver<vblex><pp><f><sg>$ ^ensure<vblex><pres>$ 0.1666667
^entrada<n><f><sg>$ ^enter<vblex><pp>$ 0.5000000
^brillar<vblex><pri><p3><sg>$ ^where<rel><adv>$ 0.0400000
^brillar<vblex><pri><p3><sg>$ ^*sorely$ 1.0000000
^acercamiento<n><m><sg>$ ^harmonise<vblex><ger>$ 0.2500000
^en~principio<adv>$ NULL 0.0005249
^en~principio<adv>$ ^in~principle<adv>$ 0.3333333
^en~principio<adv>$ ^do<vbdo><pres>$ 0.0384615
^principio<n><m><pl>$ ^in~accordance~with<pr>$ 0.3333333
^principio<n><m><pl>$ ^principle<n><pl>$ 0.2000000
^intervenir<vblex><pri><p1><sg>$ ^be<vbser><pri><p1><sg>$ 0.0588235
^intervenir<vblex><pri><p1><sg>$ ^speak<vblex><ger>$ 0.6666667
^intervenir<vblex><pri><p1><sg>$ ^prpers<prn><subj><p1><mf><sg>$ 0.0047619
^intervenir<vblex><pri><p1><sg>$ ^on<pr>$ 0.0091743
^indiscutiblemente<adv>$ ^notify<vblex><inf>$ 0.5000000
^decir<vblex><fti><p3><sg>$ ^prpers<prn><obj><p1><mf><sg>$ 0.0909091
^decir<vblex><fti><p3><sg>$ ^tell<vblex><inf>$ 0.1111111
^decir<vblex><fti><p3><sg>$ ^situation<n><pl>$ 0.3333333
^decir<vblex><fti><p3><sg>$ ^will<vaux><inf>$ 0.0125000
^margarina<n><f><sg>$ ^margarine<n><sg>$ 0.5000000
^comenzar<vblex><fti><p1><sg>$ ^a<det><ind><sg>$ 0.0042918
^1762<num>$ ^1762<num>$ 0.5000000
^profundo<adj><f><sg>$ ^deep<adj><sint><comp>$ 1.0000000
^señal<n><f><sg>$ ^marker<n><sg>$ 0.3333333
^durante<pr>$ NULL 0.0005249
^durante<pr>$ ^debate<vblex><past>$ 0.3333333
^durante<pr>$ ^during<pr>$ 0.2857143
^interés<n><m><sg>$ ^law<n><sg>$ 0.0588235
^ciudadano<adj><m><pl>$ ^start<vblex><inf>$ 0.1666667
^producir<vblex><pp><m><sg>$ NULL 0.0010499
^producir<vblex><pp><m><sg>$ ^materialise<vblex><inf>$ 0.2000000
^producir<vblex><pp><m><sg>$ ^take#~place<vblex><pp>$ 0.1666667
^producir<vblex><pp><m><sg>$ ^delay<n><pl>$ 0.1428571
^atender<vblex><inf>$ ^due~to<pr>$ 1.0000000
^atender<vblex><inf>$ ^attend<vblex><inf>$ 0.5000000
^incrementar<vblex><inf>$ ^increasing<adj>$ 0.3333333
^incrementar<vblex><inf>$ ^margin<n><pl>$ 0.3333333
^incrementar<vblex><inf>$ ^safety<n><sg>$ 0.0416667
^tasa<n><f><sg>$ ^unemployment<n><sg>$ 0.1250000
^debilitar<vblex><cni><p3><sg>$ ^rather~than<pr>$ 0.1666667
^éste<prn><tn><m><sg>$ ^way<n><sg>$ 0.0434783
^éste<prn><tn><m><sg>$ ^this<prn><tn><mf><sg>$ 0.0769231
^éste<prn><tn><m><sg>$ ^my<det><pos><sp>$ 0.0192308
^potencial<adj><mf><sg>$ ^provider<n><sg>$ 1.0000000
^suscitar<vblex><pri><p3><sg>$ ^become<vblex><inf>$ 0.2500000
^suscitar<vblex><pri><p3><sg>$ ^pronounce<vblex><pp>$ 0.2500000
^imaginación<n><f><sg>$ ^their<det><pos><sp>$ 0.0256410
^*PPE$ ^party<n><sg>$ 0.1428571
^*PPE$ ^european<adj>$ 0.0222222
^*PPE$ ^*PPE$ 0.3333333
^estatal<adj><mf><pl>$ ^state<adj>$ 0.5769231
^otro<det><ind><f><sg>$ ^in<pr>$ 0.0032787
^otro<det><ind><f><sg>$ ^one<prn><tn><mf><sg>$ 0.0344828
^otro<det><ind><f><sg>$ ^another<det><ind><sg>$ 0.5000000
^otro<det><ind><f><sg>$ ^short<adj><sint>$ 0.2500000
^otro<det><ind><f><sg>$ ^institution<n><sg>$ 0.5000000
^siglo<n><m><sg>$ ^enter<vblex><pres>$ 0.5000000
^siglo<n><m><sg>$ ^prpers<prn><subj><p1><mf><pl>$ 0.0057803
^siglo<n><m><sg>$ ^as<cnjadv>$ 0.0344828
^sinceramente<adv>$ ^most<det><qnt><sp>$ 0.2000000
^regla<n><f><sg>$ ^be<vbser><pres>$ 0.0081967
^regla<n><f><sg>$ ^no<adv>$ 0.1666667
^regla<n><f><sg>$ ^rule<n><pl>$ 0.0666667
^regla<n><f><sg>$ ^in~general<adv>$ 0.2000000
^demasiado<adv>$ ^a~lot<adv>$ 0.5000000
^demasiado<adv>$ ^prpers<prn><subj><p3><nt><sg>$ 0.0104167
^demasiado<adv>$ ^be<vbser><ger>$ 0.0526316
^demasiado<adv>$ ^large<adj><sint>$ 0.1666667
^decenio<n><m><sg>$ ^over<pr>$ 0.2500000
^destacar<vblex><pri><p3><sg>$ ^importance<n><sg>$ 0.1000000
^destacar<vblex><pri><p3><sg>$ ^*emphasises$ 1.0000000
^destacar<vblex><pri><p3><sg>$ ^of<pr>$ 0.0020000
^bueno<adj><f><sg>$ ^sound<n><sg>$ 0.2500000
^bueno<adj><f><sg>$ ^proper<adj>$ 0.2000000
^bueno<adj><f><sg>$ ^look<vblex><inf>$ 0.3333333
^bueno<adj><f><sg>$ ^good<adj><sint>$ 0.1250000
^bueno<adj><f><sg>$ ^conduct<n><sg>$ 0.5000000
^bueno<adj><f><sg>$ ^apply<vblex><pp>$ 0.3333333
^bueno<adj><f><sg>$ ^constructive<adj>$ 0.5000000
^bueno<adj><f><sg>$ ^workable<adj>$ 1.0000000
^en~contra<adv>$ ^against<adv>$ 0.6666667
^en~contra<adv>$ NULL 0.0005249
^consideración<n><f><sg>$ NULL 0.0005249
^consideración<n><f><sg>$ ^of<pr>$ 0.0020000
^consideración<n><f><sg>$ ^account<n><sg>$ 0.1250000
^consideración<n><f><sg>$ ^take<vblex><pres>$ 0.2500000
^encontrar<vblex><pp><m><sg>$ ^think#~that<vblex><past>$ 0.3333333
^encontrar<vblex><pp><m><sg>$ ^superb<adj>$ 0.5000000
^nivelar<vblex><inf>$ ^out<adv>$ 0.1666667
^nivelar<vblex><inf>$ ^evening<n><sg>$ 0.5000000
^entrar<vblex><prs><p3><sg>$ ^invalidity<n><sg>$ 0.2500000
^entrar<vblex><prs><p3><sg>$ ^penalty<n><sg>$ 0.3333333
^a~este~respecto<cnjadv>$ ^do<vblex><ger>$ 0.1666667
^a~este~respecto<cnjadv>$ NULL 0.0005249
^construcción<n><f><sg>$ ^industry<n><sg>$ 0.0769231
^construcción<n><f><sg>$ ^such~as<pr>$ 0.0909091
^llegar<vblex><inf>$ ^bring<vblex><inf>$ 0.2500000
^llegar<vblex><inf>$ NULL 0.0005249
^llegar<vblex><inf>$ ^prpers<prn><obj><p1><mf><pl>$ 0.0322581
^por~definición<adv>$ ^by~definition<adv>$ 1.0000000
^hasta~la~fecha<adv>$ ^date<vblex><inf>$ 0.2500000
^hasta~la~fecha<adv>$ ^to<pr>$ 0.0022573
^índole<n><f><sg>$ ^investment<n><pl>$ 0.2500000
^explicación<n><f><sg>$ ^explanation<n><sg>$ 0.2500000
^hecho<n><m><pl>$ NULL 0.0005249
^hecho<n><m><pl>$ ^prpers<prn><obj><p1><mf><pl>$ 0.0322581
^continuar<vblex><ifi><p3><sg>$ ^pursue<vblex><pp>$ 1.0000000
^profundo<adj><m><sg>$ ^depth<n><sg>$ 0.3333333
^profundo<adj><m><sg>$ ^why<adv><itg>$ 0.0400000
^profundo<adj><m><sg>$ ^-<guio>$ 0.0153846
^instrumento<n><m><sg>$ ^instrument<n><sg>$ 0.5000000
^europeo<adj><f><sg>$ ^'<apos>$ 0.0153846
^europeo<adj><f><sg>$ ^european<adj>$ 0.5111111
^europeo<adj><f><sg>$ NULL 0.0005249
^aumento<n><m><sg>$ ^as~a~result~of<pr>$ 0.2500000
^aumento<n><m><sg>$ NULL 0.0005249
^aumento<n><m><sg>$ ^strengthen<vblex><inf>$ 0.3333333
^en~lo~que~respecta~a<pr>$ ^especially<adv>$ 0.1250000
^en~lo~que~respecta~a<pr>$ ^with<pr>$ 0.0178571
^en~lo~que~respecta~a<pr>$ ^in<pr>$ 0.0098361
^en~lo~que~respecta~a<pr>$ ^US<np><loc><sg>$ 0.5000000
^disentir<vblex><pp><m><sg>$ ^disagree<vblex><pp>$ 0.2500000
^disentir<vblex><pp><m><sg>$ ^numerous<adj>$ 0.3333333
^comisario<n><m><sg>$ NULL 0.0005249
^comisario<n><m><sg>$ ^commissioner<n><sg>$ 0.5217391
^suscitar<vblex><pp><m><sg>$ ^give<vblex><pp>$ 0.1000000
^suscitar<vblex><pp><m><sg>$ ^rise<n><sg>$ 0.1250000
^intentar<vblex><pri><p3><sg>$ ^endeavour<vblex><ger>$ 0.3333333
^unir<vblex><pp><m><sg>$ ^as~well~as<cnjadv>$ 0.1250000
^aplicar<vblex><pri><p3><sg>$ ^apply<vblex><pri><p3><sg>$ 0.3333333
^aplicar<vblex><pri><p3><sg>$ ^have<vbhaver><pres>$ 0.0250000
^pequeña~y~mediana~empresa<n><f><pl>$ ^decisive<adj>$ 1.0000000
^pequeña~y~mediana~empresa<n><f><pl>$ ^SME<n><pl>$ 0.2500000
^pequeña~y~mediana~empresa<n><f><pl>$ ^small<adj><sint>$ 0.1666667
^examinar<vblex><pp><f><sg>$ NULL 0.0005249
^reforma<n><f><sg>$ ^sooner<adv>$ 1.0000000
^reforma<n><f><sg>$ ^reform<n><sg>$ 0.5454545
^poder<vbmod><pp><m><sg>$ ^although<cnjadv>$ 0.2000000
^poder<vbmod><pp><m><sg>$ ^fall<vblex><past>$ 0.2500000
^poder<vbmod><pp><m><sg>$ ^electronically<adv>$ 0.2500000
^frecuente<adj><mf><sg>$ ^often<adv>$ 0.1000000
^frecuente<adj><mf><sg>$ ^deal#~with<vblex><pres>$ 0.2500000
^frecuente<adj><mf><sg>$ ^so<preadv>$ 0.0555556
^credibilidad<n><f><sg>$ ^as~regards<pr>$ 0.5000000
^central<adj><mf><sg>$ ^goal<n><sg>$ 0.3333333
^central<adj><mf><sg>$ ^central<adj>$ 0.4000000
^regional<adj><mf><sg>$ ^regional<adj>$ 0.5333333
^afectar<vblex><pp><f><pl>$ ^region<n><pl>$ 0.0185185
^afectar<vblex><pp><f><pl>$ ^fall<vblex><past>$ 0.2500000
^afectar<vblex><pp><f><pl>$ ^damage<vblex><pp>$ 0.5000000
^cualquier~cosa<prn><tn><f><sg>$ ^less~than<pr>$ 0.5000000
^cualquier~cosa<prn><tn><f><sg>$ ^something<prn><tn><nt><sg>$ 0.0625000
^pequeño<adj><m><pl>$ ^small<adj><sint>$ 0.1666667
^aumentar<vblex><prs><p3><pl>$ ^to<pr>$ 0.0022573
^Sr.<n><m><sg>$ NULL 0.0005249
^Sr.<n><m><sg>$ ^Mr.<n><sg>$ 0.3191489
^Sr.<n><m><sg>$ ^commissioner<n><sg>$ 0.0434783
^Sr.<n><m><sg>$ ^for<pr>$ 0.0066225
^nuestro<det><pos><m><pl>$ ^our<det><pos><sp>$ 0.0952381
^nuestro<det><pos><m><pl>$ ^teach<vblex><pp>$ 0.2000000
^nuestro<det><pos><m><pl>$ NULL 0.0005249
^capital<n><m><sg>$ ^tax<n><sg>$ 0.6666667
^capital<n><m><sg>$ NULL 0.0005249
^suerte<n><f><sg>$ ^*accordance$ 0.5000000
^suerte<n><f><sg>$ ^with<pr>$ 0.0178571
^*minimis$ ^regulation<n><sg>$ 0.1250000
^*minimis$ ^*minimis$ 1.0000000
^defender<vblex><pri><p3><sg>$ NULL 0.0005249
^defender<vblex><pri><p3><sg>$ ^champion<vblex><pp>$ 0.5000000
^*monopolista$ ^monopoly<n><sg>$ 0.5000000
^*monopolista$ ^with<pr>$ 0.0178571
^*monopolista$ ^market<n><sg>$ 0.0270270
^conceder<vblex><ger>$ ^still<adv>$ 0.0714286
^conceder<vblex><ger>$ ^particular<adj>$ 0.2500000
^conceder<vblex><ger>$ ^issue<vblex><inf>$ 1.0000000
^prpers<prn><enc><p3><mf><sg>$ ^prpers<prn><obj><p2><mf><sp>$ 0.1600000
^prpers<prn><enc><p3><mf><sg>$ NULL 0.0005249
^prpers<prn><enc><p3><mf><sg>$ ^prpers<prn><subj><p1><mf><sg>$ 0.0095238
^prpers<prn><enc><p3><mf><sg>$ ^tell<vblex><inf>$ 0.3333333
^prpers<prn><enc><p3><mf><sg>$ ^*dramatised$ 0.1428571
^prpers<prn><enc><p3><mf><sg>$ ^sincerely<adv>$ 0.5000000
^prpers<prn><enc><p3><mf><sg>$ ^priority<n><sg>$ 0.2500000
^prpers<prn><enc><p3><mf><sg>$ ^express<vblex><ger>$ 0.3333333
^prpers<prn><enc><p3><mf><sg>$ ^pay<vblex><inf>$ 0.1250000
^prpers<prn><enc><p3><mf><sg>$ ^want#~to<vbmod><pres>$ 0.0909091
^voto<n><m><sg>$ ^explanation<n><pl>$ 0.2500000
^voto<n><m><sg>$ ^vote<vblex><inf>$ 0.1428571
^voto<n><m><sg>$ ^vote<n><sg>$ 0.3846154
^hora<n><f><sg>$ ^,<cm>$ 0.0012547
^hora<n><f><sg>$ ^establish<vblex><ger>$ 0.5000000
^hora<n><f><sg>$ NULL 0.0010499
^hora<n><f><sg>$ ^in<pr>$ 0.0065574
^dramáticamente<adv>$ ^mark<vblex><pp>$ 0.3333333
^dramáticamente<adv>$ ^much~more<adv>$ 0.5000000
^dramáticamente<adv>$ ^become<vblex><ger>$ 0.3333333
^dramáticamente<adv>$ ^be<vbser><pres>$ 0.0081967
^tener#~que<vbmod><cni><p1><pl>$ ^everything<prn><tn><m><sg>$ 0.1666667
^tener#~que<vbmod><cni><p1><pl>$ ^prpers<prn><subj><p1><mf><pl>$ 0.0057803
^tener#~que<vbmod><cni><p1><pl>$ ^our<det><pos><sp>$ 0.0238095
^tener#~que<vbmod><cni><p1><pl>$ ^power<n><sg>$ 0.3333333
^tener#~que<vbmod><cni><p1><pl>$ ^within<pr>$ 0.0384615
^*ultraliberal$ ^idea<n><sg>$ 0.3333333
^*ultraliberal$ ^*ultraliberal$ 0.5000000
^amable<adj><mf><sg>$ ^not<adv>$ 0.0073529
^pequeño<adj><f><pl>$ ^small<adj><sint><comp>$ 0.3333333
^pequeño<adj><f><pl>$ ^with<pr>$ 0.0178571
^elemento<n><m><sg>$ ^perspective<n><sg>$ 0.3333333
^elemento<n><m><sg>$ ^within<pr>$ 0.0384615
^seguir#~siendo<vblex><inf>$ ^still<adv>$ 0.0714286
^seguir#~siendo<vblex><inf>$ ^*ought$ 1.0000000
^futuro<adj><m><sg>$ ^success<n><sg>$ 0.3333333
^paradoja<n><f><sg>$ ^paradox<n><sg>$ 1.0000000
^paradoja<n><f><sg>$ ^be#~faced~with<vblex><inf>$ 0.3333333
^primer<det><ord><m><pl>$ ^first<det><ord><sp>$ 0.1250000
^fluvial<adj><mf><pl>$ ^*waterway$ 1.0000000
^necesidad<n><f><pl>$ ^ecological<adj>$ 0.3333333
^necesidad<n><f><pl>$ ^reserve<n><pl>$ 0.1250000
^necesidad<n><f><pl>$ NULL 0.0010499
^abogado<n><m><pl>$ ^lawyer<n><pl>$ 0.4000000
^eficaz<adj><mf><pl>$ ^supplement<n><pl>$ 0.5000000
^eficaz<adj><mf><pl>$ ^*efficiently$ 0.2500000
^eficaz<adj><mf><pl>$ NULL 0.0005249
^práctico<adj><f><sg>$ ^administration<n><sg>$ 0.3333333
^práctico<adj><f><sg>$ ^practical<adj>$ 0.6000000
^ponente<n><mf><pl>$ ^*rapporteurs$ 0.5000000
^ponente<n><mf><pl>$ ^Mr.<n><sg>$ 0.0106383
^valoración<n><f><sg>$ ^assessment<n><sg>$ 0.2000000
^breve<adj><mf><pl>$ ^highlight<n><sg>$ 0.5000000
^breve<adj><mf><pl>$ ^word<n><pl>$ 0.5000000
^breve<adj><mf><pl>$ ^in~order~to<pr>$ 0.1111111
^correctamente<adv>$ ^correctly<adv>$ 0.3333333
^ambos<det><ind><m><pl>$ ^document<n><pl>$ 0.5000000
^ambos<det><ind><m><pl>$ ^both<cnjcoo>$ 0.5000000
^medir<vblex><inf>$ ^may<vaux><inf>$ 0.0833333
^mil<n><m><pl>$ ^thousand<n><pl>$ 1.0000000
^comprobar<vblex><inf>$ ^see<vblex><pp>$ 0.1428571
^a~favor<adv>$ ^for<pr>$ 0.0132450
^a~favor<adv>$ ^marker<n><sg>$ 0.3333333
^a~favor<adv>$ ^in~favour<adv>$ 0.2307692
^a~favor<adv>$ ^vote<n><pl>$ 0.1666667
^a~favor<adv>$ ^favour<vblex><inf>$ 1.0000000
^marchar<vblex><ger>$ NULL 0.0005249
^someter<vblex><inf>$ ^subject<vblex><inf>$ 0.5000000
^,<cm>$ ^and<cnjcoo>$ 0.0147493
^,<cm>$ ^rose<n><sg>$ 1.0000000
^,<cm>$ ^make<n><sg>$ 0.3333333
^,<cm>$ ^appear<vblex><past>$ 0.3333333
^,<cm>$ ^go<vblex><inf>$ 0.3333333
^,<cm>$ ^so<preadv>$ 0.1111111
^,<cm>$ ^support<vblex><inf>$ 0.1111111
^,<cm>$ ^come<vblex><inf>$ 0.3333333
^,<cm>$ ^that<det><dem><pl>$ 0.1428571
^,<cm>$ ^where<rel><adv>$ 0.0800000
^,<cm>$ ^should<vaux><inf>$ 0.1228070
^,<cm>$ ^further<adv>$ 0.1000000
^,<cm>$ ^prpers<prn><subj><p3><nt><sg>$ 0.0104167
^,<cm>$ ^say<vblex><inf>$ 0.2500000
^,<cm>$ ^prpers<prn><subj><p1><mf><sg>$ 0.0095238
^,<cm>$ ^Japan<np><loc><sg>$ 0.5000000
^,<cm>$ ^prpers<prn><obj><p3><nt><sg>$ 0.0625000
^,<cm>$ ^possibly<adv>$ 1.0000000
^,<cm>$ ^9002<num>$ 1.0000000
^,<cm>$ ^sole<adj>$ 0.3333333
^,<cm>$ ^observe<vblex><past>$ 0.3333333
^,<cm>$ NULL 0.0745407
^,<cm>$ ^be<vbser><pres>$ 0.0163934
^,<cm>$ ^would<vaux><inf>$ 0.0581395
^,<cm>$ ^reject<vblex><inf>$ 1.0000000
^,<cm>$ ^line<n><pl>$ 1.0000000
^,<cm>$ ^be<vbser><pri><p3><sg>$ 0.0078125
^,<cm>$ ^take<vblex><inf>$ 0.0769231
^,<cm>$ ^quite<preadv>$ 0.1000000
^,<cm>$ ^accept<vblex><inf>$ 0.2000000
^,<cm>$ ^necessary<adj>$ 0.1250000
^,<cm>$ ^restructuring<n><sg>$ 0.6666667
^,<cm>$ ^.<sent>$ 0.0027933
^,<cm>$ ^since<adv>$ 0.1111111
^,<cm>$ ^prpers<prn><subj><p1><mf><pl>$ 0.0404624
^,<cm>$ ^,<cm>$ 0.7666248
^,<cm>$ ^be<vbser><past><p3><sg>$ 0.0540541
^,<cm>$ ^have<vbhaver><pres>$ 0.0250000
^,<cm>$ ^at<pr>$ 0.0937500
^,<cm>$ ^therefore<adv>$ 0.3023256
^,<cm>$ ^warning<n><sg>$ 0.3333333
^,<cm>$ ^business<adj>$ 0.1111111
^,<cm>$ ^withdraw<vblex><pp>$ 0.1111111
^,<cm>$ ^Tuesday<n><sg>$ 0.2000000
^,<cm>$ ^ultimate<adj>$ 0.5000000
^,<cm>$ ^let<vblex><pp>$ 0.2727273
^,<cm>$ ^every<det><ind><sg>$ 0.3333333
^,<cm>$ ^there<adv>$ 0.0847458
^,<cm>$ ^may<vaux><inf>$ 0.0833333
^,<cm>$ ^I<num><mf><sg>$ 0.1428571
^,<cm>$ ^as~for<pr>$ 0.3333333
^,<cm>$ ^too<preadv>$ 0.2857143
^votar<vblex><prs><p1><pl>$ ^on<pr>$ 0.0091743
^reducir<vblex><inf>$ ^drop<vblex><ger>$ 0.5000000
^reducir<vblex><inf>$ ^at~all<adv>$ 0.2000000
^reducir<vblex><inf>$ ^to<pr>$ 0.0022573
^reducir<vblex><inf>$ ^reduce<vblex><inf>$ 0.1428571
^suficiente<adj><mf><pl>$ ^create<vblex><inf>$ 0.3333333
^tino<n><m><sg>$ ^know<vblex><inf>$ 0.1428571
^tino<n><m><sg>$ ^how<preadv>$ 0.2000000
^apoyo~financiero<n><m><sg>$ ^aid<n><sg>$ 0.0161290
^apoyo~financiero<n><m><sg>$ ^financial<adj>$ 0.1666667
^55<num>$ ^55<num>$ 1.0000000
^55<num>$ ^have<vbhaver><pri><p3><sg>$ 0.0133333
^55<num>$ ^*tabled$ 0.0769231
^55<num>$ ^94<num>$ 0.5000000
^proceso<n><m><sg>$ ^*pre$ 0.5000000
^proceso<n><m><sg>$ ^challenge<n><pl>$ 0.5000000
^proceso<n><m><sg>$ ^process<n><sg>$ 0.6666667
^proceso<n><m><sg>$ ^come#~to~an~end<vblex><pp>$ 0.3333333
^proceso<n><m><sg>$ ^process<vblex><inf>$ 0.5000000
^proceso<n><m><sg>$ ^very<preadv>$ 0.0370370
^mes<n><m><sg>$ NULL 0.0015748
^esto<prn><tn><m><sp>$ ^welcome<vblex><past>$ 0.2000000
^esto<prn><tn><m><sp>$ ^be<vbser><pri><p3><sg>$ 0.0039062
^esto<prn><tn><m><sp>$ ^enforce<vblex><ger>$ 1.0000000
^esto<prn><tn><m><sp>$ ^this<det><dem><sg>$ 0.0152672
^esto<prn><tn><m><sp>$ ^this<prn><tn><mf><sg>$ 0.2948718
^esto<prn><tn><m><sp>$ NULL 0.0036745
^esto<prn><tn><m><sp>$ ^reconsider<vblex><pres>$ 0.2000000
^esto<prn><tn><m><sp>$ ^result<n><sg>$ 0.1428571
^esto<prn><tn><m><sp>$ ^so~much<det><qnt><sg>$ 0.3333333
^esto<prn><tn><m><sp>$ ^under<pr>$ 0.2500000
^esto<prn><tn><m><sp>$ ^learn<vblex><inf>$ 0.1666667
^esto<prn><tn><m><sp>$ ^*islander$ 0.5000000
^esto<prn><tn><m><sp>$ ^mean<vblex><pri><p3><sg>$ 0.1666667
^esto<prn><tn><m><sp>$ ^much<adv>$ 0.2500000
^esto<prn><tn><m><sp>$ ^that<prn><tn><mf><sg>$ 0.0434783
^amplio<adj><m><sg>$ ^comprehensive<adj>$ 0.3333333
^decir<vblex><fti><p3><pl>$ ^off<adv>$ 0.2500000
^poder<vbmod><inf>$ ^able<adj><sint>$ 0.1000000
^poder<vbmod><inf>$ ^be<vbser><inf>$ 0.0142857
^recordar<vblex><pri><p1><sg>$ ^need<vblex><inf>$ 0.5000000
^recordar<vblex><pri><p1><sg>$ ^*Fruteau$ 0.1666667
^recordar<vblex><pri><p1><sg>$ ^Mr.<n><sg>$ 0.0106383
^recordar<vblex><pri><p1><sg>$ ^at~least<adv>$ 0.2500000
^recordar<vblex><pri><p1><sg>$ NULL 0.0005249
^recordar<vblex><pri><p1><sg>$ ^prpers<prn><subj><p1><mf><pl>$ 0.0057803
^haber~que<vbmod><cni><p3><sg>$ ^concern<vblex><pp>$ 0.0769231
^haber~que<vbmod><cni><p3><sg>$ ^be<vbser><pri><p3><sg>$ 0.0039062
^gobierno<n><m><pl>$ ^by<pr>$ 0.0285714
^gobierno<n><m><pl>$ ^government<n><pl>$ 0.6000000
^emplear<vblex><pri><p1><sg>$ ^seek<vblex><ger>$ 0.3333333
^órgano<n><m><pl>$ ^experience<vblex><inf>$ 0.5000000
^órgano<n><m><pl>$ ^lack<n><sg>$ 0.1111111
^mayor<adj><mf><sg>$ ^should<vaux><inf>$ 0.0175439
^mayor<adj><mf><sg>$ ^great<adj><sint><comp>$ 0.4444444
^mayor<adj><mf><sg>$ ^world<n><sg>$ 0.2500000
^mayor<adj><mf><sg>$ ^cross<n><sg>$ 0.2000000
^mayor<adj><mf><sg>$ ^*dramatised$ 0.1428571
^mayor<adj><mf><sg>$ ^great<adj><sint><sup>$ 0.4000000
^mayor<adj><mf><sg>$ ^meaningful<adj>$ 0.2000000
^mayor<adj><mf><sg>$ ^increase<vblex><pp>$ 0.2857143
^mayor<adj><mf><sg>$ NULL 0.0020997
^escaso<adj><f><pl>$ ^so<preadv>$ 0.0555556
^escaso<adj><f><pl>$ ^make<vblex><ger>$ 0.1000000
^escaso<adj><f><pl>$ ^few<det><qnt><pl>$ 0.1666667
^envase<n><m><pl>$ ^by<pr>$ 0.0142857
^envase<n><m><pl>$ ^affect<vblex><pp>$ 1.0000000
^envase<n><m><pl>$ ^packaging<n><sg>$ 1.0000000
^envase<n><m><pl>$ ^be<vbser><pres>$ 0.0081967
^obligar<vblex><pri><p3><sg>$ ^fact<n><sg>$ 0.0833333
^obligar<vblex><pri><p3><sg>$ ^mean<vblex><pri><p3><sg>$ 0.1666667
^obligar<vblex><pri><p3><sg>$ ^that<cnjsub>$ 0.0059880
^obligar<vblex><pri><p3><sg>$ ^urgency<n><sg>$ 0.5000000
^neerlandés<adj><m><sg>$ ^as~well<adv>$ 0.5000000
^neerlandés<adj><m><sg>$ ^channel<n><sg>$ 1.0000000
^lugar<n><m><pl>$ ^right<adj>$ 0.1250000
^lugar<n><m><pl>$ ^at<pr>$ 0.0312500
^lugar<n><m><pl>$ ^place<n><sg>$ 0.3333333
^recoger<vblex><inf>$ ^collate<vblex><inf>$ 1.0000000
^industria<n><f><sg>$ ^consolidation<n><sg>$ 0.3333333
^industria<n><f><sg>$ NULL 0.0010499
^industria<n><f><sg>$ ^industry<n><sg>$ 0.3076923
^industria<n><f><sg>$ ^steel<n><sg>$ 0.1818182
^fractura<n><f><sg>$ ^unnecessary<adj>$ 1.0000000
^región<n><f><pl>$ ^develop<vblex><ger>$ 0.3333333
^región<n><f><pl>$ ^southern<adj>$ 0.2500000
^región<n><f><pl>$ ^area<n><pl>$ 0.0500000
^región<n><f><pl>$ ^global<adj>$ 1.0000000
^región<n><f><pl>$ ^remote<adj>$ 0.3333333
^región<n><f><pl>$ NULL 0.0015748
^región<n><f><pl>$ ^rich<adj><sint>$ 0.2500000
^región<n><f><pl>$ ^poor<adj><sint>$ 0.1428571
^región<n><f><pl>$ ^inequality<n><sg>$ 0.5000000
^región<n><f><pl>$ ^region<n><pl>$ 0.5740741
^uno<det><ind><f><pl>$ ^consume<vblex><ger>$ 0.2500000
^uno<det><ind><f><pl>$ ^reason<n><sg>$ 0.1666667
^uno<det><ind><f><pl>$ NULL 0.0005249
^uno<det><ind><f><pl>$ ^pleasant<adj>$ 0.3333333
^uno<det><ind><f><pl>$ ^have<vblex><past>$ 0.5000000
^uno<det><ind><f><pl>$ ^flexibility<n><sg>$ 0.1428571
^uno<det><ind><f><pl>$ ^a~few<det><qnt><pl>$ 0.2222222
^uno<det><ind><f><pl>$ ^to<pr>$ 0.0022573
^memoria<n><f><sg>$ NULL 0.0005249
^cártel<n><m><pl>$ ^cartel<n><pl>$ 0.3333333
^cártel<n><m><pl>$ ^monopoly<n><pl>$ 0.2500000
^abordar<vblex><pri><p3><sg>$ ^contain<vblex><ger>$ 0.3333333
^análisis<n><m><sp>$ ^in<pr>$ 0.0032787
^análisis<n><m><sp>$ ^analysis<n><sg>$ 0.8750000
^análisis<n><m><sp>$ NULL 0.0005249
^igualmente<adv>$ ^also<adv>$ 0.0350877
^igualmente<adv>$ ^equally<adv>$ 1.0000000
^emocionante<adj><mf><sg>$ ^quite<preadv>$ 0.1000000
^emocionante<adj><mf><sg>$ ^exciting<adj>$ 1.0000000
^emocionante<adj><mf><sg>$ ^for<pr>$ 0.0066225
^últimamente<adv>$ ^have<vblex><inf>$ 0.0476190
^últimamente<adv>$ ^recently<adv>$ 0.3333333
^transparencia<n><f><sg>$ ^transparency<n><sg>$ 0.8750000
^moneda<n><f><sg>$ ^single<adj>$ 0.3333333
^dramático<adj><f><pl>$ ^dramatic<adj>$ 0.5000000
^insistir<vblex><inf>$ ^now<adv>$ 0.0476190
^uno<det><ind><m><pl>$ NULL 0.0005249
^uno<det><ind><m><pl>$ ^meet<vblex><inf>$ 0.2500000
^uno<det><ind><m><pl>$ ^propose<vblex><inf>$ 0.1250000
^uno<det><ind><m><pl>$ ^a~few<det><qnt><pl>$ 0.1111111
^uno<det><ind><m><pl>$ ^*Fruteau$ 0.1666667
^esperanza<n><f><sg>$ ^accept<vblex><inf>$ 0.2000000
^esperanza<n><f><sg>$ ^hope<vblex><pres>$ 0.2000000
^el~que<rel><nn><m><sg>$ ^where<rel><adv>$ 0.1200000
^el~que<rel><nn><m><sg>$ NULL 0.0005249
^el~que<rel><nn><m><sg>$ ^which<det><itg><sp>$ 0.0810811
^el~que<rel><nn><m><sg>$ ^context<n><sg>$ 0.3333333
^realidad<n><f><sg>$ ^perspective<n><sg>$ 0.3333333
^realidad<n><f><sg>$ NULL 0.0005249
^realidad<n><f><sg>$ ^that<prn><tn><mf><sg>$ 0.0434783
^aparecer<vblex><pp><f><pl>$ ^which<prn><itg><m><sp>$ 0.0169492
^aparecer<vblex><pp><f><pl>$ ^comment<vblex><pri><p3><sg>$ 0.3333333
^votar<vblex><ifi><p1><sg>$ ^vote<vblex><pp>$ 1.0000000
^humilde<adj><mf><sg>$ ^background<n><sg>$ 1.0000000
^economía#~de~mercado<n><f><sg>$ ^market~economy<n><sg>$ 0.8000000
^examinar<vblex><pri><p1><pl>$ ^examine<vblex><pres>$ 1.0000000
^examinar<vblex><pri><p1><pl>$ ^prpers<prn><subj><p1><mf><pl>$ 0.0057803
^regular<vblex><pp><f><pl>$ ^*afresh$ 0.1666667
^regular<vblex><pp><f><pl>$ ^down<adv>$ 0.1428571
^deficiencia<n><f><pl>$ ^that<cnjsub>$ 0.0059880
^deficiencia<n><f><pl>$ ^*shortcomings$ 1.0000000
^deficiencia<n><f><pl>$ ^deficiency<n><pl>$ 0.5000000
^sentido<n><m><sg>$ ^to~this~end<adv>$ 0.3333333
^sentido<n><m><sg>$ ^connection<n><sg>$ 0.3333333
^sentido<n><m><sg>$ ^be<vbser><inf>$ 0.0071429
^sentido<n><m><sg>$ NULL 0.0010499
^sentido<n><m><sg>$ ^bad<adj><sint>$ 0.3333333
^sentido<n><m><sg>$ ^sense<n><sg>$ 0.6000000
^sentido<n><m><sg>$ ^direction<n><sg>$ 0.2500000
^sentido<n><m><sg>$ ^*accordance$ 0.5000000
^sentido<n><m><sg>$ ^true<adj><sint>$ 0.1666667
^sentido<n><m><sg>$ ^in~this~respect<cnjadv>$ 0.1428571
^sentido<n><m><sg>$ ^respect<vblex><inf>$ 0.1666667
^sentido<n><m><sg>$ ^understand<vblex><pres>$ 0.2000000
^sentido<n><m><sg>$ ^and<cnjcoo>$ 0.0029499
^sentido<n><m><sg>$ ^prpers<prn><subj><p1><mf><sg>$ 0.0047619
^sentido<n><m><sg>$ ^welcome<vblex><pp>$ 0.2500000
^aporte<n><m><sg>$ ^contribution<n><sg>$ 0.2000000
^confiar<vblex><pri><p1><sg>$ ^assume<vblex><inf>$ 0.2000000
^confiar<vblex><pri><p1><sg>$ ^prpers<prn><subj><p1><mf><sg>$ 0.0047619
^bien<adv>$ ^wrong<adv>$ 0.5000000
^bien<adv>$ NULL 0.0010499
^bien<adv>$ ^acceptable<adj>$ 0.2000000
^bien<adv>$ ^prpers<prn><subj><p3><nt><sg>$ 0.0104167
^bien<adv>$ ^to<pr>$ 0.0022573
^bien<adv>$ ^correctly<adv>$ 0.1666667
^bien<adv>$ ^do<vblex><inf>$ 0.0666667
^bien<adv>$ ^enough<adv>$ 0.5000000
^bien<adv>$ ^interpretative<adj>$ 0.1250000
^bien<adv>$ ^well<adv>$ 0.1666667
^socialista<n><mf><pl>$ ^socialist<n><pl>$ 0.3750000
^noticia<n><f><pl>$ ^hear<vblex><inf>$ 0.1666667
^necesitar<vblex><pri><p3><sg>$ ^need<vblex><pri><p3><sg>$ 0.3333333
^necesitar<vblex><pri><p3><sg>$ ^need<n><pl>$ 0.2500000
^necesitar<vblex><pri><p3><sg>$ ^desperately<adv>$ 0.2500000
^canal<n><m><sg>$ ^dutch<adj>$ 1.0000000
^cualquiera<prn><tn><mf><sg>$ ^customer<n><pl>$ 0.5000000
^cualquiera<prn><tn><mf><sg>$ ^any<det><ind><sp>$ 0.0625000
^reanudación<n><f><sg>$ ^resumption<n><sg>$ 1.0000000
^incompatible<adj><mf><pl>$ ^*irreconcilable$ 0.2500000
^acatar<vblex><fti><p1><sg>$ ^that<prn><tn><mf><sg>$ 0.0434783
^acatar<vblex><fti><p1><sg>$ ^accept<vblex><pres>$ 0.5000000
^masivo<adj><m><sg>$ ^do<vbdo><pri><p3><sg>$ 0.0625000
^bajo<pr>$ ^under<pr>$ 0.2500000
^bajo<pr>$ NULL 0.0005249
^orden<n><f><sg>$ ^be<vbser><inf>$ 0.0071429
^orden<n><f><sg>$ ^prpers<prn><subj><p3><nt><sg>$ 0.0104167
^orden<n><f><sg>$ ^properly<adv>$ 0.3333333
^orden<n><f><sg>$ ^agenda<n><sg>$ 0.0588235
^orden<n><f><sg>$ ^as<preadv>$ 0.1000000
^orden<n><f><sg>$ ^should<vaux><inf>$ 0.0175439
^cosa<n><f><sg>$ ^be<vbser><past><p3><sg>$ 0.0270270
^cosa<n><f><sg>$ ^matter<vblex><inf>$ 0.5000000
^ir<vblex><pri><p1><sg>$ ^look<vblex><inf>$ 0.3333333
^ir<vblex><pri><p1><sg>$ ^into<pr>$ 0.0384615
^modalidad<n><f><pl>$ ^procedure<n><pl>$ 0.3333333
^modalidad<n><f><pl>$ ^for<pr>$ 0.0066225
^único<adj><m><sg>$ ^single~market<n><sg>$ 0.2500000
^único<adj><m><sg>$ ^gross<adj><sint>$ 0.5000000
^único<adj><m><sg>$ ^the<det><def><sp>$ 0.0019102
^avanzar<vblex><pp><m><sg>$ ^move<vblex><pp>$ 0.5000000
^avanzar<vblex><pp><m><sg>$ ^forward<adv>$ 0.2000000
^aumentar<vblex><fti><p3><sg>$ ^discrimination<n><sg>$ 0.5000000
^aumentar<vblex><fti><p3><sg>$ ^prpers<prn><obj><p1><mf><sg>$ 0.0909091
^aumentar<vblex><fti><p3><sg>$ ^within<pr>$ 0.0384615
^aumentar<vblex><fti><p3><sg>$ ^that<cnjsub>$ 0.0059880
^ecológico<adj><f><pl>$ ^ecological<adj>$ 0.3333333
^ecológico<adj><f><pl>$ ^requirement<n><pl>$ 0.1111111
^*ausentarse$ ^be<vbser><pri><p3><sg>$ 0.0039062
^*ausentarse$ ^unable<adj>$ 0.3333333
^básicamente<adv>$ ^this<prn><tn><mf><sg>$ 0.0256410
^básicamente<adv>$ ^serve<vblex><pri><p3><sg>$ 1.0000000
^básicamente<adv>$ ^give<vblex><pres>$ 0.1428571
^básicamente<adv>$ ^basically<adv>$ 0.3333333
^atravesar<vblex><pri><p3><pl>$ ^experience<vblex><ger>$ 0.5000000
^medio~ambiente<n><m><sg>$ ^environmental<adj>$ 0.3333333
^representar<vblex><pri><p1><sg>$ ^represent<vblex><pres>$ 0.3333333
^representar<vblex><pri><p1><sg>$ ^prpers<prn><subj><p1><mf><sg>$ 0.0047619
^alto<adj><f><sg>$ ^hi<ij>$ 1.0000000
^concluir<vblex><inf>$ ^conclude<vblex><inf>$ 0.2500000
^prejuzgar<vblex><inf>$ ^thing<n><sg>$ 0.2000000
^hablar<vblex><fti><p1><sg>$ ^will<vaux><inf>$ 0.0125000
^hablar<vblex><fti><p1><sg>$ ^speak<vblex><inf>$ 0.1111111
^hablar<vblex><fti><p1><sg>$ ^prpers<prn><subj><p1><mf><sg>$ 0.0047619
^incluido<adj><m><pl>$ ^and<cnjcoo>$ 0.0029499
^practicar<vblex><pri><p1><pl>$ ^pursue<vblex><ger>$ 0.1428571
^*Nikitin$ ^*Nikitin$ 1.0000000
^correspondiente<adj><mf><pl>$ ^relevant<adj>$ 0.3333333
^correspondiente<adj><mf><pl>$ ^adverse<adj>$ 0.5000000
^dejar<vblex><inf>$ ^*commend$ 0.2500000
^dejar<vblex><inf>$ ^prpers<prn><obj><p3><nt><sg>$ 0.0312500
^dejar<vblex><inf>$ ^allow<vblex><inf>$ 0.2500000
^dejar<vblex><inf>$ ^make<vblex><inf>$ 0.0476190
^dejar<vblex><inf>$ ^be#~left<vblex><inf>$ 0.3333333
^dejar<vblex><inf>$ ^.<sent>$ 0.0013966
^debate<n><m><sg>$ ^discussion<n><sg>$ 0.6000000
^debate<n><m><sg>$ ^debate<vblex><inf>$ 0.3333333
^debate<n><m><sg>$ ^debate<n><sg>$ 0.8823529
^debate<n><m><sg>$ ^discuss<vblex><ger>$ 0.1428571
^debate<n><m><sg>$ NULL 0.0015748
^procedente<adj><mf><pl>$ ^ship<n><pl>$ 0.3333333
^procedente<adj><mf><pl>$ ^aid<n><sg>$ 0.0161290
^procedente<adj><mf><pl>$ ^via<pr>$ 0.5000000
^procedente<adj><mf><pl>$ ^come<vblex><ger>$ 1.0000000
^conseguir<vblex><pp><m><sg>$ ^succeed<vblex><pp>$ 0.4000000
^conseguir<vblex><pp><m><sg>$ ^do<vblex><ger>$ 0.1666667
^conseguir<vblex><pp><m><sg>$ ^certainly<adv>$ 0.1666667
^conseguir<vblex><pp><m><sg>$ ^interpret<vblex><inf>$ 0.2500000
^conseguir<vblex><pp><m><sg>$ ^in<pr>$ 0.0065574
^conseguir<vblex><pp><m><sg>$ ^that<cnjsub>$ 0.0059880
^desear<vblex><pri><p1><sg>$ ^prpers<prn><subj><p1><mf><sg>$ 0.0095238
^desear<vblex><pri><p1><sg>$ ^make<vblex><inf>$ 0.0476190
^desear<vblex><pri><p1><sg>$ ^reopen<vblex><inf>$ 0.5000000
^respuesta<n><f><pl>$ ^reaction<n><pl>$ 0.5000000
^más~que<pr>$ ^only<adv>$ 0.0625000
^más~que<pr>$ ^so~much<adv>$ 0.2500000
^más~que<pr>$ ^more~than<pr>$ 0.3333333
^más~que<pr>$ ^nothing<prn><tn><m><sg>$ 0.2000000
^más~que<pr>$ ^logical<adj>$ 0.3333333
^más~que<pr>$ NULL 0.0005249
^necesariamente<adv>$ ^be<vbser><inf>$ 0.0142857
^necesariamente<adv>$ ^go#~in<vblex><ger>$ 0.3333333
^necesariamente<adv>$ ^necessarily<adv>$ 0.6666667
^endurecer<vblex><inf>$ ^tighten<vblex><inf>$ 0.5000000
^haber<vbhaver><pii><p3><pl>$ ^prpers<prn><subj><p3><mf><pl>$ 0.0285714
^haber<vbhaver><pii><p3><pl>$ ^have<vbhaver><past>$ 0.3333333
^humano<adj><f><sg>$ ^condition<n><sg>$ 0.3333333
^humano<adj><f><sg>$ ^human<adj>$ 0.2500000
^aprobación<n><f><sg>$ ^adopt<vblex><pres>$ 0.2500000
^aprobación<n><f><sg>$ ^adopt<vblex><ger>$ 0.3333333
^aprobación<n><f><sg>$ ^draft<n><sg>$ 0.3333333
^aprobación<n><f><sg>$ ^in~favour<adv>$ 0.0769231
^aprobación<n><f><sg>$ ^of<pr>$ 0.0040000
^aprobación<n><f><sg>$ ^approve<vblex><ger>$ 0.3333333
^aprobación<n><f><sg>$ ^adoption<n><sg>$ 1.0000000
^negativo<adj><f><sg>$ ^conclusion<n><sg>$ 0.3333333
^negativo<adj><f><sg>$ ^negative<adj>$ 0.5000000
^aportar<vblex><ger>$ ^make<vblex><inf>$ 0.0476190
^aportar<vblex><ger>$ ^,<cm>$ 0.0012547
^aspirar<vblex><inf>$ ^work<vblex><ger>$ 0.1250000
^aspirar<vblex><inf>$ ^be<vbser><inf>$ 0.0071429
^aspirar<vblex><inf>$ ^increase<vblex><pp>$ 0.1428571
^aspirar<vblex><inf>$ ^prpers<prn><subj><p1><mf><pl>$ 0.0057803
^aspirar<vblex><inf>$ ^should<vaux><inf>$ 0.0175439
^aspirar<vblex><inf>$ ^towards<pr>$ 0.1111111
^iniciativa<n><f><sg>$ NULL 0.0005249
^iniciativa<n><f><sg>$ ^initiative<n><sg>$ 0.6666667
^caro<adj><m><sg>$ ^costly<adj><sint>$ 1.0000000
^por~favor<adv>$ ^please<vblex><inf>$ 0.2000000
^por~favor<adv>$ ^let<vblex><pp>$ 0.0909091
^continental<adj><mf><sg>$ ^tradition<n><sg>$ 0.5000000
^volver<vblex><fti><p1><sg>$ ^and<cnjcoo>$ 0.0029499
^forma<n><f><pl>$ ^such~as<pr>$ 0.0909091
^desigualdad<n><f><pl>$ ^become<vblex><ger>$ 0.3333333
^desigualdad<n><f><pl>$ NULL 0.0005249
^desigualdad<n><f><pl>$ ^reduce<vblex><inf>$ 0.1428571
^desigualdad<n><f><pl>$ ^regional<adj>$ 0.0333333
^desigualdad<n><f><pl>$ ^inequality<n><sg>$ 0.5000000
^norte<n><m><sg>$ ^north<adj><sint>$ 1.0000000
^norte<n><m><sg>$ ^part<n><pl>$ 0.2000000
^deber<vbmod><cni><p1><pl>$ ^prpers<prn><subj><p1><mf><pl>$ 0.0346821
^deber<vbmod><cni><p1><pl>$ ^work<vblex><inf>$ 0.2000000
^deber<vbmod><cni><p1><pl>$ ^should<vaux><inf>$ 0.1228070
^servir<vblex><pri><p3><pl>$ ^prevent<vblex><inf>$ 0.5000000
^servir<vblex><pri><p3><pl>$ ^abuse<n><pl>$ 0.1666667
^servir<vblex><pri><p3><pl>$ ^;<sent>$ 0.2000000
^apoyo<n><m><sg>$ ^support<vblex><pri><p3><sg>$ 0.3333333
^apoyo<n><m><sg>$ ^prpers<prn><subj><p1><mf><sg>$ 0.0047619
^apoyo<n><m><sg>$ ^support<n><sg>$ 0.4285714
^apoyo<n><m><sg>$ ^supporting<adj>$ 0.3333333
^anoche<adv>$ ^prpers<prn><subj><p3><nt><sg>$ 0.0104167
^ciertamente<adv>$ ^certainly<adv>$ 0.1666667
^ciertamente<adv>$ ^help<vblex><pp>$ 0.5000000
^considerar<vblex><ifi><p3><sg>$ ^in~the~past<adv>$ 0.1250000
^considerar<vblex><ifi><p3><sg>$ ^this<det><dem><sg>$ 0.0076336
^considerar<vblex><ifi><p3><sg>$ ^,<cm>$ 0.0012547
^considerar<vblex><ifi><p3><sg>$ ^have<vbhaver><pri><p3><sg>$ 0.0133333
^asignación<n><f><sg>$ ^allocation<n><sg>$ 1.0000000
^motivo<n><m><sg>$ ^give<vblex><pres>$ 0.1428571
^motivo<n><m><sg>$ ^why<adv><itg>$ 0.0400000
^otro<prn><tn><m><pl>$ ^others<prn><tn><mf><pl>$ 0.6666667
^sujeto<adj><m><sg>$ ^*expressly$ 0.5000000
^sitio<n><m><sg>$ ^crust<n><sg>$ 0.2500000
^definido<adj><m><pl>$ ^case<n><pl>$ 0.2000000
^socioeconómico<adj><f><sg>$ ^social<adj>$ 0.0400000
^socioeconómico<adj><f><sg>$ ^situation<n><sg>$ 0.1000000
^socioeconómico<adj><f><sg>$ ^economic<adj>$ 0.0454545
^comunitario<adj><f><sg>$ ^call#~for<vblex><past>$ 1.0000000
^comunitario<adj><f><sg>$ ^therefore<adv>$ 0.0232558
