^preocupar&lt;vblex&gt;&lt;pri&gt;&lt;p3&gt;&lt;pl&gt;$ ^relevante&lt;adj&gt;&lt;mf&gt;&lt;pl&gt;$ 0.3333333
^me&lt;prn&gt;&lt;pro&gt;&lt;p1&gt;&lt;mf&gt;&lt;sg&gt;$ ^relevante&lt;adj&gt;&lt;mf&gt;&lt;pl&gt;$ 0.3333333
^que&lt;rel&gt;&lt;an&gt;&lt;mf&gt;&lt;sp&gt;$ ^relevante&lt;adj&gt;&lt;mf&gt;&lt;pl&gt;$ 0.3333333
^ventilador&lt;n&gt;&lt;m&gt;&lt;pl&gt;$ ^ventilador&lt;n&gt;&lt;m&gt;&lt;pl&gt;$ 1.0000000
^conducir&lt;vblex&gt;&lt;pri&gt;&lt;p3&gt;&lt;pl&gt;$ ^conduzir&lt;vblex&gt;&lt;pri&gt;&lt;p3&gt;&lt;pl&gt;$ 0.3333333
^estar&lt;vblex&gt;&lt;pri&gt;&lt;p3&gt;&lt;pl&gt;$ ^conduzir&lt;vblex&gt;&lt;pri&gt;&lt;p3&gt;&lt;pl&gt;$ 0.3333333
^originar&lt;vblex&gt;&lt;ger&gt;$ ^conduzir&lt;vblex&gt;&lt;pri&gt;&lt;p3&gt;&lt;pl&gt;$ 0.3333333
^personal&lt;adj&gt;&lt;mf&gt;&lt;sg&gt;$ ^pessoal&lt;adj&gt;&lt;mf&gt;&lt;sg&gt;$ 0.5000000
^personal&lt;n&gt;&lt;m&gt;&lt;sg&gt;$ ^pessoal&lt;adj&gt;&lt;mf&gt;&lt;sg&gt;$ 0.5000000
^miembro&lt;n&gt;&lt;m&gt;&lt;pl&gt;$ ^Membro&lt;n&gt;&lt;m&gt;&lt;pl&gt;$ 0.9523810
^Miembro&lt;n&gt;&lt;m&gt;&lt;pl&gt;$ ^Membro&lt;n&gt;&lt;m&gt;&lt;pl&gt;$ 0.0476190
^En&lt;pr&gt;$ ^estar&lt;vblex&gt;&lt;cni&gt;&lt;p3&gt;&lt;pl&gt;$ 1.0000000
^comunicación&lt;n&gt;&lt;f&gt;&lt;pl&gt;$ ^comunicação&lt;n&gt;&lt;f&gt;&lt;pl&gt;$ 1.0000000
^usted&lt;prn&gt;&lt;tn&gt;&lt;p3&gt;&lt;mf&gt;&lt;sg&gt;$ ^chamar&lt;vblex&gt;&lt;ifi&gt;&lt;p3&gt;&lt;sg&gt;$ 0.3333333
^nombrar&lt;vblex&gt;&lt;pp&gt;&lt;m&gt;&lt;sg&gt;$ ^chamar&lt;vblex&gt;&lt;ifi&gt;&lt;p3&gt;&lt;sg&gt;$ 0.3333333
^haber&lt;vbhaver&gt;&lt;pri&gt;&lt;p3&gt;&lt;sg&gt;$ ^chamar&lt;vblex&gt;&lt;ifi&gt;&lt;p3&gt;&lt;sg&gt;$ 0.3333333
^Pedir&lt;vblex&gt;&lt;pri&gt;&lt;p1&gt;&lt;sg&gt;$ ^*Exorto$ 0.5000000
^a&lt;pr&gt;$ ^*Exorto$ 0.5000000
^intención&lt;n&gt;&lt;f&gt;&lt;pl&gt;$ ^*intencionado$ 1.0000000
^alguno&lt;det&gt;&lt;ind&gt;&lt;f&gt;&lt;pl&gt;$ ^algum&lt;prn&gt;&lt;tn&gt;&lt;f&gt;&lt;pl&gt;$ 0.5000000
^subrayar&lt;vblex&gt;&lt;inf&gt;$ ^algum&lt;prn&gt;&lt;tn&gt;&lt;f&gt;&lt;pl&gt;$ 0.5000000
^80&lt;num&gt;$ ^80&lt;num&gt;$ 1.0000000
^aprobación&lt;n&gt;&lt;f&gt;&lt;sg&gt;$ ^acta&lt;n&gt;&lt;f&gt;&lt;sg&gt;$ 0.1250000
^aprobar&lt;vblex&gt;&lt;pp&gt;&lt;f&gt;&lt;sg&gt;$ ^acta&lt;n&gt;&lt;f&gt;&lt;sg&gt;$ 0.1250000
^Acta&lt;n&gt;&lt;f&gt;&lt;sg&gt;$ ^acta&lt;n&gt;&lt;f&gt;&lt;sg&gt;$ 0.7500000
^período&lt;n&gt;&lt;m&gt;&lt;sg&gt;$ ^legislatura&lt;n&gt;&lt;f&gt;&lt;sg&gt;$ 0.5000000
^legislatura&lt;n&gt;&lt;f&gt;&lt;sg&gt;$ ^legislatura&lt;n&gt;&lt;f&gt;&lt;sg&gt;$ 0.5000000
^tan&lt;adv&gt;$ ^tão&lt;adv&gt;$ 1.0000000
^dar&lt;vblex&gt;&lt;prs&gt;&lt;p3&gt;&lt;pl&gt;$ ^conferir&lt;vblex&gt;&lt;inf&gt;$ 0.5000000
^atribuir&lt;vblex&gt;&lt;ger&gt;$ ^conferir&lt;vblex&gt;&lt;inf&gt;$ 0.5000000
^que&lt;cnjsub&gt;$ ^posteriormente&lt;adv&gt;$ 0.3333333
^agregar&lt;vblex&gt;&lt;fti&gt;&lt;p3&gt;&lt;pl&gt;$ ^posteriormente&lt;adv&gt;$ 0.3333333
^tener&lt;vblex&gt;&lt;prs&gt;&lt;p1&gt;&lt;pl&gt;$ ^posteriormente&lt;adv&gt;$ 0.3333333
^aumentar&lt;vblex&gt;&lt;pri&gt;&lt;p3&gt;&lt;pl&gt;$ ^estender&lt;vblex&gt;&lt;pri&gt;&lt;p3&gt;&lt;pl&gt;$ 1.0000000
^caso&lt;n&gt;&lt;m&gt;&lt;pl&gt;$ ^caso&lt;n&gt;&lt;m&gt;&lt;pl&gt;$ 0.5000000
^el&lt;det&gt;&lt;def&gt;&lt;m&gt;&lt;pl&gt;$ ^caso&lt;n&gt;&lt;m&gt;&lt;pl&gt;$ 0.5000000
^usuario&lt;n&gt;&lt;m&gt;&lt;pl&gt;$ ^utente&lt;n&gt;&lt;mf&gt;&lt;pl&gt;$ 1.0000000
^tener&lt;vblex&gt;&lt;imp&gt;&lt;p3&gt;&lt;sg&gt;$ ^resolver&lt;vblex&gt;&lt;inf&gt;$ 1.0000000
^vincular&lt;vblex&gt;&lt;inf&gt;$ ^vincular&lt;vblex&gt;&lt;inf&gt;$ 1.0000000
^legal&lt;adj&gt;&lt;mf&gt;&lt;sg&gt;$ ^legal&lt;adj&gt;&lt;mf&gt;&lt;sg&gt;$ 1.0000000
^amable&lt;adj&gt;&lt;mf&gt;&lt;sg&gt;$ ^pronto&lt;adj&gt;&lt;f&gt;&lt;sg&gt;$ 0.2500000
^haber&lt;vbhaver&gt;&lt;pri&gt;&lt;p3&gt;&lt;sg&gt;$ ^pronto&lt;adj&gt;&lt;f&gt;&lt;sg&gt;$ 0.2500000
^acoger&lt;vblex&gt;&lt;pp&gt;&lt;f&gt;&lt;sg&gt;$ ^pronto&lt;adj&gt;&lt;f&gt;&lt;sg&gt;$ 0.2500000
^que&lt;rel&gt;&lt;an&gt;&lt;mf&gt;&lt;sp&gt;$ ^pronto&lt;adj&gt;&lt;f&gt;&lt;sg&gt;$ 0.2500000
^pedir&lt;vblex&gt;&lt;pri&gt;&lt;p3&gt;&lt;sg&gt;$ ^ser&lt;vbser&gt;&lt;pri&gt;&lt;p3&gt;&lt;pl&gt;$ 0.0322581
^proporcionar&lt;vblex&gt;&lt;pri&gt;&lt;p3&gt;&lt;pl&gt;$ ^ser&lt;vbser&gt;&lt;pri&gt;&lt;p3&gt;&lt;pl&gt;$ 0.0322581
^afectar&lt;vblex&gt;&lt;pri&gt;&lt;p3&gt;&lt;pl&gt;$ ^ser&lt;vbser&gt;&lt;pri&gt;&lt;p3&gt;&lt;pl&gt;$ 0.0322581
^señalar&lt;vblex&gt;&lt;pp&gt;&lt;m&gt;&lt;sg&gt;$ ^ser&lt;vbser&gt;&lt;pri&gt;&lt;p3&gt;&lt;pl&gt;$ 0.0322581
^exponer&lt;vblex&gt;&lt;pri&gt;&lt;p3&gt;&lt;pl&gt;$ ^ser&lt;vbser&gt;&lt;pri&gt;&lt;p3&gt;&lt;pl&gt;$ 0.0322581
^volver&lt;vblex&gt;&lt;pp&gt;&lt;m&gt;&lt;sg&gt;$ ^ser&lt;vbser&gt;&lt;pri&gt;&lt;p3&gt;&lt;pl&gt;$ 0.0322581
NULL ^ser&lt;vbser&gt;&lt;pri&gt;&lt;p3&gt;&lt;pl&gt;$ 0.1290323
^que&lt;rel&gt;&lt;an&gt;&lt;mf&gt;&lt;sp&gt;$ ^ser&lt;vbser&gt;&lt;pri&gt;&lt;p3&gt;&lt;pl&gt;$ 0.0645161
^mantener&lt;vblex&gt;&lt;pri&gt;&lt;p3&gt;&lt;pl&gt;$ ^ser&lt;vbser&gt;&lt;pri&gt;&lt;p3&gt;&lt;pl&gt;$ 0.0322581
^diferir&lt;vblex&gt;&lt;pri&gt;&lt;p3&gt;&lt;pl&gt;$ ^ser&lt;vbser&gt;&lt;pri&gt;&lt;p3&gt;&lt;pl&gt;$ 0.0322581
^ser&lt;vbser&gt;&lt;pri&gt;&lt;p3&gt;&lt;pl&gt;$ ^ser&lt;vbser&gt;&lt;pri&gt;&lt;p3&gt;&lt;pl&gt;$ 0.4193548
^se&lt;prn&gt;&lt;pro&gt;&lt;ref&gt;&lt;p3&gt;&lt;mf&gt;&lt;sp&gt;$ ^ser&lt;vbser&gt;&lt;pri&gt;&lt;p3&gt;&lt;pl&gt;$ 0.0967742
^encontrar&lt;vblex&gt;&lt;pri&gt;&lt;p3&gt;&lt;pl&gt;$ ^ser&lt;vbser&gt;&lt;pri&gt;&lt;p3&gt;&lt;pl&gt;$ 0.0322581
^correctamente&lt;adv&gt;$ ^*reflectir$ 0.5000000
^constar&lt;vblex&gt;&lt;pri&gt;&lt;p3&gt;&lt;sg&gt;$ ^*reflectir$ 0.5000000
^aceptación&lt;n&gt;&lt;f&gt;&lt;sg&gt;$ ^aceitação&lt;n&gt;&lt;f&gt;&lt;sg&gt;$ 1.0000000
^ser&lt;vbser&gt;&lt;inf&gt;$ ^constituir&lt;vblex&gt;&lt;inf&gt;$ 0.5000000
^*barómetro$ ^constituir&lt;vblex&gt;&lt;inf&gt;$ 0.5000000
^poder&lt;vbmod&gt;&lt;cni&gt;&lt;p3&gt;&lt;sg&gt;$ ^poder&lt;vbmod&gt;&lt;cni&gt;&lt;p1&gt;&lt;sg&gt;$ 1.0000000
^ciertamente&lt;adv&gt;$ ^programa&lt;n&gt;&lt;m&gt;&lt;pl&gt;$ 0.0909091
^mismo&lt;adj&gt;&lt;m&gt;&lt;pl&gt;$ ^programa&lt;n&gt;&lt;m&gt;&lt;pl&gt;$ 0.0909091
^programa&lt;n&gt;&lt;m&gt;&lt;pl&gt;$ ^programa&lt;n&gt;&lt;m&gt;&lt;pl&gt;$ 0.8181818
^Estar&lt;vblex&gt;&lt;pri&gt;&lt;p1&gt;&lt;pl&gt;$ ^Estar&lt;vblex&gt;&lt;pri&gt;&lt;p1&gt;&lt;pl&gt;$ 0.5000000
^Haber&lt;vbhaver&gt;&lt;pri&gt;&lt;p1&gt;&lt;pl&gt;$ ^Estar&lt;vblex&gt;&lt;pri&gt;&lt;p1&gt;&lt;pl&gt;$ 0.5000000
^poner&lt;vblex&gt;&lt;pp&gt;&lt;m&gt;&lt;pl&gt;$ ^incrementar&lt;vblex&gt;&lt;inf&gt;$ 0.3333333
^aumento&lt;n&gt;&lt;m&gt;&lt;sg&gt;$ ^incrementar&lt;vblex&gt;&lt;inf&gt;$ 0.3333333
^el&lt;det&gt;&lt;def&gt;&lt;m&gt;&lt;sg&gt;$ ^incrementar&lt;vblex&gt;&lt;inf&gt;$ 0.3333333
^conceder&lt;vblex&gt;&lt;imp&gt;&lt;p3&gt;&lt;sg&gt;$ ^conceder&lt;vblex&gt;&lt;imp&gt;&lt;p3&gt;&lt;sg&gt;$ 1.0000000
^empezar&lt;vblex&gt;&lt;inf&gt;$ ^*principiar$ 1.0000000
^redactar&lt;vblex&gt;&lt;pri&gt;&lt;p3&gt;&lt;pl&gt;$ ^regulamento&lt;n&gt;&lt;m&gt;&lt;pl&gt;$ 0.3333333
^reglamento&lt;n&gt;&lt;m&gt;&lt;pl&gt;$ ^regulamento&lt;n&gt;&lt;m&gt;&lt;pl&gt;$ 0.3333333
^regulación&lt;n&gt;&lt;f&gt;&lt;pl&gt;$ ^regulamento&lt;n&gt;&lt;m&gt;&lt;pl&gt;$ 0.3333333
^seguir&lt;vblex&gt;&lt;pri&gt;&lt;p1&gt;&lt;pl&gt;$ ^continuar&lt;vblex&gt;&lt;pri&gt;&lt;p1&gt;&lt;pl&gt;$ 0.5000000
^considerar&lt;vblex&gt;&lt;ger&gt;$ ^continuar&lt;vblex&gt;&lt;pri&gt;&lt;p1&gt;&lt;pl&gt;$ 0.5000000
^siempre&lt;adv&gt;$ ^Em~seguida&lt;adv&gt;$ 0.5000000
^Como&lt;adv&gt;&lt;itg&gt;$ ^Em~seguida&lt;adv&gt;$ 0.5000000
^distorsionar&lt;vblex&gt;&lt;prs&gt;&lt;p2&gt;&lt;sg&gt;$ ^distorção&lt;n&gt;&lt;f&gt;&lt;pl&gt;$ 1.0000000
^cifra&lt;n&gt;&lt;f&gt;&lt;pl&gt;$ ^valor&lt;n&gt;&lt;m&gt;&lt;pl&gt;$ 1.0000000
^hallar&lt;vblex&gt;&lt;inf&gt;$ ^encontrar&lt;vblex&gt;&lt;inf&gt;$ 0.3333333
^encontrar&lt;vblex&gt;&lt;inf&gt;$ ^encontrar&lt;vblex&gt;&lt;inf&gt;$ 0.3333333
^topar&lt;vblex&gt;&lt;inf&gt;$ ^encontrar&lt;vblex&gt;&lt;inf&gt;$ 0.3333333
^caja&lt;n&gt;&lt;f&gt;&lt;pl&gt;$ ^caixa&lt;n&gt;&lt;f&gt;&lt;pl&gt;$ 1.0000000
^transferencia&lt;n&gt;&lt;f&gt;&lt;sg&gt;$ ^chover&lt;vblex&gt;&lt;pis&gt;&lt;p3&gt;&lt;sg&gt;$ 1.0000000
^necesitar&lt;vblex&gt;&lt;pri&gt;&lt;p1&gt;&lt;pl&gt;$ ^momento&lt;n&gt;&lt;m&gt;&lt;sg&gt;$ 0.1111111
^período&lt;n&gt;&lt;m&gt;&lt;sg&gt;$ ^momento&lt;n&gt;&lt;m&gt;&lt;sg&gt;$ 0.1111111
^Ahora&lt;adv&gt;$ ^momento&lt;n&gt;&lt;m&gt;&lt;sg&gt;$ 0.1111111
^encontrar&lt;vblex&gt;&lt;pri&gt;&lt;p3&gt;&lt;sg&gt;$ ^momento&lt;n&gt;&lt;m&gt;&lt;sg&gt;$ 0.1111111
^*remediando$ ^momento&lt;n&gt;&lt;m&gt;&lt;sg&gt;$ 0.1111111
NULL ^momento&lt;n&gt;&lt;m&gt;&lt;sg&gt;$ 0.1111111
^momento&lt;n&gt;&lt;m&gt;&lt;sg&gt;$ ^momento&lt;n&gt;&lt;m&gt;&lt;sg&gt;$ 0.1111111
^destinar&lt;vblex&gt;&lt;inf&gt;$ ^momento&lt;n&gt;&lt;m&gt;&lt;sg&gt;$ 0.1111111
^alcanzar&lt;vblex&gt;&lt;pp&gt;&lt;m&gt;&lt;sg&gt;$ ^momento&lt;n&gt;&lt;m&gt;&lt;sg&gt;$ 0.1111111
^tener&lt;vblex&gt;&lt;pri&gt;&lt;p3&gt;&lt;pl&gt;$ ^ter&lt;vbhaver&gt;&lt;pri&gt;&lt;p3&gt;&lt;pl&gt;$ 0.5000000
^próspero&lt;adj&gt;&lt;f&gt;&lt;pl&gt;$ ^ter&lt;vbhaver&gt;&lt;pri&gt;&lt;p3&gt;&lt;pl&gt;$ 0.5000000
^debilitar&lt;vblex&gt;&lt;cni&gt;&lt;p3&gt;&lt;sg&gt;$ ^enfraquecer&lt;vblex&gt;&lt;inf&gt;$ 0.5000000
^fortalecer&lt;vblex&gt;&lt;inf&gt;$ ^enfraquecer&lt;vblex&gt;&lt;inf&gt;$ 0.5000000
^rechazar&lt;vblex&gt;&lt;inf&gt;$ ^rejeitar&lt;vblex&gt;&lt;inf&gt;$ 1.0000000
^conllevar&lt;vblex&gt;&lt;pri&gt;&lt;p3&gt;&lt;pl&gt;$ ^acarretar&lt;vblex&gt;&lt;pri&gt;&lt;p3&gt;&lt;sg&gt;$ 1.0000000
^Ahora&lt;adv&gt;$ ^Actualmente&lt;adv&gt;$ 1.0000000
^reforma&lt;n&gt;&lt;f&gt;&lt;pl&gt;$ ^reforma&lt;n&gt;&lt;f&gt;&lt;sg&gt;$ 0.2500000
^reforma&lt;n&gt;&lt;f&gt;&lt;sg&gt;$ ^reforma&lt;n&gt;&lt;f&gt;&lt;sg&gt;$ 0.7500000
^ese&lt;det&gt;&lt;dem&gt;&lt;f&gt;&lt;sg&gt;$ ^decorrente&lt;adj&gt;&lt;mf&gt;&lt;pl&gt;$ 0.2000000
^relación&lt;n&gt;&lt;f&gt;&lt;sg&gt;$ ^decorrente&lt;adj&gt;&lt;mf&gt;&lt;pl&gt;$ 0.2000000
^surgir&lt;vblex&gt;&lt;pp&gt;&lt;m&gt;&lt;sg&gt;$ ^decorrente&lt;adj&gt;&lt;mf&gt;&lt;pl&gt;$ 0.2000000
^haber&lt;vbhaver&gt;&lt;prs&gt;&lt;p3&gt;&lt;pl&gt;$ ^decorrente&lt;adj&gt;&lt;mf&gt;&lt;pl&gt;$ 0.2000000
^que&lt;rel&gt;&lt;an&gt;&lt;mf&gt;&lt;sp&gt;$ ^decorrente&lt;adj&gt;&lt;mf&gt;&lt;pl&gt;$ 0.2000000
^hay&lt;vblex&gt;&lt;pri&gt;&lt;p3&gt;&lt;sg&gt;$ ^pedir&lt;vblex&gt;&lt;pp&gt;&lt;m&gt;&lt;pl&gt;$ 0.5000000
^demanda&lt;n&gt;&lt;f&gt;&lt;pl&gt;$ ^pedir&lt;vblex&gt;&lt;pp&gt;&lt;m&gt;&lt;pl&gt;$ 0.5000000
^creciente&lt;adj&gt;&lt;mf&gt;&lt;sg&gt;$ ^*clivagem$ 1.0000000
^*novel$ ^*congratulo$ 1.0000000
^obligación&lt;n&gt;&lt;f&gt;&lt;sg&gt;$ ^ter&lt;vblex&gt;&lt;pri&gt;&lt;p1&gt;&lt;pl&gt;$ 0.2000000
^sencillamente&lt;adv&gt;$ ^ter&lt;vblex&gt;&lt;pri&gt;&lt;p1&gt;&lt;pl&gt;$ 0.2000000
^tener&lt;vblex&gt;&lt;pri&gt;&lt;p1&gt;&lt;pl&gt;$ ^ter&lt;vblex&gt;&lt;pri&gt;&lt;p1&gt;&lt;pl&gt;$ 0.6000000
^producir&lt;vblex&gt;&lt;pp&gt;&lt;m&gt;&lt;sg&gt;$ ^ocorrer&lt;vblex&gt;&lt;ifi&gt;&lt;p3&gt;&lt;pl&gt;$ 0.3333333
^se&lt;prn&gt;&lt;pro&gt;&lt;ref&gt;&lt;p3&gt;&lt;mf&gt;&lt;sp&gt;$ ^ocorrer&lt;vblex&gt;&lt;ifi&gt;&lt;p3&gt;&lt;pl&gt;$ 0.3333333
^haber&lt;vbhaver&gt;&lt;pri&gt;&lt;p3&gt;&lt;pl&gt;$ ^ocorrer&lt;vblex&gt;&lt;ifi&gt;&lt;p3&gt;&lt;pl&gt;$ 0.3333333
^a&lt;pr&gt;$ ^investir&lt;vblex&gt;&lt;prs&gt;&lt;p1&gt;&lt;sg&gt;$ 0.5000000
^otorgar&lt;vblex&gt;&lt;prs&gt;&lt;p3&gt;&lt;sg&gt;$ ^investir&lt;vblex&gt;&lt;prs&gt;&lt;p1&gt;&lt;sg&gt;$ 0.5000000
^considerable&lt;adj&gt;&lt;mf&gt;&lt;pl&gt;$ ^considerável&lt;adj&gt;&lt;mf&gt;&lt;pl&gt;$ 0.5000000
^miembro&lt;n&gt;&lt;m&gt;&lt;pl&gt;$ ^considerável&lt;adj&gt;&lt;mf&gt;&lt;pl&gt;$ 0.5000000
^Declarar&lt;vblex&gt;&lt;pri&gt;&lt;p1&gt;&lt;sg&gt;$ ^Declarar&lt;vblex&gt;&lt;pri&gt;&lt;p1&gt;&lt;sg&gt;$ 1.0000000
^quedar&lt;vblex&gt;&lt;pri&gt;&lt;p3&gt;&lt;sg&gt;$ ~^Estar&lt;vblex&gt;&lt;pri&gt;&lt;p3&gt;&lt;sg&gt;$ 1.0000000
^funcionar&lt;vblex&gt;&lt;pri&gt;&lt;p3&gt;&lt;sg&gt;$ ^indicar&lt;vblex&gt;&lt;pri&gt;&lt;p3&gt;&lt;sg&gt;$ 0.3333333
^pensar&lt;vblex&gt;&lt;inf&gt;$ ^indicar&lt;vblex&gt;&lt;pri&gt;&lt;p3&gt;&lt;sg&gt;$ 0.3333333
^nada&lt;n&gt;&lt;f&gt;&lt;sg&gt;$ ^indicar&lt;vblex&gt;&lt;pri&gt;&lt;p3&gt;&lt;sg&gt;$ 0.3333333
^concepto&lt;n&gt;&lt;m&gt;&lt;sg&gt;$ ^conceito&lt;n&gt;&lt;m&gt;&lt;sg&gt;$ 1.0000000
^construir&lt;vblex&gt;&lt;inf&gt;$ ^construir&lt;vblex&gt;&lt;inf&gt;$ 1.0000000
^a&lt;pr&gt;$ ^responsável&lt;adj&gt;&lt;mf&gt;&lt;sg&gt;$ 0.6666667
^razonable&lt;adj&gt;&lt;mf&gt;&lt;sg&gt;$ ^responsável&lt;adj&gt;&lt;mf&gt;&lt;sg&gt;$ 0.3333333
^muy~importante&lt;adj&gt;&lt;mf&gt;&lt;sg&gt;$ ^*ultramarinas$ 1.0000000
^óptimo&lt;adj&gt;&lt;m&gt;&lt;sg&gt;$ ^distribuição&lt;n&gt;&lt;f&gt;&lt;sg&gt;$ 0.2000000
^reparto&lt;n&gt;&lt;m&gt;&lt;sg&gt;$ ^distribuição&lt;n&gt;&lt;f&gt;&lt;sg&gt;$ 0.4000000
^distribución&lt;n&gt;&lt;f&gt;&lt;sg&gt;$ ^distribuição&lt;n&gt;&lt;f&gt;&lt;sg&gt;$ 0.4000000
^caracterizar&lt;vblex&gt;&lt;pri&gt;&lt;p3&gt;&lt;sg&gt;$ ^caracterizar&lt;vblex&gt;&lt;pri&gt;&lt;p3&gt;&lt;sg&gt;$ 0.5000000
^Cómo&lt;adv&gt;&lt;itg&gt;$ ^caracterizar&lt;vblex&gt;&lt;pri&gt;&lt;p3&gt;&lt;sg&gt;$ 0.5000000
^volver&lt;vblex&gt;&lt;inf&gt;$ ^voltar&lt;vblex&gt;&lt;inf&gt;$ 1.0000000
^sucesión&lt;n&gt;&lt;f&gt;&lt;sg&gt;$ ^sequencial&lt;adj&gt;&lt;mf&gt;&lt;sg&gt;$ 0.5000000
^equivaler&lt;vblex&gt;&lt;pri&gt;&lt;p3&gt;&lt;sg&gt;$ ^sequencial&lt;adj&gt;&lt;mf&gt;&lt;sg&gt;$ 0.5000000
^particularmente&lt;adv&gt;$ ^continuar&lt;vblex&gt;&lt;pri&gt;&lt;p3&gt;&lt;sg&gt;$ 0.1666667
^desigual&lt;adj&gt;&lt;mf&gt;&lt;sg&gt;$ ^continuar&lt;vblex&gt;&lt;pri&gt;&lt;p3&gt;&lt;sg&gt;$ 0.1666667
^seguir&lt;vblex&gt;&lt;pri&gt;&lt;p3&gt;&lt;pl&gt;$ ^continuar&lt;vblex&gt;&lt;pri&gt;&lt;p3&gt;&lt;sg&gt;$ 0.1666667
^seguir&lt;vblex&gt;&lt;pri&gt;&lt;p3&gt;&lt;sg&gt;$ ^continuar&lt;vblex&gt;&lt;pri&gt;&lt;p3&gt;&lt;sg&gt;$ 0.1666667
^ser&lt;vbser&gt;&lt;ger&gt;$ ^continuar&lt;vblex&gt;&lt;pri&gt;&lt;p3&gt;&lt;sg&gt;$ 0.1666667
^aun~así&lt;cnjadv&gt;$ ^continuar&lt;vblex&gt;&lt;pri&gt;&lt;p3&gt;&lt;sg&gt;$ 0.1666667
^a&lt;pr&gt;$ ^fortalecer&lt;vblex&gt;&lt;inf&gt;$ 1.0000000
^de&lt;pr&gt;$ ^sair&lt;vblex&gt;&lt;fti&gt;&lt;p3&gt;&lt;pl&gt;$ 0.3333333
^allí&lt;adv&gt;$ ^sair&lt;vblex&gt;&lt;fti&gt;&lt;p3&gt;&lt;pl&gt;$ 0.3333333
^salir&lt;vblex&gt;&lt;fti&gt;&lt;p3&gt;&lt;pl&gt;$ ^sair&lt;vblex&gt;&lt;fti&gt;&lt;p3&gt;&lt;pl&gt;$ 0.3333333
^militar&lt;adj&gt;&lt;mf&gt;&lt;sg&gt;$ ^militar&lt;adj&gt;&lt;mf&gt;&lt;sg&gt;$ 0.5000000
^de~un~golpe&lt;cnjadv&gt;$ ^militar&lt;adj&gt;&lt;mf&gt;&lt;sg&gt;$ 0.5000000
^durante&lt;pr&gt;$ ^ver&lt;vblex&gt;&lt;fti&gt;&lt;p1&gt;&lt;pl&gt;$ 0.5000000
^comprobar&lt;vblex&gt;&lt;fti&gt;&lt;p1&gt;&lt;pl&gt;$ ^ver&lt;vblex&gt;&lt;fti&gt;&lt;p1&gt;&lt;pl&gt;$ 0.5000000
^celebrar&lt;vblex&gt;&lt;pri&gt;&lt;p1&gt;&lt;pl&gt;$ ^efectuar&lt;vblex&gt;&lt;inf&gt;$ 1.0000000
^Hoy&lt;adv&gt;$ ^Presentemente&lt;adv&gt;$ 1.0000000
^dejar&lt;vblex&gt;&lt;imp&gt;&lt;p3&gt;&lt;sg&gt;$ ^deixar&lt;vblex&gt;&lt;inf&gt;$ 0.2000000
^permitir&lt;vblex&gt;&lt;imp&gt;&lt;p3&gt;&lt;sg&gt;$ ^deixar&lt;vblex&gt;&lt;inf&gt;$ 0.2000000
^decir&lt;vblex&gt;&lt;inf&gt;$ ^deixar&lt;vblex&gt;&lt;inf&gt;$ 0.2000000
^dejar&lt;vblex&gt;&lt;inf&gt;$ ^deixar&lt;vblex&gt;&lt;inf&gt;$ 0.2000000
^muy&lt;preadv&gt;$ ^deixar&lt;vblex&gt;&lt;inf&gt;$ 0.2000000
^Entonces&lt;adv&gt;$ ^ir&lt;vblex&gt;&lt;pri&gt;&lt;p3&gt;&lt;pl&gt;$ 0.1666667
^rechazar&lt;vblex&gt;&lt;fti&gt;&lt;p3&gt;&lt;pl&gt;$ ^ir&lt;vblex&gt;&lt;pri&gt;&lt;p3&gt;&lt;pl&gt;$ 0.1666667
^sitio&lt;n&gt;&lt;m&gt;&lt;sg&gt;$ ^ir&lt;vblex&gt;&lt;pri&gt;&lt;p3&gt;&lt;pl&gt;$ 0.1666667
^se&lt;prn&gt;&lt;pro&gt;&lt;ref&gt;&lt;p3&gt;&lt;mf&gt;&lt;sp&gt;$ ^ir&lt;vblex&gt;&lt;pri&gt;&lt;p3&gt;&lt;pl&gt;$ 0.3333333
^oscilar&lt;vblex&gt;&lt;pri&gt;&lt;p3&gt;&lt;pl&gt;$ ^ir&lt;vblex&gt;&lt;pri&gt;&lt;p3&gt;&lt;pl&gt;$ 0.1666667
^Esto&lt;prn&gt;&lt;tn&gt;&lt;nt&gt;$ ^Isto~é&lt;adv&gt;$ 0.5000000
^resultar&lt;vblex&gt;&lt;pri&gt;&lt;p3&gt;&lt;sg&gt;$ ^Isto~é&lt;adv&gt;$ 0.5000000
^lo&lt;detnt&gt;$ ^aquilo&lt;prn&gt;&lt;tn&gt;&lt;nt&gt;$ 1.0000000
^*éxodo$ ^*êxodo$ 1.0000000
NULL ^altura&lt;n&gt;&lt;f&gt;&lt;sg&gt;$ 0.2000000
^*Señoría$ ^altura&lt;n&gt;&lt;f&gt;&lt;sg&gt;$ 0.2000000
^que&lt;cnjsub&gt;$ ^altura&lt;n&gt;&lt;f&gt;&lt;sg&gt;$ 0.4000000
^cuando&lt;rel&gt;&lt;adv&gt;$ ^altura&lt;n&gt;&lt;f&gt;&lt;sg&gt;$ 0.2000000
^intervención&lt;n&gt;&lt;f&gt;&lt;pl&gt;$ ^intervenção&lt;n&gt;&lt;f&gt;&lt;pl&gt;$ 1.0000000
^prestar&lt;vblex&gt;&lt;pri&gt;&lt;p3&gt;&lt;sg&gt;$ ^dar&lt;vblex&gt;&lt;pp&gt;&lt;f&gt;&lt;sg&gt;$ 0.2000000
^se&lt;prn&gt;&lt;pro&gt;&lt;ref&gt;&lt;p3&gt;&lt;mf&gt;&lt;sp&gt;$ ^dar&lt;vblex&gt;&lt;pp&gt;&lt;f&gt;&lt;sg&gt;$ 0.2000000
NULL ^dar&lt;vblex&gt;&lt;pp&gt;&lt;f&gt;&lt;sg&gt;$ 0.2000000
^contestar&lt;vblex&gt;&lt;pp&gt;&lt;f&gt;&lt;pl&gt;$ ^dar&lt;vblex&gt;&lt;pp&gt;&lt;f&gt;&lt;sg&gt;$ 0.2000000
^ser&lt;vbser&gt;&lt;pp&gt;&lt;m&gt;&lt;sg&gt;$ ^dar&lt;vblex&gt;&lt;pp&gt;&lt;f&gt;&lt;sg&gt;$ 0.2000000
^mío&lt;det&gt;&lt;pos&gt;&lt;mf&gt;&lt;sg&gt;$ ^aprovar&lt;vblex&gt;&lt;pri&gt;&lt;p1&gt;&lt;sg&gt;$ 0.2000000
^dar&lt;vblex&gt;&lt;pri&gt;&lt;p1&gt;&lt;sg&gt;$ ^aprovar&lt;vblex&gt;&lt;pri&gt;&lt;p1&gt;&lt;sg&gt;$ 0.2000000
^*sincera$ ^aprovar&lt;vblex&gt;&lt;pri&gt;&lt;p1&gt;&lt;sg&gt;$ 0.2000000
^aprobación&lt;n&gt;&lt;f&gt;&lt;sg&gt;$ ^aprovar&lt;vblex&gt;&lt;pri&gt;&lt;p1&gt;&lt;sg&gt;$ 0.2000000
^Por~lo~tanto&lt;cnjadv&gt;$ ^aprovar&lt;vblex&gt;&lt;pri&gt;&lt;p1&gt;&lt;sg&gt;$ 0.2000000
^me&lt;prn&gt;&lt;pro&gt;&lt;p1&gt;&lt;mf&gt;&lt;sg&gt;$ ^estar&lt;vblex&gt;&lt;ger&gt;$ 0.5000000
^referir&lt;vblex&gt;&lt;pri&gt;&lt;p3&gt;&lt;sg&gt;$ ^estar&lt;vblex&gt;&lt;ger&gt;$ 0.5000000
NULL ^zona&lt;n&gt;&lt;f&gt;&lt;pl&gt;$ 0.0833333
^zona&lt;n&gt;&lt;f&gt;&lt;pl&gt;$ ^zona&lt;n&gt;&lt;f&gt;&lt;pl&gt;$ 0.2500000
^periférico&lt;adj&gt;&lt;f&gt;&lt;pl&gt;$ ^zona&lt;n&gt;&lt;f&gt;&lt;pl&gt;$ 0.0833333
^respetar&lt;vblex&gt;&lt;pri&gt;&lt;p3&gt;&lt;pl&gt;$ ^zona&lt;n&gt;&lt;f&gt;&lt;pl&gt;$ 0.0833333
^actividad&lt;n&gt;&lt;f&gt;&lt;pl&gt;$ ^zona&lt;n&gt;&lt;f&gt;&lt;pl&gt;$ 0.0833333
^región&lt;n&gt;&lt;f&gt;&lt;pl&gt;$ ^zona&lt;n&gt;&lt;f&gt;&lt;pl&gt;$ 0.1666667
^el&lt;det&gt;&lt;def&gt;&lt;f&gt;&lt;pl&gt;$ ^zona&lt;n&gt;&lt;f&gt;&lt;pl&gt;$ 0.0833333
^ciudad&lt;n&gt;&lt;f&gt;&lt;pl&gt;$ ^zona&lt;n&gt;&lt;f&gt;&lt;pl&gt;$ 0.1666667
^global&lt;adj&gt;&lt;mf&gt;&lt;sg&gt;$ ^global&lt;adj&gt;&lt;mf&gt;&lt;sg&gt;$ 1.0000000
^estratégico&lt;adj&gt;&lt;m&gt;&lt;sg&gt;$ ^estratégico&lt;adj&gt;&lt;m&gt;&lt;sg&gt;$ 1.0000000
^punto&lt;n&gt;&lt;m&gt;&lt;sg&gt;$ ^importante&lt;adj&gt;&lt;mf&gt;&lt;sg&gt;$ 0.0555556
^importante&lt;adj&gt;&lt;mf&gt;&lt;sg&gt;$ ^importante&lt;adj&gt;&lt;mf&gt;&lt;sg&gt;$ 0.6666667
^importancia&lt;n&gt;&lt;f&gt;&lt;sg&gt;$ ^importante&lt;adj&gt;&lt;mf&gt;&lt;sg&gt;$ 0.0555556
^uno&lt;det&gt;&lt;ind&gt;&lt;m&gt;&lt;sg&gt;$ ^importante&lt;adj&gt;&lt;mf&gt;&lt;sg&gt;$ 0.0555556
^muy~importante&lt;adj&gt;&lt;mf&gt;&lt;sg&gt;$ ^importante&lt;adj&gt;&lt;mf&gt;&lt;sg&gt;$ 0.0555556
NULL ^importante&lt;adj&gt;&lt;mf&gt;&lt;sg&gt;$ 0.0555556
^tener&lt;vblex&gt;&lt;pri&gt;&lt;p1&gt;&lt;pl&gt;$ ^importante&lt;adj&gt;&lt;mf&gt;&lt;sg&gt;$ 0.0555556
^subvención&lt;n&gt;&lt;f&gt;&lt;pl&gt;$ ^verba&lt;n&gt;&lt;f&gt;&lt;pl&gt;$ 0.2000000
^cómo&lt;adv&gt;&lt;itg&gt;$ ^verba&lt;n&gt;&lt;f&gt;&lt;pl&gt;$ 0.2000000
^recurso&lt;n&gt;&lt;m&gt;&lt;pl&gt;$ ^verba&lt;n&gt;&lt;f&gt;&lt;pl&gt;$ 0.2000000
^gastar&lt;vblex&gt;&lt;inf&gt;$ ^verba&lt;n&gt;&lt;f&gt;&lt;pl&gt;$ 0.2000000
^el&lt;det&gt;&lt;def&gt;&lt;m&gt;&lt;sg&gt;$ ^verba&lt;n&gt;&lt;f&gt;&lt;pl&gt;$ 0.2000000
NULL ^ser&lt;vbser&gt;&lt;prs&gt;&lt;p3&gt;&lt;pl&gt;$ 0.1111111
^ser&lt;vbser&gt;&lt;prs&gt;&lt;p3&gt;&lt;pl&gt;$ ^ser&lt;vbser&gt;&lt;prs&gt;&lt;p3&gt;&lt;pl&gt;$ 0.4444444
^desplazar&lt;vblex&gt;&lt;prs&gt;&lt;p3&gt;&lt;pl&gt;$ ^ser&lt;vbser&gt;&lt;prs&gt;&lt;p3&gt;&lt;pl&gt;$ 0.1111111
^éste&lt;prn&gt;&lt;tn&gt;&lt;m&gt;&lt;pl&gt;$ ^ser&lt;vbser&gt;&lt;prs&gt;&lt;p3&gt;&lt;pl&gt;$ 0.1111111
^adecuado&lt;adj&gt;&lt;f&gt;&lt;pl&gt;$ ^ser&lt;vbser&gt;&lt;prs&gt;&lt;p3&gt;&lt;pl&gt;$ 0.1111111
^ser&lt;vbser&gt;&lt;imp&gt;&lt;p3&gt;&lt;pl&gt;$ ^ser&lt;vbser&gt;&lt;prs&gt;&lt;p3&gt;&lt;pl&gt;$ 0.1111111
^capacidad&lt;n&gt;&lt;f&gt;&lt;sg&gt;$ ^Iniciativa&lt;n&gt;&lt;f&gt;&lt;pl&gt;$ 1.0000000
^transparente&lt;adj&gt;&lt;mf&gt;&lt;sg&gt;$ ^transparente&lt;adj&gt;&lt;mf&gt;&lt;sg&gt;$ 1.0000000
^Consciente&lt;n&gt;&lt;m&gt;&lt;sg&gt;$ ^Igualmente&lt;adv&gt;$ 1.0000000
^desear&lt;vblex&gt;&lt;pp&gt;&lt;m&gt;&lt;sg&gt;$ ^desejar&lt;vblex&gt;&lt;pp&gt;&lt;m&gt;&lt;sg&gt;$ 1.0000000
^fondo&lt;n&gt;&lt;m&gt;&lt;pl&gt;$ ^contrapartida&lt;n&gt;&lt;f&gt;&lt;pl&gt;$ 0.5000000
^existir&lt;vblex&gt;&lt;pri&gt;&lt;p3&gt;&lt;pl&gt;$ ^contrapartida&lt;n&gt;&lt;f&gt;&lt;pl&gt;$ 0.5000000
^parecer&lt;vblex&gt;&lt;pri&gt;&lt;p3&gt;&lt;sg&gt;$ ^parecer&lt;vblex&gt;&lt;pri&gt;&lt;p3&gt;&lt;sg&gt;$ 1.0000000
^lento&lt;adj&gt;&lt;m&gt;&lt;pl&gt;$ ^desenvolver&lt;vblex&gt;&lt;pp&gt;&lt;f&gt;&lt;pl&gt;$ 0.3333333
^poder&lt;vbmod&gt;&lt;prs&gt;&lt;p3&gt;&lt;pl&gt;$ ^desenvolver&lt;vblex&gt;&lt;pp&gt;&lt;f&gt;&lt;pl&gt;$ 0.3333333
^integrar&lt;vblex&gt;&lt;inf&gt;$ ^desenvolver&lt;vblex&gt;&lt;pp&gt;&lt;f&gt;&lt;pl&gt;$ 0.3333333
^otro&lt;det&gt;&lt;ind&gt;&lt;f&gt;&lt;sg&gt;$ ^ocupar&lt;vblex&gt;&lt;pp&gt;&lt;m&gt;&lt;sg&gt;$ 0.3333333
^ocupar&lt;vblex&gt;&lt;pp&gt;&lt;m&gt;&lt;sg&gt;$ ^ocupar&lt;vblex&gt;&lt;pp&gt;&lt;m&gt;&lt;sg&gt;$ 0.3333333
^vez&lt;n&gt;&lt;f&gt;&lt;sg&gt;$ ^ocupar&lt;vblex&gt;&lt;pp&gt;&lt;m&gt;&lt;sg&gt;$ 0.3333333
^estar&lt;vblex&gt;&lt;pri&gt;&lt;p1&gt;&lt;pl&gt;$ ^importar&lt;vblex&gt;&lt;pri&gt;&lt;p3&gt;&lt;sg&gt;$ 0.3333333
^preocupar&lt;vblex&gt;&lt;pp&gt;&lt;m&gt;&lt;pl&gt;$ ^importar&lt;vblex&gt;&lt;pri&gt;&lt;p3&gt;&lt;sg&gt;$ 0.3333333
^clave&lt;n&gt;&lt;f&gt;&lt;sg&gt;$ ^importar&lt;vblex&gt;&lt;pri&gt;&lt;p3&gt;&lt;sg&gt;$ 0.3333333
^integrar&lt;vblex&gt;&lt;pp&gt;&lt;f&gt;&lt;pl&gt;$ ^integrar&lt;vblex&gt;&lt;pp&gt;&lt;f&gt;&lt;pl&gt;$ 1.0000000
^asunto&lt;n&gt;&lt;m&gt;&lt;sg&gt;$ ^relatório&lt;n&gt;&lt;m&gt;&lt;sg&gt;$ 0.0192308
^*Sra$ ^relatório&lt;n&gt;&lt;m&gt;&lt;sg&gt;$ 0.0192308
^informe&lt;n&gt;&lt;m&gt;&lt;sg&gt;$ ^relatório&lt;n&gt;&lt;m&gt;&lt;sg&gt;$ 0.9423077
^retirar&lt;vblex&gt;&lt;pri&gt;&lt;p3&gt;&lt;sg&gt;$ ^relatório&lt;n&gt;&lt;m&gt;&lt;sg&gt;$ 0.0192308
^frío&lt;n&gt;&lt;m&gt;&lt;sg&gt;$ ^dessar&lt;vblex&gt;&lt;imp&gt;&lt;p3&gt;&lt;sg&gt;$ 0.5000000
^surgir&lt;vblex&gt;&lt;pp&gt;&lt;m&gt;&lt;sg&gt;$ ^dessar&lt;vblex&gt;&lt;imp&gt;&lt;p3&gt;&lt;sg&gt;$ 0.5000000
^no~obstante&lt;cnjadv&gt;$ ^ainda~assim&lt;cnjadv&gt;$ 1.0000000
^incluso&lt;adv&gt;$ ^até~mesmo&lt;adv&gt;$ 0.5000000
^en&lt;pr&gt;$ ^até~mesmo&lt;adv&gt;$ 0.5000000
^recordar&lt;vblex&gt;&lt;pp&gt;&lt;m&gt;&lt;sg&gt;$ ^referir&lt;vblex&gt;&lt;ifi&gt;&lt;p3&gt;&lt;sg&gt;$ 0.3333333
^ponente&lt;n&gt;&lt;mf&gt;&lt;sg&gt;$ ^referir&lt;vblex&gt;&lt;ifi&gt;&lt;p3&gt;&lt;sg&gt;$ 0.3333333
^haber&lt;vbhaver&gt;&lt;pri&gt;&lt;p3&gt;&lt;sg&gt;$ ^referir&lt;vblex&gt;&lt;ifi&gt;&lt;p3&gt;&lt;sg&gt;$ 0.3333333
^ir&lt;vblex&gt;&lt;pp&gt;&lt;m&gt;&lt;sg&gt;$ ^demasiado&lt;adv&gt;$ 0.5000000
^ampliar&lt;vblex&gt;&lt;ger&gt;$ ^demasiado&lt;adv&gt;$ 0.5000000
^social&lt;adj&gt;&lt;mf&gt;&lt;pl&gt;$ ^social&lt;adj&gt;&lt;mf&gt;&lt;pl&gt;$ 1.0000000
^consideración&lt;n&gt;&lt;f&gt;&lt;sg&gt;$ ^consideração&lt;n&gt;&lt;f&gt;&lt;sg&gt;$ 0.5000000
^cuenta&lt;n&gt;&lt;f&gt;&lt;sg&gt;$ ^consideração&lt;n&gt;&lt;f&gt;&lt;sg&gt;$ 0.5000000
^neutralizar&lt;vblex&gt;&lt;pp&gt;&lt;m&gt;&lt;sg&gt;$ ^negativo&lt;adj&gt;&lt;m&gt;&lt;sg&gt;$ 1.0000000
^procedimiento&lt;n&gt;&lt;m&gt;&lt;sg&gt;$ ^contribuir&lt;vblex&gt;&lt;ifi&gt;&lt;p3&gt;&lt;sg&gt;$ 1.0000000
^hablar&lt;vblex&gt;&lt;fti&gt;&lt;p3&gt;&lt;sg&gt;$ ^tratado&lt;n&gt;&lt;m&gt;&lt;sg&gt;$ 1.0000000
^actualmente&lt;adv&gt;$ ^actualmente&lt;adv&gt;$ 0.3333333
^incluir&lt;vblex&gt;&lt;pp&gt;&lt;f&gt;&lt;sg&gt;$ ^actualmente&lt;adv&gt;$ 0.3333333
^estar&lt;vblex&gt;&lt;pri&gt;&lt;p1&gt;&lt;pl&gt;$ ^actualmente&lt;adv&gt;$ 0.3333333
^alcanzar&lt;vblex&gt;&lt;pri&gt;&lt;p3&gt;&lt;sg&gt;$ ^produzir&lt;vblex&gt;&lt;pri&gt;&lt;p3&gt;&lt;sg&gt;$ 0.2000000
^producir&lt;vblex&gt;&lt;pri&gt;&lt;p3&gt;&lt;sg&gt;$ ^produzir&lt;vblex&gt;&lt;pri&gt;&lt;p3&gt;&lt;sg&gt;$ 0.2000000
^resultado&lt;n&gt;&lt;m&gt;&lt;pl&gt;$ ^produzir&lt;vblex&gt;&lt;pri&gt;&lt;p3&gt;&lt;sg&gt;$ 0.2000000
^el&lt;det&gt;&lt;def&gt;&lt;m&gt;&lt;pl&gt;$ ^produzir&lt;vblex&gt;&lt;pri&gt;&lt;p3&gt;&lt;sg&gt;$ 0.2000000
^desear&lt;vblex&gt;&lt;pp&gt;&lt;m&gt;&lt;pl&gt;$ ^produzir&lt;vblex&gt;&lt;pri&gt;&lt;p3&gt;&lt;sg&gt;$ 0.2000000
^deficiencia&lt;n&gt;&lt;f&gt;&lt;pl&gt;$ ^existente&lt;adj&gt;&lt;mf&gt;&lt;sg&gt;$ 1.0000000
^arma&lt;n&gt;&lt;f&gt;&lt;pl&gt;$ ^lucro&lt;n&gt;&lt;m&gt;&lt;pl&gt;$ 0.5000000
^beneficio&lt;n&gt;&lt;m&gt;&lt;pl&gt;$ ^lucro&lt;n&gt;&lt;m&gt;&lt;pl&gt;$ 0.5000000
^*Wide$ ^*World$ 0.5000000
^*World$ ^*World$ 0.5000000
^pleno&lt;adj&gt;&lt;f&gt;&lt;sg&gt;$ ^abrangente&lt;adj&gt;&lt;mf&gt;&lt;sg&gt;$ 1.0000000
^Presidencia&lt;n&gt;&lt;f&gt;&lt;sg&gt;$ ^Presidência&lt;n&gt;&lt;f&gt;&lt;sg&gt;$ 0.6666667
^haber&lt;vbhaver&gt;&lt;pri&gt;&lt;p3&gt;&lt;sg&gt;$ ^Presidência&lt;n&gt;&lt;f&gt;&lt;sg&gt;$ 0.3333333
^esperar&lt;vblex&gt;&lt;pri&gt;&lt;p1&gt;&lt;sg&gt;$ ^esperar&lt;vblex&gt;&lt;pri&gt;&lt;p1&gt;&lt;sg&gt;$ 0.6666667
^examinar&lt;vblex&gt;&lt;prs&gt;&lt;p3&gt;&lt;sg&gt;$ ^esperar&lt;vblex&gt;&lt;pri&gt;&lt;p1&gt;&lt;sg&gt;$ 0.3333333
^idea&lt;n&gt;&lt;f&gt;&lt;sg&gt;$ ^ideia&lt;n&gt;&lt;f&gt;&lt;sg&gt;$ 1.0000000
^concentrar&lt;vblex&gt;&lt;pri&gt;&lt;p3&gt;&lt;pl&gt;$ ^concentrar&lt;vblex&gt;&lt;fts&gt;&lt;p3&gt;&lt;pl&gt;$ 0.5000000
^europeo&lt;adj&gt;&lt;m&gt;&lt;sg&gt;$ ^concentrar&lt;vblex&gt;&lt;fts&gt;&lt;p3&gt;&lt;pl&gt;$ 0.5000000
^sentido&lt;n&gt;&lt;m&gt;&lt;sg&gt;$ ^princípio&lt;n&gt;&lt;m&gt;&lt;sg&gt;$ 0.1428571
^planteamiento&lt;n&gt;&lt;m&gt;&lt;sg&gt;$ ^princípio&lt;n&gt;&lt;m&gt;&lt;sg&gt;$ 0.0714286
^compartir&lt;vblex&gt;&lt;pri&gt;&lt;p1&gt;&lt;sg&gt;$ ^princípio&lt;n&gt;&lt;m&gt;&lt;sg&gt;$ 0.0714286
^principio&lt;n&gt;&lt;m&gt;&lt;sg&gt;$ ^princípio&lt;n&gt;&lt;m&gt;&lt;sg&gt;$ 0.7142857
^Social&lt;adj&gt;&lt;mf&gt;&lt;pl&gt;$ ^Social&lt;adj&gt;&lt;mf&gt;&lt;pl&gt;$ 1.0000000
^destacar&lt;vblex&gt;&lt;pri&gt;&lt;p3&gt;&lt;sg&gt;$ ^sublinhar&lt;vblex&gt;&lt;pri&gt;&lt;p3&gt;&lt;sg&gt;$ 1.0000000
^ofrecer&lt;vblex&gt;&lt;inf&gt;$ ^oferecer&lt;vblex&gt;&lt;inf&gt;$ 0.5000000
^uno&lt;det&gt;&lt;ind&gt;&lt;f&gt;&lt;sg&gt;$ ^oferecer&lt;vblex&gt;&lt;inf&gt;$ 0.5000000
^discutir&lt;vblex&gt;&lt;pri&gt;&lt;p3&gt;&lt;sg&gt;$ ^cada&lt;det&gt;&lt;ind&gt;&lt;mf&gt;&lt;sp&gt;$ 0.2500000
^el&lt;det&gt;&lt;def&gt;&lt;m&gt;&lt;pl&gt;$ ^cada&lt;det&gt;&lt;ind&gt;&lt;mf&gt;&lt;sp&gt;$ 0.2500000
^cada&lt;adv&gt;$ ^cada&lt;det&gt;&lt;ind&gt;&lt;mf&gt;&lt;sp&gt;$ 0.5000000
^*Mediterráneo$ ^*Mediterrâneo$ 1.0000000
^iniciativa&lt;n&gt;&lt;f&gt;&lt;pl&gt;$ ^merecer&lt;vblex&gt;&lt;fti&gt;&lt;p3&gt;&lt;sg&gt;$ 1.0000000
^,&lt;cm&gt;$ ^1998&lt;num&gt;$ 0.1666667
^1998&lt;num&gt;$ ^1998&lt;num&gt;$ 0.8333333
^trabajador&lt;n&gt;&lt;m&gt;&lt;pl&gt;$ ^obra&lt;n&gt;&lt;f&gt;&lt;sg&gt;$ 0.5000000
^el&lt;det&gt;&lt;def&gt;&lt;m&gt;&lt;pl&gt;$ ^obra&lt;n&gt;&lt;f&gt;&lt;sg&gt;$ 0.5000000
^Segundo&lt;adj&gt;&lt;m&gt;&lt;sg&gt;$ ^Segundo&lt;pr&gt;$ 0.2500000
^De&lt;pr&gt;$ ^Segundo&lt;pr&gt;$ 0.2500000
^En&lt;pr&gt;$ ^Segundo&lt;pr&gt;$ 0.2500000
^conformidad&lt;n&gt;&lt;f&gt;&lt;sg&gt;$ ^Segundo&lt;pr&gt;$ 0.2500000
^todo~esto&lt;prn&gt;&lt;tn&gt;&lt;nt&gt;$ ^luz&lt;n&gt;&lt;f&gt;&lt;sg&gt;$ 0.3333333
^bajar&lt;vblex&gt;&lt;pri&gt;&lt;p1&gt;&lt;sg&gt;$ ^luz&lt;n&gt;&lt;f&gt;&lt;sg&gt;$ 0.3333333
^luz&lt;n&gt;&lt;f&gt;&lt;sg&gt;$ ^luz&lt;n&gt;&lt;f&gt;&lt;sg&gt;$ 0.3333333
^pretender&lt;vblex&gt;&lt;pri&gt;&lt;p3&gt;&lt;pl&gt;$ ^pretender&lt;vblex&gt;&lt;pri&gt;&lt;p3&gt;&lt;pl&gt;$ 1.0000000
^crear&lt;vblex&gt;&lt;inf&gt;$ ^fonte&lt;n&gt;&lt;f&gt;&lt;sg&gt;$ 0.5000000
^proveedor&lt;n&gt;&lt;m&gt;&lt;sg&gt;$ ^fonte&lt;n&gt;&lt;f&gt;&lt;sg&gt;$ 0.5000000
^competencia&lt;n&gt;&lt;f&gt;&lt;sg&gt;$ ^corrida&lt;n&gt;&lt;f&gt;&lt;sg&gt;$ 0.5000000
^abrir&lt;vblex&gt;&lt;inf&gt;$ ^corrida&lt;n&gt;&lt;f&gt;&lt;sg&gt;$ 0.5000000
^valioso&lt;adj&gt;&lt;f&gt;&lt;pl&gt;$ ^valioso&lt;adj&gt;&lt;f&gt;&lt;pl&gt;$ 1.0000000
^área&lt;n&gt;&lt;f&gt;&lt;pl&gt;$ ^obrigatório&lt;adj&gt;&lt;f&gt;&lt;pl&gt;$ 1.0000000
^tratar&lt;vblex&gt;&lt;fti&gt;&lt;p1&gt;&lt;pl&gt;$ ^procurar&lt;vblex&gt;&lt;fti&gt;&lt;p1&gt;&lt;pl&gt;$ 1.0000000
^equilibrio&lt;n&gt;&lt;m&gt;&lt;sg&gt;$ ^método&lt;n&gt;&lt;m&gt;&lt;sg&gt;$ 1.0000000
^interacción&lt;n&gt;&lt;f&gt;&lt;sg&gt;$ ^relação&lt;n&gt;&lt;f&gt;&lt;pl&gt;$ 0.2500000
^relación&lt;n&gt;&lt;f&gt;&lt;pl&gt;$ ^relação&lt;n&gt;&lt;f&gt;&lt;pl&gt;$ 0.7500000
^tomar&lt;vblex&gt;&lt;pp&gt;&lt;f&gt;&lt;sg&gt;$ ^pôr&lt;vblex&gt;&lt;pp&gt;&lt;f&gt;&lt;sg&gt;$ 1.0000000
NULL ^próprio&lt;adj&gt;&lt;m&gt;&lt;sg&gt;$ 0.3333333
^mismo&lt;adv&gt;$ ^próprio&lt;adj&gt;&lt;m&gt;&lt;sg&gt;$ 0.3333333
^elaborar&lt;vblex&gt;&lt;pp&gt;&lt;m&gt;&lt;sg&gt;$ ^próprio&lt;adj&gt;&lt;m&gt;&lt;sg&gt;$ 0.3333333
^trabajo&lt;n&gt;&lt;m&gt;&lt;pl&gt;$ ^trabalho&lt;n&gt;&lt;m&gt;&lt;pl&gt;$ 0.6666667
^día&lt;n&gt;&lt;m&gt;&lt;sg&gt;$ ^trabalho&lt;n&gt;&lt;m&gt;&lt;pl&gt;$ 0.3333333
^reproducir&lt;vblex&gt;&lt;pp&gt;&lt;f&gt;&lt;pl&gt;$ ^ter&lt;vbhaver&gt;&lt;pii&gt;&lt;p3&gt;&lt;pl&gt;$ 0.5000000
^estado&lt;n&gt;&lt;m&gt;&lt;sg&gt;$ ^ter&lt;vbhaver&gt;&lt;pii&gt;&lt;p3&gt;&lt;pl&gt;$ 0.5000000
^pronto&lt;adv&gt;$ ^breve&lt;adj&gt;&lt;mf&gt;&lt;sg&gt;$ 0.6666667
^plazo&lt;n&gt;&lt;m&gt;&lt;sg&gt;$ ^breve&lt;adj&gt;&lt;mf&gt;&lt;sg&gt;$ 0.3333333
^Esto&lt;prn&gt;&lt;tn&gt;&lt;nt&gt;$ ^Não&lt;adv&gt;$ 0.0909091
^Naturalmente&lt;adv&gt;$ ^Não&lt;adv&gt;$ 0.0454545
NULL ^Não&lt;adv&gt;$ 0.0454545
^No&lt;adv&gt;$ ^Não&lt;adv&gt;$ 0.8181818
^estar&lt;vblex&gt;&lt;pri&gt;&lt;p3&gt;&lt;sg&gt;$ ^estar&lt;vblex&gt;&lt;fts&gt;&lt;p1&gt;&lt;sg&gt;$ 1.0000000
^tecnología&lt;n&gt;&lt;f&gt;&lt;pl&gt;$ ^tecnologia&lt;n&gt;&lt;f&gt;&lt;pl&gt;$ 1.0000000
^enlazar&lt;vblex&gt;&lt;pri&gt;&lt;p1&gt;&lt;sg&gt;$ ^chegar&lt;vblex&gt;&lt;pri&gt;&lt;p1&gt;&lt;sg&gt;$ 0.5000000
^esto&lt;prn&gt;&lt;tn&gt;&lt;nt&gt;$ ^chegar&lt;vblex&gt;&lt;pri&gt;&lt;p1&gt;&lt;sg&gt;$ 0.5000000
^*Bourlanges$ ^*Bourlanges$ 0.5000000
^figurar&lt;vblex&gt;&lt;pis&gt;&lt;p3&gt;&lt;sg&gt;$ ^*Bourlanges$ 0.5000000
^privado&lt;adj&gt;&lt;m&gt;&lt;sg&gt;$ ^privado&lt;adj&gt;&lt;m&gt;&lt;sg&gt;$ 1.0000000
^sector&lt;n&gt;&lt;m&gt;&lt;sg&gt;$ ^sector&lt;n&gt;&lt;m&gt;&lt;sg&gt;$ 0.7142857
NULL ^sector&lt;n&gt;&lt;m&gt;&lt;sg&gt;$ 0.2857143
^túnel&lt;n&gt;&lt;m&gt;&lt;sg&gt;$ ^túnel&lt;n&gt;&lt;m&gt;&lt;sg&gt;$ 1.0000000
^55&lt;num&gt;$ ^55&lt;num&gt;$ 1.0000000
^punto&lt;n&gt;&lt;m&gt;&lt;sg&gt;$ ^ponto&lt;n&gt;&lt;m&gt;&lt;sg&gt;$ 0.6206897
^al~punto&lt;adv&gt;$ ^ponto&lt;n&gt;&lt;m&gt;&lt;sg&gt;$ 0.0344828
^cumplido&lt;n&gt;&lt;m&gt;&lt;sg&gt;$ ^ponto&lt;n&gt;&lt;m&gt;&lt;sg&gt;$ 0.0344828
^aspecto&lt;n&gt;&lt;m&gt;&lt;sg&gt;$ ^ponto&lt;n&gt;&lt;m&gt;&lt;sg&gt;$ 0.0344828
^citar&lt;vblex&gt;&lt;inf&gt;$ ^ponto&lt;n&gt;&lt;m&gt;&lt;sg&gt;$ 0.0344828
^cuestión&lt;n&gt;&lt;f&gt;&lt;sg&gt;$ ^ponto&lt;n&gt;&lt;m&gt;&lt;sg&gt;$ 0.1379310
^idea&lt;n&gt;&lt;f&gt;&lt;sg&gt;$ ^ponto&lt;n&gt;&lt;m&gt;&lt;sg&gt;$ 0.0344828
^ser&lt;vbser&gt;&lt;pri&gt;&lt;p3&gt;&lt;sg&gt;$ ^ponto&lt;n&gt;&lt;m&gt;&lt;sg&gt;$ 0.0689655
^*estacional$ ^*sazonal$ 1.0000000
^plano&lt;adj&gt;&lt;m&gt;&lt;sg&gt;$ ^entender&lt;vblex&gt;&lt;inf&gt;$ 1.0000000
^autoridad&lt;n&gt;&lt;f&gt;&lt;pl&gt;$ ^autarquia&lt;n&gt;&lt;f&gt;&lt;pl&gt;$ 1.0000000
^ser&lt;vbser&gt;&lt;imp&gt;&lt;p3&gt;&lt;pl&gt;$ ^esse&lt;prn&gt;&lt;tn&gt;&lt;m&gt;&lt;pl&gt;$ 1.0000000
NULL ^necessitar&lt;vblex&gt;&lt;pri&gt;&lt;p3&gt;&lt;pl&gt;$ 0.5000000
^necesitar&lt;vblex&gt;&lt;pri&gt;&lt;p3&gt;&lt;pl&gt;$ ^necessitar&lt;vblex&gt;&lt;pri&gt;&lt;p3&gt;&lt;pl&gt;$ 0.5000000
^dar&lt;vblex&gt;&lt;pri&gt;&lt;p1&gt;&lt;sg&gt;$ ^esse&lt;prn&gt;&lt;tn&gt;&lt;m&gt;&lt;sg&gt;$ 0.2500000
^este&lt;det&gt;&lt;dem&gt;&lt;m&gt;&lt;sg&gt;$ ^esse&lt;prn&gt;&lt;tn&gt;&lt;m&gt;&lt;sg&gt;$ 0.2500000
NULL ^esse&lt;prn&gt;&lt;tn&gt;&lt;m&gt;&lt;sg&gt;$ 0.2500000
^tener&lt;vblex&gt;&lt;prs&gt;&lt;p3&gt;&lt;pl&gt;$ ^esse&lt;prn&gt;&lt;tn&gt;&lt;m&gt;&lt;sg&gt;$ 0.2500000
^el&lt;det&gt;&lt;def&gt;&lt;m&gt;&lt;sg&gt;$ ^24%&lt;num&gt;&lt;percent&gt;$ 0.5000000
^24%&lt;num&gt;&lt;percent&gt;$ ^24%&lt;num&gt;&lt;percent&gt;$ 0.5000000
^hacer&lt;vblex&gt;&lt;inf&gt;$ ^*how$ 1.0000000
^*Mathies$ ^*Mathies$ 1.0000000
^lunes&lt;n&gt;&lt;m&gt;&lt;sp&gt;$ ^segundo&lt;adj&gt;&lt;f&gt;&lt;sg&gt;$ 1.0000000
^*Monti$ ^*Monti$ 0.7500000
^le&lt;prn&gt;&lt;enc&gt;&lt;p3&gt;&lt;mf&gt;&lt;sg&gt;$ ^*Monti$ 0.2500000
^tener&lt;vblex&gt;&lt;pri&gt;&lt;p3&gt;&lt;pl&gt;$ ^exercer&lt;vblex&gt;&lt;pri&gt;&lt;p3&gt;&lt;pl&gt;$ 0.5000000
^adoptar&lt;vblex&gt;&lt;pp&gt;&lt;f&gt;&lt;pl&gt;$ ^exercer&lt;vblex&gt;&lt;pri&gt;&lt;p3&gt;&lt;pl&gt;$ 0.5000000
^volver&lt;vblex&gt;&lt;prs&gt;&lt;p3&gt;&lt;sg&gt;$ ^ler&lt;vblex&gt;&lt;prs&gt;&lt;p1&gt;&lt;sg&gt;$ 0.5000000
^a&lt;pr&gt;$ ^ler&lt;vblex&gt;&lt;prs&gt;&lt;p1&gt;&lt;sg&gt;$ 0.5000000
^noción&lt;n&gt;&lt;f&gt;&lt;pl&gt;$ ^fundamento&lt;n&gt;&lt;m&gt;&lt;pl&gt;$ 1.0000000
^incluso&lt;adv&gt;$ ^escrever&lt;vblex&gt;&lt;ifi&gt;&lt;p3&gt;&lt;sg&gt;$ 1.0000000
^poder&lt;vbmod&gt;&lt;pri&gt;&lt;p1&gt;&lt;pl&gt;$ ^poder&lt;vbmod&gt;&lt;pri&gt;&lt;p1&gt;&lt;pl&gt;$ 0.7500000
^poder&lt;vbmod&gt;&lt;pri&gt;&lt;p3&gt;&lt;sg&gt;$ ^poder&lt;vbmod&gt;&lt;pri&gt;&lt;p1&gt;&lt;pl&gt;$ 0.2500000
^breve&lt;adj&gt;&lt;mf&gt;&lt;sg&gt;$ ^prazo&lt;n&gt;&lt;m&gt;&lt;sg&gt;$ 0.5000000
^plazo&lt;n&gt;&lt;m&gt;&lt;sg&gt;$ ^prazo&lt;n&gt;&lt;m&gt;&lt;sg&gt;$ 0.5000000
^realizar&lt;vblex&gt;&lt;pp&gt;&lt;m&gt;&lt;sg&gt;$ ^conseguir&lt;vblex&gt;&lt;pp&gt;&lt;m&gt;&lt;sg&gt;$ 1.0000000
^mantener&lt;vblex&gt;&lt;pri&gt;&lt;p3&gt;&lt;sg&gt;$ ^Manter&lt;vblex&gt;&lt;pri&gt;&lt;p3&gt;&lt;sg&gt;$ 0.5000000
^Se&lt;prn&gt;&lt;pro&gt;&lt;ref&gt;&lt;p3&gt;&lt;mf&gt;&lt;sp&gt;$ ^Manter&lt;vblex&gt;&lt;pri&gt;&lt;p3&gt;&lt;sg&gt;$ 0.5000000
^*caótica$ ^solto&lt;adj&gt;&lt;f&gt;&lt;sg&gt;$ 1.0000000
^de~verdad&lt;adv&gt;$ ^efectivamente&lt;adv&gt;$ 0.3333333
^hacer&lt;vblex&gt;&lt;pp&gt;&lt;m&gt;&lt;sg&gt;$ ^efectivamente&lt;adv&gt;$ 0.3333333
^haber&lt;vbhaver&gt;&lt;pri&gt;&lt;p3&gt;&lt;pl&gt;$ ^efectivamente&lt;adv&gt;$ 0.3333333
^*remediando$ ^resolver&lt;vblex&gt;&lt;pp&gt;&lt;f&gt;&lt;sg&gt;$ 1.0000000
^distinto&lt;adj&gt;&lt;f&gt;&lt;pl&gt;$ ^maneira&lt;n&gt;&lt;f&gt;&lt;pl&gt;$ 1.0000000
^contribución&lt;n&gt;&lt;f&gt;&lt;sg&gt;$ ^contributo&lt;n&gt;&lt;m&gt;&lt;sg&gt;$ 1.0000000
^17&lt;num&gt;$ ^17&lt;num&gt;$ 1.0000000
^*PSE$ ^*PSE$ 0.5000000
^Mío&lt;det&gt;&lt;pos&gt;&lt;mf&gt;&lt;sg&gt;$ ^*PSE$ 0.5000000
^el&lt;det&gt;&lt;def&gt;&lt;f&gt;&lt;pl&gt;$ ^o&lt;det&gt;&lt;def&gt;&lt;m&gt;&lt;pl&gt;$ 0.0987124
^ayuda&lt;n&gt;&lt;f&gt;&lt;pl&gt;$ ^o&lt;det&gt;&lt;def&gt;&lt;m&gt;&lt;pl&gt;$ 0.0042918
^cifra&lt;n&gt;&lt;f&gt;&lt;pl&gt;$ ^o&lt;det&gt;&lt;def&gt;&lt;m&gt;&lt;pl&gt;$ 0.0042918
^permitir&lt;vblex&gt;&lt;pri&gt;&lt;p3&gt;&lt;pl&gt;$ ^o&lt;det&gt;&lt;def&gt;&lt;m&gt;&lt;pl&gt;$ 0.0042918
^el&lt;det&gt;&lt;def&gt;&lt;m&gt;&lt;pl&gt;$ ^o&lt;det&gt;&lt;def&gt;&lt;m&gt;&lt;pl&gt;$ 0.6781116
^aspirar&lt;vblex&gt;&lt;inf&gt;$ ^o&lt;det&gt;&lt;def&gt;&lt;m&gt;&lt;pl&gt;$ 0.0042918
^elemento&lt;n&gt;&lt;m&gt;&lt;pl&gt;$ ^o&lt;det&gt;&lt;def&gt;&lt;m&gt;&lt;pl&gt;$ 0.0042918
^esto&lt;prn&gt;&lt;tn&gt;&lt;nt&gt;$ ^o&lt;det&gt;&lt;def&gt;&lt;m&gt;&lt;pl&gt;$ 0.0042918
^Socialista&lt;adj&gt;&lt;mf&gt;&lt;sg&gt;$ ^o&lt;det&gt;&lt;def&gt;&lt;m&gt;&lt;pl&gt;$ 0.0042918
^este&lt;det&gt;&lt;dem&gt;&lt;m&gt;&lt;pl&gt;$ ^o&lt;det&gt;&lt;def&gt;&lt;m&gt;&lt;pl&gt;$ 0.0042918
^Político&lt;n&gt;&lt;f&gt;&lt;sg&gt;$ ^o&lt;det&gt;&lt;def&gt;&lt;m&gt;&lt;pl&gt;$ 0.0042918
^*asesorara$ ^o&lt;det&gt;&lt;def&gt;&lt;m&gt;&lt;pl&gt;$ 0.0042918
^evitar&lt;vblex&gt;&lt;inf&gt;$ ^o&lt;det&gt;&lt;def&gt;&lt;m&gt;&lt;pl&gt;$ 0.0042918
^*cuestores$ ^o&lt;det&gt;&lt;def&gt;&lt;m&gt;&lt;pl&gt;$ 0.0042918
^conformidad&lt;n&gt;&lt;f&gt;&lt;sg&gt;$ ^o&lt;det&gt;&lt;def&gt;&lt;m&gt;&lt;pl&gt;$ 0.0042918
^Económico&lt;adj&gt;&lt;f&gt;&lt;sg&gt;$ ^o&lt;det&gt;&lt;def&gt;&lt;m&gt;&lt;pl&gt;$ 0.0042918
^Asunto&lt;n&gt;&lt;m&gt;&lt;pl&gt;$ ^o&lt;det&gt;&lt;def&gt;&lt;m&gt;&lt;pl&gt;$ 0.0128755
^transporte&lt;n&gt;&lt;m&gt;&lt;sg&gt;$ ^o&lt;det&gt;&lt;def&gt;&lt;m&gt;&lt;pl&gt;$ 0.0128755
^Presupuesto&lt;n&gt;&lt;m&gt;&lt;pl&gt;$ ^o&lt;det&gt;&lt;def&gt;&lt;m&gt;&lt;pl&gt;$ 0.0042918
^nuestro&lt;det&gt;&lt;pos&gt;&lt;m&gt;&lt;pl&gt;$ ^o&lt;det&gt;&lt;def&gt;&lt;m&gt;&lt;pl&gt;$ 0.0042918
^Europa&lt;np&gt;&lt;loc&gt;&lt;f&gt;&lt;sg&gt;$ ^o&lt;det&gt;&lt;def&gt;&lt;m&gt;&lt;pl&gt;$ 0.0042918
^dar&lt;vblex&gt;&lt;pri&gt;&lt;p1&gt;&lt;pl&gt;$ ^o&lt;det&gt;&lt;def&gt;&lt;m&gt;&lt;pl&gt;$ 0.0042918
^Suyo&lt;det&gt;&lt;pos&gt;&lt;mf&gt;&lt;pl&gt;$ ^o&lt;det&gt;&lt;def&gt;&lt;m&gt;&lt;pl&gt;$ 0.0042918
^además&lt;adv&gt;$ ^o&lt;det&gt;&lt;def&gt;&lt;m&gt;&lt;pl&gt;$ 0.0042918
^resultar&lt;vblex&gt;&lt;pp&gt;&lt;m&gt;&lt;sg&gt;$ ^o&lt;det&gt;&lt;def&gt;&lt;m&gt;&lt;pl&gt;$ 0.0042918
^haber&lt;vbhaver&gt;&lt;pri&gt;&lt;p3&gt;&lt;pl&gt;$ ^o&lt;det&gt;&lt;def&gt;&lt;m&gt;&lt;pl&gt;$ 0.0042918
^establecer&lt;vblex&gt;&lt;pri&gt;&lt;p3&gt;&lt;sg&gt;$ ^o&lt;det&gt;&lt;def&gt;&lt;m&gt;&lt;pl&gt;$ 0.0042918
^El&lt;det&gt;&lt;def&gt;&lt;m&gt;&lt;pl&gt;$ ^o&lt;det&gt;&lt;def&gt;&lt;m&gt;&lt;pl&gt;$ 0.0042918
^Ayuda&lt;n&gt;&lt;f&gt;&lt;pl&gt;$ ^o&lt;det&gt;&lt;def&gt;&lt;m&gt;&lt;pl&gt;$ 0.0085837
NULL ^o&lt;det&gt;&lt;def&gt;&lt;m&gt;&lt;pl&gt;$ 0.0557940
^mucho&lt;adj&gt;&lt;m&gt;&lt;pl&gt;$ ^o&lt;det&gt;&lt;def&gt;&lt;m&gt;&lt;pl&gt;$ 0.0042918
^el&lt;det&gt;&lt;def&gt;&lt;m&gt;&lt;sg&gt;$ ^o&lt;det&gt;&lt;def&gt;&lt;m&gt;&lt;pl&gt;$ 0.0214592
^otro&lt;prn&gt;&lt;tn&gt;&lt;m&gt;&lt;pl&gt;$ ^o&lt;det&gt;&lt;def&gt;&lt;m&gt;&lt;pl&gt;$ 0.0042918
^oír&lt;vblex&gt;&lt;pp&gt;&lt;f&gt;&lt;pl&gt;$ ^ouvir&lt;vblex&gt;&lt;pp&gt;&lt;f&gt;&lt;pl&gt;$ 1.0000000
^*instauración$ ^alteração&lt;n&gt;&lt;f&gt;&lt;sg&gt;$ 0.0769231
^modificación&lt;n&gt;&lt;f&gt;&lt;sg&gt;$ ^alteração&lt;n&gt;&lt;f&gt;&lt;sg&gt;$ 0.2307692
^noche&lt;n&gt;&lt;f&gt;&lt;sg&gt;$ ^alteração&lt;n&gt;&lt;f&gt;&lt;sg&gt;$ 0.0769231
^enmienda&lt;n&gt;&lt;f&gt;&lt;sg&gt;$ ^alteração&lt;n&gt;&lt;f&gt;&lt;sg&gt;$ 0.6153846
^animar&lt;vblex&gt;&lt;pri&gt;&lt;p3&gt;&lt;sg&gt;$ ^*encoraja$ 1.0000000
^septentrional&lt;adj&gt;&lt;mf&gt;&lt;pl&gt;$ ^setentrional&lt;adj&gt;&lt;mf&gt;&lt;pl&gt;$ 0.6666667
^hecho&lt;n&gt;&lt;m&gt;&lt;sg&gt;$ ^setentrional&lt;adj&gt;&lt;mf&gt;&lt;pl&gt;$ 0.3333333
^referencia&lt;n&gt;&lt;f&gt;&lt;sg&gt;$ ^referência&lt;n&gt;&lt;f&gt;&lt;sg&gt;$ 0.5000000
^todo&lt;predet&gt;&lt;f&gt;&lt;sg&gt;$ ^referência&lt;n&gt;&lt;f&gt;&lt;sg&gt;$ 0.5000000
^fomentar&lt;vblex&gt;&lt;inf&gt;$ ^capacidade&lt;n&gt;&lt;f&gt;&lt;sg&gt;$ 1.0000000
^compromiso&lt;n&gt;&lt;m&gt;&lt;sg&gt;$ ^compromisso&lt;n&gt;&lt;m&gt;&lt;sg&gt;$ 1.0000000
^sombrero&lt;n&gt;&lt;m&gt;&lt;sg&gt;$ ^chapéu&lt;n&gt;&lt;m&gt;&lt;sg&gt;$ 0.5000000
^él&lt;prn&gt;&lt;tn&gt;&lt;p3&gt;&lt;f&gt;&lt;sg&gt;$ ^chapéu&lt;n&gt;&lt;m&gt;&lt;sg&gt;$ 0.5000000
^pero&lt;cnjcoo&gt;$ ^haver&lt;vblex&gt;&lt;ger&gt;$ 1.0000000
^ascender&lt;vblex&gt;&lt;pri&gt;&lt;p3&gt;&lt;sg&gt;$ ^situar&lt;vblex&gt;&lt;pri&gt;&lt;p3&gt;&lt;sg&gt;$ 1.0000000
^ocupar&lt;vblex&gt;&lt;pp&gt;&lt;m&gt;&lt;sg&gt;$ ^repetidamente&lt;adv&gt;$ 1.0000000
^estar&lt;vblex&gt;&lt;fti&gt;&lt;p3&gt;&lt;sg&gt;$ ^estar&lt;vblex&gt;&lt;fti&gt;&lt;p3&gt;&lt;sg&gt;$ 1.0000000
^frecuente&lt;adj&gt;&lt;mf&gt;&lt;sg&gt;$ ^acontecer&lt;vblex&gt;&lt;pri&gt;&lt;p3&gt;&lt;sg&gt;$ 0.5000000
NULL ^acontecer&lt;vblex&gt;&lt;pri&gt;&lt;p3&gt;&lt;sg&gt;$ 0.5000000
^ser&lt;vbser&gt;&lt;pri&gt;&lt;p3&gt;&lt;sg&gt;$ ^aquele&lt;prn&gt;&lt;tn&gt;&lt;m&gt;&lt;sg&gt;$ 1.0000000
^poner&lt;vblex&gt;&lt;pp&gt;&lt;m&gt;&lt;sg&gt;$ ^tornar&lt;vblex&gt;&lt;pp&gt;&lt;m&gt;&lt;sg&gt;$ 0.5000000
^haber&lt;vbhaver&gt;&lt;prs&gt;&lt;p3&gt;&lt;sg&gt;$ ^tornar&lt;vblex&gt;&lt;pp&gt;&lt;m&gt;&lt;sg&gt;$ 0.5000000
^Simpson&lt;np&gt;&lt;ant&gt;$ ^Simpson&lt;np&gt;&lt;ant&gt;$ 1.0000000
^*Brevísimamente$ ^resumo&lt;n&gt;&lt;m&gt;&lt;sp&gt;$ 0.2000000
^Decir&lt;vblex&gt;&lt;pp&gt;&lt;m&gt;&lt;sg&gt;$ ^resumo&lt;n&gt;&lt;m&gt;&lt;sp&gt;$ 0.2000000
^forma&lt;n&gt;&lt;f&gt;&lt;sg&gt;$ ^resumo&lt;n&gt;&lt;m&gt;&lt;sp&gt;$ 0.2000000
^de&lt;pr&gt;$ ^resumo&lt;n&gt;&lt;m&gt;&lt;sp&gt;$ 0.2000000
^otro&lt;det&gt;&lt;ind&gt;&lt;f&gt;&lt;sg&gt;$ ^resumo&lt;n&gt;&lt;m&gt;&lt;sp&gt;$ 0.2000000
^hacer&lt;vblex&gt;&lt;pp&gt;&lt;m&gt;&lt;sg&gt;$ ^fazer&lt;vblex&gt;&lt;ifi&gt;&lt;p3&gt;&lt;sg&gt;$ 0.3333333
^haber&lt;vbhaver&gt;&lt;pri&gt;&lt;p3&gt;&lt;sg&gt;$ ^fazer&lt;vblex&gt;&lt;ifi&gt;&lt;p3&gt;&lt;sg&gt;$ 0.3333333
^contribuir&lt;vblex&gt;&lt;pp&gt;&lt;m&gt;&lt;sg&gt;$ ^fazer&lt;vblex&gt;&lt;ifi&gt;&lt;p3&gt;&lt;sg&gt;$ 0.3333333
^Ser&lt;vbser&gt;&lt;cni&gt;&lt;p3&gt;&lt;sg&gt;$ ^Ser&lt;vbser&gt;&lt;cni&gt;&lt;p1&gt;&lt;sg&gt;$ 0.5000000
^que&lt;rel&gt;&lt;an&gt;&lt;mf&gt;&lt;sp&gt;$ ^Ser&lt;vbser&gt;&lt;cni&gt;&lt;p1&gt;&lt;sg&gt;$ 0.5000000
^apoyar&lt;vblex&gt;&lt;imp&gt;&lt;p3&gt;&lt;sg&gt;$ ^apoiar&lt;vblex&gt;&lt;prs&gt;&lt;p1&gt;&lt;sg&gt;$ 1.0000000
^sentido&lt;n&gt;&lt;m&gt;&lt;sg&gt;$ ^efeito&lt;n&gt;&lt;m&gt;&lt;sg&gt;$ 0.1000000
^neutralizar&lt;vblex&gt;&lt;pp&gt;&lt;m&gt;&lt;sg&gt;$ ^efeito&lt;n&gt;&lt;m&gt;&lt;sg&gt;$ 0.1000000
^Estar&lt;vblex&gt;&lt;pri&gt;&lt;p3&gt;&lt;sg&gt;$ ^efeito&lt;n&gt;&lt;m&gt;&lt;sg&gt;$ 0.1000000
^efecto&lt;n&gt;&lt;m&gt;&lt;sg&gt;$ ^efeito&lt;n&gt;&lt;m&gt;&lt;sg&gt;$ 0.2000000
NULL ^efeito&lt;n&gt;&lt;m&gt;&lt;sg&gt;$ 0.1000000
^en&lt;pr&gt;$ ^efeito&lt;n&gt;&lt;m&gt;&lt;sg&gt;$ 0.1000000
^*Señoría$ ^efeito&lt;n&gt;&lt;m&gt;&lt;sg&gt;$ 0.1000000
^entonces&lt;adv&gt;$ ^efeito&lt;n&gt;&lt;m&gt;&lt;sg&gt;$ 0.1000000
^efectivamente&lt;adv&gt;$ ^efeito&lt;n&gt;&lt;m&gt;&lt;sg&gt;$ 0.1000000
^transparente&lt;adj&gt;&lt;mf&gt;&lt;pl&gt;$ ^transparência&lt;n&gt;&lt;f&gt;&lt;sg&gt;$ 0.1250000
^transparente&lt;adj&gt;&lt;mf&gt;&lt;sg&gt;$ ^transparência&lt;n&gt;&lt;f&gt;&lt;sg&gt;$ 0.1250000
^transparencia&lt;n&gt;&lt;f&gt;&lt;sg&gt;$ ^transparência&lt;n&gt;&lt;f&gt;&lt;sg&gt;$ 0.7500000
^partida&lt;n&gt;&lt;f&gt;&lt;sg&gt;$ ^partida&lt;n&gt;&lt;f&gt;&lt;sg&gt;$ 1.0000000
^el&lt;det&gt;&lt;def&gt;&lt;m&gt;&lt;pl&gt;$ ^este&lt;det&gt;&lt;dem&gt;&lt;m&gt;&lt;pl&gt;$ 0.2000000
NULL ^este&lt;det&gt;&lt;dem&gt;&lt;m&gt;&lt;pl&gt;$ 0.3000000
^este&lt;det&gt;&lt;dem&gt;&lt;m&gt;&lt;pl&gt;$ ^este&lt;det&gt;&lt;dem&gt;&lt;m&gt;&lt;pl&gt;$ 0.5000000
^De&lt;pr&gt;$ ^Seguir&lt;vblex&gt;&lt;pri&gt;&lt;p3&gt;&lt;sg&gt;$ 1.0000000
^depender&lt;vblex&gt;&lt;pii&gt;&lt;p3&gt;&lt;pl&gt;$ ^depender&lt;vblex&gt;&lt;pii&gt;&lt;p3&gt;&lt;pl&gt;$ 1.0000000
^estatal&lt;adj&gt;&lt;mf&gt;&lt;sg&gt;$ ^Estado&lt;n&gt;&lt;m&gt;&lt;sg&gt;$ 0.5000000
^Estado&lt;n&gt;&lt;m&gt;&lt;pl&gt;$ ^Estado&lt;n&gt;&lt;m&gt;&lt;sg&gt;$ 0.5000000
^solicitar&lt;vblex&gt;&lt;pri&gt;&lt;p3&gt;&lt;sg&gt;$ ^vir&lt;vblex&gt;&lt;pri&gt;&lt;p3&gt;&lt;sg&gt;$ 1.0000000
^cultura&lt;n&gt;&lt;f&gt;&lt;sg&gt;$ ^cultura&lt;n&gt;&lt;f&gt;&lt;sg&gt;$ 0.7500000
NULL ^cultura&lt;n&gt;&lt;f&gt;&lt;sg&gt;$ 0.2500000
^día&lt;n&gt;&lt;m&gt;&lt;pl&gt;$ ^dia&lt;n&gt;&lt;m&gt;&lt;pl&gt;$ 1.0000000
^Tener&lt;vblex&gt;&lt;pri&gt;&lt;p1&gt;&lt;sg&gt;$ ^Esperar&lt;vblex&gt;&lt;pri&gt;&lt;p1&gt;&lt;sg&gt;$ 0.2000000
^Esperar&lt;vblex&gt;&lt;pri&gt;&lt;p1&gt;&lt;sg&gt;$ ^Esperar&lt;vblex&gt;&lt;pri&gt;&lt;p1&gt;&lt;sg&gt;$ 0.8000000
^en&lt;pr&gt;$ ^influenciar&lt;vblex&gt;&lt;pri&gt;&lt;p3&gt;&lt;sg&gt;$ 0.5000000
^influir&lt;vblex&gt;&lt;pri&gt;&lt;p3&gt;&lt;sg&gt;$ ^influenciar&lt;vblex&gt;&lt;pri&gt;&lt;p3&gt;&lt;sg&gt;$ 0.5000000
^evitar&lt;vblex&gt;&lt;inf&gt;$ ^impedir&lt;vblex&gt;&lt;inf&gt;$ 1.0000000
^pasar&lt;vblex&gt;&lt;pp&gt;&lt;m&gt;&lt;pl&gt;$ ^monopólio&lt;n&gt;&lt;m&gt;&lt;pl&gt;$ 1.0000000
^mucho&lt;adj&gt;&lt;f&gt;&lt;sg&gt;$ ^desenvolver&lt;vblex&gt;&lt;pri&gt;&lt;p3&gt;&lt;pl&gt;$ 0.2500000
^con&lt;pr&gt;$ ^desenvolver&lt;vblex&gt;&lt;pri&gt;&lt;p3&gt;&lt;pl&gt;$ 0.2500000
^*nórdica$ ^desenvolver&lt;vblex&gt;&lt;pri&gt;&lt;p3&gt;&lt;pl&gt;$ 0.2500000
^desarrollar&lt;vblex&gt;&lt;pri&gt;&lt;p3&gt;&lt;pl&gt;$ ^desenvolver&lt;vblex&gt;&lt;pri&gt;&lt;p3&gt;&lt;pl&gt;$ 0.2500000
^legitimidad&lt;n&gt;&lt;f&gt;&lt;sg&gt;$ ^legitimidade&lt;n&gt;&lt;f&gt;&lt;sg&gt;$ 1.0000000
^centralizado&lt;adj&gt;&lt;m&gt;&lt;sg&gt;$ ^centralizado&lt;adj&gt;&lt;m&gt;&lt;sg&gt;$ 0.5000000
^todo&lt;predet&gt;&lt;f&gt;&lt;sg&gt;$ ^centralizado&lt;adj&gt;&lt;m&gt;&lt;sg&gt;$ 0.5000000
^europeo&lt;adj&gt;&lt;m&gt;&lt;sg&gt;$ ^europeu&lt;adj&gt;&lt;m&gt;&lt;sg&gt;$ 0.5000000
^uno&lt;det&gt;&lt;ind&gt;&lt;f&gt;&lt;sg&gt;$ ^europeu&lt;adj&gt;&lt;m&gt;&lt;sg&gt;$ 0.1666667
^europeo&lt;n&gt;&lt;m&gt;&lt;sg&gt;$ ^europeu&lt;adj&gt;&lt;m&gt;&lt;sg&gt;$ 0.1666667
^Oficina&lt;n&gt;&lt;f&gt;&lt;sg&gt;$ ^europeu&lt;adj&gt;&lt;m&gt;&lt;sg&gt;$ 0.1666667
^sello&lt;n&gt;&lt;m&gt;&lt;sg&gt;$ ^símbolo&lt;n&gt;&lt;m&gt;&lt;sg&gt;$ 1.0000000
^servicio&lt;n&gt;&lt;m&gt;&lt;pl&gt;$ ^serviço&lt;n&gt;&lt;m&gt;&lt;pl&gt;$ 1.0000000
^mano&lt;n&gt;&lt;f&gt;&lt;pl&gt;$ ^mão&lt;n&gt;&lt;f&gt;&lt;pl&gt;$ 1.0000000
^él&lt;prn&gt;&lt;tn&gt;&lt;p3&gt;&lt;m&gt;&lt;sg&gt;$ ^Agora&lt;adv&gt;$ 0.5000000
^Y&lt;cnjcoo&gt;$ ^Agora&lt;adv&gt;$ 0.5000000
^que&lt;cnjsub&gt;$ ^seu&lt;det&gt;&lt;pos&gt;&lt;m&gt;&lt;sg&gt;$ 1.0000000
^alcanzar&lt;vblex&gt;&lt;pp&gt;&lt;m&gt;&lt;sg&gt;$ ^chegar&lt;vblex&gt;&lt;ifi&gt;&lt;p1&gt;&lt;pl&gt;$ 0.5000000
^haber&lt;vbhaver&gt;&lt;pri&gt;&lt;p1&gt;&lt;pl&gt;$ ^chegar&lt;vblex&gt;&lt;ifi&gt;&lt;p1&gt;&lt;pl&gt;$ 0.5000000
^haber&lt;vbhaver&gt;&lt;pri&gt;&lt;p3&gt;&lt;sg&gt;$ ^recordar&lt;vblex&gt;&lt;pp&gt;&lt;f&gt;&lt;pl&gt;$ 0.5000000
^recordar&lt;vblex&gt;&lt;pp&gt;&lt;m&gt;&lt;sg&gt;$ ^recordar&lt;vblex&gt;&lt;pp&gt;&lt;f&gt;&lt;pl&gt;$ 0.5000000
^tres&lt;num&gt;&lt;mf&gt;&lt;sp&gt;$ ^três&lt;num&gt;&lt;mf&gt;&lt;sp&gt;$ 0.6666667
^el&lt;det&gt;&lt;def&gt;&lt;f&gt;&lt;pl&gt;$ ^três&lt;num&gt;&lt;mf&gt;&lt;sp&gt;$ 0.3333333
^crear&lt;vblex&gt;&lt;pri&gt;&lt;p3&gt;&lt;sg&gt;$ ^proporcionar&lt;vblex&gt;&lt;pri&gt;&lt;p3&gt;&lt;pl&gt;$ 1.0000000
^razonable&lt;adj&gt;&lt;mf&gt;&lt;sg&gt;$ ^razoável&lt;adj&gt;&lt;mf&gt;&lt;sg&gt;$ 1.0000000
^No~obstante&lt;cnjadv&gt;$ ^Fornecer&lt;vblex&gt;&lt;inf&gt;$ 1.0000000
^futuro&lt;n&gt;&lt;m&gt;&lt;sg&gt;$ ^futuro&lt;n&gt;&lt;m&gt;&lt;sg&gt;$ 0.7777778
^idoneidad&lt;n&gt;&lt;f&gt;&lt;sg&gt;$ ^futuro&lt;n&gt;&lt;m&gt;&lt;sg&gt;$ 0.1111111
NULL ^futuro&lt;n&gt;&lt;m&gt;&lt;sg&gt;$ 0.1111111
^riqueza&lt;n&gt;&lt;f&gt;&lt;sg&gt;$ ^riqueza&lt;n&gt;&lt;f&gt;&lt;sg&gt;$ 1.0000000
^si&lt;cnjadv&gt;$ ^trabalhar&lt;vblex&gt;&lt;pri&gt;&lt;p3&gt;&lt;pl&gt;$ 0.5000000
^trabajar&lt;vblex&gt;&lt;pri&gt;&lt;p3&gt;&lt;pl&gt;$ ^trabalhar&lt;vblex&gt;&lt;pri&gt;&lt;p3&gt;&lt;pl&gt;$ 0.5000000
^Entonces&lt;adv&gt;$ ^recusar&lt;vblex&gt;&lt;inf&gt;$ 1.0000000
^El&lt;det&gt;&lt;def&gt;&lt;f&gt;&lt;sg&gt;$ ^eficiência&lt;n&gt;&lt;f&gt;&lt;sg&gt;$ 0.3333333
^eficiencia&lt;n&gt;&lt;f&gt;&lt;sg&gt;$ ^eficiência&lt;n&gt;&lt;f&gt;&lt;sg&gt;$ 0.3333333
^óptimo&lt;adj&gt;&lt;f&gt;&lt;sg&gt;$ ^eficiência&lt;n&gt;&lt;f&gt;&lt;sg&gt;$ 0.3333333
^artículo&lt;n&gt;&lt;m&gt;&lt;pl&gt;$ ^artigo&lt;n&gt;&lt;m&gt;&lt;pl&gt;$ 1.0000000
^considerar&lt;vblex&gt;&lt;inf&gt;$ ^maneira&lt;n&gt;&lt;f&gt;&lt;sg&gt;$ 1.0000000
^El&lt;det&gt;&lt;def&gt;&lt;f&gt;&lt;pl&gt;$ ^Cumprir&lt;vblex&gt;&lt;pri&gt;&lt;p3&gt;&lt;sg&gt;$ 1.0000000
^iniciativa&lt;n&gt;&lt;f&gt;&lt;sg&gt;$ ^iniciativa&lt;n&gt;&lt;f&gt;&lt;sg&gt;$ 0.5000000
^iniciativa&lt;n&gt;&lt;f&gt;&lt;pl&gt;$ ^iniciativa&lt;n&gt;&lt;f&gt;&lt;sg&gt;$ 0.2500000
^emprender&lt;vblex&gt;&lt;pri&gt;&lt;p3&gt;&lt;pl&gt;$ ^iniciativa&lt;n&gt;&lt;f&gt;&lt;sg&gt;$ 0.2500000
^*posteriori$ ^*posteriori$ 1.0000000
^deficiencia&lt;n&gt;&lt;f&gt;&lt;pl&gt;$ ^deficiência&lt;n&gt;&lt;f&gt;&lt;pl&gt;$ 0.5000000
^el&lt;det&gt;&lt;def&gt;&lt;f&gt;&lt;pl&gt;$ ^deficiência&lt;n&gt;&lt;f&gt;&lt;pl&gt;$ 0.5000000
^facultad&lt;n&gt;&lt;f&gt;&lt;pl&gt;$ ^competência&lt;n&gt;&lt;f&gt;&lt;pl&gt;$ 0.6666667
^competencia&lt;n&gt;&lt;f&gt;&lt;pl&gt;$ ^competência&lt;n&gt;&lt;f&gt;&lt;pl&gt;$ 0.3333333
^guardar&lt;vblex&gt;&lt;pri&gt;&lt;p3&gt;&lt;sg&gt;$ ^guarda&lt;n&gt;&lt;mf&gt;&lt;sg&gt;$ 1.0000000
^mencionar&lt;vblex&gt;&lt;ifi&gt;&lt;p3&gt;&lt;pl&gt;$ ^mencionar&lt;vblex&gt;&lt;ifi&gt;&lt;p3&gt;&lt;pl&gt;$ 1.0000000
^incendio&lt;n&gt;&lt;m&gt;&lt;sg&gt;$ ^incêndio&lt;n&gt;&lt;m&gt;&lt;sg&gt;$ 0.6666667
^ni&lt;cnjcoo&gt;$ ^incêndio&lt;n&gt;&lt;m&gt;&lt;sg&gt;$ 0.3333333
^justificar&lt;vblex&gt;&lt;inf&gt;$ ^justificar&lt;vblex&gt;&lt;inf&gt;$ 0.5000000
^para&lt;pr&gt;$ ^justificar&lt;vblex&gt;&lt;inf&gt;$ 0.2500000
^lo&lt;prn&gt;&lt;enc&gt;&lt;p3&gt;&lt;f&gt;&lt;sg&gt;$ ^justificar&lt;vblex&gt;&lt;inf&gt;$ 0.2500000
^se&lt;prn&gt;&lt;pro&gt;&lt;ref&gt;&lt;p3&gt;&lt;mf&gt;&lt;sp&gt;$ ^*apreço$ 0.5000000
^someter&lt;vblex&gt;&lt;pri&gt;&lt;p3&gt;&lt;sg&gt;$ ^*apreço$ 0.5000000
^planificación&lt;n&gt;&lt;f&gt;&lt;sg&gt;$ ^planeamento&lt;n&gt;&lt;m&gt;&lt;sg&gt;$ 0.5000000
^planificar&lt;vblex&gt;&lt;inf&gt;$ ^planeamento&lt;n&gt;&lt;m&gt;&lt;sg&gt;$ 0.5000000
^recordar&lt;vblex&gt;&lt;inf&gt;$ ^presente~a&lt;pr&gt;$ 0.5000000
^también&lt;adv&gt;$ ^presente~a&lt;pr&gt;$ 0.5000000
^representante&lt;n&gt;&lt;mf&gt;&lt;pl&gt;$ ^representante&lt;n&gt;&lt;mf&gt;&lt;pl&gt;$ 1.0000000
^En&lt;pr&gt;$ ^Este&lt;prn&gt;&lt;tn&gt;&lt;f&gt;&lt;sg&gt;$ 1.0000000
^*Kumar$ ^*Kumar$ 1.0000000
^diversificar&lt;vblex&gt;&lt;pp&gt;&lt;f&gt;&lt;sg&gt;$ ^diversificar&lt;vblex&gt;&lt;pp&gt;&lt;f&gt;&lt;sg&gt;$ 1.0000000
^dar&lt;vblex&gt;&lt;inf&gt;$ ^permitir&lt;vblex&gt;&lt;pp&gt;&lt;m&gt;&lt;sg&gt;$ 0.2500000
^permitir&lt;vblex&gt;&lt;imp&gt;&lt;p3&gt;&lt;sg&gt;$ ^permitir&lt;vblex&gt;&lt;pp&gt;&lt;m&gt;&lt;sg&gt;$ 0.2500000
^permitir&lt;vblex&gt;&lt;pis&gt;&lt;p3&gt;&lt;sg&gt;$ ^permitir&lt;vblex&gt;&lt;pp&gt;&lt;m&gt;&lt;sg&gt;$ 0.2500000
^le&lt;prn&gt;&lt;enc&gt;&lt;p3&gt;&lt;mf&gt;&lt;sg&gt;$ ^permitir&lt;vblex&gt;&lt;pp&gt;&lt;m&gt;&lt;sg&gt;$ 0.2500000
^primero&lt;adj&gt;&lt;f&gt;&lt;sg&gt;$ ^primeiro&lt;adj&gt;&lt;f&gt;&lt;sg&gt;$ 0.3333333
^contener&lt;vblex&gt;&lt;pp&gt;&lt;f&gt;&lt;sg&gt;$ ^primeiro&lt;adj&gt;&lt;f&gt;&lt;sg&gt;$ 0.1666667
^propuesta&lt;n&gt;&lt;f&gt;&lt;sg&gt;$ ^primeiro&lt;adj&gt;&lt;f&gt;&lt;sg&gt;$ 0.1666667
^el&lt;det&gt;&lt;def&gt;&lt;m&gt;&lt;sg&gt;$ ^primeiro&lt;adj&gt;&lt;f&gt;&lt;sg&gt;$ 0.1666667
^en&lt;pr&gt;$ ^primeiro&lt;adj&gt;&lt;f&gt;&lt;sg&gt;$ 0.1666667
^gente&lt;n&gt;&lt;f&gt;&lt;sg&gt;$ ^votar&lt;vblex&gt;&lt;ger&gt;$ 0.5000000
^votar&lt;vblex&gt;&lt;ger&gt;$ ^votar&lt;vblex&gt;&lt;ger&gt;$ 0.5000000
^es~decir&lt;adv&gt;$ ^4%&lt;num&gt;&lt;percent&gt;$ 1.0000000
^consecución&lt;n&gt;&lt;f&gt;&lt;sg&gt;$ ^avaliar&lt;vblex&gt;&lt;fts&gt;&lt;p1&gt;&lt;pl&gt;$ 0.3333333
^el&lt;det&gt;&lt;def&gt;&lt;f&gt;&lt;sg&gt;$ ^avaliar&lt;vblex&gt;&lt;fts&gt;&lt;p1&gt;&lt;pl&gt;$ 0.3333333
^evaluar&lt;vblex&gt;&lt;inf&gt;$ ^avaliar&lt;vblex&gt;&lt;fts&gt;&lt;p1&gt;&lt;pl&gt;$ 0.3333333
^sensible&lt;adj&gt;&lt;mf&gt;&lt;pl&gt;$ ^esse&lt;det&gt;&lt;dem&gt;&lt;f&gt;&lt;sg&gt;$ 0.0476190
^Suyo&lt;det&gt;&lt;pos&gt;&lt;mf&gt;&lt;sg&gt;$ ^esse&lt;det&gt;&lt;dem&gt;&lt;f&gt;&lt;sg&gt;$ 0.0476190
^fuerte&lt;adj&gt;&lt;mf&gt;&lt;sg&gt;$ ^esse&lt;det&gt;&lt;dem&gt;&lt;f&gt;&lt;sg&gt;$ 0.0476190
^ese&lt;det&gt;&lt;dem&gt;&lt;f&gt;&lt;sg&gt;$ ^esse&lt;det&gt;&lt;dem&gt;&lt;f&gt;&lt;sg&gt;$ 0.1904762
^Por~consiguiente&lt;cnjadv&gt;$ ^esse&lt;det&gt;&lt;dem&gt;&lt;f&gt;&lt;sg&gt;$ 0.0476190
NULL ^esse&lt;det&gt;&lt;dem&gt;&lt;f&gt;&lt;sg&gt;$ 0.0952381
^tema&lt;n&gt;&lt;m&gt;&lt;sg&gt;$ ^esse&lt;det&gt;&lt;dem&gt;&lt;f&gt;&lt;sg&gt;$ 0.0476190
^concepto&lt;n&gt;&lt;m&gt;&lt;sg&gt;$ ^esse&lt;det&gt;&lt;dem&gt;&lt;f&gt;&lt;sg&gt;$ 0.0476190
^incluir&lt;vblex&gt;&lt;inf&gt;$ ^esse&lt;det&gt;&lt;dem&gt;&lt;f&gt;&lt;sg&gt;$ 0.0476190
^lo&lt;prn&gt;&lt;enc&gt;&lt;p3&gt;&lt;f&gt;&lt;pl&gt;$ ^esse&lt;det&gt;&lt;dem&gt;&lt;f&gt;&lt;sg&gt;$ 0.0476190
^uno&lt;det&gt;&lt;ind&gt;&lt;m&gt;&lt;sg&gt;$ ^esse&lt;det&gt;&lt;dem&gt;&lt;f&gt;&lt;sg&gt;$ 0.0952381
^este&lt;det&gt;&lt;dem&gt;&lt;m&gt;&lt;sg&gt;$ ^esse&lt;det&gt;&lt;dem&gt;&lt;f&gt;&lt;sg&gt;$ 0.2380952
^seno&lt;n&gt;&lt;m&gt;&lt;sg&gt;$ ^interior&lt;n&gt;&lt;m&gt;&lt;sg&gt;$ 0.5000000
^dentro&lt;adv&gt;$ ^interior&lt;n&gt;&lt;m&gt;&lt;sg&gt;$ 0.5000000
^y&lt;cnjcoo&gt;$ ^via&lt;n&gt;&lt;f&gt;&lt;sg&gt;$ 0.2000000
^camino&lt;n&gt;&lt;m&gt;&lt;sg&gt;$ ^via&lt;n&gt;&lt;f&gt;&lt;sg&gt;$ 0.2000000
^*fluviales$ ^via&lt;n&gt;&lt;f&gt;&lt;sg&gt;$ 0.2000000
^mar.&lt;n&gt;&lt;m&gt;&lt;sg&gt;$ ^via&lt;n&gt;&lt;f&gt;&lt;sg&gt;$ 0.2000000
^vía&lt;n&gt;&lt;f&gt;&lt;sg&gt;$ ^via&lt;n&gt;&lt;f&gt;&lt;sg&gt;$ 0.2000000
^familiarizar&lt;vblex&gt;&lt;pp&gt;&lt;m&gt;&lt;sg&gt;$ ^familiarizar&lt;vblex&gt;&lt;ifi&gt;&lt;p3&gt;&lt;pl&gt;$ 1.0000000
^requerir&lt;vblex&gt;&lt;pri&gt;&lt;p3&gt;&lt;sg&gt;$ ^requerer&lt;vblex&gt;&lt;pri&gt;&lt;p3&gt;&lt;sg&gt;$ 0.3333333
^uno&lt;det&gt;&lt;ind&gt;&lt;f&gt;&lt;sg&gt;$ ^requerer&lt;vblex&gt;&lt;pri&gt;&lt;p3&gt;&lt;sg&gt;$ 0.3333333
^pedir&lt;vblex&gt;&lt;ger&gt;$ ^requerer&lt;vblex&gt;&lt;pri&gt;&lt;p3&gt;&lt;sg&gt;$ 0.3333333
^Tristemente&lt;adv&gt;$ ^traduzir&lt;vblex&gt;&lt;pri&gt;&lt;p3&gt;&lt;sg&gt;$ 1.0000000
^Le&lt;prn&gt;&lt;pro&gt;&lt;p3&gt;&lt;mf&gt;&lt;sg&gt;$ ^Solicitar&lt;vblex&gt;&lt;inf&gt;$ 0.5000000
^agradecer&lt;vblex&gt;&lt;cni&gt;&lt;p3&gt;&lt;sg&gt;$ ^Solicitar&lt;vblex&gt;&lt;inf&gt;$ 0.5000000
^a&lt;pr&gt;$ ^conduzir&lt;vblex&gt;&lt;pri&gt;&lt;p3&gt;&lt;sg&gt;$ 0.3333333
^conducir&lt;vblex&gt;&lt;pri&gt;&lt;p3&gt;&lt;sg&gt;$ ^conduzir&lt;vblex&gt;&lt;pri&gt;&lt;p3&gt;&lt;sg&gt;$ 0.6666667
^Asamblea&lt;n&gt;&lt;f&gt;&lt;sg&gt;$ ^assembleia&lt;n&gt;&lt;f&gt;&lt;sg&gt;$ 0.5714286
NULL ^assembleia&lt;n&gt;&lt;f&gt;&lt;sg&gt;$ 0.1428571
^Cámara&lt;n&gt;&lt;f&gt;&lt;sg&gt;$ ^assembleia&lt;n&gt;&lt;f&gt;&lt;sg&gt;$ 0.1428571
^inmenso&lt;adj&gt;&lt;f&gt;&lt;sg&gt;$ ^assembleia&lt;n&gt;&lt;f&gt;&lt;sg&gt;$ 0.1428571
^proporcionar&lt;vblex&gt;&lt;pri&gt;&lt;p3&gt;&lt;pl&gt;$ ^fornecer&lt;vblex&gt;&lt;pp&gt;&lt;m&gt;&lt;pl&gt;$ 0.5000000
^proporcionar&lt;vblex&gt;&lt;pp&gt;&lt;m&gt;&lt;pl&gt;$ ^fornecer&lt;vblex&gt;&lt;pp&gt;&lt;m&gt;&lt;pl&gt;$ 0.5000000
^Cuando&lt;rel&gt;&lt;adv&gt;$ ^Sempre~que&lt;cnjadv&gt;$ 1.0000000
^pedir&lt;vblex&gt;&lt;prs&gt;&lt;p3&gt;&lt;sg&gt;$ ^peça&lt;n&gt;&lt;f&gt;&lt;sg&gt;$ 0.5000000
^exigencia&lt;n&gt;&lt;f&gt;&lt;sg&gt;$ ^peça&lt;n&gt;&lt;f&gt;&lt;sg&gt;$ 0.5000000
^*Hänsch$ ^Senhor&lt;n&gt;&lt;m&gt;&lt;sg&gt;$ 0.0322581
^formular&lt;vblex&gt;&lt;pri&gt;&lt;p3&gt;&lt;sg&gt;$ ^Senhor&lt;n&gt;&lt;m&gt;&lt;sg&gt;$ 0.0161290
NULL ^Senhor&lt;n&gt;&lt;m&gt;&lt;sg&gt;$ 0.0322581
^*Berend$ ^Senhor&lt;n&gt;&lt;m&gt;&lt;sg&gt;$ 0.0161290
^estimar&lt;vblex&gt;&lt;pp&gt;&lt;m&gt;&lt;sg&gt;$ ^Senhor&lt;n&gt;&lt;m&gt;&lt;sg&gt;$ 0.0161290
^recordar&lt;vblex&gt;&lt;pri&gt;&lt;p1&gt;&lt;sg&gt;$ ^Senhor&lt;n&gt;&lt;m&gt;&lt;sg&gt;$ 0.0161290
^Comisario&lt;n&gt;&lt;m&gt;&lt;sg&gt;$ ^Senhor&lt;n&gt;&lt;m&gt;&lt;sg&gt;$ 0.0322581
^.&lt;sent&gt;$ ^Senhor&lt;n&gt;&lt;m&gt;&lt;sg&gt;$ 0.0161290
^señor&lt;n&gt;&lt;m&gt;&lt;sg&gt;$ ^Senhor&lt;n&gt;&lt;m&gt;&lt;sg&gt;$ 0.3548387
^Señor&lt;n&gt;&lt;m&gt;&lt;sg&gt;$ ^Senhor&lt;n&gt;&lt;m&gt;&lt;sg&gt;$ 0.4677419
^*Plooij$ ^*Plooij$ 0.5000000
^ir&lt;vblex&gt;&lt;pri&gt;&lt;p3&gt;&lt;pl&gt;$ ^*Plooij$ 0.5000000
^se&lt;prn&gt;&lt;pro&gt;&lt;ref&gt;&lt;p3&gt;&lt;mf&gt;&lt;sp&gt;$ ^*vergue$ 0.5000000
^*dobleguen$ ^*vergue$ 0.5000000
^cierto&lt;adj&gt;&lt;m&gt;&lt;sg&gt;$ ^Orar&lt;vblex&gt;&lt;pri&gt;&lt;p3&gt;&lt;sg&gt;$ 0.3333333
^Ser&lt;vbser&gt;&lt;pri&gt;&lt;p3&gt;&lt;sg&gt;$ ^Orar&lt;vblex&gt;&lt;pri&gt;&lt;p3&gt;&lt;sg&gt;$ 0.3333333
^que&lt;rel&gt;&lt;an&gt;&lt;mf&gt;&lt;sp&gt;$ ^Orar&lt;vblex&gt;&lt;pri&gt;&lt;p3&gt;&lt;sg&gt;$ 0.3333333
^mercancía&lt;n&gt;&lt;f&gt;&lt;pl&gt;$ ^risco&lt;n&gt;&lt;m&gt;&lt;sg&gt;$ 0.5000000
^riesgo&lt;n&gt;&lt;m&gt;&lt;sg&gt;$ ^risco&lt;n&gt;&lt;m&gt;&lt;sg&gt;$ 0.5000000
^Internet&lt;n&gt;&lt;f&gt;&lt;sg&gt;$ ^Internet&lt;n&gt;&lt;f&gt;&lt;sg&gt;$ 1.0000000
^desprender&lt;vblex&gt;&lt;pri&gt;&lt;p3&gt;&lt;sg&gt;$ ^inferir&lt;vblex&gt;&lt;pri&gt;&lt;p3&gt;&lt;sg&gt;$ 1.0000000
^incompatible&lt;adj&gt;&lt;mf&gt;&lt;pl&gt;$ ^incompatível&lt;adj&gt;&lt;mf&gt;&lt;pl&gt;$ 0.3333333
^principio&lt;n&gt;&lt;m&gt;&lt;sg&gt;$ ^incompatível&lt;adj&gt;&lt;mf&gt;&lt;pl&gt;$ 0.3333333
^por&lt;pr&gt;$ ^incompatível&lt;adj&gt;&lt;mf&gt;&lt;pl&gt;$ 0.3333333
^el&lt;det&gt;&lt;def&gt;&lt;m&gt;&lt;sg&gt;$ ^o~vosso&lt;prn&gt;&lt;tn&gt;&lt;pos&gt;&lt;m&gt;&lt;sg&gt;$ 1.0000000
^ciudadano&lt;n&gt;&lt;m&gt;&lt;sg&gt;$ ^cidadão&lt;n&gt;&lt;m&gt;&lt;sg&gt;$ 1.0000000
^Eso&lt;prn&gt;&lt;tn&gt;&lt;nt&gt;$ ^SER&lt;vbser&gt;&lt;pri&gt;&lt;p3&gt;&lt;sg&gt;$ 0.0454545
NULL ^SER&lt;vbser&gt;&lt;pri&gt;&lt;p3&gt;&lt;sg&gt;$ 0.1363636
^que&lt;rel&gt;&lt;an&gt;&lt;mf&gt;&lt;sp&gt;$ ^SER&lt;vbser&gt;&lt;pri&gt;&lt;p3&gt;&lt;sg&gt;$ 0.0454545
^Primero&lt;adv&gt;$ ^SER&lt;vbser&gt;&lt;pri&gt;&lt;p3&gt;&lt;sg&gt;$ 0.0454545
^Ser&lt;vbser&gt;&lt;pri&gt;&lt;p3&gt;&lt;sg&gt;$ ^SER&lt;vbser&gt;&lt;pri&gt;&lt;p3&gt;&lt;sg&gt;$ 0.2727273
^dar&lt;vblex&gt;&lt;pri&gt;&lt;p1&gt;&lt;sg&gt;$ ^SER&lt;vbser&gt;&lt;pri&gt;&lt;p3&gt;&lt;sg&gt;$ 0.0454545
^Hay&lt;vblex&gt;&lt;pri&gt;&lt;p3&gt;&lt;sg&gt;$ ^SER&lt;vbser&gt;&lt;pri&gt;&lt;p3&gt;&lt;sg&gt;$ 0.0909091
^Lo&lt;detnt&gt;$ ^SER&lt;vbser&gt;&lt;pri&gt;&lt;p3&gt;&lt;sg&gt;$ 0.0454545
^En&lt;pr&gt;$ ^SER&lt;vbser&gt;&lt;pri&gt;&lt;p3&gt;&lt;sg&gt;$ 0.1363636
^También&lt;adv&gt;$ ^SER&lt;vbser&gt;&lt;pri&gt;&lt;p3&gt;&lt;sg&gt;$ 0.0454545
^Se&lt;prn&gt;&lt;pro&gt;&lt;ref&gt;&lt;p3&gt;&lt;mf&gt;&lt;sp&gt;$ ^SER&lt;vbser&gt;&lt;pri&gt;&lt;p3&gt;&lt;sg&gt;$ 0.0454545
^Bien&lt;adv&gt;$ ^SER&lt;vbser&gt;&lt;pri&gt;&lt;p3&gt;&lt;sg&gt;$ 0.0454545
^uno&lt;det&gt;&lt;ind&gt;&lt;m&gt;&lt;sg&gt;$ ^momento&lt;n&gt;&lt;m&gt;&lt;pl&gt;$ 0.5000000
^momento&lt;n&gt;&lt;m&gt;&lt;sg&gt;$ ^momento&lt;n&gt;&lt;m&gt;&lt;pl&gt;$ 0.5000000
^recordar&lt;vblex&gt;&lt;pri&gt;&lt;p1&gt;&lt;sg&gt;$ ^preciso&lt;adj&gt;&lt;m&gt;&lt;sg&gt;$ 0.1000000
^revisar&lt;vblex&gt;&lt;inf&gt;$ ^preciso&lt;adj&gt;&lt;m&gt;&lt;sg&gt;$ 0.1000000
^tener&lt;vblex&gt;&lt;pri&gt;&lt;p3&gt;&lt;sg&gt;$ ^preciso&lt;adj&gt;&lt;m&gt;&lt;sg&gt;$ 0.1000000
^que&lt;cnjsub&gt;$ ^preciso&lt;adj&gt;&lt;m&gt;&lt;sg&gt;$ 0.4000000
^Hay&lt;vblex&gt;&lt;pri&gt;&lt;p3&gt;&lt;sg&gt;$ ^preciso&lt;adj&gt;&lt;m&gt;&lt;sg&gt;$ 0.1000000
NULL ^preciso&lt;adj&gt;&lt;m&gt;&lt;sg&gt;$ 0.2000000
NULL ^*rodoviário$ 0.5000000
^por&lt;pr&gt;$ ^*rodoviário$ 0.5000000
NULL ^atenção&lt;n&gt;&lt;f&gt;&lt;sg&gt;$ 0.1875000
^plano&lt;adj&gt;&lt;m&gt;&lt;sg&gt;$ ^atenção&lt;n&gt;&lt;f&gt;&lt;sg&gt;$ 0.0625000
^centrar&lt;vblex&gt;&lt;prs&gt;&lt;p1&gt;&lt;pl&gt;$ ^atenção&lt;n&gt;&lt;f&gt;&lt;sg&gt;$ 0.0625000
^uno&lt;det&gt;&lt;ind&gt;&lt;f&gt;&lt;sg&gt;$ ^atenção&lt;n&gt;&lt;f&gt;&lt;sg&gt;$ 0.0625000
^contemplar&lt;vblex&gt;&lt;inf&gt;$ ^atenção&lt;n&gt;&lt;f&gt;&lt;sg&gt;$ 0.0625000
^que&lt;cnjsub&gt;$ ^atenção&lt;n&gt;&lt;f&gt;&lt;sg&gt;$ 0.0625000
^atención&lt;n&gt;&lt;f&gt;&lt;sg&gt;$ ^atenção&lt;n&gt;&lt;f&gt;&lt;sg&gt;$ 0.5000000
^*legitimados$ ^*legitimados$ 1.0000000
^ser&lt;vbser&gt;&lt;pri&gt;&lt;p3&gt;&lt;sg&gt;$ ^alerta&lt;adv&gt;$ 1.0000000
^elaboración&lt;n&gt;&lt;f&gt;&lt;sg&gt;$ ^plano&lt;n&gt;&lt;m&gt;&lt;pl&gt;$ 0.3333333
^encargar&lt;vblex&gt;&lt;pri&gt;&lt;p3&gt;&lt;sg&gt;$ ^plano&lt;n&gt;&lt;m&gt;&lt;pl&gt;$ 0.3333333
^el&lt;det&gt;&lt;def&gt;&lt;f&gt;&lt;sg&gt;$ ^plano&lt;n&gt;&lt;m&gt;&lt;pl&gt;$ 0.3333333
^estructural&lt;adj&gt;&lt;mf&gt;&lt;sg&gt;$ ^estrutural&lt;adj&gt;&lt;mf&gt;&lt;sg&gt;$ 1.0000000
^Asia&lt;np&gt;&lt;loc&gt;&lt;f&gt;&lt;sg&gt;$ ^Ásia&lt;np&gt;&lt;loc&gt;&lt;f&gt;&lt;sg&gt;$ 1.0000000
^obligar&lt;vblex&gt;&lt;pri&gt;&lt;p3&gt;&lt;sg&gt;$ ^obrigar&lt;vblex&gt;&lt;pri&gt;&lt;p3&gt;&lt;sg&gt;$ 0.5000000
^a&lt;pr&gt;$ ^obrigar&lt;vblex&gt;&lt;pri&gt;&lt;p3&gt;&lt;sg&gt;$ 0.5000000
^Suyo&lt;det&gt;&lt;pos&gt;&lt;mf&gt;&lt;sg&gt;$ ^*Dir$ 0.5000000
^*Señoría$ ^*Dir$ 0.5000000
^deber&lt;vbmod&gt;&lt;cni&gt;&lt;p3&gt;&lt;sg&gt;$ ^dever&lt;vbmod&gt;&lt;cni&gt;&lt;p1&gt;&lt;sg&gt;$ 0.2500000
^deber&lt;vbmod&gt;&lt;pri&gt;&lt;p3&gt;&lt;sg&gt;$ ^dever&lt;vbmod&gt;&lt;cni&gt;&lt;p1&gt;&lt;sg&gt;$ 0.5000000
NULL ^dever&lt;vbmod&gt;&lt;cni&gt;&lt;p1&gt;&lt;sg&gt;$ 0.2500000
^forma&lt;n&gt;&lt;f&gt;&lt;pl&gt;$ ^diferente&lt;adj&gt;&lt;mf&gt;&lt;pl&gt;$ 0.3333333
^sí&lt;prn&gt;&lt;tn&gt;&lt;ref&gt;&lt;p3&gt;&lt;mf&gt;&lt;sp&gt;$ ^diferente&lt;adj&gt;&lt;mf&gt;&lt;pl&gt;$ 0.3333333
^diferente&lt;adj&gt;&lt;mf&gt;&lt;pl&gt;$ ^diferente&lt;adj&gt;&lt;mf&gt;&lt;pl&gt;$ 0.3333333
^analizar&lt;vblex&gt;&lt;inf&gt;$ ^analisar&lt;vblex&gt;&lt;inf&gt;$ 0.5000000
^tratar&lt;vblex&gt;&lt;ger&gt;$ ^analisar&lt;vblex&gt;&lt;inf&gt;$ 0.5000000
^disparidad&lt;n&gt;&lt;f&gt;&lt;sg&gt;$ ^*disparidade$ 1.0000000
^así~como&lt;cnjadv&gt;$ ^o&lt;prn&gt;&lt;pro&gt;&lt;p3&gt;&lt;nt&gt;$ 0.1111111
^saber&lt;vblex&gt;&lt;pri&gt;&lt;p1&gt;&lt;pl&gt;$ ^o&lt;prn&gt;&lt;pro&gt;&lt;p3&gt;&lt;nt&gt;$ 0.1111111
^leer&lt;vblex&gt;&lt;imp&gt;&lt;p3&gt;&lt;sg&gt;$ ^o&lt;prn&gt;&lt;pro&gt;&lt;p3&gt;&lt;nt&gt;$ 0.1111111
^en&lt;pr&gt;$ ^o&lt;prn&gt;&lt;pro&gt;&lt;p3&gt;&lt;nt&gt;$ 0.1111111
NULL ^o&lt;prn&gt;&lt;pro&gt;&lt;p3&gt;&lt;nt&gt;$ 0.1111111
^usted&lt;prn&gt;&lt;tn&gt;&lt;p3&gt;&lt;mf&gt;&lt;sg&gt;$ ^o&lt;prn&gt;&lt;pro&gt;&lt;p3&gt;&lt;nt&gt;$ 0.1111111
^*objeción$ ^o&lt;prn&gt;&lt;pro&gt;&lt;p3&gt;&lt;nt&gt;$ 0.1111111
^lo&lt;prn&gt;&lt;pro&gt;&lt;p3&gt;&lt;nt&gt;$ ^o&lt;prn&gt;&lt;pro&gt;&lt;p3&gt;&lt;nt&gt;$ 0.1111111
^*Wogau$ ^o&lt;prn&gt;&lt;pro&gt;&lt;p3&gt;&lt;nt&gt;$ 0.1111111
^asesinato&lt;n&gt;&lt;m&gt;&lt;pl&gt;$ ^*assassínios$ 1.0000000
^el&lt;det&gt;&lt;def&gt;&lt;f&gt;&lt;sg&gt;$ ^ser&lt;vbser&gt;&lt;cni&gt;&lt;p1&gt;&lt;sg&gt;$ 0.2000000
^;&lt;sent&gt;$ ^ser&lt;vbser&gt;&lt;cni&gt;&lt;p1&gt;&lt;sg&gt;$ 0.2000000
^ser&lt;vbser&gt;&lt;cni&gt;&lt;p3&gt;&lt;sg&gt;$ ^ser&lt;vbser&gt;&lt;cni&gt;&lt;p1&gt;&lt;sg&gt;$ 0.4000000
^necesidad&lt;n&gt;&lt;f&gt;&lt;sg&gt;$ ^ser&lt;vbser&gt;&lt;cni&gt;&lt;p1&gt;&lt;sg&gt;$ 0.2000000
^eficacia&lt;n&gt;&lt;f&gt;&lt;sg&gt;$ ^eficácia&lt;n&gt;&lt;f&gt;&lt;sg&gt;$ 0.6666667
^efecto&lt;n&gt;&lt;m&gt;&lt;sg&gt;$ ^eficácia&lt;n&gt;&lt;f&gt;&lt;sg&gt;$ 0.3333333
^afectar&lt;vblex&gt;&lt;pp&gt;&lt;f&gt;&lt;pl&gt;$ ^praticamente&lt;adv&gt;$ 0.3333333
^se&lt;prn&gt;&lt;pro&gt;&lt;ref&gt;&lt;p3&gt;&lt;mf&gt;&lt;sp&gt;$ ^praticamente&lt;adv&gt;$ 0.6666667
^supuestamente&lt;adv&gt;$ ^pretensamente&lt;adv&gt;$ 1.0000000
^*Fund$ ^*Fund$ 1.0000000
^Finalmente&lt;adv&gt;$ ^Finalmente&lt;adv&gt;$ 0.2000000
^Por&lt;pr&gt;$ ^Finalmente&lt;adv&gt;$ 0.4000000
^último&lt;adj&gt;&lt;m&gt;&lt;sg&gt;$ ^Finalmente&lt;adv&gt;$ 0.4000000
^perfeccionamiento&lt;n&gt;&lt;m&gt;&lt;sg&gt;$ ^formação&lt;n&gt;&lt;f&gt;&lt;sg&gt;$ 0.3333333
^formación&lt;n&gt;&lt;f&gt;&lt;sg&gt;$ ^formação&lt;n&gt;&lt;f&gt;&lt;sg&gt;$ 0.6666667
^breve&lt;adj&gt;&lt;mf&gt;&lt;pl&gt;$ ^breve&lt;adj&gt;&lt;mf&gt;&lt;pl&gt;$ 1.0000000
^positivo&lt;adj&gt;&lt;m&gt;&lt;sg&gt;$ ^positivo&lt;adj&gt;&lt;f&gt;&lt;sg&gt;$ 0.5000000
^positivo&lt;adj&gt;&lt;f&gt;&lt;sg&gt;$ ^positivo&lt;adj&gt;&lt;f&gt;&lt;sg&gt;$ 0.5000000
^participar&lt;vblex&gt;&lt;imp&gt;&lt;p3&gt;&lt;pl&gt;$ ^participar&lt;vblex&gt;&lt;prs&gt;&lt;p3&gt;&lt;pl&gt;$ 0.3333333
^participar&lt;vblex&gt;&lt;inf&gt;$ ^participar&lt;vblex&gt;&lt;prs&gt;&lt;p3&gt;&lt;pl&gt;$ 0.3333333
^tener&lt;vblex&gt;&lt;pri&gt;&lt;p3&gt;&lt;pl&gt;$ ^participar&lt;vblex&gt;&lt;prs&gt;&lt;p3&gt;&lt;pl&gt;$ 0.3333333
^*arduo$ ^*árduo$ 1.0000000
^tiempo&lt;n&gt;&lt;m&gt;&lt;sg&gt;$ ^tempo&lt;n&gt;&lt;m&gt;&lt;sg&gt;$ 1.0000000
^dar&lt;vblex&gt;&lt;pri&gt;&lt;p3&gt;&lt;sg&gt;$ ^vantagem&lt;n&gt;&lt;f&gt;&lt;sg&gt;$ 1.0000000
^en~gran~medida&lt;adv&gt;$ ^amplamente&lt;adv&gt;$ 1.0000000
^brevemente&lt;adv&gt;$ ^palavra&lt;n&gt;&lt;f&gt;&lt;pl&gt;$ 0.2000000
^palabra&lt;n&gt;&lt;f&gt;&lt;pl&gt;$ ^palavra&lt;n&gt;&lt;f&gt;&lt;pl&gt;$ 0.6000000
^el&lt;det&gt;&lt;def&gt;&lt;f&gt;&lt;pl&gt;$ ^palavra&lt;n&gt;&lt;f&gt;&lt;pl&gt;$ 0.2000000
^Pescar&lt;vblex&gt;&lt;pri&gt;&lt;p3&gt;&lt;sg&gt;$ ^Pescar&lt;vblex&gt;&lt;pri&gt;&lt;p2&gt;&lt;sg&gt;$ 1.0000000
^mayoritariamente&lt;adv&gt;$ ^maioritariamente&lt;adv&gt;$ 1.0000000
NULL ^o&lt;prn&gt;&lt;enc&gt;&lt;p3&gt;&lt;m&gt;&lt;pl&gt;$ 0.2500000
^todo&lt;predet&gt;&lt;m&gt;&lt;pl&gt;$ ^o&lt;prn&gt;&lt;enc&gt;&lt;p3&gt;&lt;m&gt;&lt;pl&gt;$ 0.2500000
^a&lt;pr&gt;$ ^o&lt;prn&gt;&lt;enc&gt;&lt;p3&gt;&lt;m&gt;&lt;pl&gt;$ 0.2500000
^Invitar&lt;vblex&gt;&lt;pri&gt;&lt;p1&gt;&lt;sg&gt;$ ^o&lt;prn&gt;&lt;enc&gt;&lt;p3&gt;&lt;m&gt;&lt;pl&gt;$ 0.2500000
^capa&lt;n&gt;&lt;f&gt;&lt;pl&gt;$ ^adicional&lt;adj&gt;&lt;mf&gt;&lt;sg&gt;$ 1.0000000
^lectura&lt;n&gt;&lt;f&gt;&lt;sg&gt;$ ^leitura&lt;n&gt;&lt;f&gt;&lt;sg&gt;$ 0.5000000
^elaboración&lt;n&gt;&lt;f&gt;&lt;sg&gt;$ ^leitura&lt;n&gt;&lt;f&gt;&lt;sg&gt;$ 0.5000000
^contrariamente&lt;adv&gt;$ ^contrariamente&lt;adv&gt;$ 1.0000000
^emprendedor&lt;n&gt;&lt;m&gt;&lt;sg&gt;$ ^empreendedor&lt;n&gt;&lt;m&gt;&lt;sg&gt;$ 1.0000000
^práctico&lt;adj&gt;&lt;f&gt;&lt;sg&gt;$ ^elaboração&lt;n&gt;&lt;f&gt;&lt;sg&gt;$ 0.2000000
^este&lt;det&gt;&lt;dem&gt;&lt;m&gt;&lt;sg&gt;$ ^elaboração&lt;n&gt;&lt;f&gt;&lt;sg&gt;$ 0.2000000
^elaboración&lt;n&gt;&lt;f&gt;&lt;sg&gt;$ ^elaboração&lt;n&gt;&lt;f&gt;&lt;sg&gt;$ 0.6000000
^unir&lt;vblex&gt;&lt;pp&gt;&lt;m&gt;&lt;sg&gt;$ ^aliado&lt;n&gt;&lt;m&gt;&lt;sg&gt;$ 0.5000000
^a&lt;pr&gt;$ ^aliado&lt;n&gt;&lt;m&gt;&lt;sg&gt;$ 0.5000000
^preciso&lt;adj&gt;&lt;m&gt;&lt;sg&gt;$ ^ter#~de&lt;vblex&gt;&lt;pri&gt;&lt;p1&gt;&lt;pl&gt;$ 0.3333333
^ser&lt;vbser&gt;&lt;pri&gt;&lt;p3&gt;&lt;sg&gt;$ ^ter#~de&lt;vblex&gt;&lt;pri&gt;&lt;p1&gt;&lt;pl&gt;$ 0.3333333
^reaccionar&lt;vblex&gt;&lt;inf&gt;$ ^ter#~de&lt;vblex&gt;&lt;pri&gt;&lt;p1&gt;&lt;pl&gt;$ 0.3333333
^y&lt;cnjcoo&gt;$ ^assinar&lt;vblex&gt;&lt;pp&gt;&lt;m&gt;&lt;sg&gt;$ 0.5000000
^firmar&lt;vblex&gt;&lt;pp&gt;&lt;m&gt;&lt;sg&gt;$ ^assinar&lt;vblex&gt;&lt;pp&gt;&lt;m&gt;&lt;sg&gt;$ 0.5000000
^controlar&lt;vblex&gt;&lt;inf&gt;$ ^controlar&lt;vblex&gt;&lt;inf&gt;$ 1.0000000
^tener&lt;vblex&gt;&lt;cni&gt;&lt;p3&gt;&lt;pl&gt;$ ^existir&lt;vblex&gt;&lt;pri&gt;&lt;p3&gt;&lt;sg&gt;$ 0.2500000
^existir&lt;vblex&gt;&lt;pri&gt;&lt;p3&gt;&lt;sg&gt;$ ^existir&lt;vblex&gt;&lt;pri&gt;&lt;p3&gt;&lt;sg&gt;$ 0.2500000
^ser&lt;vbser&gt;&lt;pri&gt;&lt;p3&gt;&lt;sg&gt;$ ^existir&lt;vblex&gt;&lt;pri&gt;&lt;p3&gt;&lt;sg&gt;$ 0.2500000
^se&lt;prn&gt;&lt;pro&gt;&lt;ref&gt;&lt;p3&gt;&lt;mf&gt;&lt;sp&gt;$ ^existir&lt;vblex&gt;&lt;pri&gt;&lt;p3&gt;&lt;sg&gt;$ 0.2500000
^muy&lt;preadv&gt;$ ^bastante&lt;adj&gt;&lt;mf&gt;&lt;sg&gt;$ 1.0000000
^éste&lt;prn&gt;&lt;tn&gt;&lt;m&gt;&lt;sg&gt;$ ^residir&lt;vblex&gt;&lt;pri&gt;&lt;p3&gt;&lt;sg&gt;$ 1.0000000
^llevar&lt;vblex&gt;&lt;cni&gt;&lt;p3&gt;&lt;pl&gt;$ ^levar&lt;vblex&gt;&lt;cni&gt;&lt;p3&gt;&lt;pl&gt;$ 1.0000000
^*Petersen$ ^insistir&lt;vblex&gt;&lt;ifi&gt;&lt;p3&gt;&lt;sg&gt;$ 1.0000000
^equilibrio&lt;n&gt;&lt;m&gt;&lt;sg&gt;$ ^equilíbrio&lt;n&gt;&lt;m&gt;&lt;sg&gt;$ 1.0000000
^estado&lt;n&gt;&lt;m&gt;&lt;sg&gt;$ ^estado&lt;n&gt;&lt;m&gt;&lt;sg&gt;$ 1.0000000
^Decir&lt;vblex&gt;&lt;pp&gt;&lt;m&gt;&lt;sg&gt;$ ^Em&lt;pr&gt;$ 0.0606061
^A&lt;pr&gt;$ ^Em&lt;pr&gt;$ 0.0303030
^En&lt;pr&gt;$ ^Em&lt;pr&gt;$ 0.5757576
^Caber&lt;vblex&gt;&lt;pri&gt;&lt;p3&gt;&lt;sg&gt;$ ^Em&lt;pr&gt;$ 0.0303030
^Caso&lt;n&gt;&lt;m&gt;&lt;pl&gt;$ ^Em&lt;pr&gt;$ 0.0303030
^Justo&lt;adv&gt;$ ^Em&lt;pr&gt;$ 0.0303030
^El&lt;det&gt;&lt;def&gt;&lt;f&gt;&lt;pl&gt;$ ^Em&lt;pr&gt;$ 0.0303030
NULL ^Em&lt;pr&gt;$ 0.1212121
^en&lt;pr&gt;$ ^Em&lt;pr&gt;$ 0.0303030
^*asesorara$ ^Em&lt;pr&gt;$ 0.0303030
^De&lt;pr&gt;$ ^Em&lt;pr&gt;$ 0.0303030
^Creer#~que&lt;vblex&gt;&lt;pri&gt;&lt;p1&gt;&lt;sg&gt;$ ^Um&lt;det&gt;&lt;ind&gt;&lt;m&gt;&lt;sg&gt;$ 0.2000000
^Actualmente&lt;adv&gt;$ ^Um&lt;det&gt;&lt;ind&gt;&lt;m&gt;&lt;sg&gt;$ 0.2000000
^Uno&lt;det&gt;&lt;ind&gt;&lt;m&gt;&lt;sg&gt;$ ^Um&lt;det&gt;&lt;ind&gt;&lt;m&gt;&lt;sg&gt;$ 0.2000000
^Por~lo~tanto&lt;cnjadv&gt;$ ^Um&lt;det&gt;&lt;ind&gt;&lt;m&gt;&lt;sg&gt;$ 0.2000000
^Francamente&lt;adv&gt;$ ^Um&lt;det&gt;&lt;ind&gt;&lt;m&gt;&lt;sg&gt;$ 0.2000000
^beneficiar&lt;vblex&gt;&lt;pri&gt;&lt;p3&gt;&lt;pl&gt;$ ^situar&lt;vblex&gt;&lt;pri&gt;&lt;p3&gt;&lt;pl&gt;$ 1.0000000
^*Señoría$ ^realçar&lt;vblex&gt;&lt;ifi&gt;&lt;p3&gt;&lt;sg&gt;$ 0.3333333
^haber&lt;vbhaver&gt;&lt;pri&gt;&lt;p3&gt;&lt;sg&gt;$ ^realçar&lt;vblex&gt;&lt;ifi&gt;&lt;p3&gt;&lt;sg&gt;$ 0.3333333
^subrayar&lt;vblex&gt;&lt;pp&gt;&lt;m&gt;&lt;sg&gt;$ ^realçar&lt;vblex&gt;&lt;ifi&gt;&lt;p3&gt;&lt;sg&gt;$ 0.3333333
^invitación&lt;n&gt;&lt;f&gt;&lt;sg&gt;$ ^convite&lt;n&gt;&lt;m&gt;&lt;sg&gt;$ 1.0000000
^descubrir&lt;vblex&gt;&lt;prs&gt;&lt;p1&gt;&lt;pl&gt;$ ^lhe&lt;prn&gt;&lt;pro&gt;&lt;p3&gt;&lt;mf&gt;&lt;sg&gt;$ 0.0625000
^disipar&lt;vblex&gt;&lt;inf&gt;$ ^lhe&lt;prn&gt;&lt;pro&gt;&lt;p3&gt;&lt;mf&gt;&lt;sg&gt;$ 0.0625000
^le&lt;prn&gt;&lt;enc&gt;&lt;p3&gt;&lt;mf&gt;&lt;sg&gt;$ ^lhe&lt;prn&gt;&lt;pro&gt;&lt;p3&gt;&lt;mf&gt;&lt;sg&gt;$ 0.3125000
^dejar&lt;vblex&gt;&lt;inf&gt;$ ^lhe&lt;prn&gt;&lt;pro&gt;&lt;p3&gt;&lt;mf&gt;&lt;sg&gt;$ 0.0625000
^le&lt;prn&gt;&lt;pro&gt;&lt;p3&gt;&lt;mf&gt;&lt;sg&gt;$ ^lhe&lt;prn&gt;&lt;pro&gt;&lt;p3&gt;&lt;mf&gt;&lt;sg&gt;$ 0.1875000
^que&lt;cnjsub&gt;$ ^lhe&lt;prn&gt;&lt;pro&gt;&lt;p3&gt;&lt;mf&gt;&lt;sg&gt;$ 0.1875000
^agradecer&lt;vblex&gt;&lt;cni&gt;&lt;p3&gt;&lt;sg&gt;$ ^lhe&lt;prn&gt;&lt;pro&gt;&lt;p3&gt;&lt;mf&gt;&lt;sg&gt;$ 0.0625000
^manifestar&lt;vblex&gt;&lt;inf&gt;$ ^lhe&lt;prn&gt;&lt;pro&gt;&lt;p3&gt;&lt;mf&gt;&lt;sg&gt;$ 0.0625000
^grupo&lt;n&gt;&lt;m&gt;&lt;sg&gt;$ ^grupo&lt;n&gt;&lt;m&gt;&lt;sg&gt;$ 0.1428571
^Grupo&lt;n&gt;&lt;m&gt;&lt;sg&gt;$ ^grupo&lt;n&gt;&lt;m&gt;&lt;sg&gt;$ 0.8571429
^leer&lt;vblex&gt;&lt;imp&gt;&lt;p3&gt;&lt;sg&gt;$ ^parecer&lt;vblex&gt;&lt;inf&gt;$ 0.2000000
^opinión&lt;n&gt;&lt;f&gt;&lt;sg&gt;$ ^parecer&lt;vblex&gt;&lt;inf&gt;$ 0.2000000
NULL ^parecer&lt;vblex&gt;&lt;inf&gt;$ 0.2000000
^el&lt;det&gt;&lt;def&gt;&lt;f&gt;&lt;sg&gt;$ ^parecer&lt;vblex&gt;&lt;inf&gt;$ 0.2000000
^143&lt;num&gt;$ ^parecer&lt;vblex&gt;&lt;inf&gt;$ 0.2000000
^*Ahern$ ^*Ahern$ 1.0000000
^examen&lt;n&gt;&lt;m&gt;&lt;sg&gt;$ ^mínimo&lt;adj&gt;&lt;f&gt;&lt;pl&gt;$ 0.2500000
^mínimo&lt;adj&gt;&lt;f&gt;&lt;pl&gt;$ ^mínimo&lt;adj&gt;&lt;f&gt;&lt;pl&gt;$ 0.7500000
^predecesor&lt;n&gt;&lt;m&gt;&lt;pl&gt;$ ^antecessor&lt;n&gt;&lt;m&gt;&lt;pl&gt;$ 1.0000000
^europeo&lt;adj&gt;&lt;f&gt;&lt;sg&gt;$ ^*regulamentador$ 0.3333333
^defensa&lt;n&gt;&lt;f&gt;&lt;sg&gt;$ ^*regulamentador$ 0.3333333
^Oficina&lt;n&gt;&lt;f&gt;&lt;sg&gt;$ ^*regulamentador$ 0.3333333
^enseñanza&lt;n&gt;&lt;f&gt;&lt;sg&gt;$ ^lição&lt;n&gt;&lt;f&gt;&lt;sg&gt;$ 1.0000000
^Sin~embargo&lt;cnjadv&gt;$ ^Penso&lt;n&gt;&lt;m&gt;&lt;sg&gt;$ 0.5000000
^Creer#~que&lt;vblex&gt;&lt;pri&gt;&lt;p1&gt;&lt;sg&gt;$ ^Penso&lt;n&gt;&lt;m&gt;&lt;sg&gt;$ 0.5000000
^*Rapkay$ ^*Rapkay$ 1.0000000
^que&lt;cnjsub&gt;$ ^lhe&lt;prn&gt;&lt;enc&gt;&lt;p3&gt;&lt;mf&gt;&lt;pl&gt;$ 0.5000000
^proporcionar&lt;vblex&gt;&lt;inf&gt;$ ^lhe&lt;prn&gt;&lt;enc&gt;&lt;p3&gt;&lt;mf&gt;&lt;pl&gt;$ 0.5000000
^sitio&lt;n&gt;&lt;m&gt;&lt;sg&gt;$ ^ganhar&lt;vblex&gt;&lt;inf&gt;$ 1.0000000
^decir&lt;vblex&gt;&lt;cni&gt;&lt;p3&gt;&lt;sg&gt;$ ^dizer&lt;vblex&gt;&lt;cni&gt;&lt;p1&gt;&lt;sg&gt;$ 0.3333333
^que&lt;cnjsub&gt;$ ^dizer&lt;vblex&gt;&lt;cni&gt;&lt;p1&gt;&lt;sg&gt;$ 0.3333333
^incluso&lt;adv&gt;$ ^dizer&lt;vblex&gt;&lt;cni&gt;&lt;p1&gt;&lt;sg&gt;$ 0.3333333
^venir&lt;vblex&gt;&lt;pri&gt;&lt;p3&gt;&lt;sg&gt;$ ^Ocorrer&lt;vblex&gt;&lt;pri&gt;&lt;p3&gt;&lt;pl&gt;$ 0.5000000
^Me&lt;prn&gt;&lt;pro&gt;&lt;p1&gt;&lt;mf&gt;&lt;sg&gt;$ ^Ocorrer&lt;vblex&gt;&lt;pri&gt;&lt;p3&gt;&lt;pl&gt;$ 0.5000000
^pérdida&lt;n&gt;&lt;f&gt;&lt;sg&gt;$ ^perda&lt;n&gt;&lt;f&gt;&lt;sg&gt;$ 0.5000000
^*detrimento$ ^perda&lt;n&gt;&lt;f&gt;&lt;sg&gt;$ 0.5000000
^reiterar&lt;vblex&gt;&lt;pri&gt;&lt;p1&gt;&lt;sg&gt;$ ^o~meu&lt;det&gt;&lt;pos&gt;&lt;m&gt;&lt;pl&gt;$ 0.1111111
^desear&lt;vblex&gt;&lt;pri&gt;&lt;p1&gt;&lt;sg&gt;$ ^o~meu&lt;det&gt;&lt;pos&gt;&lt;m&gt;&lt;pl&gt;$ 0.1111111
^mío&lt;det&gt;&lt;pos&gt;&lt;mf&gt;&lt;sg&gt;$ ^o~meu&lt;det&gt;&lt;pos&gt;&lt;m&gt;&lt;pl&gt;$ 0.2222222
^reiterar&lt;vblex&gt;&lt;inf&gt;$ ^o~meu&lt;det&gt;&lt;pos&gt;&lt;m&gt;&lt;pl&gt;$ 0.1111111
^dar#~las~gracias&lt;vblex&gt;&lt;inf&gt;$ ^o~meu&lt;det&gt;&lt;pos&gt;&lt;m&gt;&lt;pl&gt;$ 0.1111111
^querer&lt;vbmod&gt;&lt;pri&gt;&lt;p1&gt;&lt;sg&gt;$ ^o~meu&lt;det&gt;&lt;pos&gt;&lt;m&gt;&lt;pl&gt;$ 0.2222222
^Ante~todo&lt;adv&gt;$ ^o~meu&lt;det&gt;&lt;pos&gt;&lt;m&gt;&lt;pl&gt;$ 0.1111111
^suyo&lt;det&gt;&lt;pos&gt;&lt;mf&gt;&lt;pl&gt;$ ^próprio&lt;adj&gt;&lt;f&gt;&lt;sg&gt;$ 0.2500000
^Incluso&lt;adv&gt;$ ^próprio&lt;adj&gt;&lt;f&gt;&lt;sg&gt;$ 0.2500000
^propio&lt;adj&gt;&lt;m&gt;&lt;pl&gt;$ ^próprio&lt;adj&gt;&lt;f&gt;&lt;sg&gt;$ 0.2500000
^el&lt;det&gt;&lt;def&gt;&lt;f&gt;&lt;sg&gt;$ ^próprio&lt;adj&gt;&lt;f&gt;&lt;sg&gt;$ 0.2500000
^ser&lt;vbser&gt;&lt;pp&gt;&lt;m&gt;&lt;sg&gt;$ ^adoptar&lt;vblex&gt;&lt;pp&gt;&lt;f&gt;&lt;pl&gt;$ 0.2000000
^que&lt;rel&gt;&lt;an&gt;&lt;mf&gt;&lt;sp&gt;$ ^adoptar&lt;vblex&gt;&lt;pp&gt;&lt;f&gt;&lt;pl&gt;$ 0.2000000
^haber&lt;vbhaver&gt;&lt;pri&gt;&lt;p3&gt;&lt;pl&gt;$ ^adoptar&lt;vblex&gt;&lt;pp&gt;&lt;f&gt;&lt;pl&gt;$ 0.2000000
^aprobar&lt;vblex&gt;&lt;pp&gt;&lt;f&gt;&lt;pl&gt;$ ^adoptar&lt;vblex&gt;&lt;pp&gt;&lt;f&gt;&lt;pl&gt;$ 0.2000000
^recoger&lt;vblex&gt;&lt;pp&gt;&lt;f&gt;&lt;pl&gt;$ ^adoptar&lt;vblex&gt;&lt;pp&gt;&lt;f&gt;&lt;pl&gt;$ 0.2000000
^cotidiano&lt;adj&gt;&lt;f&gt;&lt;sg&gt;$ ^quotidiano&lt;adj&gt;&lt;f&gt;&lt;sg&gt;$ 1.0000000
^agente&lt;n&gt;&lt;mf&gt;&lt;pl&gt;$ ^agente&lt;n&gt;&lt;mf&gt;&lt;pl&gt;$ 1.0000000
^quinto&lt;adj&gt;&lt;f&gt;&lt;pl&gt;$ ^quinto&lt;adj&gt;&lt;m&gt;&lt;pl&gt;$ 0.5000000
^parte&lt;n&gt;&lt;f&gt;&lt;pl&gt;$ ^quinto&lt;adj&gt;&lt;m&gt;&lt;pl&gt;$ 0.5000000
^mercancía&lt;n&gt;&lt;f&gt;&lt;pl&gt;$ ^mercadoria&lt;n&gt;&lt;f&gt;&lt;pl&gt;$ 1.0000000
^posición&lt;n&gt;&lt;f&gt;&lt;pl&gt;$ ^posição&lt;n&gt;&lt;f&gt;&lt;pl&gt;$ 0.8000000
^conclusión&lt;n&gt;&lt;f&gt;&lt;pl&gt;$ ^posição&lt;n&gt;&lt;f&gt;&lt;pl&gt;$ 0.2000000
^*migratorios$ ^*descontrolada$ 0.3333333
^ejemplo&lt;n&gt;&lt;m&gt;&lt;sg&gt;$ ^*descontrolada$ 0.3333333
^Por&lt;pr&gt;$ ^*descontrolada$ 0.3333333
^*desafortunada$ ^posição&lt;n&gt;&lt;f&gt;&lt;sg&gt;$ 0.1111111
^situación&lt;n&gt;&lt;f&gt;&lt;sg&gt;$ ^posição&lt;n&gt;&lt;f&gt;&lt;sg&gt;$ 0.1111111
^posición&lt;n&gt;&lt;f&gt;&lt;sg&gt;$ ^posição&lt;n&gt;&lt;f&gt;&lt;sg&gt;$ 0.3333333
NULL ^posição&lt;n&gt;&lt;f&gt;&lt;sg&gt;$ 0.3333333
^zona&lt;n&gt;&lt;f&gt;&lt;sg&gt;$ ^posição&lt;n&gt;&lt;f&gt;&lt;sg&gt;$ 0.1111111
^mejorar&lt;vblex&gt;&lt;ger&gt;$ ^melhorar&lt;vblex&gt;&lt;ger&gt;$ 0.3333333
^que&lt;cnjsub&gt;$ ^melhorar&lt;vblex&gt;&lt;ger&gt;$ 0.3333333
^ir&lt;vblex&gt;&lt;inf&gt;$ ^melhorar&lt;vblex&gt;&lt;ger&gt;$ 0.3333333
^experimentar&lt;vblex&gt;&lt;ger&gt;$ ^registar&lt;vblex&gt;&lt;inf&gt;$ 1.0000000
^En&lt;pr&gt;$ ^Segundo&lt;adj&gt;&lt;m&gt;&lt;sg&gt;$ 0.3333333
^segundo&lt;adj&gt;&lt;m&gt;&lt;sg&gt;$ ^Segundo&lt;adj&gt;&lt;m&gt;&lt;sg&gt;$ 0.3333333
^lugar&lt;n&gt;&lt;m&gt;&lt;sg&gt;$ ^Segundo&lt;adj&gt;&lt;m&gt;&lt;sg&gt;$ 0.3333333
^ciento&lt;num&gt;&lt;mf&gt;&lt;pl&gt;$ ^centena&lt;n&gt;&lt;f&gt;&lt;pl&gt;$ 1.0000000
^mí&lt;prn&gt;&lt;tn&gt;&lt;p1&gt;&lt;mf&gt;&lt;sg&gt;$ ^mim&lt;prn&gt;&lt;tn&gt;&lt;p1&gt;&lt;mf&gt;&lt;sg&gt;$ 0.5000000
^sentido&lt;n&gt;&lt;m&gt;&lt;sg&gt;$ ^mim&lt;prn&gt;&lt;tn&gt;&lt;p1&gt;&lt;mf&gt;&lt;sg&gt;$ 0.5000000
^precioso&lt;adj&gt;&lt;m&gt;&lt;sg&gt;$ ^precioso&lt;adj&gt;&lt;m&gt;&lt;sg&gt;$ 1.0000000
^descender&lt;vblex&gt;&lt;prs&gt;&lt;p3&gt;&lt;sg&gt;$ ^suficiente&lt;adj&gt;&lt;mf&gt;&lt;pl&gt;$ 1.0000000
^Comisión&lt;n&gt;&lt;f&gt;&lt;sg&gt;$ ^Dever&lt;vbmod&gt;&lt;pii&gt;&lt;p1&gt;&lt;sg&gt;$ 0.2500000
^deber&lt;vbmod&gt;&lt;pri&gt;&lt;p3&gt;&lt;sg&gt;$ ^Dever&lt;vbmod&gt;&lt;pii&gt;&lt;p1&gt;&lt;sg&gt;$ 0.2500000
^El&lt;det&gt;&lt;def&gt;&lt;f&gt;&lt;sg&gt;$ ^Dever&lt;vbmod&gt;&lt;pii&gt;&lt;p1&gt;&lt;sg&gt;$ 0.2500000
^continuar&lt;vblex&gt;&lt;inf&gt;$ ^Dever&lt;vbmod&gt;&lt;pii&gt;&lt;p1&gt;&lt;sg&gt;$ 0.2500000
^incrementar&lt;vblex&gt;&lt;prs&gt;&lt;p3&gt;&lt;sg&gt;$ ^*revitalização$ 1.0000000
^esto&lt;prn&gt;&lt;tn&gt;&lt;nt&gt;$ ^mesmo&lt;adj&gt;&lt;m&gt;&lt;pl&gt;$ 1.0000000
^deseo&lt;n&gt;&lt;m&gt;&lt;sg&gt;$ ^defender&lt;vblex&gt;&lt;ifi&gt;&lt;p3&gt;&lt;sg&gt;$ 0.2500000
^*Berend$ ^defender&lt;vblex&gt;&lt;ifi&gt;&lt;p3&gt;&lt;sg&gt;$ 0.2500000
^expresar&lt;vblex&gt;&lt;ifi&gt;&lt;p3&gt;&lt;sg&gt;$ ^defender&lt;vblex&gt;&lt;ifi&gt;&lt;p3&gt;&lt;sg&gt;$ 0.2500000
^suyo&lt;det&gt;&lt;pos&gt;&lt;mf&gt;&lt;sg&gt;$ ^defender&lt;vblex&gt;&lt;ifi&gt;&lt;p3&gt;&lt;sg&gt;$ 0.2500000
^ser&lt;vbser&gt;&lt;inf&gt;$ ^ser&lt;vbser&gt;&lt;prs&gt;&lt;p1&gt;&lt;pl&gt;$ 1.0000000
^haber&lt;vbhaver&gt;&lt;pri&gt;&lt;p1&gt;&lt;sg&gt;$ ^ver&lt;vblex&gt;&lt;ifi&gt;&lt;p1&gt;&lt;sg&gt;$ 0.5000000
^advertir&lt;vblex&gt;&lt;pp&gt;&lt;m&gt;&lt;sg&gt;$ ^ver&lt;vblex&gt;&lt;ifi&gt;&lt;p1&gt;&lt;sg&gt;$ 0.5000000
^mío&lt;det&gt;&lt;pos&gt;&lt;mf&gt;&lt;pl&gt;$ ^o~meu&lt;prn&gt;&lt;tn&gt;&lt;pos&gt;&lt;f&gt;&lt;pl&gt;$ 0.5000000
^*felicitaciones$ ^o~meu&lt;prn&gt;&lt;tn&gt;&lt;pos&gt;&lt;f&gt;&lt;pl&gt;$ 0.5000000
^cuestión&lt;n&gt;&lt;f&gt;&lt;sg&gt;$ ^temático&lt;adj&gt;&lt;f&gt;&lt;sg&gt;$ 1.0000000
^consignar&lt;vblex&gt;&lt;fti&gt;&lt;p3&gt;&lt;sg&gt;$ ^ter&lt;vblex&gt;&lt;fti&gt;&lt;p3&gt;&lt;sg&gt;$ 0.2000000
^tener&lt;vblex&gt;&lt;fti&gt;&lt;p3&gt;&lt;sg&gt;$ ^ter&lt;vblex&gt;&lt;fti&gt;&lt;p3&gt;&lt;sg&gt;$ 0.8000000
^volver&lt;vblex&gt;&lt;fti&gt;&lt;p1&gt;&lt;sg&gt;$ ^*levantá$ 1.0000000
^proponer&lt;vblex&gt;&lt;pri&gt;&lt;p3&gt;&lt;sg&gt;$ ^atribuir&lt;vblex&gt;&lt;pp&gt;&lt;m&gt;&lt;sg&gt;$ 0.3333333
^asignar&lt;vblex&gt;&lt;inf&gt;$ ^atribuir&lt;vblex&gt;&lt;pp&gt;&lt;m&gt;&lt;sg&gt;$ 0.3333333
^le&lt;prn&gt;&lt;enc&gt;&lt;p3&gt;&lt;mf&gt;&lt;pl&gt;$ ^atribuir&lt;vblex&gt;&lt;pp&gt;&lt;m&gt;&lt;sg&gt;$ 0.3333333
^esto&lt;prn&gt;&lt;tn&gt;&lt;nt&gt;$ ^contexto&lt;n&gt;&lt;m&gt;&lt;sg&gt;$ 0.2000000
^respecto&lt;n&gt;&lt;m&gt;&lt;sg&gt;$ ^contexto&lt;n&gt;&lt;m&gt;&lt;sg&gt;$ 0.2000000
^contexto&lt;n&gt;&lt;m&gt;&lt;sg&gt;$ ^contexto&lt;n&gt;&lt;m&gt;&lt;sg&gt;$ 0.6000000
^así&lt;adv&gt;$ ^esquecer&lt;vblex&gt;&lt;imp&gt;&lt;p1&gt;&lt;pl&gt;$ 0.5000000
^dejar&lt;vblex&gt;&lt;imp&gt;&lt;p1&gt;&lt;pl&gt;$ ^esquecer&lt;vblex&gt;&lt;imp&gt;&lt;p1&gt;&lt;pl&gt;$ 0.5000000
^el&lt;det&gt;&lt;def&gt;&lt;f&gt;&lt;pl&gt;$ ^lacuna&lt;n&gt;&lt;f&gt;&lt;sg&gt;$ 1.0000000
^provocar&lt;vblex&gt;&lt;pri&gt;&lt;p3&gt;&lt;sg&gt;$ ^dessar&lt;vblex&gt;&lt;pri&gt;&lt;p3&gt;&lt;sg&gt;$ 1.0000000
NULL ^encontrar&lt;vblex&gt;&lt;pri&gt;&lt;p3&gt;&lt;sg&gt;$ 0.2500000
^incluir&lt;vblex&gt;&lt;pp&gt;&lt;f&gt;&lt;sg&gt;$ ^encontrar&lt;vblex&gt;&lt;pri&gt;&lt;p3&gt;&lt;sg&gt;$ 0.2500000
^encontrar&lt;vblex&gt;&lt;pri&gt;&lt;p3&gt;&lt;sg&gt;$ ^encontrar&lt;vblex&gt;&lt;pri&gt;&lt;p3&gt;&lt;sg&gt;$ 0.2500000
^se&lt;prn&gt;&lt;pro&gt;&lt;ref&gt;&lt;p3&gt;&lt;mf&gt;&lt;sp&gt;$ ^encontrar&lt;vblex&gt;&lt;pri&gt;&lt;p3&gt;&lt;sg&gt;$ 0.2500000
^ese&lt;det&gt;&lt;dem&gt;&lt;f&gt;&lt;pl&gt;$ ^dessar&lt;vblex&gt;&lt;pri&gt;&lt;p2&gt;&lt;sg&gt;$ 1.0000000
^debatir&lt;vblex&gt;&lt;inf&gt;$ ^abordar&lt;vblex&gt;&lt;inf&gt;$ 0.5000000
^ya&lt;adv&gt;$ ^abordar&lt;vblex&gt;&lt;inf&gt;$ 0.5000000
^informe&lt;n&gt;&lt;m&gt;&lt;sg&gt;$ ^propor&lt;vblex&gt;&lt;pri&gt;&lt;p3&gt;&lt;sg&gt;$ 0.2500000
^*Wogau$ ^propor&lt;vblex&gt;&lt;pri&gt;&lt;p3&gt;&lt;sg&gt;$ 0.2500000
^estipular&lt;vblex&gt;&lt;pri&gt;&lt;p3&gt;&lt;sg&gt;$ ^propor&lt;vblex&gt;&lt;pri&gt;&lt;p3&gt;&lt;sg&gt;$ 0.2500000
^representar&lt;vblex&gt;&lt;pri&gt;&lt;p3&gt;&lt;sg&gt;$ ^propor&lt;vblex&gt;&lt;pri&gt;&lt;p3&gt;&lt;sg&gt;$ 0.2500000
^depender&lt;vblex&gt;&lt;pri&gt;&lt;p3&gt;&lt;sg&gt;$ ^sobretudo&lt;adv&gt;$ 0.1111111
^sobre~todo&lt;adv&gt;$ ^sobretudo&lt;adv&gt;$ 0.2222222
^especialmente&lt;adv&gt;$ ^sobretudo&lt;adv&gt;$ 0.2222222
^Sobre~todo&lt;adv&gt;$ ^sobretudo&lt;adv&gt;$ 0.1111111
^,&lt;cm&gt;$ ^sobretudo&lt;adv&gt;$ 0.2222222
^en~cuanto~a&lt;pr&gt;$ ^sobretudo&lt;adv&gt;$ 0.1111111
^reducir&lt;vblex&gt;&lt;pp&gt;&lt;m&gt;&lt;sg&gt;$ ^reduzir&lt;vblex&gt;&lt;ifi&gt;&lt;p3&gt;&lt;pl&gt;$ 0.5000000
^haber&lt;vbhaver&gt;&lt;pri&gt;&lt;p3&gt;&lt;pl&gt;$ ^reduzir&lt;vblex&gt;&lt;ifi&gt;&lt;p3&gt;&lt;pl&gt;$ 0.5000000
^dar&lt;vblex&gt;&lt;cni&gt;&lt;p3&gt;&lt;sg&gt;$ ^fornecer&lt;vblex&gt;&lt;inf&gt;$ 1.0000000
^día&lt;n&gt;&lt;m&gt;&lt;sg&gt;$ ^dia&lt;n&gt;&lt;m&gt;&lt;sg&gt;$ 0.7500000
NULL ^dia&lt;n&gt;&lt;m&gt;&lt;sg&gt;$ 0.1875000
^económico&lt;adj&gt;&lt;m&gt;&lt;sg&gt;$ ^dia&lt;n&gt;&lt;m&gt;&lt;sg&gt;$ 0.0625000
^voto&lt;n&gt;&lt;m&gt;&lt;sg&gt;$ ^votar&lt;vblex&gt;&lt;fti&gt;&lt;p1&gt;&lt;pl&gt;$ 0.2000000
^nuestro&lt;det&gt;&lt;pos&gt;&lt;m&gt;&lt;sg&gt;$ ^votar&lt;vblex&gt;&lt;fti&gt;&lt;p1&gt;&lt;pl&gt;$ 0.2000000
^favorable&lt;adj&gt;&lt;mf&gt;&lt;sg&gt;$ ^votar&lt;vblex&gt;&lt;fti&gt;&lt;p1&gt;&lt;pl&gt;$ 0.2000000
^dar&lt;vblex&gt;&lt;fti&gt;&lt;p1&gt;&lt;pl&gt;$ ^votar&lt;vblex&gt;&lt;fti&gt;&lt;p1&gt;&lt;pl&gt;$ 0.2000000
^le&lt;prn&gt;&lt;pro&gt;&lt;p3&gt;&lt;mf&gt;&lt;sg&gt;$ ^votar&lt;vblex&gt;&lt;fti&gt;&lt;p1&gt;&lt;pl&gt;$ 0.2000000
^producir&lt;vblex&gt;&lt;pp&gt;&lt;m&gt;&lt;sg&gt;$ ^acontecer&lt;vblex&gt;&lt;ifi&gt;&lt;p3&gt;&lt;sg&gt;$ 0.0909091
^se&lt;prn&gt;&lt;pro&gt;&lt;ref&gt;&lt;p3&gt;&lt;mf&gt;&lt;sp&gt;$ ^acontecer&lt;vblex&gt;&lt;ifi&gt;&lt;p3&gt;&lt;sg&gt;$ 0.1818182
^así&lt;adv&gt;$ ^acontecer&lt;vblex&gt;&lt;ifi&gt;&lt;p3&gt;&lt;sg&gt;$ 0.0909091
^hacer&lt;vblex&gt;&lt;pp&gt;&lt;m&gt;&lt;sg&gt;$ ^acontecer&lt;vblex&gt;&lt;ifi&gt;&lt;p3&gt;&lt;sg&gt;$ 0.0909091
^haber&lt;vbhaver&gt;&lt;pri&gt;&lt;p3&gt;&lt;sg&gt;$ ^acontecer&lt;vblex&gt;&lt;ifi&gt;&lt;p3&gt;&lt;sg&gt;$ 0.3636364
^ocurrir&lt;vblex&gt;&lt;pp&gt;&lt;m&gt;&lt;sg&gt;$ ^acontecer&lt;vblex&gt;&lt;ifi&gt;&lt;p3&gt;&lt;sg&gt;$ 0.1818182
^!&lt;sent&gt;$ ^direito&lt;n&gt;&lt;m&gt;&lt;pl&gt;$ 0.5000000
^derecho&lt;n&gt;&lt;m&gt;&lt;pl&gt;$ ^direito&lt;n&gt;&lt;m&gt;&lt;pl&gt;$ 0.5000000
^suceder&lt;vblex&gt;&lt;pri&gt;&lt;p3&gt;&lt;sg&gt;$ ^agora&lt;adv&gt;$ 0.0909091
^ahora&lt;adv&gt;$ ^agora&lt;adv&gt;$ 0.6363636
^manifestar&lt;vblex&gt;&lt;prs&gt;&lt;p3&gt;&lt;sg&gt;$ ^agora&lt;adv&gt;$ 0.0909091
^originar&lt;vblex&gt;&lt;ger&gt;$ ^agora&lt;adv&gt;$ 0.0909091
^pedir&lt;vblex&gt;&lt;pri&gt;&lt;p1&gt;&lt;sg&gt;$ ^agora&lt;adv&gt;$ 0.0909091
^a&lt;pr&gt;$ ^enquadrar&lt;vblex&gt;&lt;inf&gt;$ 0.3333333
^poner&lt;vblex&gt;&lt;inf&gt;$ ^enquadrar&lt;vblex&gt;&lt;inf&gt;$ 0.3333333
^marco&lt;n&gt;&lt;m&gt;&lt;sg&gt;$ ^enquadrar&lt;vblex&gt;&lt;inf&gt;$ 0.3333333
^bien&lt;adv&gt;$ ^relevar&lt;vblex&gt;&lt;pri&gt;&lt;p3&gt;&lt;sg&gt;$ 0.5000000
^depender&lt;vblex&gt;&lt;pri&gt;&lt;p3&gt;&lt;sg&gt;$ ^relevar&lt;vblex&gt;&lt;pri&gt;&lt;p3&gt;&lt;sg&gt;$ 0.5000000
^adquirir&lt;vblex&gt;&lt;pp&gt;&lt;m&gt;&lt;sg&gt;$ ^adquirir&lt;vblex&gt;&lt;pp&gt;&lt;m&gt;&lt;sg&gt;$ 1.0000000
^el&lt;det&gt;&lt;def&gt;&lt;f&gt;&lt;sg&gt;$ ^comercializar&lt;vblex&gt;&lt;inf&gt;$ 0.5000000
^comercialización&lt;n&gt;&lt;f&gt;&lt;sg&gt;$ ^comercializar&lt;vblex&gt;&lt;inf&gt;$ 0.5000000
^Por~qué&lt;adv&gt;&lt;itg&gt;$ ^Porque&lt;cnjadv&gt;$ 0.5000000
^¿&lt;lquest&gt;$ ^Porque&lt;cnjadv&gt;$ 0.5000000
^entre&lt;pr&gt;$ ^específico&lt;adj&gt;&lt;f&gt;&lt;pl&gt;$ 1.0000000
^ver&lt;vblex&gt;&lt;ger&gt;$ ^ser&lt;vbser&gt;&lt;ger&gt;$ 0.2500000
^admitir&lt;vblex&gt;&lt;pri&gt;&lt;p3&gt;&lt;pl&gt;$ ^ser&lt;vbser&gt;&lt;ger&gt;$ 0.2500000
^se&lt;prn&gt;&lt;pro&gt;&lt;ref&gt;&lt;p3&gt;&lt;mf&gt;&lt;sp&gt;$ ^ser&lt;vbser&gt;&lt;ger&gt;$ 0.2500000
^acuerdo&lt;n&gt;&lt;m&gt;&lt;sg&gt;$ ^ser&lt;vbser&gt;&lt;ger&gt;$ 0.2500000
^11&lt;num&gt;$ ^11&lt;num&gt;$ 1.0000000
^sanidad&lt;n&gt;&lt;f&gt;&lt;sg&gt;$ ^si~próprio&lt;prn&gt;&lt;tn&gt;&lt;m&gt;&lt;sg&gt;$ 1.0000000
^subrayar&lt;vblex&gt;&lt;pri&gt;&lt;p1&gt;&lt;sg&gt;$ ^salientar&lt;vblex&gt;&lt;pri&gt;&lt;p1&gt;&lt;sg&gt;$ 0.5000000
^lo&lt;prn&gt;&lt;pro&gt;&lt;p3&gt;&lt;nt&gt;$ ^salientar&lt;vblex&gt;&lt;pri&gt;&lt;p1&gt;&lt;sg&gt;$ 0.5000000
^ser&lt;vbser&gt;&lt;pri&gt;&lt;p3&gt;&lt;pl&gt;$ ^Responsável&lt;adj&gt;&lt;mf&gt;&lt;sg&gt;$ 0.2500000
^todo~esto&lt;prn&gt;&lt;tn&gt;&lt;nt&gt;$ ^Responsável&lt;adj&gt;&lt;mf&gt;&lt;sg&gt;$ 0.2500000
^responsable&lt;adj&gt;&lt;mf&gt;&lt;pl&gt;$ ^Responsável&lt;adj&gt;&lt;mf&gt;&lt;sg&gt;$ 0.2500000
^De&lt;pr&gt;$ ^Responsável&lt;adj&gt;&lt;mf&gt;&lt;sg&gt;$ 0.2500000
^ni&lt;cnjcoo&gt;$ ^debater&lt;vblex&gt;&lt;pp&gt;&lt;m&gt;&lt;sg&gt;$ 0.5000000
^examinar&lt;vblex&gt;&lt;pp&gt;&lt;m&gt;&lt;sg&gt;$ ^debater&lt;vblex&gt;&lt;pp&gt;&lt;m&gt;&lt;sg&gt;$ 0.5000000
^El&lt;det&gt;&lt;def&gt;&lt;f&gt;&lt;sg&gt;$ ^O&lt;detnt&gt;$ 0.2222222
^¿&lt;lquest&gt;$ ^O&lt;detnt&gt;$ 0.1111111
^Lo&lt;detnt&gt;$ ^O&lt;detnt&gt;$ 0.3333333
^*World$ ^O&lt;detnt&gt;$ 0.1111111
^Y&lt;cnjcoo&gt;$ ^O&lt;detnt&gt;$ 0.1111111
^clave&lt;n&gt;&lt;f&gt;&lt;sg&gt;$ ^O&lt;detnt&gt;$ 0.1111111
^para&lt;pr&gt;$ ^funcionamento&lt;n&gt;&lt;m&gt;&lt;sg&gt;$ 0.2000000
^funcionamiento&lt;n&gt;&lt;m&gt;&lt;sg&gt;$ ^funcionamento&lt;n&gt;&lt;m&gt;&lt;sg&gt;$ 0.8000000
^También&lt;adv&gt;$ ^Existir&lt;vblex&gt;&lt;pri&gt;&lt;p3&gt;&lt;pl&gt;$ 0.3333333
^existir&lt;vblex&gt;&lt;pri&gt;&lt;p3&gt;&lt;pl&gt;$ ^Existir&lt;vblex&gt;&lt;pri&gt;&lt;p3&gt;&lt;pl&gt;$ 0.3333333
^acuerdo&lt;n&gt;&lt;m&gt;&lt;pl&gt;$ ^Existir&lt;vblex&gt;&lt;pri&gt;&lt;p3&gt;&lt;pl&gt;$ 0.3333333
^francés&lt;n&gt;&lt;m&gt;&lt;sg&gt;$ ^francês&lt;adj&gt;&lt;m&gt;&lt;sg&gt;$ 1.0000000
NULL ^ver&lt;vblex&gt;&lt;inf&gt;$ 0.2500000
^relativo&lt;adj&gt;&lt;f&gt;&lt;sg&gt;$ ^ver&lt;vblex&gt;&lt;inf&gt;$ 0.2500000
^afectar&lt;vblex&gt;&lt;pri&gt;&lt;p3&gt;&lt;sg&gt;$ ^ver&lt;vblex&gt;&lt;inf&gt;$ 0.2500000
^el&lt;det&gt;&lt;def&gt;&lt;m&gt;&lt;pl&gt;$ ^ver&lt;vblex&gt;&lt;inf&gt;$ 0.2500000
^clasificación&lt;n&gt;&lt;f&gt;&lt;sg&gt;$ ^classificação&lt;n&gt;&lt;f&gt;&lt;sg&gt;$ 1.0000000
^mes&lt;n&gt;&lt;m&gt;&lt;sg&gt;$ ^mês&lt;n&gt;&lt;m&gt;&lt;sg&gt;$ 1.0000000
^¿&lt;lquest&gt;$ ^Algum&lt;det&gt;&lt;ind&gt;&lt;m&gt;&lt;sg&gt;$ 0.5000000
^Alguno&lt;det&gt;&lt;ind&gt;&lt;m&gt;&lt;sg&gt;$ ^Algum&lt;det&gt;&lt;ind&gt;&lt;m&gt;&lt;sg&gt;$ 0.5000000
^estructural&lt;adj&gt;&lt;mf&gt;&lt;pl&gt;$ ^estrutural&lt;adj&gt;&lt;mf&gt;&lt;pl&gt;$ 0.6666667
^empleo&lt;n&gt;&lt;m&gt;&lt;sg&gt;$ ^estrutural&lt;adj&gt;&lt;mf&gt;&lt;pl&gt;$ 0.3333333
^por&lt;pr&gt;$ ^precisar&lt;vblex&gt;&lt;fts&gt;&lt;p1&gt;&lt;pl&gt;$ 1.0000000
^y&lt;cnjcoo&gt;$ ^ter&lt;vbhaver&gt;&lt;pri&gt;&lt;p3&gt;&lt;sg&gt;$ 0.1111111
^haber&lt;vbhaver&gt;&lt;pri&gt;&lt;p3&gt;&lt;sg&gt;$ ^ter&lt;vbhaver&gt;&lt;pri&gt;&lt;p3&gt;&lt;sg&gt;$ 0.3333333
^afectar&lt;vblex&gt;&lt;pri&gt;&lt;p3&gt;&lt;sg&gt;$ ^ter&lt;vbhaver&gt;&lt;pri&gt;&lt;p3&gt;&lt;sg&gt;$ 0.1111111
^tener&lt;vblex&gt;&lt;pri&gt;&lt;p3&gt;&lt;sg&gt;$ ^ter&lt;vbhaver&gt;&lt;pri&gt;&lt;p3&gt;&lt;sg&gt;$ 0.1111111
^uno&lt;det&gt;&lt;ind&gt;&lt;f&gt;&lt;sg&gt;$ ^ter&lt;vbhaver&gt;&lt;pri&gt;&lt;p3&gt;&lt;sg&gt;$ 0.1111111
^ocupar&lt;vblex&gt;&lt;pp&gt;&lt;m&gt;&lt;sg&gt;$ ^ter&lt;vbhaver&gt;&lt;pri&gt;&lt;p3&gt;&lt;sg&gt;$ 0.1111111
^ya&lt;ij&gt;$ ^ter&lt;vbhaver&gt;&lt;pri&gt;&lt;p3&gt;&lt;sg&gt;$ 0.1111111
^poder&lt;vbmod&gt;&lt;pri&gt;&lt;p3&gt;&lt;pl&gt;$ ^não&lt;adv&gt;$ 0.0088496
^papeleo&lt;n&gt;&lt;m&gt;&lt;pl&gt;$ ^não&lt;adv&gt;$ 0.0088496
^guardar&lt;vblex&gt;&lt;inf&gt;$ ^não&lt;adv&gt;$ 0.0088496
^tampoco&lt;adv&gt;$ ^não&lt;adv&gt;$ 0.0088496
^todo&lt;prn&gt;&lt;tn&gt;&lt;nt&gt;&lt;sg&gt;$ ^não&lt;adv&gt;$ 0.0088496
^afectar&lt;vblex&gt;&lt;pp&gt;&lt;f&gt;&lt;pl&gt;$ ^não&lt;adv&gt;$ 0.0088496
^no&lt;adv&gt;$ ^não&lt;adv&gt;$ 0.8318584
^provechoso&lt;adj&gt;&lt;f&gt;&lt;sg&gt;$ ^não&lt;adv&gt;$ 0.0088496
^*Jungfernrede$ ^não&lt;adv&gt;$ 0.0088496
^sobre~todo&lt;adv&gt;$ ^não&lt;adv&gt;$ 0.0088496
^competitivo&lt;adj&gt;&lt;f&gt;&lt;sg&gt;$ ^não&lt;adv&gt;$ 0.0088496
^*mejorable$ ^não&lt;adv&gt;$ 0.0088496
^destruir&lt;vblex&gt;&lt;prs&gt;&lt;p3&gt;&lt;sg&gt;$ ^não&lt;adv&gt;$ 0.0088496
NULL ^não&lt;adv&gt;$ 0.0265487
^*Bernié$ ^não&lt;adv&gt;$ 0.0088496
^advertir&lt;vblex&gt;&lt;pp&gt;&lt;m&gt;&lt;sg&gt;$ ^não&lt;adv&gt;$ 0.0088496
^ni&lt;cnjcoo&gt;$ ^não&lt;adv&gt;$ 0.0088496
^Seguridad&lt;n&gt;&lt;f&gt;&lt;sg&gt;$ ^não&lt;adv&gt;$ 0.0088496
^general&lt;n&gt;&lt;mf&gt;&lt;sg&gt;$ ^Defender&lt;vblex&gt;&lt;pri&gt;&lt;p1&gt;&lt;sg&gt;$ 0.5000000
^En&lt;pr&gt;$ ^Defender&lt;vblex&gt;&lt;pri&gt;&lt;p1&gt;&lt;sg&gt;$ 0.5000000
^motor&lt;n&gt;&lt;m&gt;&lt;pl&gt;$ ^enquanto&lt;adv&gt;$ 0.3333333
^mientras~que&lt;cnjadv&gt;$ ^enquanto&lt;adv&gt;$ 0.3333333
^liberal&lt;adj&gt;&lt;mf&gt;&lt;pl&gt;$ ^enquanto&lt;adv&gt;$ 0.3333333
^pues&lt;cnjadv&gt;$ ^ter#~de&lt;vblex&gt;&lt;fti&gt;&lt;p3&gt;&lt;sg&gt;$ 0.5000000
^hay&lt;vblex&gt;&lt;pri&gt;&lt;p3&gt;&lt;sg&gt;$ ^ter#~de&lt;vblex&gt;&lt;fti&gt;&lt;p3&gt;&lt;sg&gt;$ 0.5000000
^resultar&lt;vblex&gt;&lt;pri&gt;&lt;p3&gt;&lt;pl&gt;$ ^se&lt;prn&gt;&lt;enc&gt;&lt;ref&gt;&lt;p3&gt;&lt;mf&gt;&lt;sp&gt;$ 0.0232558
^mantener&lt;vblex&gt;&lt;ger&gt;$ ^se&lt;prn&gt;&lt;enc&gt;&lt;ref&gt;&lt;p3&gt;&lt;mf&gt;&lt;sp&gt;$ 0.0232558
^familiarizar&lt;vblex&gt;&lt;pp&gt;&lt;m&gt;&lt;sg&gt;$ ^se&lt;prn&gt;&lt;enc&gt;&lt;ref&gt;&lt;p3&gt;&lt;mf&gt;&lt;sp&gt;$ 0.0232558
^unir&lt;vblex&gt;&lt;fti&gt;&lt;p3&gt;&lt;pl&gt;$ ^se&lt;prn&gt;&lt;enc&gt;&lt;ref&gt;&lt;p3&gt;&lt;mf&gt;&lt;sp&gt;$ 0.0232558
^que&lt;cnjsub&gt;$ ^se&lt;prn&gt;&lt;enc&gt;&lt;ref&gt;&lt;p3&gt;&lt;mf&gt;&lt;sp&gt;$ 0.0232558
^claramente&lt;adv&gt;$ ^se&lt;prn&gt;&lt;enc&gt;&lt;ref&gt;&lt;p3&gt;&lt;mf&gt;&lt;sp&gt;$ 0.0465116
^y&lt;cnjcoo&gt;$ ^se&lt;prn&gt;&lt;enc&gt;&lt;ref&gt;&lt;p3&gt;&lt;mf&gt;&lt;sp&gt;$ 0.0465116
^precisamente&lt;adv&gt;$ ^se&lt;prn&gt;&lt;enc&gt;&lt;ref&gt;&lt;p3&gt;&lt;mf&gt;&lt;sp&gt;$ 0.0232558
^reforzar&lt;vblex&gt;&lt;pp&gt;&lt;f&gt;&lt;sg&gt;$ ^se&lt;prn&gt;&lt;enc&gt;&lt;ref&gt;&lt;p3&gt;&lt;mf&gt;&lt;sp&gt;$ 0.0232558
^incluir&lt;vblex&gt;&lt;pp&gt;&lt;f&gt;&lt;sg&gt;$ ^se&lt;prn&gt;&lt;enc&gt;&lt;ref&gt;&lt;p3&gt;&lt;mf&gt;&lt;sp&gt;$ 0.0232558
^ir&lt;vblex&gt;&lt;prs&gt;&lt;p3&gt;&lt;pl&gt;$ ^se&lt;prn&gt;&lt;enc&gt;&lt;ref&gt;&lt;p3&gt;&lt;mf&gt;&lt;sp&gt;$ 0.0232558
^agravar&lt;vblex&gt;&lt;pri&gt;&lt;p3&gt;&lt;sg&gt;$ ^se&lt;prn&gt;&lt;enc&gt;&lt;ref&gt;&lt;p3&gt;&lt;mf&gt;&lt;sp&gt;$ 0.0232558
^sostenible&lt;adj&gt;&lt;mf&gt;&lt;sg&gt;$ ^se&lt;prn&gt;&lt;enc&gt;&lt;ref&gt;&lt;p3&gt;&lt;mf&gt;&lt;sp&gt;$ 0.0232558
^superar&lt;vblex&gt;&lt;inf&gt;$ ^se&lt;prn&gt;&lt;enc&gt;&lt;ref&gt;&lt;p3&gt;&lt;mf&gt;&lt;sp&gt;$ 0.0232558
^ascender&lt;vblex&gt;&lt;pri&gt;&lt;p3&gt;&lt;sg&gt;$ ^se&lt;prn&gt;&lt;enc&gt;&lt;ref&gt;&lt;p3&gt;&lt;mf&gt;&lt;sp&gt;$ 0.0232558
^sino&lt;cnjcoo&gt;$ ^se&lt;prn&gt;&lt;enc&gt;&lt;ref&gt;&lt;p3&gt;&lt;mf&gt;&lt;sp&gt;$ 0.0232558
^pan&lt;n&gt;&lt;m&gt;&lt;sg&gt;$ ^se&lt;prn&gt;&lt;enc&gt;&lt;ref&gt;&lt;p3&gt;&lt;mf&gt;&lt;sp&gt;$ 0.0232558
^mantener&lt;vblex&gt;&lt;pri&gt;&lt;p3&gt;&lt;sg&gt;$ ^se&lt;prn&gt;&lt;enc&gt;&lt;ref&gt;&lt;p3&gt;&lt;mf&gt;&lt;sp&gt;$ 0.0232558
^deber&lt;vbmod&gt;&lt;cni&gt;&lt;p3&gt;&lt;pl&gt;$ ^se&lt;prn&gt;&lt;enc&gt;&lt;ref&gt;&lt;p3&gt;&lt;mf&gt;&lt;sp&gt;$ 0.0232558
^sustituir&lt;vblex&gt;&lt;inf&gt;$ ^se&lt;prn&gt;&lt;enc&gt;&lt;ref&gt;&lt;p3&gt;&lt;mf&gt;&lt;sp&gt;$ 0.0232558
^encontrar&lt;vblex&gt;&lt;pri&gt;&lt;p3&gt;&lt;sg&gt;$ ^se&lt;prn&gt;&lt;enc&gt;&lt;ref&gt;&lt;p3&gt;&lt;mf&gt;&lt;sp&gt;$ 0.0232558
^dramáticamente&lt;adv&gt;$ ^se&lt;prn&gt;&lt;enc&gt;&lt;ref&gt;&lt;p3&gt;&lt;mf&gt;&lt;sp&gt;$ 0.0232558
^pasarse&lt;vblex&gt;&lt;cni&gt;&lt;p3&gt;&lt;sg&gt;$ ^se&lt;prn&gt;&lt;enc&gt;&lt;ref&gt;&lt;p3&gt;&lt;mf&gt;&lt;sp&gt;$ 0.0232558
^se&lt;prn&gt;&lt;pro&gt;&lt;ref&gt;&lt;p3&gt;&lt;mf&gt;&lt;sp&gt;$ ^se&lt;prn&gt;&lt;enc&gt;&lt;ref&gt;&lt;p3&gt;&lt;mf&gt;&lt;sp&gt;$ 0.0930233
^ser&lt;vbser&gt;&lt;ger&gt;$ ^se&lt;prn&gt;&lt;enc&gt;&lt;ref&gt;&lt;p3&gt;&lt;mf&gt;&lt;sp&gt;$ 0.0232558
^recordar&lt;vblex&gt;&lt;pp&gt;&lt;m&gt;&lt;sg&gt;$ ^se&lt;prn&gt;&lt;enc&gt;&lt;ref&gt;&lt;p3&gt;&lt;mf&gt;&lt;sp&gt;$ 0.0232558
^permanecer&lt;vblex&gt;&lt;inf&gt;$ ^se&lt;prn&gt;&lt;enc&gt;&lt;ref&gt;&lt;p3&gt;&lt;mf&gt;&lt;sp&gt;$ 0.0232558
^el&lt;det&gt;&lt;def&gt;&lt;m&gt;&lt;sg&gt;$ ^se&lt;prn&gt;&lt;enc&gt;&lt;ref&gt;&lt;p3&gt;&lt;mf&gt;&lt;sp&gt;$ 0.0465116
NULL ^se&lt;prn&gt;&lt;enc&gt;&lt;ref&gt;&lt;p3&gt;&lt;mf&gt;&lt;sp&gt;$ 0.1395349
^aludir&lt;vblex&gt;&lt;pri&gt;&lt;p3&gt;&lt;sg&gt;$ ^se&lt;prn&gt;&lt;enc&gt;&lt;ref&gt;&lt;p3&gt;&lt;mf&gt;&lt;sp&gt;$ 0.0232558
^consolidar&lt;vblex&gt;&lt;pp&gt;&lt;m&gt;&lt;sg&gt;$ ^se&lt;prn&gt;&lt;enc&gt;&lt;ref&gt;&lt;p3&gt;&lt;mf&gt;&lt;sp&gt;$ 0.0232558
^pie&lt;n&gt;&lt;m&gt;&lt;sg&gt;$ ^se&lt;prn&gt;&lt;enc&gt;&lt;ref&gt;&lt;p3&gt;&lt;mf&gt;&lt;sp&gt;$ 0.0232558
^*burocracia$ ^*burocracia$ 1.0000000
^*disentido$ ^*bastantes$ 0.5000000
^repetidamente&lt;adv&gt;$ ^*bastantes$ 0.5000000
NULL ^ontem~à~noite&lt;adv&gt;$ 1.0000000
^recibir&lt;vblex&gt;&lt;prs&gt;&lt;p3&gt;&lt;sg&gt;$ ^receber&lt;vblex&gt;&lt;prs&gt;&lt;p1&gt;&lt;sg&gt;$ 1.0000000
^presente&lt;n&gt;&lt;m&gt;&lt;pl&gt;$ ^apresentar&lt;vblex&gt;&lt;pp&gt;&lt;f&gt;&lt;pl&gt;$ 0.1666667
^dar&lt;vblex&gt;&lt;pri&gt;&lt;p1&gt;&lt;pl&gt;$ ^apresentar&lt;vblex&gt;&lt;pp&gt;&lt;f&gt;&lt;pl&gt;$ 0.1666667
^en&lt;pr&gt;$ ^apresentar&lt;vblex&gt;&lt;pp&gt;&lt;f&gt;&lt;pl&gt;$ 0.3333333
NULL ^apresentar&lt;vblex&gt;&lt;pp&gt;&lt;f&gt;&lt;pl&gt;$ 0.1666667
^informe&lt;n&gt;&lt;m&gt;&lt;pl&gt;$ ^apresentar&lt;vblex&gt;&lt;pp&gt;&lt;f&gt;&lt;pl&gt;$ 0.1666667
^absorción&lt;n&gt;&lt;f&gt;&lt;pl&gt;$ ^gigantesco&lt;adj&gt;&lt;f&gt;&lt;pl&gt;$ 1.0000000
^contribuir&lt;vblex&gt;&lt;pp&gt;&lt;m&gt;&lt;sg&gt;$ ^algo&lt;prn&gt;&lt;tn&gt;&lt;nt&gt;&lt;sg&gt;$ 0.3333333
NULL ^algo&lt;prn&gt;&lt;tn&gt;&lt;nt&gt;&lt;sg&gt;$ 0.3333333
^resaltar&lt;vblex&gt;&lt;inf&gt;$ ^algo&lt;prn&gt;&lt;tn&gt;&lt;nt&gt;&lt;sg&gt;$ 0.3333333
^deber&lt;vbmod&gt;&lt;pp&gt;&lt;m&gt;&lt;sg&gt;$ ^ter#~de&lt;vblex&gt;&lt;ifi&gt;&lt;p3&gt;&lt;sg&gt;$ 0.5000000
^haber&lt;vbhaver&gt;&lt;pri&gt;&lt;p3&gt;&lt;sg&gt;$ ^ter#~de&lt;vblex&gt;&lt;ifi&gt;&lt;p3&gt;&lt;sg&gt;$ 0.5000000
^cambio&lt;n&gt;&lt;m&gt;&lt;sg&gt;$ ^contrapartida&lt;n&gt;&lt;f&gt;&lt;sg&gt;$ 1.0000000
^Este&lt;det&gt;&lt;dem&gt;&lt;f&gt;&lt;sg&gt;$ ^presente&lt;adj&gt;&lt;mf&gt;&lt;sg&gt;$ 0.2000000
^el&lt;det&gt;&lt;def&gt;&lt;m&gt;&lt;sg&gt;$ ^presente&lt;adj&gt;&lt;mf&gt;&lt;sg&gt;$ 0.2000000
^presente&lt;adj&gt;&lt;mf&gt;&lt;sg&gt;$ ^presente&lt;adj&gt;&lt;mf&gt;&lt;sg&gt;$ 0.4000000
^aquí&lt;adv&gt;$ ^presente&lt;adj&gt;&lt;mf&gt;&lt;sg&gt;$ 0.2000000
^Ser&lt;vbser&gt;&lt;pii&gt;&lt;p3&gt;&lt;sg&gt;$ ^ser&lt;vbser&gt;&lt;ifi&gt;&lt;p3&gt;&lt;sg&gt;$ 0.0181818
^firmar&lt;vblex&gt;&lt;pp&gt;&lt;m&gt;&lt;sg&gt;$ ^ser&lt;vbser&gt;&lt;ifi&gt;&lt;p3&gt;&lt;sg&gt;$ 0.0181818
NULL ^ser&lt;vbser&gt;&lt;ifi&gt;&lt;p3&gt;&lt;sg&gt;$ 0.0181818
^datar&lt;vblex&gt;&lt;pri&gt;&lt;p3&gt;&lt;sg&gt;$ ^ser&lt;vbser&gt;&lt;ifi&gt;&lt;p3&gt;&lt;sg&gt;$ 0.0181818
^Así&lt;adv&gt;$ ^ser&lt;vbser&gt;&lt;ifi&gt;&lt;p3&gt;&lt;sg&gt;$ 0.0181818
^se&lt;prn&gt;&lt;pro&gt;&lt;ref&gt;&lt;p3&gt;&lt;mf&gt;&lt;sp&gt;$ ^ser&lt;vbser&gt;&lt;ifi&gt;&lt;p3&gt;&lt;sg&gt;$ 0.2363636
^hacer&lt;vblex&gt;&lt;pii&gt;&lt;p3&gt;&lt;sg&gt;$ ^ser&lt;vbser&gt;&lt;ifi&gt;&lt;p3&gt;&lt;sg&gt;$ 0.0181818
^ser&lt;vbser&gt;&lt;ifi&gt;&lt;p3&gt;&lt;sg&gt;$ ^ser&lt;vbser&gt;&lt;ifi&gt;&lt;p3&gt;&lt;sg&gt;$ 0.0727273
^también&lt;adv&gt;$ ^ser&lt;vbser&gt;&lt;ifi&gt;&lt;p3&gt;&lt;sg&gt;$ 0.0363636
^ir&lt;vblex&gt;&lt;pri&gt;&lt;p3&gt;&lt;sg&gt;$ ^ser&lt;vbser&gt;&lt;ifi&gt;&lt;p3&gt;&lt;sg&gt;$ 0.0181818
^de~verdad&lt;adv&gt;$ ^ser&lt;vbser&gt;&lt;ifi&gt;&lt;p3&gt;&lt;sg&gt;$ 0.0181818
^tomar&lt;vblex&gt;&lt;pp&gt;&lt;m&gt;&lt;sg&gt;$ ^ser&lt;vbser&gt;&lt;ifi&gt;&lt;p3&gt;&lt;sg&gt;$ 0.0181818
^ser&lt;vbser&gt;&lt;pp&gt;&lt;m&gt;&lt;sg&gt;$ ^ser&lt;vbser&gt;&lt;ifi&gt;&lt;p3&gt;&lt;sg&gt;$ 0.1454545
^haber&lt;vbhaver&gt;&lt;pri&gt;&lt;p1&gt;&lt;pl&gt;$ ^ser&lt;vbser&gt;&lt;ifi&gt;&lt;p3&gt;&lt;sg&gt;$ 0.0181818
^haber&lt;vbhaver&gt;&lt;pri&gt;&lt;p3&gt;&lt;sg&gt;$ ^ser&lt;vbser&gt;&lt;ifi&gt;&lt;p3&gt;&lt;sg&gt;$ 0.3272727
^mercado&lt;n&gt;&lt;m&gt;&lt;sg&gt;$ ^mercado&lt;n&gt;&lt;m&gt;&lt;sg&gt;$ 0.9142857
^mercado&lt;n&gt;&lt;m&gt;&lt;pl&gt;$ ^mercado&lt;n&gt;&lt;m&gt;&lt;sg&gt;$ 0.0285714
^dominante&lt;adj&gt;&lt;mf&gt;&lt;sg&gt;$ ^mercado&lt;n&gt;&lt;m&gt;&lt;sg&gt;$ 0.0285714
^Mercado&lt;n&gt;&lt;m&gt;&lt;sg&gt;$ ^mercado&lt;n&gt;&lt;m&gt;&lt;sg&gt;$ 0.0285714
^político&lt;adj&gt;&lt;m&gt;&lt;pl&gt;$ ^político&lt;adj&gt;&lt;f&gt;&lt;sg&gt;$ 0.3333333
^político&lt;adj&gt;&lt;f&gt;&lt;sg&gt;$ ^político&lt;adj&gt;&lt;f&gt;&lt;sg&gt;$ 0.6666667
^cuenta&lt;n&gt;&lt;f&gt;&lt;sg&gt;$ ^periférico&lt;adj&gt;&lt;f&gt;&lt;pl&gt;$ 1.0000000
^a&lt;pr&gt;$ ^costume&lt;n&gt;&lt;m&gt;&lt;sg&gt;$ 0.5000000
^escuchar&lt;vblex&gt;&lt;fti&gt;&lt;p1&gt;&lt;pl&gt;$ ^costume&lt;n&gt;&lt;m&gt;&lt;sg&gt;$ 0.5000000
^trasladar&lt;vblex&gt;&lt;ger&gt;$ ^Deslocar&lt;vblex&gt;&lt;ger&gt;$ 0.3333333
^Poder&lt;vbmod&gt;&lt;pri&gt;&lt;p1&gt;&lt;pl&gt;$ ^Deslocar&lt;vblex&gt;&lt;ger&gt;$ 0.3333333
^evitar&lt;vblex&gt;&lt;inf&gt;$ ^Deslocar&lt;vblex&gt;&lt;ger&gt;$ 0.3333333
^también&lt;adv&gt;$ ^naturalmente&lt;adv&gt;$ 0.3333333
^con&lt;pr&gt;$ ^naturalmente&lt;adv&gt;$ 0.1666667
^,&lt;cm&gt;$ ^naturalmente&lt;adv&gt;$ 0.3333333
^compartir&lt;vblex&gt;&lt;pri&gt;&lt;p3&gt;&lt;pl&gt;$ ^naturalmente&lt;adv&gt;$ 0.1666667
^frío&lt;adj&gt;&lt;m&gt;&lt;sg&gt;$ ^clima&lt;n&gt;&lt;m&gt;&lt;sg&gt;$ 1.0000000
^*Señorías$ ^estimado&lt;n&gt;&lt;m&gt;&lt;pl&gt;$ 1.0000000
^decisión&lt;n&gt;&lt;f&gt;&lt;pl&gt;$ ^decisão&lt;n&gt;&lt;f&gt;&lt;pl&gt;$ 0.8333333
^existir&lt;vblex&gt;&lt;pri&gt;&lt;p3&gt;&lt;pl&gt;$ ^decisão&lt;n&gt;&lt;f&gt;&lt;pl&gt;$ 0.1666667
^reanudar&lt;vblex&gt;&lt;pp&gt;&lt;m&gt;&lt;sg&gt;$ ^reabrir&lt;vblex&gt;&lt;pp&gt;&lt;f&gt;&lt;sg&gt;$ 1.0000000
^Le&lt;prn&gt;&lt;pro&gt;&lt;p3&gt;&lt;mf&gt;&lt;pl&gt;$ ^Poder&lt;vbmod&gt;&lt;pri&gt;&lt;p1&gt;&lt;sg&gt;$ 0.2500000
^Poder&lt;vbmod&gt;&lt;pri&gt;&lt;p1&gt;&lt;sg&gt;$ ^Poder&lt;vbmod&gt;&lt;pri&gt;&lt;p1&gt;&lt;sg&gt;$ 0.2500000
^poder&lt;vbmod&gt;&lt;pri&gt;&lt;p1&gt;&lt;sg&gt;$ ^Poder&lt;vbmod&gt;&lt;pri&gt;&lt;p1&gt;&lt;sg&gt;$ 0.2500000
^No&lt;adv&gt;$ ^Poder&lt;vbmod&gt;&lt;pri&gt;&lt;p1&gt;&lt;sg&gt;$ 0.2500000
^haber&lt;vbhaver&gt;&lt;pri&gt;&lt;p3&gt;&lt;sg&gt;$ ^ter&lt;vbhaver&gt;&lt;prs&gt;&lt;p1&gt;&lt;sg&gt;$ 0.5000000
^votar&lt;vblex&gt;&lt;ifi&gt;&lt;p1&gt;&lt;sg&gt;$ ^ter&lt;vbhaver&gt;&lt;prs&gt;&lt;p1&gt;&lt;sg&gt;$ 0.5000000
^legítimo&lt;adj&gt;&lt;m&gt;&lt;pl&gt;$ ^legítimo&lt;adj&gt;&lt;m&gt;&lt;pl&gt;$ 1.0000000
^equilibrio&lt;n&gt;&lt;m&gt;&lt;sg&gt;$ ^proporcionar&lt;vblex&gt;&lt;inf&gt;$ 1.0000000
^dos&lt;num&gt;&lt;mf&gt;&lt;sp&gt;$ ^dois&lt;num&gt;&lt;f&gt;&lt;sp&gt;$ 0.8333333
^ambas&lt;prn&gt;&lt;tn&gt;&lt;f&gt;&lt;pl&gt;$ ^dois&lt;num&gt;&lt;f&gt;&lt;sp&gt;$ 0.1666667
^retraso&lt;n&gt;&lt;m&gt;&lt;sg&gt;$ ^país&lt;n&gt;&lt;m&gt;&lt;pl&gt;$ 0.0434783
^país&lt;n&gt;&lt;m&gt;&lt;pl&gt;$ ^país&lt;n&gt;&lt;m&gt;&lt;pl&gt;$ 0.9565217
^extraordinariamente&lt;adv&gt;$ ^extraordinariamente&lt;adv&gt;$ 1.0000000
^7&lt;num&gt;$ ^7&lt;num&gt;$ 1.0000000
^estímulo&lt;n&gt;&lt;m&gt;&lt;pl&gt;$ ^estimulante&lt;adj&gt;&lt;mf&gt;&lt;pl&gt;$ 1.0000000
NULL ^tornar&lt;vblex&gt;&lt;pri&gt;&lt;p3&gt;&lt;sg&gt;$ 1.0000000
^esto&lt;prn&gt;&lt;tn&gt;&lt;nt&gt;$ ^leve&lt;adj&gt;&lt;mf&gt;&lt;sg&gt;$ 0.5000000
^tomar&lt;vblex&gt;&lt;prs&gt;&lt;p3&gt;&lt;sg&gt;$ ^leve&lt;adj&gt;&lt;mf&gt;&lt;sg&gt;$ 0.5000000
^notificar&lt;vblex&gt;&lt;inf&gt;$ ^caso&lt;n&gt;&lt;m&gt;&lt;sg&gt;$ 0.0833333
^especialmente&lt;adv&gt;$ ^caso&lt;n&gt;&lt;m&gt;&lt;sg&gt;$ 0.0833333
^caso&lt;n&gt;&lt;m&gt;&lt;sg&gt;$ ^caso&lt;n&gt;&lt;m&gt;&lt;sg&gt;$ 0.5833333
NULL ^caso&lt;n&gt;&lt;m&gt;&lt;sg&gt;$ 0.1666667
^estreno&lt;n&gt;&lt;m&gt;&lt;sg&gt;$ ^caso&lt;n&gt;&lt;m&gt;&lt;sg&gt;$ 0.0833333
^código&lt;n&gt;&lt;m&gt;&lt;sg&gt;$ ^código&lt;n&gt;&lt;m&gt;&lt;sg&gt;$ 0.3333333
^Código&lt;n&gt;&lt;m&gt;&lt;sg&gt;$ ^código&lt;n&gt;&lt;m&gt;&lt;sg&gt;$ 0.6666667
^adecuado&lt;adj&gt;&lt;m&gt;&lt;sg&gt;$ ^utilização&lt;n&gt;&lt;f&gt;&lt;sg&gt;$ 1.0000000
^a&lt;pr&gt;$ ^servir&lt;vblex&gt;&lt;inf&gt;$ 0.5000000
^servicio&lt;n&gt;&lt;m&gt;&lt;sg&gt;$ ^servir&lt;vblex&gt;&lt;inf&gt;$ 0.5000000
^cuatro&lt;num&gt;&lt;mf&gt;&lt;sp&gt;$ ^quatro&lt;num&gt;&lt;mf&gt;&lt;sp&gt;$ 1.0000000
^consecutivo&lt;adj&gt;&lt;f&gt;&lt;sg&gt;$ ^sequência&lt;n&gt;&lt;f&gt;&lt;sg&gt;$ 1.0000000
