NULL ^el~mismo<det><ind><m><pl>$ 1.0000000
^reason<n><pl>$ ^término<n><m><pl>$ 0.5000000
^for<pr>$ ^término<n><m><pl>$ 0.5000000
^so<cnjadv>$ ^de~manera~que<cnjadv>$ 0.3333333
^so<preadv>$ ^de~manera~que<cnjadv>$ 0.3333333
^and<cnjcoo>$ ^de~manera~que<cnjadv>$ 0.3333333
^strong<adj><sint><sup>$ ^centro<n><m><pl>$ 1.0000000
^85<num>$ ^85<num>$ 1.0000000
^scheme<n><pl>$ ^financiación<n><f><sg>$ 0.2500000
^to<pr>$ ^financiación<n><f><sg>$ 0.5000000
^link<vblex><inf>$ ^financiación<n><f><sg>$ 0.2500000
^have<vbhaver><pri><p3><sg>$ ^*CEN$ 0.1666667
^*CEN$ ^*CEN$ 0.6666667
^work<n><sg>$ ^*CEN$ 0.1666667
^thing<n><sg>$ ^propuesta<n><f><sg>$ 0.0434783
^164<num>$ ^propuesta<n><f><sg>$ 0.0434783
^*PPE$ ^propuesta<n><f><sg>$ 0.0434783
^*s$ ^propuesta<n><f><sg>$ 0.0869565
NULL ^propuesta<n><f><sg>$ 0.0434783
^'<apos>$ ^propuesta<n><f><sg>$ 0.0869565
^proposal<n><pl>$ ^propuesta<n><f><sg>$ 0.0434783
^take#~responsibility<vblex><inf>$ ^propuesta<n><f><sg>$ 0.0434783
^proposal<n><sg>$ ^propuesta<n><f><sg>$ 0.5652174
^again<adv>$ ^plano<n><m><sg>$ 0.3333333
^*forefront$ ^plano<n><m><sg>$ 0.3333333
^at<pr>$ ^plano<n><m><sg>$ 0.3333333
^considerable<adj>$ ^seriamente<adv>$ 0.2500000
^be<vbser><inf>$ ^seriamente<adv>$ 0.2500000
^behind<adv>$ ^seriamente<adv>$ 0.2500000
^disadvantage<n><sg>$ ^seriamente<adv>$ 0.2500000
^be<vbser><pri><p3><sg>$ ^el~que<rel><nn><f><pl>$ 0.5000000
^knowledge<n><sg>$ ^el~que<rel><nn><f><pl>$ 0.5000000
^unanimously<adv>$ ^*comitología$ 1.0000000
^benefit<n><sg>$ ^encabezar<vblex><pri><p3><pl>$ 0.5000000
^from<pr>$ ^encabezar<vblex><pri><p3><pl>$ 0.5000000
^at~present<adv>$ ^de~momento<adv>$ 1.0000000
^which<prn><itg><m><sp>$ ^inspiración<n><f><sg>$ 0.2500000
^prpers<prn><obj><p1><mf><pl>$ ^inspiración<n><f><sg>$ 0.2500000
^this<prn><tn><mf><sg>$ ^inspiración<n><f><sg>$ 0.2500000
^inspire<vblex><past>$ ^inspiración<n><f><sg>$ 0.2500000
^take#~place<vblex><pp>$ ^haber<vbhaver><pis><p3><pl>$ 0.5000000
^have<vbhaver><inf>$ ^haber<vbhaver><pis><p3><pl>$ 0.5000000
^refer<vblex><inf>$ ^problema<n><m><sg>$ 0.1666667
^matter<n><sg>$ ^problema<n><m><sg>$ 0.1666667
^problem<n><sg>$ ^problema<n><m><sg>$ 0.5000000
^great<adj><sint><sup>$ ^problema<n><m><sg>$ 0.1666667
^without<pr>$ ^existir<vblex><pp><m><sg>$ 0.5000000
^take#~place<vblex><pp>$ ^existir<vblex><pp><m><sg>$ 0.5000000
^sit<vblex><ger>$ ^miércoles<n><m><sp>$ 0.2000000
^Wednesday<n><sg>$ ^miércoles<n><m><sp>$ 0.6000000
^relate<vblex><ger>$ ^miércoles<n><m><sp>$ 0.2000000
^as<cnjadv>$ ^precedente<n><m><sg>$ 0.3333333
^test<n><sg>$ ^precedente<n><m><sg>$ 0.3333333
^good<adj><sint>$ ^precedente<n><m><sg>$ 0.3333333
^lawyer<n><pl>$ ^especializado<adj><m><pl>$ 1.0000000
^on<adv>$ ^jueves<n><m><sp>$ 0.2857143
^Thursday<n><sg>$ ^jueves<n><m><sp>$ 0.5714286
^president<n><pl>$ ^jueves<n><m><sp>$ 0.1428571
^globalisation<n><sg>$ ^globalización<n><f><sg>$ 0.3333333
^*eastward$ ^globalización<n><f><sg>$ 0.3333333
^how<adv><itg>$ ^globalización<n><f><sg>$ 0.3333333
^in<pr>$ ^*Ginebra$ 0.5000000
^Geneva<np><ant><f><sg>$ ^*Ginebra$ 0.5000000
^yesterday~afternoon<adv>$ ^hacer<vblex><pp><f><sg>$ 0.5000000
^invitation<n><sg>$ ^hacer<vblex><pp><f><sg>$ 0.5000000
^remote<adj>$ ^*ultramar$ 1.0000000
^hat<n><sg>$ ^seguro<adj><m><sg>$ 1.0000000
^technology<n><sg>$ ^tecnología<n><f><pl>$ 1.0000000
^from<pr>$ ^aplauso<n><m><pl>$ 0.5000000
^applause<n><sg>$ ^aplauso<n><m><pl>$ 0.5000000
^imagine<vblex><inf>$ ^poder<vbmod><pri><p1><sg>$ 0.0769231
^live<vblex><inf>$ ^poder<vbmod><pri><p1><sg>$ 0.0769231
^share<vblex><inf>$ ^poder<vbmod><pri><p1><sg>$ 0.0769231
^object<n><sg>$ ^poder<vbmod><pri><p1><sg>$ 0.0769231
^tell<vblex><inf>$ ^poder<vbmod><pri><p1><sg>$ 0.0769231
^can<vaux><pres>$ ^poder<vbmod><pri><p1><sg>$ 0.3076923
^prpers<prn><subj><p1><mf><sg>$ ^poder<vbmod><pri><p1><sg>$ 0.3076923
^step#~forward<n><pl>$ ^paso<n><m><pl>$ 1.0000000
^beyond<adv>$ ^ir<vblex><pri><p3><sg>$ 0.1250000
NULL ^ir<vblex><pri><p3><sg>$ 0.1250000
^shortly<adv>$ ^ir<vblex><pri><p3><sg>$ 0.1250000
^so~much<adv>$ ^ir<vblex><pri><p3><sg>$ 0.1250000
^will<vaux><inf>$ ^ir<vblex><pri><p3><sg>$ 0.3750000
^less<adv>$ ^ir<vblex><pri><p3><sg>$ 0.1250000
^living<adj>$ ^para<pr>$ 0.0086207
^evening<n><sg>$ ^para<pr>$ 0.0086207
^goal<n><pl>$ ^para<pr>$ 0.0086207
^young<adj><sint>$ ^para<pr>$ 0.0086207
^regulate<vblex><inf>$ ^para<pr>$ 0.0086207
^propose<vblex><inf>$ ^para<pr>$ 0.0086207
^county<n><pl>$ ^para<pr>$ 0.0086207
^*DE$ ^para<pr>$ 0.0086207
^endorse<vblex><inf>$ ^para<pr>$ 0.0086207
^basic<adj>$ ^para<pr>$ 0.0086207
^forthcoming<adj>$ ^para<pr>$ 0.0086207
^conclude<vblex><inf>$ ^para<pr>$ 0.0086207
^challenge<vblex><inf>$ ^para<pr>$ 0.0086207
^obstacle<n><sg>$ ^para<pr>$ 0.0086207
^powerful<adj>$ ^para<pr>$ 0.0086207
^achieve<vblex><ger>$ ^para<pr>$ 0.0086207
^advise<vblex><inf>$ ^para<pr>$ 0.0086207
^attend<vblex><inf>$ ^para<pr>$ 0.0086207
^creation<n><sg>$ ^para<pr>$ 0.0086207
^core<n><sg>$ ^para<pr>$ 0.0086207
^chance<n><sg>$ ^para<pr>$ 0.0172414
^cross<n><sg>$ ^para<pr>$ 0.0086207
^prevent<vblex><inf>$ ^para<pr>$ 0.0086207
^for<pr>$ ^para<pr>$ 0.2758621
^consequence<n><pl>$ ^para<pr>$ 0.0086207
^regard<vblex><ger>$ ^para<pr>$ 0.0086207
^lay<vblex><pp>$ ^para<pr>$ 0.0086207
^out<pr>$ ^para<pr>$ 0.0086207
^comment<vblex><inf>$ ^para<pr>$ 0.0086207
^can<n><sg>$ ^para<pr>$ 0.0086207
^vital<adj>$ ^para<pr>$ 0.0086207
^uniform<adj>$ ^para<pr>$ 0.0086207
^to<pr>$ ^para<pr>$ 0.2500000
^test<n><sg>$ ^para<pr>$ 0.0086207
^good<adj><sint><comp>$ ^para<pr>$ 0.0086207
^develop<vblex><inf>$ ^para<pr>$ 0.0086207
^alleviate<vblex><inf>$ ^para<pr>$ 0.0086207
^force<vblex><inf>$ ^para<pr>$ 0.0086207
^meeting<n><sg>$ ^para<pr>$ 0.0086207
^*compliments$ ^para<pr>$ 0.0086207
^effect<n><pl>$ ^para<pr>$ 0.0086207
^in~order~to<pr>$ ^para<pr>$ 0.0431034
NULL ^para<pr>$ 0.0862069
^*s$ ^una~vez<adv>$ 1.0000000
^set<vblex><pp>$ ^ello<prn><tn><nt>$ 0.0555556
^oblige<vblex><pp>$ ^ello<prn><tn><nt>$ 0.0555556
^follow<vblex><pri><p3><sg>$ ^ello<prn><tn><nt>$ 0.0555556
^this<det><dem><sg>$ ^ello<prn><tn><nt>$ 0.1111111
^be<vbser><pri><p3><sg>$ ^ello<prn><tn><nt>$ 0.1111111
NULL ^ello<prn><tn><nt>$ 0.0555556
^this<prn><tn><mf><sg>$ ^ello<prn><tn><nt>$ 0.1666667
^lay<vblex><pp>$ ^ello<prn><tn><nt>$ 0.0555556
^note<n><sg>$ ^ello<prn><tn><nt>$ 0.0555556
^contribution<n><sg>$ ^ello<prn><tn><nt>$ 0.0555556
^to<pr>$ ^ello<prn><tn><nt>$ 0.0555556
^chance<n><sg>$ ^ello<prn><tn><nt>$ 0.1111111
^challenge<vblex><inf>$ ^ello<prn><tn><nt>$ 0.0555556
^7<num>$ ^7<num>$ 1.0000000
^González<np><cog><sg>$ ^González<np><cog><mf><sg>$ 1.0000000
^contain<vblex><pp>$ ^traducir<vblex><pp><m><sg>$ 1.0000000
^see<vblex><inf>$ ^reestructurar<vblex><prs><p3><sg>$ 1.0000000
^shall<vaux><inf>$ ^escuchar<vblex><prs><p1><pl>$ 0.3333333
^prpers<prn><subj><p1><mf><pl>$ ^escuchar<vblex><prs><p1><pl>$ 0.3333333
^now<adv>$ ^escuchar<vblex><prs><p1><pl>$ 0.3333333
^proper<adj>$ ^uso<n><m><sg>$ 1.0000000
^Sánchez<np><cog><sg>$ ^Sánchez<np><cog><mf><sg>$ 1.0000000
^right<adj>$ ^camino<n><m><sg>$ 0.1428571
^go#~in<vblex><ger>$ ^camino<n><m><sg>$ 0.1428571
^path<n><sg>$ ^camino<n><m><sg>$ 0.2857143
^forward<adv>$ ^camino<n><m><sg>$ 0.1428571
^way<n><sg>$ ^camino<n><m><sg>$ 0.2857143
^quick<adj><sint>$ ^ágil<adj><mf><sg>$ 1.0000000
^on<pr>$ ^siguiente<adj><mf><pl>$ 0.5000000
^following<adj>$ ^siguiente<adj><mf><pl>$ 0.5000000
^find<vblex><ger>$ ^encontrar<vblex><pri><p3><pl>$ 1.0000000
^nuisance<n><sg>$ ^escándalo<n><m><sg>$ 1.0000000
NULL ^por~eso<cnjadv>$ 1.0000000
^drive<vblex><inf>$ ^sacar#~adelante<vblex><inf>$ 0.2000000
^describe<vblex><pp>$ ^sacar#~adelante<vblex><inf>$ 0.2000000
^forward<adv>$ ^sacar#~adelante<vblex><inf>$ 0.2000000
^as<pr>$ ^sacar#~adelante<vblex><inf>$ 0.2000000
^what<prn><itg><m><sp>$ ^sacar#~adelante<vblex><inf>$ 0.2000000
^maiden<adj>$ ^eurodiputado<n><m><sg>$ 1.0000000
^respond<vblex><pres>$ ^traer<vblex><pri><p3><sg>$ 1.0000000
^question<vblex><pri><p3><sg>$ ^responder<vblex><inf>$ 0.1428571
^just<adv>$ ^responder<vblex><inf>$ 0.1428571
^answer<vblex><pp>$ ^responder<vblex><inf>$ 0.1428571
^must<vaux><inf>$ ^responder<vblex><inf>$ 0.1428571
^be<vbser><inf>$ ^responder<vblex><inf>$ 0.1428571
^two<num><sp>$ ^responder<vblex><inf>$ 0.1428571
^which<prn><itg><m><sp>$ ^responder<vblex><inf>$ 0.1428571
^meet<vblex><ger>$ ^reunión<n><f><sg>$ 0.5000000
^*Quaestors$ ^reunión<n><f><sg>$ 0.5000000
^minute<n><pl>$ ^minuto<n><m><pl>$ 1.0000000
^tool<n><sg>$ ^herramienta<n><f><sg>$ 1.0000000
^*EUR$ ^millón~de<num><mf><sp>$ 0.4000000
^million<num><sp>$ ^millón~de<num><mf><sp>$ 0.4000000
^capital<n><sg>$ ^millón~de<num><mf><sp>$ 0.2000000
^key<adj>$ ^clave<n><f><sg>$ 1.0000000
^onto<pr>$ ^a~la~larga<adv>$ 1.0000000
^'<apos>$ ^general<adj><mf><sg>$ 0.1250000
^general<adj>$ ^general<adj><mf><sg>$ 0.2500000
^attentive<adj>$ ^general<adj><mf><sg>$ 0.1250000
NULL ^general<adj><mf><sg>$ 0.1250000
^in~general<adv>$ ^general<adj><mf><sg>$ 0.3750000
^exclusion<n><sg>$ ^exclusión<n><f><sg>$ 1.0000000
^player<n><pl>$ ^división<n><f><sg>$ 0.3333333
^zoning<n><sg>$ ^división<n><f><sg>$ 0.6666667
^Basque~Country<np><loc><sg>$ ^País~Vasco<np><loc><m><sg>$ 1.0000000
^think<vblex><ger>$ ^en~especial<adv>$ 0.3333333
^in~particular<adv>$ ^en~especial<adv>$ 0.6666667
^begin<vblex><inf>$ ^querer<vbmod><pis><p3><sg>$ 0.0243902
^would<vaux><inf>$ ^querer<vbmod><pis><p3><sg>$ 0.1951220
^prpers<prn><subj><p1><mf><sg>$ ^querer<vbmod><pis><p3><sg>$ 0.3170732
^*commend$ ^querer<vbmod><pis><p3><sg>$ 0.0243902
^comment<vblex><ger>$ ^querer<vbmod><pis><p3><sg>$ 0.0243902
^should<vaux><inf>$ ^querer<vbmod><pis><p3><sg>$ 0.0975610
^like<vblex><inf>$ ^querer<vbmod><pis><p3><sg>$ 0.2682927
^like<vblex><pres>$ ^querer<vbmod><pis><p3><sg>$ 0.0487805
^*revitalising$ ^*revitalizar$ 0.5000000
^relation<n><pl>$ ^*revitalizar$ 0.5000000
^all<prn><tn><mf><sp>$ ^aportación<n><f><pl>$ 0.3333333
^accept<vblex><pri><p3><sg>$ ^aportación<n><f><pl>$ 0.3333333
^contribution<n><pl>$ ^aportación<n><f><pl>$ 0.3333333
^difference<n><sg>$ ^cambiar<vblex><cni><p3><sg>$ 0.3333333
^any<det><ind><sp>$ ^cambiar<vblex><cni><p3><sg>$ 0.3333333
^make<vblex><inf>$ ^cambiar<vblex><cni><p3><sg>$ 0.3333333
^*renationalisation$ ^*renacionalización$ 1.0000000
^work<n><sg>$ ^fuera~de<pr>$ 0.3333333
^outside<adj>$ ^fuera~de<pr>$ 0.3333333
^out~of<pr>$ ^fuera~de<pr>$ 0.3333333
^recommend<vblex><pp>$ ^presentar<vblex><pis><p3><sg>$ 1.0000000
^have<vblex><inf>$ ^ofrecer<vblex><prs><p3><pl>$ 1.0000000
^again<adv>$ ^diferente<adj><mf><pl>$ 0.5000000
^certain<adj>$ ^diferente<adj><mf><pl>$ 0.5000000
^delay<n><pl>$ ^alguno<det><qnt><m><pl>$ 0.1000000
^number<n><sg>$ ^alguno<det><qnt><m><pl>$ 0.1000000
^cause<vblex><pri><p3><sg>$ ^alguno<det><qnt><m><pl>$ 0.1000000
^some<det><qnt><sp>$ ^alguno<det><qnt><m><pl>$ 0.4000000
^specific<adj>$ ^alguno<det><qnt><m><pl>$ 0.1000000
^partially<adv>$ ^alguno<det><qnt><m><pl>$ 0.1000000
^of<pr>$ ^alguno<det><qnt><m><pl>$ 0.1000000
^continue<vblex><inf>$ ^animar<vblex><pri><p3><sg>$ 0.2000000
^encourage<vblex><inf>$ ^animar<vblex><pri><p3><sg>$ 0.2000000
^along<pr>$ ^animar<vblex><pri><p3><sg>$ 0.2000000
^prpers<prn><obj><p3><f><sg>$ ^animar<vblex><pri><p3><sg>$ 0.2000000
^will<vaux><inf>$ ^animar<vblex><pri><p3><sg>$ 0.2000000
^end<n><sg>$ ^final<n><m><sg>$ 1.0000000
^prpers<prn><subj><p1><mf><pl>$ ^acabar<vblex><pri><p1><pl>$ 1.0000000
^voice<n><pl>$ ^voz<n><f><pl>$ 0.5000000
^in~favour<adv>$ ^voz<n><f><pl>$ 0.5000000
^*unimpeded$ ^basar<vblex><pp><f><sg>$ 0.3333333
^subsidy<n><sg>$ ^basar<vblex><pp><f><sg>$ 0.3333333
^competition<n><sg>$ ^basar<vblex><pp><f><sg>$ 0.3333333
^extraordinarily<adv>$ ^provechoso<adj><m><sg>$ 0.3333333
^,<cm>$ ^provechoso<adj><m><sg>$ 0.3333333
^positive<adj>$ ^provechoso<adj><m><sg>$ 0.3333333
^therefore<adv>$ ^pues<adv>$ 0.7777778
^consequently<adv>$ ^pues<adv>$ 0.2222222
^that<det><dem><sg>$ ^*dramatizar$ 0.2000000
^*dramatised$ ^*dramatizar$ 0.2000000
^into<pr>$ ^*dramatizar$ 0.2000000
^more~than<pr>$ ^*dramatizar$ 0.2000000
^something<prn><tn><nt><sg>$ ^*dramatizar$ 0.2000000
^prepare<vblex><inf>$ ^preparar<vblex><prs><p3><sg>$ 1.0000000
^on<adv>$ ^votar<vblex><pri><p1><pl>$ 0.5000000
^vote<vblex><pres>$ ^votar<vblex><pri><p1><pl>$ 0.5000000
^specialise<vblex><past>$ ^unánimemente<adv>$ 1.0000000
^work<vblex><ger>$ ^estar<vblex><prs><p1><pl>$ 1.0000000
^arrangement<n><sg>$ ^adoptar<vblex><prs><p1><pl>$ 1.0000000
^-<guio>$ ^activamente<adv>$ 0.1666667
^in<pr>$ ^activamente<adv>$ 0.3333333
^prpers<prn><obj><p1><mf><pl>$ ^activamente<adv>$ 0.1666667
^active<adj>$ ^activamente<adv>$ 0.1666667
^supporting<adj>$ ^activamente<adv>$ 0.1666667
^since<pr>$ ^ya~que<cnjadv>$ 0.1666667
^message<n><sg>$ ^ya~que<cnjadv>$ 0.1666667
^floor<n><sg>$ ^ya~que<cnjadv>$ 0.1666667
^remove<vblex><pp>$ ^ya~que<cnjadv>$ 0.1666667
^because<cnjadv>$ ^ya~que<cnjadv>$ 0.3333333
^quality<n><sg>$ ^trabajo<n><m><sg>$ 0.0400000
^redundant<adj>$ ^trabajo<n><m><sg>$ 0.0400000
^job<n><pl>$ ^trabajo<n><m><sg>$ 0.2000000
^work<n><sg>$ ^trabajo<n><m><sg>$ 0.4000000
NULL ^trabajo<n><m><sg>$ 0.2000000
^job<n><sg>$ ^trabajo<n><m><sg>$ 0.0400000
^magnificent<adj>$ ^trabajo<n><m><sg>$ 0.0400000
^there<adv>$ ^trabajo<n><m><sg>$ 0.0400000
^market~economy<n><sg>$ ^economía<n><f><sg>$ 0.0769231
^at<pr>$ ^economía<n><f><sg>$ 0.0769231
NULL ^economía<n><f><sg>$ 0.0769231
^social<adj>$ ^economía<n><f><sg>$ 0.0769231
^economy<n><sg>$ ^economía<n><f><sg>$ 0.6153846
^size<n><sg>$ ^economía<n><f><sg>$ 0.0769231
^european<adj>$ ^beneficiar<vblex><pri><p3><sg>$ 1.0000000
^number<n><sg>$ ^número<n><m><sg>$ 1.0000000
^deliberation<n><pl>$ ^subsidiariedad<n><f><sg>$ 0.1666667
^*subsidiarity$ ^subsidiariedad<n><f><sg>$ 0.8333333
^be#~still~in<vblex><pres>$ ^todavía<adv>$ 0.3333333
^prpers<prn><subj><p3><mf><pl>$ ^todavía<adv>$ 0.3333333
^train<vblex><ger>$ ^todavía<adv>$ 0.3333333
^regardless<adv>$ ^añadir<vblex><inf>$ 0.5000000
^add<vblex><inf>$ ^añadir<vblex><inf>$ 0.5000000
^a<det><ind><sg>$ ^central<adj><mf><pl>$ 0.3333333
^experience<vblex><inf>$ ^central<adj><mf><pl>$ 0.3333333
^key~point<n><pl>$ ^central<adj><mf><pl>$ 0.3333333
^know<vblex><pres>$ ^saber<vblex><pp><m><sg>$ 0.3333333
^all<prn><tn><mf><sp>$ ^saber<vblex><pp><m><sg>$ 0.3333333
^prpers<prn><subj><p1><mf><pl>$ ^saber<vblex><pp><m><sg>$ 0.3333333
^widen<vblex><pres>$ ^pobre<adj><mf><pl>$ 0.2000000
^poor<adj><sint>$ ^pobre<adj><mf><pl>$ 0.8000000
^*Berend$ ^*Berend$ 1.0000000
^elected<n><pl>$ ^elegir<vblex><pp><m><pl>$ 1.0000000
^sit<vblex><ger>$ ^levantar<vblex><pri><p3><sg>$ 0.3333333
^close<vblex><pp>$ ^levantar<vblex><pri><p3><sg>$ 0.3333333
^be<vbser><past><p3><sg>$ ^levantar<vblex><pri><p3><sg>$ 0.3333333
^container<n><pl>$ ^peligroso<adj><f><pl>$ 0.0909091
^good<n><pl>$ ^peligroso<adj><f><pl>$ 0.1818182
^dangerous<adj>$ ^peligroso<adj><f><pl>$ 0.7272727
^reach<vblex><ger>$ ^es~decir<adv>$ 0.1428571
^prpers<prn><subj><p2><mf><sp>$ ^es~decir<adv>$ 0.1428571
^may<vaux><inf>$ ^es~decir<adv>$ 0.1428571
NULL ^es~decir<adv>$ 0.2857143
^i.e.<adv>$ ^es~decir<adv>$ 0.1428571
^namely<adv>$ ^es~decir<adv>$ 0.1428571
^*s$ ^silencio<n><m><sg>$ 0.4000000
^silence<n><sg>$ ^silencio<n><m><sg>$ 0.4000000
^'<apos>$ ^silencio<n><m><sg>$ 0.2000000
^one<prn><tn><mf><sg>$ ^mencionar<vblex><prs><p3><sg>$ 0.3333333
^final<adj>$ ^mencionar<vblex><prs><p3><sg>$ 0.3333333
^mention<vblex><inf>$ ^mencionar<vblex><prs><p3><sg>$ 0.3333333
^a<det><ind><sg>$ ^por~cierto<adv>$ 0.5000000
^minimum<n><sg>$ ^por~cierto<adv>$ 0.5000000
^appropriate<adj>$ ^pauta<n><f><pl>$ 0.3333333
^guidance<n><sg>$ ^pauta<n><f><pl>$ 0.3333333
^detail<vblex><pp>$ ^pauta<n><f><pl>$ 0.3333333
^in<pr>$ ^descenso<n><m><sg>$ 0.3333333
^and<cnjcoo>$ ^descenso<n><m><sg>$ 0.3333333
^fall<n><sg>$ ^descenso<n><m><sg>$ 0.3333333
^prpers<prn><subj><p1><mf><pl>$ ^deber<vbmod><pri><p1><pl>$ 0.4545455
^pay<vblex><inf>$ ^deber<vbmod><pri><p1><pl>$ 0.0909091
^give<vblex><inf>$ ^deber<vbmod><pri><p1><pl>$ 0.0909091
^question<vblex><pri><p3><sg>$ ^deber<vbmod><pri><p1><pl>$ 0.0909091
^lack<n><sg>$ ^deber<vbmod><pri><p1><pl>$ 0.0909091
^must<vaux><inf>$ ^deber<vbmod><pri><p1><pl>$ 0.0909091
^find<vblex><inf>$ ^deber<vbmod><pri><p1><pl>$ 0.0909091
^fund<n><sg>$ ^fondo<n><m><sg>$ 0.6666667
^assistance<n><sg>$ ^fondo<n><m><sg>$ 0.3333333
^next<adj>$ ^proceder<vblex><pri><p3><sg>$ 1.0000000
^small<adj><sint>$ ^pequeño<adj><m><sg>$ 1.0000000
^drop<vblex><ger>$ ^supresión<n><f><sg>$ 1.0000000
^do<vblex><pp>$ ^de~verdad<adv>$ 1.0000000
^on<pr>$ ^materia<n><f><sg>$ 0.3333333
NULL ^materia<n><f><sg>$ 0.1111111
^issue<n><sg>$ ^materia<n><f><sg>$ 0.1111111
^repayment<n><sg>$ ^materia<n><f><sg>$ 0.1111111
^field<n><sg>$ ^materia<n><f><sg>$ 0.1111111
^the<det><def><sp>$ ^materia<n><f><sg>$ 0.2222222
^theory<n><sg>$ ^económico<adj><f><pl>$ 0.3333333
^relationship<n><pl>$ ^económico<adj><f><pl>$ 0.3333333
^*livelihood$ ^económico<adj><f><pl>$ 0.3333333
^report<n><pl>$ ^informe<n><m><pl>$ 0.6000000
^report<vblex><pri><p3><sg>$ ^informe<n><m><pl>$ 0.1000000
^which<det><itg><sp>$ ^informe<n><m><pl>$ 0.1000000
NULL ^informe<n><m><pl>$ 0.1000000
^technical<adj>$ ^informe<n><m><pl>$ 0.1000000
^committee<n><sg>$ ^comité<n><m><sg>$ 1.0000000
^sit<vblex><ger>$ ^presentar<vblex><pri><p1><pl>$ 0.5000000
^plenary<n><sg>$ ^presentar<vblex><pri><p1><pl>$ 0.5000000
^Mr.<n><sg>$ ^colega<n><mf><sg>$ 0.0769231
NULL ^colega<n><mf><sg>$ 0.1538462
^*s$ ^colega<n><mf><sg>$ 0.0769231
^a<det><ind><sg>$ ^colega<n><mf><sg>$ 0.0769231
^*Fischler$ ^colega<n><mf><sg>$ 0.0769231
^*Jonckheer$ ^colega<n><mf><sg>$ 0.0769231
^who<prn><itg><m><sp>$ ^colega<n><mf><sg>$ 0.0769231
^wish<vblex><pri><p3><sg>$ ^colega<n><mf><sg>$ 0.0769231
^fellow<adj>$ ^colega<n><mf><sg>$ 0.0769231
^,<cm>$ ^colega<n><mf><sg>$ 0.2307692
^of<pr>$ ^control<n><m><sg>$ 0.4000000
NULL ^control<n><m><sg>$ 0.2000000
^enforcement<n><sg>$ ^control<n><m><sg>$ 0.4000000
^work<vblex><inf>$ ^emprender<vblex><inf>$ 0.3333333
^take<vblex><ger>$ ^emprender<vblex><inf>$ 0.3333333
^towards<pr>$ ^emprender<vblex><inf>$ 0.3333333
^here<adv>$ ^tratar<vblex><ger>$ 0.3333333
^do<vbdo><pri><p3><sg>$ ^tratar<vblex><ger>$ 0.3333333
^discuss<vblex><ger>$ ^tratar<vblex><ger>$ 0.3333333
^think#~that<vblex><pres>$ ^bien<preadv>$ 0.1666667
^this<det><dem><sg>$ ^bien<preadv>$ 0.1666667
^extremely<adv>$ ^bien<preadv>$ 0.1666667
NULL ^bien<preadv>$ 0.1666667
^carry<vblex><pp>$ ^bien<preadv>$ 0.1666667
^out<adv>$ ^bien<preadv>$ 0.1666667
NULL ^frecuencia<n><f><sg>$ 0.3333333
^often<adv>$ ^frecuencia<n><f><sg>$ 0.6666667
^committee<n><sg>$ ^parlamentario<adj><f><sg>$ 0.5000000
^champion<vblex><pp>$ ^parlamentario<adj><f><sg>$ 0.2500000
^parliamentary<adj>$ ^parlamentario<adj><f><sg>$ 0.2500000
^easy<adj><sint><comp>$ ^hijo<n><m><pl>$ 0.5000000
^little<det><qnt><sg>$ ^hijo<n><m><pl>$ 0.5000000
^obtain<vblex><ger>$ ^regular<vblex><pp><m><sg>$ 0.2500000
^be<vbser><pres>$ ^regular<vblex><pp><m><sg>$ 0.2500000
^common<adj>$ ^regular<vblex><pp><m><sg>$ 0.2500000
^now<adv>$ ^regular<vblex><pp><m><sg>$ 0.2500000
^raise<vblex><pp>$ ^presente<adj><mf><pl>$ 0.5000000
^be<vbser><pp>$ ^presente<adj><mf><pl>$ 0.5000000
^issue<vblex><pri><p3><sg>$ ^cuestión<n><f><pl>$ 0.1666667
^issue<n><pl>$ ^cuestión<n><f><pl>$ 0.6666667
^point<n><pl>$ ^cuestión<n><f><pl>$ 0.1666667
^accountability<n><sg>$ ^rendirse<vblex><pron><inf>$ 1.0000000
^unemployment<n><sg>$ ^paro<n><m><sg>$ 0.3333333
NULL ^paro<n><m><sg>$ 0.6666667
NULL ^opinión<n><f><sg>$ 0.5000000
^comment<vblex><inf>$ ^opinión<n><f><sg>$ 0.1666667
^on<adv>$ ^opinión<n><f><sg>$ 0.1666667
^opinion<n><sg>$ ^opinión<n><f><sg>$ 0.1666667
^*opposed$ ^expresar<vblex><pri><p1><pl>$ 0.3333333
^be<vbser><pres>$ ^expresar<vblex><pri><p1><pl>$ 0.3333333
^totally<adv>$ ^expresar<vblex><pri><p1><pl>$ 0.3333333
^third<det><ord><sp>$ ^tercer<det><ord><f><sg>$ 0.5000000
^matter<vblex><inf>$ ^tercer<det><ord><f><sg>$ 0.5000000
^restructuring<n><sg>$ ^reestructuración<n><f><pl>$ 1.0000000
^over<adv>$ ^infraestructura<n><f><sg>$ 0.5000000
^many~times<adv>$ ^infraestructura<n><f><sg>$ 0.5000000
^regulation<n><sg>$ ^reglamento<n><m><sg>$ 0.7142857
NULL ^reglamento<n><m><sg>$ 0.1428571
^110<num>$ ^reglamento<n><m><sg>$ 0.1428571
^huge<adj>$ ^*descomunales$ 1.0000000
^of~course<adv>$ ^planteamiento<n><m><sg>$ 1.0000000
^explosion<n><pl>$ ^explosión<n><f><pl>$ 1.0000000
^*unlawful$ ^estatal<adj><mf><sg>$ 0.2500000
^state<adj>$ ^estatal<adj><mf><sg>$ 0.5000000
^interventionism<n><sg>$ ^estatal<adj><mf><sg>$ 0.2500000
^quarter<n><pl>$ ^cuarto<det><ord><f><pl>$ 1.0000000
^work<vblex><inf>$ ^regulación<n><f><pl>$ 0.1666667
^reason<n><sg>$ ^regulación<n><f><pl>$ 0.1666667
^interpretative<adj>$ ^regulación<n><f><pl>$ 0.1666667
^permissible<adj>$ ^regulación<n><f><pl>$ 0.1666667
^flexibility<n><sg>$ ^regulación<n><f><pl>$ 0.1666667
^regulation<n><pl>$ ^regulación<n><f><pl>$ 0.1666667
^18<num>$ ^18<num>$ 1.0000000
^lead<vblex><inf>$ ^pensar<vblex><pri><p1><pl>$ 0.5000000
^here<adv>$ ^pensar<vblex><pri><p1><pl>$ 0.5000000
^own~initiative<n><sg>$ ^capacidad<n><f><sg>$ 0.5000000
^must<vaux><inf>$ ^capacidad<n><f><sg>$ 0.5000000
^be<vbser><pri><p3><sg>$ ^resultar<vblex><pri><p3><sg>$ 1.0000000
^prpers<prn><obj><p3><mf><pl>$ ^incluir<vblex><pp><m><sg>$ 0.3333333
^issue<vblex><pri><p3><sg>$ ^incluir<vblex><pp><m><sg>$ 0.3333333
^include<vblex><pp>$ ^incluir<vblex><pp><m><sg>$ 0.3333333
^inform<vblex><pp>$ ^sanción<n><f><sg>$ 1.0000000
^stagnation<n><sg>$ ^estancamiento<n><m><sg>$ 1.0000000
^turn<n><sg>$ ^turno<n><m><sg>$ 1.0000000
^*tabled$ ^proponer<vblex><ifi><p1><sg>$ 0.2000000
^consequently<adv>$ ^proponer<vblex><ifi><p1><sg>$ 0.2000000
^some<det><qnt><sp>$ ^proponer<vblex><ifi><p1><sg>$ 0.2000000
^have<vbhaver><pres>$ ^proponer<vblex><ifi><p1><sg>$ 0.2000000
^prpers<prn><subj><p1><mf><sg>$ ^proponer<vblex><ifi><p1><sg>$ 0.2000000
^return<n><sg>$ ^rendimiento<n><m><sg>$ 0.3333333
^efficiency<n><sg>$ ^rendimiento<n><m><sg>$ 0.3333333
^high<adj><sint><comp>$ ^rendimiento<n><m><sg>$ 0.3333333
^drag<vblex><inf>$ ^sin<pr>$ 0.1666667
NULL ^sin<pr>$ 0.1666667
^without<pr>$ ^sin<pr>$ 0.6666667
^position<n><sg>$ ^posición<n><f><sg>$ 0.5000000
^raise<vblex><ger>$ ^posición<n><f><sg>$ 0.5000000
^act<vblex><inf>$ ^decidir<vblex><pp><f><sg>$ 0.3333333
^decisively<adv>$ ^decidir<vblex><pp><f><sg>$ 0.3333333
^must<vaux><inf>$ ^decidir<vblex><pp><f><sg>$ 0.3333333
^Pöttering<np><cog><sg>$ ^Pöttering<np><cog><mf><sg>$ 1.0000000
^five<num><sp>$ ^cinco<num><mf><sp>$ 1.0000000
NULL ^señor<n><m><sg>$ 0.0317460
^commissioner<n><sg>$ ^señor<n><m><sg>$ 0.2539683
^Mr.<n><sg>$ ^señor<n><m><sg>$ 0.7142857
^against<pr>$ ^contra<pr>$ 0.7500000
^of<pr>$ ^contra<pr>$ 0.2500000
^its<det><pos><sp>$ ^*regulatorios$ 1.0000000
^social<adj>$ ^social<adj><mf><pl>$ 1.0000000
^analysis<n><pl>$ ^certificar<vblex><pp><m><pl>$ 1.0000000
^minimum<adj>$ ^mínimo<adj><f><pl>$ 0.5000000
^standard<n><pl>$ ^mínimo<adj><f><pl>$ 0.5000000
^as~a<pr>$ ^discurso<n><m><sg>$ 1.0000000
^seem<vblex><pres>$ ^parecer<vblex><pri><p3><pl>$ 0.3333333
^figure<n><pl>$ ^parecer<vblex><pri><p3><pl>$ 0.3333333
^somewhat<adv>$ ^parecer<vblex><pri><p3><pl>$ 0.3333333
^position<n><sg>$ ^lo<prn><enc><p3><nt>$ 0.0909091
^a<det><ind><sg>$ ^lo<prn><enc><p3><nt>$ 0.0909091
NULL ^lo<prn><enc><p3><nt>$ 0.0909091
^offer<vblex><inf>$ ^lo<prn><enc><p3><nt>$ 0.0909091
^on<adv>$ ^lo<prn><enc><p3><nt>$ 0.0909091
^so<preadv>$ ^lo<prn><enc><p3><nt>$ 0.0909091
^explain<vblex><inf>$ ^lo<prn><enc><p3><nt>$ 0.0909091
^so<cnjadv>$ ^lo<prn><enc><p3><nt>$ 0.0909091
^everything<prn><tn><m><sg>$ ^lo<prn><enc><p3><nt>$ 0.0909091
^withdraw<vblex><pp>$ ^lo<prn><enc><p3><nt>$ 0.0909091
^prpers<prn><obj><p3><m><sg>$ ^lo<prn><enc><p3><nt>$ 0.0909091
^distinguish<vblex><pp>$ ^llegar<vblex><ifi><p3><sg>$ 0.3333333
^reach<vblex><pp>$ ^llegar<vblex><ifi><p3><sg>$ 0.3333333
^September<n><sg>$ ^llegar<vblex><ifi><p3><sg>$ 0.3333333
^consumer<n><pl>$ ^europeo<adj><m><pl>$ 0.1111111
^socialist<n><pl>$ ^europeo<adj><m><pl>$ 0.4444444
^european<adj>$ ^europeo<adj><m><pl>$ 0.4444444
^which<rel><an><mf><sp>$ ^querer<vbmod><pri><p3><sg>$ 0.5000000
^can<n><sg>$ ^querer<vbmod><pri><p3><sg>$ 0.5000000
^of~course<adv>$ ^obviamente<adv>$ 1.0000000
^go#~back<vblex><pri><p3><sg>$ ^volver<vblex><prs><p3><sg>$ 1.0000000
^illegal<adj>$ ^ilegal<adj><mf><pl>$ 1.0000000
^depend<vblex><pri><p3><sg>$ ^depender<vblex><pri><p3><sg>$ 0.3333333
^rather<preadv>$ ^depender<vblex><pri><p3><sg>$ 0.3333333
^more<preadv>$ ^depender<vblex><pri><p3><sg>$ 0.3333333
^*unfavourable$ ^*desfavorablemente$ 0.5000000
^effect<n><sg>$ ^*desfavorablemente$ 0.5000000
^have<vbhaver><pri><p3><sg>$ ^Japón<np><loc><m><sg>$ 0.3333333
^show<vblex><pp>$ ^Japón<np><loc><m><sg>$ 0.3333333
^Japan<np><loc><sg>$ ^Japón<np><loc><m><sg>$ 0.3333333
^be<vbser><pp>$ ^constituir<vblex><pp><m><sg>$ 1.0000000
^qualify<vblex><ger>$ ^o<cnjcoo>$ 0.0384615
^or<cnjcoo>$ ^o<cnjcoo>$ 0.8076923
^grant<vblex><ger>$ ^o<cnjcoo>$ 0.0384615
NULL ^o<cnjcoo>$ 0.0769231
^in~other~words<adv>$ ^o<cnjcoo>$ 0.0384615
^world<n><sg>$ ^real<adj><mf><sg>$ 0.2000000
^effective<adj>$ ^real<adj><mf><sg>$ 0.2000000
^monitor<vblex><inf>$ ^real<adj><mf><sg>$ 0.2000000
^way<n><sg>$ ^real<adj><mf><sg>$ 0.2000000
^no<adv>$ ^real<adj><mf><sg>$ 0.2000000
^example<n><sg>$ ^agrícola<adj><mf><pl>$ 1.0000000
^comment<vblex><inf>$ ^acerca~de<pr>$ 0.1428571
NULL ^acerca~de<pr>$ 0.1428571
^*s$ ^acerca~de<pr>$ 0.1428571
^on<pr>$ ^acerca~de<pr>$ 0.1428571
^this<det><dem><sg>$ ^acerca~de<pr>$ 0.1428571
^opinion<n><sg>$ ^acerca~de<pr>$ 0.1428571
^'<apos>$ ^acerca~de<pr>$ 0.1428571
^aggravate<vblex><pri><p3><sg>$ ^agravar<vblex><pri><p3><sg>$ 0.5000000
^prpers<prn><obj><p3><nt><sg>$ ^agravar<vblex><pri><p3><sg>$ 0.5000000
^circumstance<n><pl>$ ^realmente<adv>$ 0.1666667
^which<det><itg><sp>$ ^realmente<adv>$ 0.3333333
^break<vblex><past>$ ^realmente<adv>$ 0.1666667
^in<pr>$ ^realmente<adv>$ 0.3333333
^use<vblex><pp>$ ^*movilizados$ 0.5000000
^in~order~to<pr>$ ^*movilizados$ 0.5000000
^where<rel><adv>$ ^*Echternach$ 0.3333333
^*Echternach$ ^*Echternach$ 0.3333333
^procession<n><sg>$ ^*Echternach$ 0.3333333
^*re$ ^*renacionalizar$ 1.0000000
^moral<adj>$ ^obligación<n><f><sg>$ 0.2500000
^participate<vblex><inf>$ ^obligación<n><f><sg>$ 0.2500000
^oblige<vblex><pp>$ ^obligación<n><f><sg>$ 0.2500000
NULL ^obligación<n><f><sg>$ 0.2500000
^day<n><sg>$ ^desafortunado<adj><f><sg>$ 0.3333333
^position<n><sg>$ ^desafortunado<adj><f><sg>$ 0.3333333
^*unfortunate$ ^desafortunado<adj><f><sg>$ 0.3333333
^very<preadv>$ ^primer<det><ord><f><sg>$ 0.2000000
NULL ^primer<det><ord><f><sg>$ 0.2000000
^first<det><ord><sp>$ ^primer<det><ord><f><sg>$ 0.6000000
^shift<vblex><ger>$ ^cambiar<vblex><inf>$ 0.5000000
^prpers<prn><subj><p3><mf><pl>$ ^cambiar<vblex><inf>$ 0.5000000
^decide<vblex><pri><p3><sg>$ ^decidir<vblex><imp><p2><sg>$ 1.0000000
^may<vaux><inf>$ ^poder<vbmod><pri><p3><pl>$ 0.0909091
^can<vaux><pres>$ ^poder<vbmod><pri><p3><pl>$ 0.3636364
^which<prn><itg><m><sp>$ ^poder<vbmod><pri><p3><pl>$ 0.1818182
^*advisors$ ^poder<vbmod><pri><p3><pl>$ 0.0909091
NULL ^poder<vbmod><pri><p3><pl>$ 0.0909091
^horizontal<adj>$ ^poder<vbmod><pri><p3><pl>$ 0.0909091
^assimilate<vblex><pp>$ ^poder<vbmod><pri><p3><pl>$ 0.0909091
^prpers<prn><subj><p1><mf><sg>$ ^querer<vblex><pp><m><pl>$ 1.0000000
^standard#~of~living<n><sg>$ ^nivel#~de~vida<n><m><sg>$ 1.0000000
^too<adv>$ ^contexto<n><m><sg>$ 0.3333333
^context<n><sg>$ ^contexto<n><m><sg>$ 0.3333333
^connection<n><sg>$ ^contexto<n><m><sg>$ 0.3333333
^there<adv>$ ^nada<adv>$ 0.2500000
^wrong<adv>$ ^nada<adv>$ 0.2500000
^to<pr>$ ^nada<adv>$ 0.2500000
^seriously<adv>$ ^nada<adv>$ 0.2500000
^add<vblex><pp>$ ^valor<n><m><sg>$ 1.0000000
NULL ^rapidez<n><f><sg>$ 1.0000000
^pressure<n><sg>$ ^exceso<n><m><sg>$ 1.0000000
^be<vbser><pres>$ ^terminar<vblex><pp><m><sg>$ 0.2500000
^come#~to~an~end<vblex><ger>$ ^terminar<vblex><pp><m><sg>$ 0.2500000
^of<pr>$ ^terminar<vblex><pp><m><sg>$ 0.2500000
^,<cm>$ ^terminar<vblex><pp><m><sg>$ 0.2500000
^create<vblex><past>$ ^comercialización<n><f><sg>$ 0.3333333
^means<n><sg>$ ^comercialización<n><f><sg>$ 0.3333333
^a<det><ind><sg>$ ^comercialización<n><f><sg>$ 0.3333333
^meaningful<adj>$ ^de~todas~formas<adv>$ 1.0000000
^a<det><ind><sg>$ ^interno<adj><f><sg>$ 0.3333333
^internal<adj>$ ^interno<adj><f><sg>$ 0.3333333
^coherence<n><sg>$ ^interno<adj><f><sg>$ 0.3333333
^dimension<n><sg>$ ^político<adj><f><sg>$ 0.2500000
^work<vblex><ger>$ ^político<adj><f><sg>$ 0.2500000
^which<rel><an><mf><sp>$ ^político<adj><f><sg>$ 0.2500000
^political<adj>$ ^político<adj><f><sg>$ 0.2500000
^employment<n><sg>$ ^derecho<n><m><pl>$ 1.0000000
^say<vblex><inf>$ ^decir<vblex><inf>$ 0.2105263
^intervention<n><pl>$ ^decir<vblex><inf>$ 0.0526316
^tell<vblex><inf>$ ^decir<vblex><inf>$ 0.2105263
^tell<vblex><pres>$ ^decir<vblex><inf>$ 0.0526316
^like<vblex><inf>$ ^decir<vblex><inf>$ 0.0526316
^*Mathies$ ^decir<vblex><inf>$ 0.0526316
^to<pr>$ ^decir<vblex><inf>$ 0.3157895
^left<adj>$ ^decir<vblex><inf>$ 0.0526316
^easy<adj><sint><comp>$ ^suyo<det><pos><mf><pl>$ 0.0277778
^lady<n><pl>$ ^suyo<det><pos><mf><pl>$ 0.0277778
^predecessor<n><pl>$ ^suyo<det><pos><mf><pl>$ 0.0277778
^bear<vblex><inf>$ ^suyo<det><pos><mf><pl>$ 0.0277778
^strategic<adj>$ ^suyo<det><pos><mf><pl>$ 0.0555556
^your<det><pos><sp>$ ^suyo<det><pos><mf><pl>$ 0.0555556
^in<pr>$ ^suyo<det><pos><mf><pl>$ 0.0555556
^product<n><pl>$ ^suyo<det><pos><mf><pl>$ 0.0277778
^office<n><pl>$ ^suyo<det><pos><mf><pl>$ 0.0277778
^part<n><sg>$ ^suyo<det><pos><mf><pl>$ 0.0277778
^prpers<prn><obj><p2><mf><sp>$ ^suyo<det><pos><mf><pl>$ 0.0277778
^his<det><pos><sp>$ ^suyo<det><pos><mf><pl>$ 0.0555556
^endeavour<vblex><inf>$ ^suyo<det><pos><mf><pl>$ 0.0277778
^implement<vblex><pri><p3><sg>$ ^suyo<det><pos><mf><pl>$ 0.0277778
^their<det><pos><sp>$ ^suyo<det><pos><mf><pl>$ 0.2222222
^support<vblex><inf>$ ^suyo<det><pos><mf><pl>$ 0.0277778
NULL ^suyo<det><pos><mf><pl>$ 0.1666667
^comment<vblex><past>$ ^suyo<det><pos><mf><pl>$ 0.0277778
^*curb$ ^suyo<det><pos><mf><pl>$ 0.0277778
^available<adj>$ ^suyo<det><pos><mf><pl>$ 0.0277778
^harmonise<vblex><ger>$ ^armonizar<vblex><inf>$ 1.0000000
^uniform<adj>$ ^uniforme<adj><mf><sg>$ 1.0000000
^Belgium<np><loc><sg>$ ^Bélgica<np><loc><f><sg>$ 1.0000000
^October<n><sg>$ ^octubre<n><m><sg>$ 1.0000000
^*LTCM$ ^por~parte~de<pr>$ 0.2500000
^government<n><pl>$ ^por~parte~de<pr>$ 0.2500000
^irresponsible<adj>$ ^por~parte~de<pr>$ 0.2500000
^save<vblex><inf>$ ^por~parte~de<pr>$ 0.2500000
^base<n><sg>$ ^zona<n><f><sg>$ 0.2500000
^successful<adj>$ ^zona<n><f><sg>$ 0.2500000
NULL ^zona<n><f><sg>$ 0.2500000
^northern<adj>$ ^zona<n><f><sg>$ 0.2500000
^point<n><sg>$ ^punto<n><m><sg>$ 0.4500000
^*mid$ ^punto<n><m><sg>$ 0.0500000
^*Fifthly$ ^punto<n><m><sg>$ 0.0500000
^item<n><sg>$ ^punto<n><m><sg>$ 0.3000000
^as~well<adv>$ ^punto<n><m><sg>$ 0.0500000
^of<pr>$ ^punto<n><m><sg>$ 0.1000000
^rapid<adj>$ ^experimentar<vblex><ger>$ 1.0000000
^left<adj>$ ^izquierdo<adj><f><sg>$ 1.0000000
^propose<vblex><pp>$ ^proponer<vblex><pp><f><pl>$ 0.5000000
^have<vbhaver><pres>$ ^proponer<vblex><pp><f><pl>$ 0.5000000
^would<vaux><inf>$ ^reconocer<vblex><inf>$ 0.3333333
^recognise<vblex><inf>$ ^reconocer<vblex><inf>$ 0.3333333
^concede<vblex><pp>$ ^reconocer<vblex><inf>$ 0.3333333
^*Bourlanges$ ^figurar<vblex><pis><p3><sg>$ 1.0000000
^*intentioned$ ^contener<vblex><pri><p3><sg>$ 1.0000000
^propose<vblex><pres>$ ^proponer<vblex><pri><p1><sg>$ 0.2500000
^prpers<prn><subj><p1><mf><pl>$ ^proponer<vblex><pri><p1><sg>$ 0.2500000
^prpers<prn><subj><p1><mf><sg>$ ^proponer<vblex><pri><p1><sg>$ 0.2500000
^vote<vblex><pres>$ ^proponer<vblex><pri><p1><sg>$ 0.2500000
^priority<n><pl>$ ^prioridad<n><f><pl>$ 1.0000000
^by<pr>$ ^corolario<n><m><sg>$ 0.3333333
^a<det><ind><sg>$ ^corolario<n><m><sg>$ 0.3333333
^offset<n><sg>$ ^corolario<n><m><sg>$ 0.3333333
^be<vbser><pp>$ ^existir<vblex><pri><p3><pl>$ 0.1666667
^exist<vblex><pri><p3><sg>$ ^existir<vblex><pri><p3><pl>$ 0.1666667
^be<vbser><pres>$ ^existir<vblex><pri><p3><pl>$ 0.1666667
^adopt<vblex><pp>$ ^existir<vblex><pri><p3><pl>$ 0.1666667
^there<adv>$ ^existir<vblex><pri><p3><pl>$ 0.3333333
^thank~you~very~much<ij>$ ^muchas~gracias<ij>$ 1.0000000
^though<adv>$ ^el~cual<rel><nn><m><pl>$ 1.0000000
^*irreparably$ ^*irreparablemente$ 0.2500000
^have<vbhaver><inf>$ ^*irreparablemente$ 0.2500000
^be<vbser><pp>$ ^*irreparablemente$ 0.2500000
^damage<vblex><pp>$ ^*irreparablemente$ 0.2500000
^while<cnjadv>$ ^ocasión<n><f><sg>$ 0.3333333
^prpers<prn><subj><p3><nt><sg>$ ^ocasión<n><f><sg>$ 0.3333333
^prpers<prn><subj><p1><mf><sg>$ ^ocasión<n><f><sg>$ 0.3333333
^appeal<vblex><ger>$ ^recurso<n><m><sg>$ 1.0000000
^there<adv>$ ^dar<vblex><pri><p1><sg>$ 0.5000000
^in~favour<adv>$ ^dar<vblex><pri><p1><sg>$ 0.5000000
^knowledge<n><sg>$ ^conocimiento<n><m><sg>$ 0.3333333
^evocation<n><sg>$ ^conocimiento<n><m><sg>$ 0.3333333
^pass<vblex><inf>$ ^conocimiento<n><m><sg>$ 0.3333333
^endorse<vblex><past>$ ^suscribir<vblex><pp><m><sg>$ 1.0000000
^adverse<adj>$ ^negativo<adj><f><pl>$ 0.5000000
^on<adv>$ ^negativo<adj><f><pl>$ 0.5000000
^will<vaux><inf>$ ^plantear<vblex><pri><p1><pl>$ 1.0000000
NULL ^norma<n><f><pl>$ 0.0714286
^standard<n><pl>$ ^norma<n><f><pl>$ 0.0714286
^flexible<adj>$ ^norma<n><f><pl>$ 0.0714286
^rule<n><pl>$ ^norma<n><f><pl>$ 0.5000000
^minimum<adj>$ ^norma<n><f><pl>$ 0.2142857
^regulation<n><pl>$ ^norma<n><f><pl>$ 0.0714286
^personal<adj>$ ^interpretación<n><f><sg>$ 1.0000000
^-<guio>$ ^encargo<n><m><pl>$ 1.0000000
^any<det><ind><sp>$ ^apoyar<vblex><fti><p3><sg>$ 0.3333333
^support<vblex><inf>$ ^apoyar<vblex><fti><p3><sg>$ 0.3333333
^will<vaux><inf>$ ^apoyar<vblex><fti><p3><sg>$ 0.3333333
^effect<vblex><inf>$ ^llevar<vblex><fti><p3><sg>$ 0.2000000
^will<vaux><inf>$ ^llevar<vblex><fti><p3><sg>$ 0.2000000
^into<pr>$ ^llevar<vblex><fti><p3><sg>$ 0.2000000
^put<vblex><pp>$ ^llevar<vblex><fti><p3><sg>$ 0.2000000
^be<vbser><inf>$ ^llevar<vblex><fti><p3><sg>$ 0.2000000
^your<det><pos><sp>$ ^que<cnjsub>$ 0.0137931
^hope<n><sg>$ ^que<cnjsub>$ 0.0068966
^learn<vblex><inf>$ ^que<cnjsub>$ 0.0068966
^appreciate<vblex><inf>$ ^que<cnjsub>$ 0.0068966
^that<cnjsub>$ ^que<cnjsub>$ 0.4896552
^discover<vblex><inf>$ ^que<cnjsub>$ 0.0068966
^as~well~as<cnjadv>$ ^que<cnjsub>$ 0.0068966
^think#~that<vblex><inf>$ ^que<cnjsub>$ 0.0068966
^expect<vblex><inf>$ ^que<cnjsub>$ 0.0068966
^for<pr>$ ^que<cnjsub>$ 0.0068966
^everybody<prn><tn><m><sg>$ ^que<cnjsub>$ 0.0068966
^SME<n><pl>$ ^que<cnjsub>$ 0.0137931
^hope<vblex><pres>$ ^que<cnjsub>$ 0.0068966
^feel<vblex><pres>$ ^que<cnjsub>$ 0.0068966
^for~the~record<cnjadv>$ ^que<cnjsub>$ 0.0068966
^invalidity<n><sg>$ ^que<cnjsub>$ 0.0068966
^far<adv>$ ^que<cnjsub>$ 0.0068966
^role<n><sg>$ ^que<cnjsub>$ 0.0068966
^which<det><itg><sp>$ ^que<cnjsub>$ 0.0068966
^deserve<vblex><pri><p3><sg>$ ^que<cnjsub>$ 0.0068966
^ambition<n><sg>$ ^que<cnjsub>$ 0.0068966
^look<vblex><pres>$ ^que<cnjsub>$ 0.0137931
^take<vblex><pp>$ ^que<cnjsub>$ 0.0068966
^see<vblex><inf>$ ^que<cnjsub>$ 0.0068966
^draw<vblex><inf>$ ^que<cnjsub>$ 0.0068966
^wish<n><pl>$ ^que<cnjsub>$ 0.0068966
^suggest<vblex><pres>$ ^que<cnjsub>$ 0.0068966
^of~course<adv>$ ^que<cnjsub>$ 0.0068966
^learn<vblex><pri><p3><sg>$ ^que<cnjsub>$ 0.0068966
^say<vblex><inf>$ ^que<cnjsub>$ 0.0068966
^mind<n><pl>$ ^que<cnjsub>$ 0.0068966
^imagine<vblex><inf>$ ^que<cnjsub>$ 0.0068966
^than<cnjcoo>$ ^que<cnjsub>$ 0.0275862
^rise<n><sg>$ ^que<cnjsub>$ 0.0068966
^please<vblex><inf>$ ^que<cnjsub>$ 0.0068966
^demand<vblex><pres>$ ^que<cnjsub>$ 0.0068966
^remind<vblex><inf>$ ^que<cnjsub>$ 0.0068966
^would<vaux><inf>$ ^que<cnjsub>$ 0.0137931
^agree<vblex><inf>$ ^que<cnjsub>$ 0.0137931
^*curb$ ^que<cnjsub>$ 0.0068966
^magnificently<adv>$ ^que<cnjsub>$ 0.0068966
NULL ^que<cnjsub>$ 0.1724138
^agree<vblex><past>$ ^que<cnjsub>$ 0.0068966
^hinder<vblex><pri><p3><sg>$ ^*cortapisas$ 1.0000000
^health<n><sg>$ ^sanidad<n><f><sg>$ 1.0000000
^make<vblex><ger>$ ^decisión<n><f><pl>$ 0.2000000
NULL ^decisión<n><f><pl>$ 0.2000000
^decision<n><pl>$ ^decisión<n><f><pl>$ 0.6000000
^start<n><sg>$ ^inicial<adj><mf><sg>$ 1.0000000
^protection<n><sg>$ ^proteger<vblex><inf>$ 1.0000000
^produce<vblex><ger>$ ^alcanzar<vblex><pri><p3><sg>$ 1.0000000
^tradition<n><sg>$ ^tradición<n><f><sg>$ 0.5000000
^continental<adj>$ ^tradición<n><f><sg>$ 0.5000000
^Aparicio<np><ant><m><sg>$ ^Aparicio<np><ant><m><sg>$ 1.0000000
^and<cnjcoo>$ ^guardar<vblex><pri><p3><sg>$ 0.5000000
^observe<vblex><past>$ ^guardar<vblex><pri><p3><sg>$ 0.5000000
^worthwhile<adj>$ ^este<det><dem><m><pl>$ 0.0625000
^this<prn><tn><mf><pl>$ ^este<det><dem><m><pl>$ 0.0625000
NULL ^este<det><dem><m><pl>$ 0.0625000
^drive<vblex><past>$ ^este<det><dem><m><pl>$ 0.0625000
^this<det><dem><pl>$ ^este<det><dem><m><pl>$ 0.5625000
^contribute<vblex><pp>$ ^este<det><dem><m><pl>$ 0.0625000
^such<det><ind><sp>$ ^este<det><dem><m><pl>$ 0.0625000
^spend<vblex><pp>$ ^este<det><dem><m><pl>$ 0.0625000
^on<pr>$ ^mediante<pr>$ 0.3333333
^approve<vblex><ger>$ ^mediante<pr>$ 0.3333333
^by<pr>$ ^mediante<pr>$ 0.3333333
^certain<adj>$ ^determinado<adj><m><pl>$ 1.0000000
^*transit$ ^tránsito<n><m><sg>$ 0.7500000
^country<n><pl>$ ^tránsito<n><m><sg>$ 0.2500000
^afford<vblex><inf>$ ^pagar<vblex><inf>$ 0.2500000
^*advisors$ ^pagar<vblex><inf>$ 0.2500000
^safety<n><sg>$ ^pagar<vblex><inf>$ 0.2500000
^not<adv>$ ^pagar<vblex><inf>$ 0.2500000
^prpers<prn><obj><p3><nt><sg>$ ^intensificar<vblex><ger>$ 0.5000000
^intensify<vblex><ger>$ ^intensificar<vblex><ger>$ 0.5000000
^prpers<prn><obj><p1><mf><pl>$ ^proporcionar<vblex><prs><p3><sg>$ 0.3333333
^with<pr>$ ^proporcionar<vblex><prs><p3><sg>$ 0.3333333
^yet<cnjadv>$ ^proporcionar<vblex><prs><p3><sg>$ 0.3333333
^proceed<vblex><inf>$ ^votar<vblex><pri><p3><sg>$ 0.5000000
^shall<vaux><inf>$ ^votar<vblex><pri><p3><sg>$ 0.5000000
^paper<n><sg>$ ^blanco<adj><m><sg>$ 1.0000000
^*Segni$ ^*Segni$ 1.0000000
^get<vblex><inf>$ ^uno<det><ind><f><sg>$ 0.0075188
NULL ^uno<det><ind><f><sg>$ 0.1278195
^loose<adj><sint>$ ^uno<det><ind><f><sg>$ 0.0075188
^comprehensive<adj>$ ^uno<det><ind><f><sg>$ 0.0075188
^one<num><sg>$ ^uno<det><ind><f><sg>$ 0.0075188
^constructive<adj>$ ^uno<det><ind><f><sg>$ 0.0075188
^towards<pr>$ ^uno<det><ind><f><sg>$ 0.0300752
^reform<vblex><inf>$ ^uno<det><ind><f><sg>$ 0.0075188
^business<adj>$ ^uno<det><ind><f><sg>$ 0.0075188
^submit<vblex><ger>$ ^uno<det><ind><f><sg>$ 0.0075188
^arrangement<n><sg>$ ^uno<det><ind><f><sg>$ 0.0075188
^test<n><sg>$ ^uno<det><ind><f><sg>$ 0.0075188
^moral<adj>$ ^uno<det><ind><f><sg>$ 0.0075188
^coherence<n><sg>$ ^uno<det><ind><f><sg>$ 0.0075188
^significance<n><sg>$ ^uno<det><ind><f><sg>$ 0.0075188
^require<vblex><pp>$ ^uno<det><ind><f><sg>$ 0.0075188
^training<n><sg>$ ^uno<det><ind><f><sg>$ 0.0075188
^include<vblex><pp>$ ^uno<det><ind><f><sg>$ 0.0075188
^marker<n><sg>$ ^uno<det><ind><f><sg>$ 0.0075188
^attach<vblex><inf>$ ^uno<det><ind><f><sg>$ 0.0075188
^certificate<n><pl>$ ^uno<det><ind><f><sg>$ 0.0075188
^a<det><ind><sg>$ ^uno<det><ind><f><sg>$ 0.5112782
^revision<n><sg>$ ^uno<det><ind><f><sg>$ 0.0075188
^justify<vblex><past>$ ^uno<det><ind><f><sg>$ 0.0075188
^urgent<adj>$ ^uno<det><ind><f><sg>$ 0.0075188
^waste<vblex><inf>$ ^uno<det><ind><f><sg>$ 0.0075188
^ensure<vblex><inf>$ ^uno<det><ind><f><sg>$ 0.0075188
^over~here<adv>$ ^uno<det><ind><f><sg>$ 0.0075188
^modernisation<n><sg>$ ^uno<det><ind><f><sg>$ 0.0225564
^only<adv>$ ^uno<det><ind><f><sg>$ 0.0075188
^proper<adj>$ ^uno<det><ind><f><sg>$ 0.0075188
^follow-up<n><sg>$ ^uno<det><ind><f><sg>$ 0.0150376
^strategic<adj>$ ^uno<det><ind><f><sg>$ 0.0075188
^together<adj>$ ^uno<det><ind><f><sg>$ 0.0075188
^learn<vblex><inf>$ ^uno<det><ind><f><sg>$ 0.0075188
^pass<vblex><pres>$ ^uno<det><ind><f><sg>$ 0.0075188
^decentralise<vblex><pp>$ ^uno<det><ind><f><sg>$ 0.0075188
^major<adj>$ ^uno<det><ind><f><sg>$ 0.0075188
^one<prn><tn><mf><sg>$ ^uno<det><ind><f><sg>$ 0.0225564
^pay<vblex><inf>$ ^uno<det><ind><f><sg>$ 0.0075188
^coherent<adj>$ ^uno<det><ind><f><sg>$ 0.0075188
^easy<adj><sint><comp>$ ^uno<det><ind><f><sg>$ 0.0075188
^be#~due~to<vblex><pri><p3><sg>$ ^*CECA$ 1.0000000
^prpers<prn><obj><p3><nt><sg>$ ^seriedad<n><f><sg>$ 0.2500000
^into<pr>$ ^seriedad<n><f><sg>$ 0.2500000
^look<n><sg>$ ^seriedad<n><f><sg>$ 0.2500000
^therefore<adv>$ ^seriedad<n><f><sg>$ 0.2500000
^-<guio>$ ^área<n><f><pl>$ 0.5000000
^smoke<vblex><ger>$ ^área<n><f><pl>$ 0.5000000
^destroy<vblex><pp>$ ^autónomo<adj><f><sg>$ 1.0000000
^object<n><sg>$ ^alguno<prn><tn><f><sg>$ 0.5000000
^that<prn><tn><mf><sg>$ ^alguno<prn><tn><f><sg>$ 0.5000000
^rigorous<adj>$ ^uno<det><ind><m><sg>$ 0.0079365
^one<prn><tn><mf><sg>$ ^uno<det><ind><m><sg>$ 0.0079365
^speaker<n><sg>$ ^uno<det><ind><m><sg>$ 0.0079365
^talk<vblex><inf>$ ^uno<det><ind><m><sg>$ 0.0079365
^regardless<adv>$ ^uno<det><ind><m><sg>$ 0.0079365
^*lament$ ^uno<det><ind><m><sg>$ 0.0079365
^directly<adv>$ ^uno<det><ind><m><sg>$ 0.0079365
^interesting<adj>$ ^uno<det><ind><m><sg>$ 0.0079365
^as~a~result~of<pr>$ ^uno<det><ind><m><sg>$ 0.0079365
^examine<vblex><pp>$ ^uno<det><ind><m><sg>$ 0.0079365
^like<pr>$ ^uno<det><ind><m><sg>$ 0.0079365
^a<det><ind><sg>$ ^uno<det><ind><m><sg>$ 0.6190476
^assess<vblex><pp>$ ^uno<det><ind><m><sg>$ 0.0079365
^make<vblex><ger>$ ^uno<det><ind><m><sg>$ 0.0079365
^confuse<vblex><past>$ ^uno<det><ind><m><sg>$ 0.0079365
^provide<vblex><inf>$ ^uno<det><ind><m><sg>$ 0.0079365
^monitor<vblex><inf>$ ^uno<det><ind><m><sg>$ 0.0079365
^recognise<vblex><inf>$ ^uno<det><ind><m><sg>$ 0.0079365
^*sceptical$ ^uno<det><ind><m><sg>$ 0.0079365
^rapid<adj>$ ^uno<det><ind><m><sg>$ 0.0079365
^matter<n><sg>$ ^uno<det><ind><m><sg>$ 0.0079365
^appeal<vblex><ger>$ ^uno<det><ind><m><sg>$ 0.0079365
^provide<vblex><pri><p3><sg>$ ^uno<det><ind><m><sg>$ 0.0079365
^like<vblex><pres>$ ^uno<det><ind><m><sg>$ 0.0079365
^text<n><sg>$ ^uno<det><ind><m><sg>$ 0.0079365
^give<vblex><pres>$ ^uno<det><ind><m><sg>$ 0.0079365
^privilege<n><sg>$ ^uno<det><ind><m><sg>$ 0.0079365
^perspective<n><sg>$ ^uno<det><ind><m><sg>$ 0.0079365
NULL ^uno<det><ind><m><sg>$ 0.1587302
^silence<n><sg>$ ^uno<det><ind><m><sg>$ 0.0079365
^regular<adj>$ ^regularmente<adv>$ 1.0000000
^more<preadv>$ ^actor<n><m><pl>$ 0.5000000
^*onus$ ^actor<n><m><pl>$ 0.5000000
^meaningful<adj>$ ^útil<adj><mf><sg>$ 0.2000000
^probably<adv>$ ^útil<adj><mf><sg>$ 0.2000000
^for~the~record<cnjadv>$ ^útil<adj><mf><sg>$ 0.2000000
^also<adv>$ ^útil<adj><mf><sg>$ 0.2000000
^worthwhile<adj>$ ^útil<adj><mf><sg>$ 0.2000000
^have<vbhaver><inf>$ ^bastar<vblex><pp><m><sg>$ 1.0000000
^read<vblex><ger>$ ^lectura<n><f><sg>$ 0.2500000
^have<vblex><pres>$ ^lectura<n><f><sg>$ 0.2500000
^reading<n><sg>$ ^lectura<n><f><sg>$ 0.2500000
^satisfactorily<adv>$ ^lectura<n><f><sg>$ 0.2500000
^hospital<n><pl>$ ^hospital<n><m><pl>$ 1.0000000
^action<n><sg>$ ^constructivo<adj><f><sg>$ 1.0000000
^objective<adj>$ ^objetivo<n><m><sg>$ 0.1875000
^objective<n><sg>$ ^objetivo<n><m><sg>$ 0.5000000
^end<n><sg>$ ^objetivo<n><m><sg>$ 0.0625000
^goal<n><sg>$ ^objetivo<n><m><sg>$ 0.0625000
NULL ^objetivo<n><m><sg>$ 0.0625000
^key<adj>$ ^objetivo<n><m><sg>$ 0.0625000
^aim<n><sg>$ ^objetivo<n><m><sg>$ 0.0625000
^rich<adj><sint>$ ^rico<adj><f><pl>$ 1.0000000
^be<vbser><pp>$ ^haber<vbhaver><pp><m><sg>$ 0.2500000
^enough<det><qnt><sp>$ ^haber<vbhaver><pp><m><sg>$ 0.2500000
^there<adv>$ ^haber<vbhaver><pp><m><sg>$ 0.5000000
^interpret<vblex><inf>$ ^significativamente<adv>$ 1.0000000
^be<vbser><inf>$ ^otorgar<vblex><prs><p3><sg>$ 0.3333333
^grant<vblex><pp>$ ^otorgar<vblex><prs><p3><sg>$ 0.3333333
^investigation<n><sg>$ ^otorgar<vblex><prs><p3><sg>$ 0.3333333
^like<vblex><pres>$ ^de~nuevo<adv>$ 0.5000000
^before<pr>$ ^de~nuevo<adv>$ 0.5000000
NULL ^enseñanza<n><f><sg>$ 0.5000000
^learn<vblex><inf>$ ^enseñanza<n><f><sg>$ 0.5000000
^capital<adj>$ ^impuesto<n><m><sg>$ 0.5000000
^kind<n><sg>$ ^impuesto<n><m><sg>$ 0.2500000
^tax<n><sg>$ ^impuesto<n><m><sg>$ 0.2500000
^negative<adj>$ ^negativa<n><f><sg>$ 1.0000000
^*codecision$ ^*codecisión$ 0.2500000
^in<pr>$ ^*codecisión$ 0.7500000
^value<n><sg>$ ^añadir<vblex><pp><m><sg>$ 1.0000000
^have<vblex><pri><p3><sg>$ ^*contabilizado$ 1.0000000
^say<vblex><pres>$ ^afirmar<vblex><pri><p1><pl>$ 0.5000000
^every<det><ind><sg>$ ^afirmar<vblex><pri><p1><pl>$ 0.5000000
^begin<vblex><inf>$ ^intervención<n><f><sg>$ 0.1111111
^for<pr>$ ^intervención<n><f><sg>$ 0.1111111
^contribution<n><sg>$ ^intervención<n><f><sg>$ 0.1111111
^be<vbser><pres>$ ^intervención<n><f><sg>$ 0.1111111
^speech<n><sg>$ ^intervención<n><f><sg>$ 0.1111111
^say<vblex><ger>$ ^intervención<n><f><sg>$ 0.1111111
^intervention<n><sg>$ ^intervención<n><f><sg>$ 0.2222222
^various<det><ind><pl>$ ^intervención<n><f><sg>$ 0.1111111
^close<adj><sint>$ ^cierre<n><m><sg>$ 1.0000000
^unfair<adj>$ ^desleal<adj><mf><sg>$ 0.5000000
^into<pr>$ ^desleal<adj><mf><sg>$ 0.5000000
^*underspends$ ^previsto<adj><m><pl>$ 1.0000000
^prevail<vblex><pri><p3><sg>$ ^tomar<vblex><pp><m><sg>$ 0.5000000
^give<vblex><pp>$ ^tomar<vblex><pp><m><sg>$ 0.5000000
^belong<vblex><pres>$ ^unir<vblex><pp><f><pl>$ 1.0000000
^considerably<adv>$ ^considerablemente<adv>$ 0.3333333
^fall<vblex><inf>$ ^considerablemente<adv>$ 0.3333333
^than<cnjcoo>$ ^considerablemente<adv>$ 0.3333333
^*stringent$ ^alto<adj><m><pl>$ 0.5000000
^pursue<vblex><ger>$ ^alto<adj><m><pl>$ 0.5000000
^analyse<vblex><inf>$ ^analizar<vblex><inf>$ 1.0000000
^suggestion<n><pl>$ ^nuestro<adj><pos><f><pl>$ 0.5000000
^prpers<prn><subj><p1><mf><pl>$ ^nuestro<adj><pos><f><pl>$ 0.5000000
^leave<vblex><past>$ ^dejar<vblex><pp><f><pl>$ 1.0000000
^result<vblex><pp>$ ^*indefectiblemente$ 1.0000000
^take<vblex><pp>$ ^suprimir<vblex><prs><p3><sg>$ 0.5000000
^raise<vblex><inf>$ ^suprimir<vblex><prs><p3><sg>$ 0.5000000
^no~doubt<adv>$ ^sin~duda<adv>$ 0.1666667
^certainly<adv>$ ^sin~duda<adv>$ 0.1666667
^will<vaux><inf>$ ^sin~duda<adv>$ 0.3333333
^undoubtedly<adv>$ ^sin~duda<adv>$ 0.1666667
^quite<preadv>$ ^sin~duda<adv>$ 0.1666667
^let<vblex><pp>$ ^dejar<vblex><prs><p1><pl>$ 0.2000000
^leave<vblex><inf>$ ^dejar<vblex><prs><p1><pl>$ 0.2000000
^make<vblex><pp>$ ^dejar<vblex><prs><p1><pl>$ 0.2000000
^so<preadv>$ ^dejar<vblex><prs><p1><pl>$ 0.2000000
^prpers<prn><obj><p1><mf><pl>$ ^dejar<vblex><prs><p1><pl>$ 0.2000000
^50%<num><percent>$ ^50%<num><percent>$ 1.0000000
^be<vbser><inf>$ ^consiguiente<adj><mf><sg>$ 0.2500000
^traffic<n><sg>$ ^consiguiente<adj><mf><sg>$ 0.2500000
^which<rel><an><mf><sp>$ ^consiguiente<adj><mf><sg>$ 0.2500000
^because~of<pr>$ ^consiguiente<adj><mf><sg>$ 0.2500000
^idea<n><sg>$ ^antiguo<adj><f><sg>$ 1.0000000
^exhaustion<n><sg>$ ^agotamiento<n><m><sg>$ 1.0000000
^prpers<prn><subj><p3><nt><sg>$ ^al~fin~y~al~cabo<adv>$ 1.0000000
^rigorous<adj>$ ^riguroso<adj><m><sg>$ 1.0000000
^with<pr>$ ^posible<adj><mf><sg>$ 0.0588235
^be<vbser><inf>$ ^posible<adj><mf><sg>$ 0.1176471
^adapt<vblex><pp>$ ^posible<adj><mf><sg>$ 0.0588235
^as~soon~as~possible<adv>$ ^posible<adj><mf><sg>$ 0.0588235
NULL ^posible<adj><mf><sg>$ 0.0588235
^safe<adj><sint>$ ^posible<adj><mf><sg>$ 0.0588235
^will<vaux><inf>$ ^posible<adj><mf><sg>$ 0.0588235
^where<rel><adv>$ ^posible<adj><mf><sg>$ 0.0588235
^feasible<adj>$ ^posible<adj><mf><sg>$ 0.0588235
^as~far~as~possible<adv>$ ^posible<adj><mf><sg>$ 0.0588235
^possible<adj>$ ^posible<adj><mf><sg>$ 0.1764706
^force<vblex><inf>$ ^posible<adj><mf><sg>$ 0.0588235
^individually<adv>$ ^posible<adj><mf><sg>$ 0.0588235
^can<n><sg>$ ^posible<adj><mf><sg>$ 0.0588235
^non<adv>$ ^empresarial<adj><mf><sg>$ 0.2000000
^activity<n><sg>$ ^empresarial<adj><mf><sg>$ 0.2000000
^viable<adj>$ ^empresarial<adj><mf><sg>$ 0.2000000
^management<n><sg>$ ^empresarial<adj><mf><sg>$ 0.2000000
^-<guio>$ ^empresarial<adj><mf><sg>$ 0.2000000
^and<cnjcoo>$ ^razón<n><f><sg>$ 0.1666667
^rightly<adv>$ ^razón<n><f><sg>$ 0.1666667
^file<vblex><pp>$ ^razón<n><f><sg>$ 0.1666667
^highlight<vblex><inf>$ ^razón<n><f><sg>$ 0.1666667
NULL ^razón<n><f><sg>$ 0.3333333
^nevertheless<adv>$ ^en~todo~caso<adv>$ 1.0000000
^sector<n><pl>$ ^ramo<n><m><pl>$ 1.0000000
^dear<adj><sint>$ ^preocupar<vblex><pri><p3><pl>$ 1.0000000
^amend<vblex><pp>$ ^modificar<vblex><prs><p3><sg>$ 0.5000000
^be<vbser><inf>$ ^modificar<vblex><prs><p3><sg>$ 0.5000000
^material<n><pl>$ ^material<n><m><pl>$ 0.5000000
^which<det><itg><sp>$ ^material<n><m><pl>$ 0.5000000
^starting~point<n><sg>$ ^razonable<adj><mf><sg>$ 0.2000000
^cooperation<n><sg>$ ^razonable<adj><mf><sg>$ 0.2000000
^reasonable<adj>$ ^razonable<adj><mf><sg>$ 0.2000000
NULL ^razonable<adj><mf><sg>$ 0.2000000
^be<vbser><pri><p3><sg>$ ^razonable<adj><mf><sg>$ 0.2000000
^strengthen<vblex><pp>$ ^reforzar<vblex><pp><f><sg>$ 1.0000000
^programme<n><sg>$ ^programa<n><m><sg>$ 1.0000000
NULL ^libremente<adv>$ 1.0000000
^part<n><sg>$ ^adopción<n><f><sg>$ 1.0000000
^ensure<vblex><inf>$ ^*homogéneas$ 0.5000000
^uniform<adj>$ ^*homogéneas$ 0.5000000
^and<cnjcoo>$ ^leer<vblex><inf>$ 0.5000000
^read<vblex><pri><p3><sg>$ ^leer<vblex><inf>$ 0.5000000
^*flexibly$ ^flexible<adj><mf><pl>$ 0.3333333
^more<preadv>$ ^flexible<adj><mf><pl>$ 0.3333333
^be<vbser><pri><p3><sg>$ ^flexible<adj><mf><pl>$ 0.3333333
^to<pr>$ ^necesario<adj><m><sg>$ 0.2941176
^raise<vblex><inf>$ ^necesario<adj><m><sg>$ 0.0588235
^strike<vblex><inf>$ ^necesario<adj><m><sg>$ 0.0588235
^necessary<adj>$ ^necesario<adj><m><sg>$ 0.4705882
^prpers<prn><subj><p3><nt><sg>$ ^necesario<adj><m><sg>$ 0.0588235
^align<vblex><pp>$ ^necesario<adj><m><sg>$ 0.0588235
NULL ^punto#~de~vista<n><m><sg>$ 0.2500000
^term<n><pl>$ ^punto#~de~vista<n><m><sg>$ 0.2500000
^as~far~as<adv>$ ^punto#~de~vista<n><m><sg>$ 0.2500000
^point#~of~view<n><sg>$ ^punto#~de~vista<n><m><sg>$ 0.2500000
^recommend<vblex><pp>$ ^recomendar<vblex><pii><p3><sg>$ 0.5000000
^which<prn><itg><m><sp>$ ^recomendar<vblex><pii><p3><sg>$ 0.5000000
^*sceptical$ ^escéptico<n><m><sg>$ 1.0000000
^agree<vblex><inf>$ ^señalar<vblex><inf>$ 0.5000000
^on<pr>$ ^señalar<vblex><inf>$ 0.5000000
^have<vbhaver><pri><p3><sg>$ ^inexistente<adj><mf><sg>$ 0.2500000
^be<vbser><pp>$ ^inexistente<adj><mf><sg>$ 0.2500000
^at~all<adv>$ ^inexistente<adj><mf><sg>$ 0.2500000
^give<vblex><pp>$ ^inexistente<adj><mf><sg>$ 0.2500000
^official<n><sg>$ ^funcionario<n><m><sg>$ 0.5000000
^a<det><ind><sg>$ ^funcionario<n><m><sg>$ 0.5000000
^container<n><pl>$ ^parcialmente<adv>$ 1.0000000
^optimism<n><sg>$ ^*oponemos$ 0.2000000
^*liberals$ ^*oponemos$ 0.2000000
^'<apos>$ ^*oponemos$ 0.2000000
^on<pr>$ ^*oponemos$ 0.2000000
^naïve<adj><sint>$ ^*oponemos$ 0.2000000
^get<vblex><inf>$ ^fundamental<adj><mf><sg>$ 0.1428571
^one<prn><tn><mf><sg>$ ^fundamental<adj><mf><sg>$ 0.1428571
^at<pr>$ ^fundamental<adj><mf><sg>$ 0.1428571
^to<pr>$ ^fundamental<adj><mf><sg>$ 0.1428571
^fundamental<adj>$ ^fundamental<adj><mf><sg>$ 0.2857143
^play<vblex><inf>$ ^fundamental<adj><mf><sg>$ 0.1428571
^prpers<prn><subj><p1><mf><sg>$ ^repetir<vblex><pri><p1><sg>$ 0.3333333
^would<vaux><inf>$ ^repetir<vblex><pri><p1><sg>$ 0.3333333
^*emphasise$ ^repetir<vblex><pri><p1><sg>$ 0.3333333
^for<pr>$ ^agradecer<vblex><inf>$ 0.2857143
^like<vblex><inf>$ ^agradecer<vblex><inf>$ 0.1428571
^thank<vblex><inf>$ ^agradecer<vblex><inf>$ 0.5714286
^speaker<n><pl>$ ^intervenir<vblex><pp><m><sg>$ 0.5000000
^the<det><def><sp>$ ^intervenir<vblex><pp><m><sg>$ 0.5000000
^for<pr>$ ^*prioritario$ 0.3333333
^priority<n><sg>$ ^*prioritario$ 0.6666667
^provision<n><sg>$ ^dotación<n><f><sg>$ 1.0000000
^should<vaux><inf>$ ^aplicar<vblex><inf>$ 0.5000000
NULL ^aplicar<vblex><inf>$ 0.5000000
^legal<adj>$ ^asesor<n><m><pl>$ 1.0000000
^area<n><pl>$ ^seguir#~siendo<vblex><pri><p3><pl>$ 0.3333333
^within<pr>$ ^seguir#~siendo<vblex><pri><p3><pl>$ 0.3333333
^still<adv>$ ^seguir#~siendo<vblex><pri><p3><pl>$ 0.3333333
^enforce<vblex><pp>$ ^fumador<n><m><pl>$ 1.0000000
^witness<vblex><pp>$ ^desviación<n><f><pl>$ 1.0000000
^form<n><sg>$ ^en~forma<adv>$ 0.5000000
^annual<adj>$ ^en~forma<adv>$ 0.5000000
^initiative<n><pl>$ ^iniciativa<n><f><pl>$ 0.6666667
^take<vblex><ger>$ ^iniciativa<n><f><pl>$ 0.3333333
^1998<num>$ ^1998<num>$ 1.0000000
^inadmissible<adj>$ ^inadmisible<adj><mf><sg>$ 1.0000000
^*modernise$ ^artículo<n><m><pl>$ 0.2500000
^article<n><pl>$ ^artículo<n><m><pl>$ 0.7500000
^link<vblex><inf>$ ^vincular<vblex><inf>$ 0.5000000
^link<vblex><ger>$ ^vincular<vblex><inf>$ 0.5000000
^of<pr>$ ^favorable<adj><mf><sg>$ 0.3333333
^environment<n><sg>$ ^favorable<adj><mf><sg>$ 0.3333333
^vote<vblex><inf>$ ^favorable<adj><mf><sg>$ 0.3333333
^large<adj><sint>$ ^ir<vblex><pp><m><sg>$ 0.3333333
^when<adv><itg>$ ^ir<vblex><pp><m><sg>$ 0.6666667
^owner<n><sg>$ ^propietario<n><m><sg>$ 1.0000000
^diversity<n><sg>$ ^cultural<adj><mf><sg>$ 1.0000000
NULL ^propio<adj><m><sg>$ 0.2500000
^own<adj>$ ^propio<adj><m><sg>$ 0.7500000
^lose<vblex><ger>$ ^perder<vblex><ger>$ 0.5000000
^ground<n><sg>$ ^perder<vblex><ger>$ 0.5000000
^maximum<adj>$ ^exigencia<n><f><pl>$ 1.0000000
^here<adv>$ ^caso<n><m><pl>$ 0.2000000
^precisely<adv>$ ^caso<n><m><pl>$ 0.4000000
^everybody<prn><tn><m><sg>$ ^caso<n><m><pl>$ 0.2000000
^case<n><pl>$ ^caso<n><m><pl>$ 0.2000000
^our<det><pos><sp>$ ^al~menos<adv>$ 0.3333333
^bureaucratic<adj>$ ^al~menos<adv>$ 0.3333333
^thinking<n><sg>$ ^al~menos<adv>$ 0.3333333
^revision<n><sg>$ ^revisión<n><f><sg>$ 1.0000000
^forthcoming<adj>$ ^próximo<adj><f><pl>$ 1.0000000
^realise<vblex><inf>$ ^consciente<adj><mf><sg>$ 0.2500000
^prpers<prn><subj><p1><mf><sg>$ ^consciente<adj><mf><sg>$ 0.2500000
^do<vbdo><pres>$ ^consciente<adj><mf><sg>$ 0.2500000
^aware<adj>$ ^consciente<adj><mf><sg>$ 0.2500000
^kind<adj><sint>$ ^objeción<n><f><sg>$ 0.2500000
^object<n><sg>$ ^objeción<n><f><sg>$ 0.2500000
^that<det><dem><sg>$ ^objeción<n><f><sg>$ 0.2500000
^comment<n><pl>$ ^objeción<n><f><sg>$ 0.2500000
^against<adv>$ ^otro<prn><tn><m><sg>$ 0.3333333
^one<prn><tn><mf><sg>$ ^otro<prn><tn><m><sg>$ 0.3333333
^secondly<adv>$ ^otro<prn><tn><m><sg>$ 0.3333333
^granting<n><sg>$ ^concesión<n><f><sg>$ 0.3333333
^way<n><sg>$ ^concesión<n><f><sg>$ 0.3333333
^some<det><qnt><sp>$ ^concesión<n><f><sg>$ 0.3333333
^want#~to<vbmod><pres>$ ^expresar<vblex><ger>$ 1.0000000
^enjoy<vblex><past>$ ^vacaciones<n><f><pl>$ 0.2500000
^prpers<prn><obj><p2><mf><sp>$ ^vacaciones<n><f><pl>$ 0.2500000
^festive<adj>$ ^vacaciones<n><f><pl>$ 0.2500000
^hope<n><sg>$ ^vacaciones<n><f><pl>$ 0.2500000
^hit<n><sg>$ ^palo<n><m><pl>$ 0.5000000
^hard<adj><sint><sup>$ ^palo<n><m><pl>$ 0.5000000
^take<vblex><pp>$ ^retirar<vblex><prs><p3><sg>$ 1.0000000
^vice-president<n><sg>$ ^vicepresidente<n><f><sg>$ 1.0000000
NULL ^septiembre<n><m><sg>$ 0.5000000
^September<n><sg>$ ^septiembre<n><m><sg>$ 0.5000000
^kind<n><sg>$ ^procesión<n><f><sg>$ 1.0000000
^general<n><sg>$ ^idea<n><f><pl>$ 1.0000000
^distribution<n><sg>$ ^reparto<n><m><sg>$ 0.6666667
^for<pr>$ ^reparto<n><m><sg>$ 0.3333333
^because~of<pr>$ ^deberse#~a<vblex><pron><pri><p3><sg>$ 0.5000000
^be<vbser><past><p3><sg>$ ^deberse#~a<vblex><pron><pri><p3><sg>$ 0.5000000
^rapid<adj>$ ^seguir<vblex><pri><p3><pl>$ 0.5000000
^obstacle<n><pl>$ ^seguir<vblex><pri><p3><pl>$ 0.5000000
^draft<n><sg>$ ^unánime<adj><mf><sg>$ 1.0000000
^can<n><sg>$ ^restringir<vblex><inf>$ 0.5000000
^keep<vblex><inf>$ ^restringir<vblex><inf>$ 0.5000000
^coming<adj>$ ^próximo<adj><m><pl>$ 0.3333333
^next<adj>$ ^próximo<adj><m><pl>$ 0.6666667
^vulnerable<adj>$ ^desfavorecido<adj><m><pl>$ 1.0000000
^favourable<adj>$ ^entorno<n><m><sg>$ 0.5000000
^environment<n><sg>$ ^entorno<n><m><sg>$ 0.5000000
^do<vbdo><pri><p3><sg>$ ^cumplir<vblex><pri><p3><sg>$ 0.5000000
^adhere<vblex><inf>$ ^cumplir<vblex><pri><p3><sg>$ 0.5000000
^study<vblex><inf>$ ^unos~cuantos<det><qnt><m><pl>$ 0.5000000
^several<det><ind><pl>$ ^unos~cuantos<det><qnt><m><pl>$ 0.5000000
^of<pr>$ ^parte<n><f><pl>$ 0.5000000
^*fifths$ ^parte<n><f><pl>$ 0.2500000
^quarter<n><pl>$ ^parte<n><f><pl>$ 0.2500000
^as~for<pr>$ ^por~lo~que~respecta~a<pr>$ 1.0000000
^fund<n><pl>$ ^estructural<adj><mf><pl>$ 0.0476190
^structural<adj>$ ^estructural<adj><mf><pl>$ 0.9523810
^*Conservatives$ ^británico<n><m><pl>$ 1.0000000
^firstly<adv>$ ^por~un~lado<adv>$ 0.3333333
^:<sent>$ ^por~un~lado<adv>$ 0.3333333
^thing<n><pl>$ ^por~un~lado<adv>$ 0.3333333
^with<pr>$ ^planear<vblex><pp><m><sg>$ 0.5000000
^planned<adj>$ ^planear<vblex><pp><m><sg>$ 0.5000000
^adapt<vblex><pp>$ ^adaptar<vblex><inf>$ 1.0000000
^sit<vblex><ger>$ ^estimar<vblex><pri><p3><pl>$ 1.0000000
NULL ^precisamente<adv>$ 0.2000000
^this<prn><tn><mf><sg>$ ^precisamente<adv>$ 0.2000000
^precisely<adv>$ ^precisamente<adv>$ 0.4000000
^be<vbser><pri><p3><sg>$ ^precisamente<adv>$ 0.2000000
^impact<n><sg>$ ^asunto<n><m><sg>$ 0.1428571
^matter<n><sg>$ ^asunto<n><m><sg>$ 0.4285714
NULL ^asunto<n><m><sg>$ 0.1428571
^very<preadv>$ ^asunto<n><m><sg>$ 0.1428571
^issue<n><sg>$ ^asunto<n><m><sg>$ 0.1428571
^procession<n><sg>$ ^antes~de<pr>$ 0.5000000
^prior~to<pr>$ ^antes~de<pr>$ 0.5000000
NULL ^general<adj><mf><pl>$ 0.5000000
^your<det><pos><sp>$ ^general<adj><mf><pl>$ 0.5000000
^american<adj>$ ^ejército<n><m><sg>$ 1.0000000
^be<vbser><pp>$ ^simulacro#~de~incendio<n><m><pl>$ 0.2000000
^have<vblex><pri><p3><sg>$ ^simulacro#~de~incendio<n><m><pl>$ 0.2000000
^fire~drill<n><sg>$ ^simulacro#~de~incendio<n><m><pl>$ 0.2000000
^there<adv>$ ^simulacro#~de~incendio<n><m><pl>$ 0.2000000
^no<det><ind><sp>$ ^simulacro#~de~incendio<n><m><pl>$ 0.2000000
^college<n><sg>$ ^junta<n><f><sg>$ 1.0000000
^overriding<adj>$ ^caracterizar<vblex><pri><p3><sg>$ 0.3333333
^the<det><def><sp>$ ^caracterizar<vblex><pri><p3><sg>$ 0.3333333
^feature<n><pl>$ ^caracterizar<vblex><pri><p3><sg>$ 0.3333333
^equal<adj>$ ^igualdad<n><f><sg>$ 1.0000000
^like<vblex><inf>$ ^gustar<vblex><cni><p3><sg>$ 0.4166667
^ambition<n><sg>$ ^gustar<vblex><cni><p3><sg>$ 0.0833333
^should<vaux><inf>$ ^gustar<vblex><cni><p3><sg>$ 0.0833333
^would<vaux><inf>$ ^gustar<vblex><cni><p3><sg>$ 0.4166667
^rail<n><sg>$ ^ferrocarril<n><m><sg>$ 1.0000000
^rail<n><sg>$ ^*férreas$ 1.0000000
^criticise<vblex><ger>$ ^criticar<vblex><inf>$ 1.0000000
^uniform<adj>$ ^uniforme<n><m><sg>$ 1.0000000
^that<prn><tn><mf><sg>$ ^hablar<vblex><fti><p3><sg>$ 0.1666667
^on<adv>$ ^hablar<vblex><fti><p3><sg>$ 0.1666667
NULL ^hablar<vblex><fti><p3><sg>$ 0.1666667
^up<adv>$ ^hablar<vblex><fti><p3><sg>$ 0.1666667
^come<vblex><inf>$ ^hablar<vblex><fti><p3><sg>$ 0.1666667
^will<vaux><inf>$ ^hablar<vblex><fti><p3><sg>$ 0.1666667
^draw<vblex><inf>$ ^finalmente<adv>$ 0.5000000
^comment<vblex><ger>$ ^finalmente<adv>$ 0.5000000
^maiden<adj>$ ^estreno<n><m><sg>$ 1.0000000
^document<n><pl>$ ^documento<n><m><pl>$ 1.0000000
^other<det><ind><sp>$ ^causar<vblex><fti><p3><sg>$ 0.3333333
^*cargo$ ^causar<vblex><fti><p3><sg>$ 0.3333333
^which<prn><itg><m><sp>$ ^causar<vblex><fti><p3><sg>$ 0.3333333
^paragraph<n><sg>$ ^apartado<n><m><sg>$ 0.5000000
^(<lpar>$ ^apartado<n><m><sg>$ 0.5000000
NULL ^marco<n><m><sg>$ 0.4444444
^regulate<vblex><inf>$ ^marco<n><m><sg>$ 0.1111111
^United~Nations<np><al><pl>$ ^marco<n><m><sg>$ 0.1111111
^within<pr>$ ^marco<n><m><sg>$ 0.2222222
^context<n><sg>$ ^marco<n><m><sg>$ 0.1111111
^permissible<adj>$ ^horizontal<adj><mf><pl>$ 0.5000000
^be<vbser><pres>$ ^horizontal<adj><mf><pl>$ 0.5000000
^from<pr>$ ^acumulación<n><f><sg>$ 0.3333333
^accumulation<n><sg>$ ^acumulación<n><f><sg>$ 0.3333333
^money<n><sg>$ ^acumulación<n><f><sg>$ 0.3333333
^appeal<vblex><ger>$ ^interponer<vblex><fti><p3><sg>$ 0.5000000
^be<vbser><pri><p3><sg>$ ^interponer<vblex><fti><p3><sg>$ 0.5000000
^change<n><sg>$ ^nuevo<adj><m><sg>$ 0.1666667
^new<adj><sint>$ ^nuevo<adj><m><sg>$ 0.5000000
^of<pr>$ ^nuevo<adj><m><sg>$ 0.1666667
^year<n><sg>$ ^nuevo<adj><m><sg>$ 0.1666667
^predecessor<n><pl>$ ^predecesor<n><m><pl>$ 1.0000000
^late<adv>$ ^prpers<prn><enc><p1><mf><pl>$ 0.1428571
^end#~up<vblex><ger>$ ^prpers<prn><enc><p1><mf><pl>$ 0.1428571
^*enlighten$ ^prpers<prn><enc><p1><mf><pl>$ 0.1428571
^indicator<n><sg>$ ^prpers<prn><enc><p1><mf><pl>$ 0.1428571
^content<vblex><inf>$ ^prpers<prn><enc><p1><mf><pl>$ 0.1428571
^remember<vblex><inf>$ ^prpers<prn><enc><p1><mf><pl>$ 0.1428571
^prpers<prn><obj><p1><mf><pl>$ ^prpers<prn><enc><p1><mf><pl>$ 0.1428571
^obvious<adj>$ ^embarcación<n><f><pl>$ 1.0000000
^propose<vblex><pp>$ ^enmienda<n><f><sg>$ 0.1333333
NULL ^enmienda<n><f><sg>$ 0.0666667
^by<pr>$ ^enmienda<n><f><sg>$ 0.1333333
^*tabled$ ^enmienda<n><f><sg>$ 0.0666667
^amendment<n><sg>$ ^enmienda<n><f><sg>$ 0.6000000
^implement<vblex><pp>$ ^realizar<vblex><pis><p3><sg>$ 0.5000000
^be<vbser><inf>$ ^realizar<vblex><pis><p3><sg>$ 0.5000000
^check<vblex><inf>$ ^verificar<vblex><inf>$ 1.0000000
^either<adv>$ ^prpers<prn><tn><p3><mf><sg>$ 0.0666667
^read<vblex><pp>$ ^prpers<prn><tn><p3><mf><sg>$ 0.0666667
^thank~you<ij>$ ^prpers<prn><tn><p3><mf><sg>$ 0.0666667
NULL ^prpers<prn><tn><p3><mf><sg>$ 0.2000000
^prpers<prn><obj><p2><mf><sp>$ ^prpers<prn><tn><p3><mf><sg>$ 0.0666667
^that<rel><an><mf><sp>$ ^prpers<prn><tn><p3><mf><sg>$ 0.0666667
^prpers<prn><subj><p2><mf><sp>$ ^prpers<prn><tn><p3><mf><sg>$ 0.4666667
^state<n><sg>$ ^en~muchos~aspectos<adv>$ 0.3333333
^to<pr>$ ^en~muchos~aspectos<adv>$ 0.3333333
^another<prn><tn><m><sg>$ ^en~muchos~aspectos<adv>$ 0.3333333
NULL ^fomento<n><m><sg>$ 0.5000000
^boost<vblex><ger>$ ^fomento<n><m><sg>$ 0.5000000
^once~again<adv>$ ^una~vez~más<adv>$ 0.6000000
^prpers<prn><subj><p1><mf><pl>$ ^una~vez~más<adv>$ 0.2000000
^over<adv>$ ^una~vez~más<adv>$ 0.2000000
NULL ^imponer<vblex><inf>$ 1.0000000
^numerous<adj>$ ^pasado<n><m><sg>$ 0.2500000
^in~the~past<adv>$ ^pasado<n><m><sg>$ 0.5000000
^case<n><sg>$ ^pasado<n><m><sg>$ 0.2500000
^prpers<prn><subj><p1><mf><sg>$ ^permitir<vblex><imp><p3><pl>$ 0.5000000
^allow<vblex><pres>$ ^permitir<vblex><imp><p3><pl>$ 0.5000000
^prpers<prn><subj><p1><mf><sg>$ ^estar<vblex><pri><p1><sg>$ 0.5000000
^be<vbser><pri><p1><sg>$ ^estar<vblex><pri><p1><sg>$ 0.3333333
^personally<adv>$ ^estar<vblex><pri><p1><sg>$ 0.1666667
^compulsory<adj>$ ^obligatorio<adj><m><sg>$ 1.0000000
^with<pr>$ ^preocupar<vblex><pp><m><pl>$ 0.5000000
^concern<vblex><pp>$ ^preocupar<vblex><pp><m><pl>$ 0.5000000
^dollar<n><sg>$ ^dólar<n><m><sg>$ 1.0000000
^welcome<vblex><past>$ ^extraordinariamente<adv>$ 0.2500000
^extraordinarily<adv>$ ^extraordinariamente<adv>$ 0.2500000
^*exceptionally$ ^extraordinariamente<adv>$ 0.2500000
^magnificently<adv>$ ^extraordinariamente<adv>$ 0.2500000
^competition<n><sg>$ ^competir<vblex><inf>$ 1.0000000
^in<pr>$ ^de~alguna~manera<adv>$ 0.2857143
^some<det><qnt><sp>$ ^de~alguna~manera<adv>$ 0.1428571
^a<det><ind><sg>$ ^de~alguna~manera<adv>$ 0.1428571
^hide<vblex><pp>$ ^de~alguna~manera<adv>$ 0.1428571
^way<n><sg>$ ^de~alguna~manera<adv>$ 0.2857143
^schedule<vblex><past>$ ^programar<vblex><pp><m><pl>$ 0.5000000
^debate<n><pl>$ ^programar<vblex><pp><m><pl>$ 0.5000000
^cause<n><sg>$ ^gracias~a<pr>$ 0.3333333
^thank<vblex><inf>$ ^gracias~a<pr>$ 0.6666667
^lie<n><pl>$ ^claro<adj><f><sg>$ 0.5000000
^clearly<adv>$ ^claro<adj><f><sg>$ 0.5000000
^form<vblex><pri><p3><sg>$ ^ocupar<vblex><pri><p3><pl>$ 1.0000000
^on<adv>$ ^comunitario<adj><m><sg>$ 0.3333333
^community<adj>$ ^comunitario<adj><m><sg>$ 0.6666667
^implementation<n><sg>$ ^poner#~en~marcha<vblex><pp><f><sg>$ 1.0000000
^balance<n><sg>$ ^entre<pr>$ 0.0277778
^between<pr>$ ^entre<pr>$ 0.5555556
^reduce<vblex><inf>$ ^entre<pr>$ 0.0277778
^another<prn><tn><m><sg>$ ^entre<pr>$ 0.0277778
NULL ^entre<pr>$ 0.0833333
^expire<vblex><pri><p3><sg>$ ^entre<pr>$ 0.0277778
^legitimate<vblex><inf>$ ^entre<pr>$ 0.0555556
^in<pr>$ ^entre<pr>$ 0.0555556
^force<vblex><inf>$ ^entre<pr>$ 0.0277778
^amongst<pr>$ ^entre<pr>$ 0.0555556
^laughter<n><sg>$ ^entre<pr>$ 0.0277778
^among<pr>$ ^entre<pr>$ 0.0277778
^consolidation<n><sg>$ ^*siderúrgica$ 0.3333333
^steel<n><sg>$ ^*siderúrgica$ 0.6666667
^scheme<n><pl>$ ^local<adj><mf><sg>$ 0.5000000
^local<adj>$ ^local<adj><mf><sg>$ 0.5000000
^help<vblex><inf>$ ^señor<n><f><pl>$ 0.5000000
^*steer$ ^señor<n><f><pl>$ 0.5000000
^profit<n><sg>$ ^productor<n><m><pl>$ 0.5000000
^producer<n><pl>$ ^productor<n><m><pl>$ 0.5000000
^should<vaux><inf>$ ^inviable<adj><mf><pl>$ 1.0000000
^in~many~respects<adv>$ ^aspecto<n><m><pl>$ 0.1666667
NULL ^aspecto<n><m><pl>$ 0.5000000
^dear<adj><sint>$ ^aspecto<n><m><pl>$ 0.1666667
^issue<n><pl>$ ^aspecto<n><m><pl>$ 0.1666667
^now<adv>$ ^continuación<n><f><sg>$ 0.2500000
^prpers<prn><obj><p1><mf><sg>$ ^continuación<n><f><sg>$ 0.2500000
^let<vblex><pp>$ ^continuación<n><f><sg>$ 0.2500000
^come<vblex><pp>$ ^continuación<n><f><sg>$ 0.2500000
^economy<n><pl>$ ^*especuladores$ 1.0000000
^12<num>$ ^12.00<num>$ 1.0000000
^magnificently<adv>$ ^decir<vblex><cni><p3><sg>$ 0.1666667
^say<vblex><inf>$ ^decir<vblex><cni><p3><sg>$ 0.1666667
^quite<preadv>$ ^decir<vblex><cni><p3><sg>$ 0.1666667
^prpers<prn><subj><p1><mf><sg>$ ^decir<vblex><cni><p3><sg>$ 0.1666667
^shape<n><sg>$ ^decir<vblex><cni><p3><sg>$ 0.1666667
^would<vaux><inf>$ ^decir<vblex><cni><p3><sg>$ 0.1666667
^be<vbser><inf>$ ^tener<vblex><fti><p3><sg>$ 0.2500000
^will<vaux><inf>$ ^tener<vblex><fti><p3><sg>$ 0.2500000
^enlargement<n><sg>$ ^tener<vblex><fti><p3><sg>$ 0.2500000
^on<pr>$ ^tener<vblex><fti><p3><sg>$ 0.2500000
NULL ^construir<vblex><inf>$ 0.5000000
^build<vblex><inf>$ ^construir<vblex><inf>$ 0.5000000
^state<vblex><pri><p3><sg>$ ^*in$ 1.0000000
^few<det><qnt><pl>$ ^día<n><m><pl>$ 0.5000000
^day<n><pl>$ ^día<n><m><pl>$ 0.5000000
^also<adv>$ ^examen<n><m><pl>$ 1.0000000
^be<vbser><pres>$ ^expirar<vblex><prs><p3><sg>$ 0.3333333
^this<det><dem><sg>$ ^expirar<vblex><prs><p3><sg>$ 0.3333333
^state<adj>$ ^expirar<vblex><prs><p3><sg>$ 0.3333333
^and<cnjcoo>$ ^a~pesar~de<pr>$ 0.2500000
^despite<pr>$ ^a~pesar~de<pr>$ 0.7500000
^some<det><qnt><sp>$ ^determinado<adj><f><pl>$ 0.2000000
^impose<vblex><inf>$ ^determinado<adj><f><pl>$ 0.2000000
^certain<adj>$ ^determinado<adj><f><pl>$ 0.4000000
^municipality<n><pl>$ ^determinado<adj><f><pl>$ 0.2000000
NULL ^tener<vblex><prs><p3><sg>$ 1.0000000
^*retabled$ ^volver<vblex><pp><m><sg>$ 1.0000000
^in<pr>$ ^incremento<n><m><sg>$ 0.5000000
^increase<n><sg>$ ^incremento<n><m><sg>$ 0.5000000
^technical<adj>$ ^ser<vbser><prs><p3><pl>$ 0.0833333
NULL ^ser<vbser><prs><p3><pl>$ 0.3333333
^afterwards<adv>$ ^ser<vbser><prs><p3><pl>$ 0.0833333
^competitive<adj>$ ^ser<vbser><prs><p3><pl>$ 0.0833333
^apply<vblex><pres>$ ^ser<vbser><prs><p3><pl>$ 0.0833333
^be<vbser><pres>$ ^ser<vbser><prs><p3><pl>$ 0.3333333
^certain<adj>$ ^pleno<adj><f><sg>$ 0.3333333
^be<vbser><pri><p1><sg>$ ^pleno<adj><f><sg>$ 0.3333333
^partnership<n><sg>$ ^pleno<adj><f><sg>$ 0.3333333
^improve<vblex><ger>$ ^constatar<vblex><pri><p3><sg>$ 0.5000000
^directly<adv>$ ^constatar<vblex><pri><p3><sg>$ 0.5000000
^*ideologue$ ^ideólogo<n><m><sg>$ 1.0000000
^watering<n><sg>$ ^suavizar<vblex><inf>$ 0.2500000
^down<adv>$ ^suavizar<vblex><inf>$ 0.2500000
^no<det><ind><sp>$ ^suavizar<vblex><inf>$ 0.2500000
^-<guio>$ ^suavizar<vblex><inf>$ 0.2500000
^answer<vblex><past>$ ^contestar<vblex><pp><f><pl>$ 0.5000000
^answer<vblex><pp>$ ^contestar<vblex><pp><f><pl>$ 0.5000000
^reassure<vblex><inf>$ ^asegurar<vblex><inf>$ 0.2500000
^ensure<vblex><inf>$ ^asegurar<vblex><inf>$ 0.2500000
^prpers<prn><obj><p1><mf><pl>$ ^asegurar<vblex><inf>$ 0.2500000
NULL ^asegurar<vblex><inf>$ 0.2500000
^worker<n><pl>$ ^trabajador<n><m><pl>$ 1.0000000
^*chipped$ ^neutralizar<vblex><pp><m><sg>$ 0.3333333
^away<adv>$ ^neutralizar<vblex><pp><m><sg>$ 0.3333333
^at<pr>$ ^neutralizar<vblex><pp><m><sg>$ 0.3333333
^1998<num>$ ^-<guio>$ 0.0500000
^*Plooij$ ^-<guio>$ 0.0500000
^represent<vblex><pres>$ ^-<guio>$ 0.0500000
^-<guio>$ ^-<guio>$ 0.4500000
^for<pr>$ ^-<guio>$ 0.0500000
^*Wulf$ ^-<guio>$ 0.0500000
^parliamentary<adj>$ ^-<guio>$ 0.0500000
NULL ^-<guio>$ 0.1500000
^2000<num>$ ^-<guio>$ 0.1000000
^17<num>$ ^17<num>$ 1.0000000
^have<vblex><pres>$ ^preocupar<vblex><pp><f><sg>$ 0.3333333
^concern<n><pl>$ ^preocupar<vblex><pp><f><sg>$ 0.3333333
^my<det><pos><sp>$ ^preocupar<vblex><pp><f><sg>$ 0.3333333
^quarter<n><pl>$ ^alguno<prn><tn><m><pl>$ 0.3333333
^some<prn><tn><mf><pl>$ ^alguno<prn><tn><m><pl>$ 0.6666667
^demonstrate<vblex><inf>$ ^*sobradamente$ 1.0000000
^down<adv>$ ^emitir<vblex><inf>$ 1.0000000
^accountability<n><sg>$ ^cuenta<n><f><pl>$ 0.5000000
^belong<vblex><pres>$ ^cuenta<n><f><pl>$ 0.5000000
^link<vblex><inf>$ ^estructural<adj><mf><sg>$ 0.1666667
^structural<adj>$ ^estructural<adj><mf><sg>$ 0.8333333
^majority<n><sg>$ ^mayoría<n><f><sg>$ 0.7500000
^significant<adj>$ ^mayoría<n><f><sg>$ 0.2500000
^prpers<prn><subj><p1><mf><pl>$ ^exigir<vblex><pri><p1><pl>$ 0.5000000
^demand<vblex><pres>$ ^exigir<vblex><pri><p1><pl>$ 0.5000000
^evaluation<n><sg>$ ^apreciación<n><f><sg>$ 1.0000000
^benefit<n><sg>$ ^beneficio<n><m><sg>$ 0.5000000
^the<det><def><sp>$ ^beneficio<n><m><sg>$ 0.5000000
^respectfully<adv>$ ^pese~a<pr>$ 1.0000000
^round<n><sg>$ ^ronda<n><f><sg>$ 1.0000000
^prepare<vblex><past>$ ^dispuesto<adj><m><sg>$ 1.0000000
^report<n><pl>$ ^precedente<n><m><pl>$ 0.2500000
^compare<vblex><pp>$ ^precedente<n><m><pl>$ 0.2500000
^previous<adj>$ ^precedente<n><m><pl>$ 0.5000000
^place<n><sg>$ ^privado<adj><f><sg>$ 0.5000000
^industry<n><sg>$ ^privado<adj><f><sg>$ 0.5000000
^to<pr>$ ^áspero<adj><f><pl>$ 0.5000000
^bitter<adj>$ ^áspero<adj><f><pl>$ 0.5000000
^what<rel><nn><mf><sg>$ ^requerir<vblex><pri><p3><pl>$ 1.0000000
^discussed<adj>$ ^examinar<vblex><pp><m><sg>$ 1.0000000
^naturally<adv>$ ^naturalmente<adv>$ 0.3333333
^have<vblex><pri><p3><sg>$ ^naturalmente<adv>$ 0.3333333
^the~same<adv>$ ^naturalmente<adv>$ 0.3333333
^tape<n><sg>$ ^burocracia<n><f><sg>$ 0.4000000
^bureaucracy<n><sg>$ ^burocracia<n><f><sg>$ 0.2000000
^red<adj>$ ^burocracia<n><f><sg>$ 0.4000000
^discuss<vblex><ger>$ ^discutir<vblex><pri><p3><sg>$ 1.0000000
^ensure<vblex><pres>$ ^devolver<vblex><pp><f><sg>$ 1.0000000
^enter<vblex><pp>$ ^entrada<n><f><sg>$ 1.0000000
^where<rel><adv>$ ^brillar<vblex><pri><p3><sg>$ 0.5000000
^*sorely$ ^brillar<vblex><pri><p3><sg>$ 0.5000000
^harmonise<vblex><ger>$ ^acercamiento<n><m><sg>$ 1.0000000
NULL ^en~principio<adv>$ 0.2500000
^in~principle<adv>$ ^en~principio<adv>$ 0.5000000
^do<vbdo><pres>$ ^en~principio<adv>$ 0.2500000
^in~accordance~with<pr>$ ^principio<n><m><pl>$ 0.5000000
^principle<n><pl>$ ^principio<n><m><pl>$ 0.5000000
^be<vbser><pri><p1><sg>$ ^intervenir<vblex><pri><p1><sg>$ 0.2000000
^speak<vblex><ger>$ ^intervenir<vblex><pri><p1><sg>$ 0.4000000
^prpers<prn><subj><p1><mf><sg>$ ^intervenir<vblex><pri><p1><sg>$ 0.2000000
^on<pr>$ ^intervenir<vblex><pri><p1><sg>$ 0.2000000
^notify<vblex><inf>$ ^indiscutiblemente<adv>$ 1.0000000
^prpers<prn><obj><p1><mf><sg>$ ^decir<vblex><fti><p3><sg>$ 0.2500000
^tell<vblex><inf>$ ^decir<vblex><fti><p3><sg>$ 0.2500000
^situation<n><pl>$ ^decir<vblex><fti><p3><sg>$ 0.2500000
^will<vaux><inf>$ ^decir<vblex><fti><p3><sg>$ 0.2500000
^margarine<n><sg>$ ^margarina<n><f><sg>$ 1.0000000
^a<det><ind><sg>$ ^comenzar<vblex><fti><p1><sg>$ 1.0000000
^1762<num>$ ^1762<num>$ 1.0000000
^deep<adj><sint><comp>$ ^profundo<adj><f><sg>$ 1.0000000
^marker<n><sg>$ ^señal<n><f><sg>$ 1.0000000
NULL ^durante<pr>$ 0.2500000
^debate<vblex><past>$ ^durante<pr>$ 0.2500000
^during<pr>$ ^durante<pr>$ 0.5000000
^law<n><sg>$ ^interés<n><m><sg>$ 1.0000000
^start<vblex><inf>$ ^ciudadano<adj><m><pl>$ 1.0000000
NULL ^producir<vblex><pp><m><sg>$ 0.4000000
^materialise<vblex><inf>$ ^producir<vblex><pp><m><sg>$ 0.2000000
^take#~place<vblex><pp>$ ^producir<vblex><pp><m><sg>$ 0.2000000
^delay<n><pl>$ ^producir<vblex><pp><m><sg>$ 0.2000000
^due~to<pr>$ ^atender<vblex><inf>$ 0.5000000
^attend<vblex><inf>$ ^atender<vblex><inf>$ 0.5000000
^increasing<adj>$ ^incrementar<vblex><inf>$ 0.3333333
^margin<n><pl>$ ^incrementar<vblex><inf>$ 0.3333333
^safety<n><sg>$ ^incrementar<vblex><inf>$ 0.3333333
^unemployment<n><sg>$ ^tasa<n><f><sg>$ 1.0000000
^rather~than<pr>$ ^debilitar<vblex><cni><p3><sg>$ 1.0000000
^way<n><sg>$ ^éste<prn><tn><m><sg>$ 0.1250000
^this<prn><tn><mf><sg>$ ^éste<prn><tn><m><sg>$ 0.7500000
^my<det><pos><sp>$ ^éste<prn><tn><m><sg>$ 0.1250000
^provider<n><sg>$ ^potencial<adj><mf><sg>$ 1.0000000
^become<vblex><inf>$ ^suscitar<vblex><pri><p3><sg>$ 0.5000000
^pronounce<vblex><pp>$ ^suscitar<vblex><pri><p3><sg>$ 0.5000000
^their<det><pos><sp>$ ^imaginación<n><f><sg>$ 1.0000000
^party<n><sg>$ ^*PPE$ 0.3333333
^european<adj>$ ^*PPE$ 0.3333333
^*PPE$ ^*PPE$ 0.3333333
^state<adj>$ ^estatal<adj><mf><pl>$ 1.0000000
^in<pr>$ ^otro<det><ind><f><sg>$ 0.1428571
^one<prn><tn><mf><sg>$ ^otro<det><ind><f><sg>$ 0.1428571
^another<det><ind><sg>$ ^otro<det><ind><f><sg>$ 0.4285714
^short<adj><sint>$ ^otro<det><ind><f><sg>$ 0.1428571
^institution<n><sg>$ ^otro<det><ind><f><sg>$ 0.1428571
^enter<vblex><pres>$ ^siglo<n><m><sg>$ 0.3333333
^prpers<prn><subj><p1><mf><pl>$ ^siglo<n><m><sg>$ 0.3333333
^as<cnjadv>$ ^siglo<n><m><sg>$ 0.3333333
^most<det><qnt><sp>$ ^sinceramente<adv>$ 1.0000000
^be<vbser><pres>$ ^regla<n><f><sg>$ 0.2000000
^no<adv>$ ^regla<n><f><sg>$ 0.2000000
^rule<n><pl>$ ^regla<n><f><sg>$ 0.2000000
^in~general<adv>$ ^regla<n><f><sg>$ 0.4000000
^a~lot<adv>$ ^demasiado<adv>$ 0.2500000
^prpers<prn><subj><p3><nt><sg>$ ^demasiado<adv>$ 0.2500000
^be<vbser><ger>$ ^demasiado<adv>$ 0.2500000
^large<adj><sint>$ ^demasiado<adv>$ 0.2500000
^over<pr>$ ^decenio<n><m><sg>$ 1.0000000
^importance<n><sg>$ ^destacar<vblex><pri><p3><sg>$ 0.3333333
^*emphasises$ ^destacar<vblex><pri><p3><sg>$ 0.3333333
^of<pr>$ ^destacar<vblex><pri><p3><sg>$ 0.3333333
^sound<n><sg>$ ^bueno<adj><f><sg>$ 0.1250000
^proper<adj>$ ^bueno<adj><f><sg>$ 0.1250000
^look<vblex><inf>$ ^bueno<adj><f><sg>$ 0.1250000
^good<adj><sint>$ ^bueno<adj><f><sg>$ 0.1250000
^conduct<n><sg>$ ^bueno<adj><f><sg>$ 0.1250000
^apply<vblex><pp>$ ^bueno<adj><f><sg>$ 0.1250000
^constructive<adj>$ ^bueno<adj><f><sg>$ 0.1250000
^workable<adj>$ ^bueno<adj><f><sg>$ 0.1250000
^against<adv>$ ^en~contra<adv>$ 0.6666667
NULL ^en~contra<adv>$ 0.3333333
NULL ^consideración<n><f><sg>$ 0.2500000
^of<pr>$ ^consideración<n><f><sg>$ 0.2500000
^account<n><sg>$ ^consideración<n><f><sg>$ 0.2500000
^take<vblex><pres>$ ^consideración<n><f><sg>$ 0.2500000
^think#~that<vblex><past>$ ^encontrar<vblex><pp><m><sg>$ 0.5000000
^superb<adj>$ ^encontrar<vblex><pp><m><sg>$ 0.5000000
^out<adv>$ ^nivelar<vblex><inf>$ 0.5000000
^evening<n><sg>$ ^nivelar<vblex><inf>$ 0.5000000
^invalidity<n><sg>$ ^entrar<vblex><prs><p3><sg>$ 0.5000000
^penalty<n><sg>$ ^entrar<vblex><prs><p3><sg>$ 0.5000000
^do<vblex><ger>$ ^a~este~respecto<cnjadv>$ 0.5000000
NULL ^a~este~respecto<cnjadv>$ 0.5000000
^industry<n><sg>$ ^construcción<n><f><sg>$ 0.5000000
^such~as<pr>$ ^construcción<n><f><sg>$ 0.5000000
^bring<vblex><inf>$ ^llegar<vblex><inf>$ 0.3333333
NULL ^llegar<vblex><inf>$ 0.3333333
^prpers<prn><obj><p1><mf><pl>$ ^llegar<vblex><inf>$ 0.3333333
^by~definition<adv>$ ^por~definición<adv>$ 1.0000000
^date<vblex><inf>$ ^hasta~la~fecha<adv>$ 0.5000000
^to<pr>$ ^hasta~la~fecha<adv>$ 0.5000000
^investment<n><pl>$ ^índole<n><f><sg>$ 1.0000000
^explanation<n><sg>$ ^explicación<n><f><sg>$ 1.0000000
NULL ^hecho<n><m><pl>$ 0.5000000
^prpers<prn><obj><p1><mf><pl>$ ^hecho<n><m><pl>$ 0.5000000
^pursue<vblex><pp>$ ^continuar<vblex><ifi><p3><sg>$ 1.0000000
^depth<n><sg>$ ^profundo<adj><m><sg>$ 0.3333333
^why<adv><itg>$ ^profundo<adj><m><sg>$ 0.3333333
^-<guio>$ ^profundo<adj><m><sg>$ 0.3333333
^instrument<n><sg>$ ^instrumento<n><m><sg>$ 1.0000000
^'<apos>$ ^europeo<adj><f><sg>$ 0.0400000
^european<adj>$ ^europeo<adj><f><sg>$ 0.9200000
NULL ^europeo<adj><f><sg>$ 0.0400000
^as~a~result~of<pr>$ ^aumento<n><m><sg>$ 0.3333333
NULL ^aumento<n><m><sg>$ 0.3333333
^strengthen<vblex><inf>$ ^aumento<n><m><sg>$ 0.3333333
^especially<adv>$ ^en~lo~que~respecta~a<pr>$ 0.1666667
^with<pr>$ ^en~lo~que~respecta~a<pr>$ 0.1666667
^in<pr>$ ^en~lo~que~respecta~a<pr>$ 0.5000000
^US<np><loc><sg>$ ^en~lo~que~respecta~a<pr>$ 0.1666667
^disagree<vblex><pp>$ ^disentir<vblex><pp><m><sg>$ 0.5000000
^numerous<adj>$ ^disentir<vblex><pp><m><sg>$ 0.5000000
NULL ^comisario<n><m><sg>$ 0.0400000
^commissioner<n><sg>$ ^comisario<n><m><sg>$ 0.9600000
^give<vblex><pp>$ ^suscitar<vblex><pp><m><sg>$ 0.5000000
^rise<n><sg>$ ^suscitar<vblex><pp><m><sg>$ 0.5000000
^endeavour<vblex><ger>$ ^intentar<vblex><pri><p3><sg>$ 1.0000000
^as~well~as<cnjadv>$ ^unir<vblex><pp><m><sg>$ 1.0000000
^apply<vblex><pri><p3><sg>$ ^aplicar<vblex><pri><p3><sg>$ 0.5000000
^have<vbhaver><pres>$ ^aplicar<vblex><pri><p3><sg>$ 0.5000000
^decisive<adj>$ ^pequeña~y~mediana~empresa<n><f><pl>$ 0.3333333
^SME<n><pl>$ ^pequeña~y~mediana~empresa<n><f><pl>$ 0.3333333
^small<adj><sint>$ ^pequeña~y~mediana~empresa<n><f><pl>$ 0.3333333
NULL ^examinar<vblex><pp><f><sg>$ 1.0000000
^sooner<adv>$ ^reforma<n><f><sg>$ 0.1428571
^reform<n><sg>$ ^reforma<n><f><sg>$ 0.8571429
^although<cnjadv>$ ^poder<vbmod><pp><m><sg>$ 0.3333333
^fall<vblex><past>$ ^poder<vbmod><pp><m><sg>$ 0.3333333
^electronically<adv>$ ^poder<vbmod><pp><m><sg>$ 0.3333333
^often<adv>$ ^frecuente<adj><mf><sg>$ 0.3333333
^deal#~with<vblex><pres>$ ^frecuente<adj><mf><sg>$ 0.3333333
^so<preadv>$ ^frecuente<adj><mf><sg>$ 0.3333333
^as~regards<pr>$ ^credibilidad<n><f><sg>$ 1.0000000
^goal<n><sg>$ ^central<adj><mf><sg>$ 0.3333333
^central<adj>$ ^central<adj><mf><sg>$ 0.6666667
^regional<adj>$ ^regional<adj><mf><sg>$ 1.0000000
^region<n><pl>$ ^afectar<vblex><pp><f><pl>$ 0.3333333
^fall<vblex><past>$ ^afectar<vblex><pp><f><pl>$ 0.3333333
^damage<vblex><pp>$ ^afectar<vblex><pp><f><pl>$ 0.3333333
^less~than<pr>$ ^cualquier~cosa<prn><tn><f><sg>$ 0.5000000
^something<prn><tn><nt><sg>$ ^cualquier~cosa<prn><tn><f><sg>$ 0.5000000
^small<adj><sint>$ ^pequeño<adj><m><pl>$ 1.0000000
^to<pr>$ ^aumentar<vblex><prs><p3><pl>$ 1.0000000
NULL ^Sr.<n><m><sg>$ 0.0294118
^Mr.<n><sg>$ ^Sr.<n><m><sg>$ 0.8823529
^commissioner<n><sg>$ ^Sr.<n><m><sg>$ 0.0588235
^for<pr>$ ^Sr.<n><m><sg>$ 0.0294118
^our<det><pos><sp>$ ^nuestro<det><pos><m><pl>$ 0.6666667
^teach<vblex><pp>$ ^nuestro<det><pos><m><pl>$ 0.1666667
NULL ^nuestro<det><pos><m><pl>$ 0.1666667
^tax<n><sg>$ ^capital<n><m><sg>$ 0.6666667
NULL ^capital<n><m><sg>$ 0.3333333
^*accordance$ ^suerte<n><f><sg>$ 0.5000000
^with<pr>$ ^suerte<n><f><sg>$ 0.5000000
^regulation<n><sg>$ ^*minimis$ 0.5000000
^*minimis$ ^*minimis$ 0.5000000
NULL ^defender<vblex><pri><p3><sg>$ 0.5000000
^champion<vblex><pp>$ ^defender<vblex><pri><p3><sg>$ 0.5000000
^monopoly<n><sg>$ ^*monopolista$ 0.3333333
^with<pr>$ ^*monopolista$ 0.3333333
^market<n><sg>$ ^*monopolista$ 0.3333333
^still<adv>$ ^conceder<vblex><ger>$ 0.3333333
^particular<adj>$ ^conceder<vblex><ger>$ 0.3333333
^issue<vblex><inf>$ ^conceder<vblex><ger>$ 0.3333333
^prpers<prn><obj><p2><mf><sp>$ ^prpers<prn><enc><p3><mf><sg>$ 0.2500000
NULL ^prpers<prn><enc><p3><mf><sg>$ 0.0625000
^prpers<prn><subj><p1><mf><sg>$ ^prpers<prn><enc><p3><mf><sg>$ 0.1250000
^tell<vblex><inf>$ ^prpers<prn><enc><p3><mf><sg>$ 0.1875000
^*dramatised$ ^prpers<prn><enc><p3><mf><sg>$ 0.0625000
^sincerely<adv>$ ^prpers<prn><enc><p3><mf><sg>$ 0.0625000
^priority<n><sg>$ ^prpers<prn><enc><p3><mf><sg>$ 0.0625000
^express<vblex><ger>$ ^prpers<prn><enc><p3><mf><sg>$ 0.0625000
^pay<vblex><inf>$ ^prpers<prn><enc><p3><mf><sg>$ 0.0625000
^want#~to<vbmod><pres>$ ^prpers<prn><enc><p3><mf><sg>$ 0.0625000
^explanation<n><pl>$ ^voto<n><m><sg>$ 0.1428571
^vote<vblex><inf>$ ^voto<n><m><sg>$ 0.1428571
^vote<n><sg>$ ^voto<n><m><sg>$ 0.7142857
^,<cm>$ ^hora<n><f><sg>$ 0.1666667
^establish<vblex><ger>$ ^hora<n><f><sg>$ 0.1666667
NULL ^hora<n><f><sg>$ 0.3333333
^in<pr>$ ^hora<n><f><sg>$ 0.3333333
^mark<vblex><pp>$ ^dramáticamente<adv>$ 0.2500000
^much~more<adv>$ ^dramáticamente<adv>$ 0.2500000
^become<vblex><ger>$ ^dramáticamente<adv>$ 0.2500000
^be<vbser><pres>$ ^dramáticamente<adv>$ 0.2500000
^everything<prn><tn><m><sg>$ ^tener#~que<vbmod><cni><p1><pl>$ 0.2000000
^prpers<prn><subj><p1><mf><pl>$ ^tener#~que<vbmod><cni><p1><pl>$ 0.2000000
^our<det><pos><sp>$ ^tener#~que<vbmod><cni><p1><pl>$ 0.2000000
^power<n><sg>$ ^tener#~que<vbmod><cni><p1><pl>$ 0.2000000
^within<pr>$ ^tener#~que<vbmod><cni><p1><pl>$ 0.2000000
^idea<n><sg>$ ^*ultraliberal$ 0.5000000
^*ultraliberal$ ^*ultraliberal$ 0.5000000
^not<adv>$ ^amable<adj><mf><sg>$ 1.0000000
^small<adj><sint><comp>$ ^pequeño<adj><f><pl>$ 0.5000000
^with<pr>$ ^pequeño<adj><f><pl>$ 0.5000000
^perspective<n><sg>$ ^elemento<n><m><sg>$ 0.5000000
^within<pr>$ ^elemento<n><m><sg>$ 0.5000000
^still<adv>$ ^seguir#~siendo<vblex><inf>$ 0.5000000
^*ought$ ^seguir#~siendo<vblex><inf>$ 0.5000000
^success<n><sg>$ ^futuro<adj><m><sg>$ 1.0000000
^paradox<n><sg>$ ^paradoja<n><f><sg>$ 0.5000000
^be#~faced~with<vblex><inf>$ ^paradoja<n><f><sg>$ 0.5000000
^first<det><ord><sp>$ ^primer<det><ord><m><pl>$ 1.0000000
^*waterway$ ^fluvial<adj><mf><pl>$ 1.0000000
^ecological<adj>$ ^necesidad<n><f><pl>$ 0.2500000
^reserve<n><pl>$ ^necesidad<n><f><pl>$ 0.2500000
NULL ^necesidad<n><f><pl>$ 0.5000000
^lawyer<n><pl>$ ^abogado<n><m><pl>$ 1.0000000
^supplement<n><pl>$ ^eficaz<adj><mf><pl>$ 0.3333333
^*efficiently$ ^eficaz<adj><mf><pl>$ 0.3333333
NULL ^eficaz<adj><mf><pl>$ 0.3333333
^administration<n><sg>$ ^práctico<adj><f><sg>$ 0.2500000
^practical<adj>$ ^práctico<adj><f><sg>$ 0.7500000
^*rapporteurs$ ^ponente<n><mf><pl>$ 0.5000000
^Mr.<n><sg>$ ^ponente<n><mf><pl>$ 0.5000000
^assessment<n><sg>$ ^valoración<n><f><sg>$ 1.0000000
^highlight<n><sg>$ ^breve<adj><mf><pl>$ 0.3333333
^word<n><pl>$ ^breve<adj><mf><pl>$ 0.3333333
^in~order~to<pr>$ ^breve<adj><mf><pl>$ 0.3333333
^correctly<adv>$ ^correctamente<adv>$ 1.0000000
^document<n><pl>$ ^ambos<det><ind><m><pl>$ 0.5000000
^both<cnjcoo>$ ^ambos<det><ind><m><pl>$ 0.5000000
^may<vaux><inf>$ ^medir<vblex><inf>$ 1.0000000
^thousand<n><pl>$ ^mil<n><m><pl>$ 1.0000000
^see<vblex><pp>$ ^comprobar<vblex><inf>$ 1.0000000
^for<pr>$ ^a~favor<adv>$ 0.2500000
^marker<n><sg>$ ^a~favor<adv>$ 0.1250000
^in~favour<adv>$ ^a~favor<adv>$ 0.3750000
^vote<n><pl>$ ^a~favor<adv>$ 0.1250000
^favour<vblex><inf>$ ^a~favor<adv>$ 0.1250000
NULL ^marchar<vblex><ger>$ 1.0000000
^subject<vblex><inf>$ ^someter<vblex><inf>$ 1.0000000
^and<cnjcoo>$ ^,<cm>$ 0.0058072
^rose<n><sg>$ ^,<cm>$ 0.0011614
^make<n><sg>$ ^,<cm>$ 0.0011614
^appear<vblex><past>$ ^,<cm>$ 0.0011614
^go<vblex><inf>$ ^,<cm>$ 0.0011614
^so<preadv>$ ^,<cm>$ 0.0023229
^support<vblex><inf>$ ^,<cm>$ 0.0011614
^come<vblex><inf>$ ^,<cm>$ 0.0011614
^that<det><dem><pl>$ ^,<cm>$ 0.0011614
^where<rel><adv>$ ^,<cm>$ 0.0023229
^should<vaux><inf>$ ^,<cm>$ 0.0081301
^further<adv>$ ^,<cm>$ 0.0011614
^prpers<prn><subj><p3><nt><sg>$ ^,<cm>$ 0.0011614
^say<vblex><inf>$ ^,<cm>$ 0.0046458
^prpers<prn><subj><p1><mf><sg>$ ^,<cm>$ 0.0023229
^Japan<np><loc><sg>$ ^,<cm>$ 0.0011614
^prpers<prn><obj><p3><nt><sg>$ ^,<cm>$ 0.0023229
^possibly<adv>$ ^,<cm>$ 0.0011614
^9002<num>$ ^,<cm>$ 0.0011614
^sole<adj>$ ^,<cm>$ 0.0011614
^observe<vblex><past>$ ^,<cm>$ 0.0011614
NULL ^,<cm>$ 0.1649245
^be<vbser><pres>$ ^,<cm>$ 0.0023229
^would<vaux><inf>$ ^,<cm>$ 0.0058072
^reject<vblex><inf>$ ^,<cm>$ 0.0011614
^line<n><pl>$ ^,<cm>$ 0.0011614
^be<vbser><pri><p3><sg>$ ^,<cm>$ 0.0023229
^take<vblex><inf>$ ^,<cm>$ 0.0011614
^quite<preadv>$ ^,<cm>$ 0.0011614
^accept<vblex><inf>$ ^,<cm>$ 0.0011614
^necessary<adj>$ ^,<cm>$ 0.0023229
^restructuring<n><sg>$ ^,<cm>$ 0.0023229
^.<sent>$ ^,<cm>$ 0.0023229
^since<adv>$ ^,<cm>$ 0.0011614
^prpers<prn><subj><p1><mf><pl>$ ^,<cm>$ 0.0081301
^,<cm>$ ^,<cm>$ 0.7096400
^be<vbser><past><p3><sg>$ ^,<cm>$ 0.0023229
^have<vbhaver><pres>$ ^,<cm>$ 0.0011614
^at<pr>$ ^,<cm>$ 0.0034843
^therefore<adv>$ ^,<cm>$ 0.0150987
^warning<n><sg>$ ^,<cm>$ 0.0011614
^business<adj>$ ^,<cm>$ 0.0011614
^withdraw<vblex><pp>$ ^,<cm>$ 0.0011614
^Tuesday<n><sg>$ ^,<cm>$ 0.0011614
^ultimate<adj>$ ^,<cm>$ 0.0023229
^let<vblex><pp>$ ^,<cm>$ 0.0034843
^every<det><ind><sg>$ ^,<cm>$ 0.0034843
^there<adv>$ ^,<cm>$ 0.0058072
^may<vaux><inf>$ ^,<cm>$ 0.0011614
^I<num><mf><sg>$ ^,<cm>$ 0.0011614
^as~for<pr>$ ^,<cm>$ 0.0023229
^too<preadv>$ ^,<cm>$ 0.0023229
^on<pr>$ ^votar<vblex><prs><p1><pl>$ 1.0000000
^drop<vblex><ger>$ ^reducir<vblex><inf>$ 0.2500000
^at~all<adv>$ ^reducir<vblex><inf>$ 0.2500000
^to<pr>$ ^reducir<vblex><inf>$ 0.2500000
^reduce<vblex><inf>$ ^reducir<vblex><inf>$ 0.2500000
^create<vblex><inf>$ ^suficiente<adj><mf><pl>$ 1.0000000
^know<vblex><inf>$ ^tino<n><m><sg>$ 0.5000000
^how<preadv>$ ^tino<n><m><sg>$ 0.5000000
^aid<n><sg>$ ^apoyo~financiero<n><m><sg>$ 0.5000000
^financial<adj>$ ^apoyo~financiero<n><m><sg>$ 0.5000000
^55<num>$ ^55<num>$ 0.2500000
^have<vbhaver><pri><p3><sg>$ ^55<num>$ 0.2500000
^*tabled$ ^55<num>$ 0.2500000
^94<num>$ ^55<num>$ 0.2500000
^*pre$ ^proceso<n><m><sg>$ 0.1111111
^challenge<n><pl>$ ^proceso<n><m><sg>$ 0.1111111
^process<n><sg>$ ^proceso<n><m><sg>$ 0.4444444
^come#~to~an~end<vblex><pp>$ ^proceso<n><m><sg>$ 0.1111111
^process<vblex><inf>$ ^proceso<n><m><sg>$ 0.1111111
^very<preadv>$ ^proceso<n><m><sg>$ 0.1111111
NULL ^mes<n><m><sg>$ 1.0000000
^welcome<vblex><past>$ ^esto<prn><tn><m><sp>$ 0.0227273
^be<vbser><pri><p3><sg>$ ^esto<prn><tn><m><sp>$ 0.0227273
^enforce<vblex><ger>$ ^esto<prn><tn><m><sp>$ 0.0227273
^this<det><dem><sg>$ ^esto<prn><tn><m><sp>$ 0.0454545
^this<prn><tn><mf><sg>$ ^esto<prn><tn><m><sp>$ 0.5227273
NULL ^esto<prn><tn><m><sp>$ 0.1590909
^reconsider<vblex><pres>$ ^esto<prn><tn><m><sp>$ 0.0227273
^result<n><sg>$ ^esto<prn><tn><m><sp>$ 0.0227273
^so~much<det><qnt><sg>$ ^esto<prn><tn><m><sp>$ 0.0227273
^under<pr>$ ^esto<prn><tn><m><sp>$ 0.0227273
^learn<vblex><inf>$ ^esto<prn><tn><m><sp>$ 0.0227273
^*islander$ ^esto<prn><tn><m><sp>$ 0.0227273
^mean<vblex><pri><p3><sg>$ ^esto<prn><tn><m><sp>$ 0.0227273
^much<adv>$ ^esto<prn><tn><m><sp>$ 0.0227273
^that<prn><tn><mf><sg>$ ^esto<prn><tn><m><sp>$ 0.0227273
^comprehensive<adj>$ ^amplio<adj><m><sg>$ 1.0000000
^off<adv>$ ^decir<vblex><fti><p3><pl>$ 1.0000000
^able<adj><sint>$ ^poder<vbmod><inf>$ 0.3333333
^be<vbser><inf>$ ^poder<vbmod><inf>$ 0.6666667
^need<vblex><inf>$ ^recordar<vblex><pri><p1><sg>$ 0.1666667
^*Fruteau$ ^recordar<vblex><pri><p1><sg>$ 0.1666667
^Mr.<n><sg>$ ^recordar<vblex><pri><p1><sg>$ 0.1666667
^at~least<adv>$ ^recordar<vblex><pri><p1><sg>$ 0.1666667
NULL ^recordar<vblex><pri><p1><sg>$ 0.1666667
^prpers<prn><subj><p1><mf><pl>$ ^recordar<vblex><pri><p1><sg>$ 0.1666667
^concern<vblex><pp>$ ^haber~que<vbmod><cni><p3><sg>$ 0.5000000
^be<vbser><pri><p3><sg>$ ^haber~que<vbmod><cni><p3><sg>$ 0.5000000
^by<pr>$ ^gobierno<n><m><pl>$ 0.4000000
^government<n><pl>$ ^gobierno<n><m><pl>$ 0.6000000
^seek<vblex><ger>$ ^emplear<vblex><pri><p1><sg>$ 1.0000000
^experience<vblex><inf>$ ^órgano<n><m><pl>$ 0.5000000
^lack<n><sg>$ ^órgano<n><m><pl>$ 0.5000000
^should<vaux><inf>$ ^mayor<adj><mf><sg>$ 0.0588235
^great<adj><sint><comp>$ ^mayor<adj><mf><sg>$ 0.2352941
^world<n><sg>$ ^mayor<adj><mf><sg>$ 0.0588235
^cross<n><sg>$ ^mayor<adj><mf><sg>$ 0.0588235
^*dramatised$ ^mayor<adj><mf><sg>$ 0.0588235
^great<adj><sint><sup>$ ^mayor<adj><mf><sg>$ 0.1176471
^meaningful<adj>$ ^mayor<adj><mf><sg>$ 0.0588235
^increase<vblex><pp>$ ^mayor<adj><mf><sg>$ 0.1176471
NULL ^mayor<adj><mf><sg>$ 0.2352941
^so<preadv>$ ^escaso<adj><f><pl>$ 0.3333333
^make<vblex><ger>$ ^escaso<adj><f><pl>$ 0.3333333
^few<det><qnt><pl>$ ^escaso<adj><f><pl>$ 0.3333333
^by<pr>$ ^envase<n><m><pl>$ 0.2500000
^affect<vblex><pp>$ ^envase<n><m><pl>$ 0.2500000
^packaging<n><sg>$ ^envase<n><m><pl>$ 0.2500000
^be<vbser><pres>$ ^envase<n><m><pl>$ 0.2500000
^fact<n><sg>$ ^obligar<vblex><pri><p3><sg>$ 0.2500000
^mean<vblex><pri><p3><sg>$ ^obligar<vblex><pri><p3><sg>$ 0.2500000
^that<cnjsub>$ ^obligar<vblex><pri><p3><sg>$ 0.2500000
^urgency<n><sg>$ ^obligar<vblex><pri><p3><sg>$ 0.2500000
^as~well<adv>$ ^neerlandés<adj><m><sg>$ 0.5000000
^channel<n><sg>$ ^neerlandés<adj><m><sg>$ 0.5000000
^right<adj>$ ^lugar<n><m><pl>$ 0.3333333
^at<pr>$ ^lugar<n><m><pl>$ 0.3333333
^place<n><sg>$ ^lugar<n><m><pl>$ 0.3333333
^collate<vblex><inf>$ ^recoger<vblex><inf>$ 1.0000000
^consolidation<n><sg>$ ^industria<n><f><sg>$ 0.1111111
NULL ^industria<n><f><sg>$ 0.2222222
^industry<n><sg>$ ^industria<n><f><sg>$ 0.4444444
^steel<n><sg>$ ^industria<n><f><sg>$ 0.2222222
^unnecessary<adj>$ ^fractura<n><f><sg>$ 1.0000000
^develop<vblex><ger>$ ^región<n><f><pl>$ 0.0238095
^southern<adj>$ ^región<n><f><pl>$ 0.0238095
^area<n><pl>$ ^región<n><f><pl>$ 0.0238095
^global<adj>$ ^región<n><f><pl>$ 0.0238095
^remote<adj>$ ^región<n><f><pl>$ 0.0238095
NULL ^región<n><f><pl>$ 0.0714286
^rich<adj><sint>$ ^región<n><f><pl>$ 0.0238095
^poor<adj><sint>$ ^región<n><f><pl>$ 0.0238095
^inequality<n><sg>$ ^región<n><f><pl>$ 0.0238095
^region<n><pl>$ ^región<n><f><pl>$ 0.7380952
^consume<vblex><ger>$ ^uno<det><ind><f><pl>$ 0.1111111
^reason<n><sg>$ ^uno<det><ind><f><pl>$ 0.1111111
NULL ^uno<det><ind><f><pl>$ 0.1111111
^pleasant<adj>$ ^uno<det><ind><f><pl>$ 0.1111111
^have<vblex><past>$ ^uno<det><ind><f><pl>$ 0.1111111
^flexibility<n><sg>$ ^uno<det><ind><f><pl>$ 0.1111111
^a~few<det><qnt><pl>$ ^uno<det><ind><f><pl>$ 0.2222222
^to<pr>$ ^uno<det><ind><f><pl>$ 0.1111111
NULL ^memoria<n><f><sg>$ 1.0000000
^cartel<n><pl>$ ^cártel<n><m><pl>$ 0.5000000
^monopoly<n><pl>$ ^cártel<n><m><pl>$ 0.5000000
^contain<vblex><ger>$ ^abordar<vblex><pri><p3><sg>$ 1.0000000
^in<pr>$ ^análisis<n><m><sp>$ 0.1111111
^analysis<n><sg>$ ^análisis<n><m><sp>$ 0.7777778
NULL ^análisis<n><m><sp>$ 0.1111111
^also<adv>$ ^igualmente<adv>$ 0.6666667
^equally<adv>$ ^igualmente<adv>$ 0.3333333
^quite<preadv>$ ^emocionante<adj><mf><sg>$ 0.3333333
^exciting<adj>$ ^emocionante<adj><mf><sg>$ 0.3333333
^for<pr>$ ^emocionante<adj><mf><sg>$ 0.3333333
^have<vblex><inf>$ ^últimamente<adv>$ 0.5000000
^recently<adv>$ ^últimamente<adv>$ 0.5000000
^transparency<n><sg>$ ^transparencia<n><f><sg>$ 1.0000000
^single<adj>$ ^moneda<n><f><sg>$ 1.0000000
^dramatic<adj>$ ^dramático<adj><f><pl>$ 1.0000000
^now<adv>$ ^insistir<vblex><inf>$ 1.0000000
NULL ^uno<det><ind><m><pl>$ 0.2000000
^meet<vblex><inf>$ ^uno<det><ind><m><pl>$ 0.2000000
^propose<vblex><inf>$ ^uno<det><ind><m><pl>$ 0.2000000
^a~few<det><qnt><pl>$ ^uno<det><ind><m><pl>$ 0.2000000
^*Fruteau$ ^uno<det><ind><m><pl>$ 0.2000000
^accept<vblex><inf>$ ^esperanza<n><f><sg>$ 0.5000000
^hope<vblex><pres>$ ^esperanza<n><f><sg>$ 0.5000000
^where<rel><adv>$ ^el~que<rel><nn><m><sg>$ 0.3750000
NULL ^el~que<rel><nn><m><sg>$ 0.1250000
^which<det><itg><sp>$ ^el~que<rel><nn><m><sg>$ 0.3750000
^context<n><sg>$ ^el~que<rel><nn><m><sg>$ 0.1250000
^perspective<n><sg>$ ^realidad<n><f><sg>$ 0.3333333
NULL ^realidad<n><f><sg>$ 0.3333333
^that<prn><tn><mf><sg>$ ^realidad<n><f><sg>$ 0.3333333
^which<prn><itg><m><sp>$ ^aparecer<vblex><pp><f><pl>$ 0.5000000
^comment<vblex><pri><p3><sg>$ ^aparecer<vblex><pp><f><pl>$ 0.5000000
^vote<vblex><pp>$ ^votar<vblex><ifi><p1><sg>$ 1.0000000
^background<n><sg>$ ^humilde<adj><mf><sg>$ 1.0000000
^market~economy<n><sg>$ ^economía#~de~mercado<n><f><sg>$ 1.0000000
^examine<vblex><pres>$ ^examinar<vblex><pri><p1><pl>$ 0.5000000
^prpers<prn><subj><p1><mf><pl>$ ^examinar<vblex><pri><p1><pl>$ 0.5000000
^*afresh$ ^regular<vblex><pp><f><pl>$ 0.5000000
^down<adv>$ ^regular<vblex><pp><f><pl>$ 0.5000000
^that<cnjsub>$ ^deficiencia<n><f><pl>$ 0.3333333
^*shortcomings$ ^deficiencia<n><f><pl>$ 0.3333333
^deficiency<n><pl>$ ^deficiencia<n><f><pl>$ 0.3333333
^to~this~end<adv>$ ^sentido<n><m><sg>$ 0.1052632
^connection<n><sg>$ ^sentido<n><m><sg>$ 0.0526316
^be<vbser><inf>$ ^sentido<n><m><sg>$ 0.0526316
NULL ^sentido<n><m><sg>$ 0.1052632
^bad<adj><sint>$ ^sentido<n><m><sg>$ 0.0526316
^sense<n><sg>$ ^sentido<n><m><sg>$ 0.1578947
^direction<n><sg>$ ^sentido<n><m><sg>$ 0.0526316
^*accordance$ ^sentido<n><m><sg>$ 0.0526316
^true<adj><sint>$ ^sentido<n><m><sg>$ 0.0526316
^in~this~respect<cnjadv>$ ^sentido<n><m><sg>$ 0.0526316
^respect<vblex><inf>$ ^sentido<n><m><sg>$ 0.0526316
^understand<vblex><pres>$ ^sentido<n><m><sg>$ 0.0526316
^and<cnjcoo>$ ^sentido<n><m><sg>$ 0.0526316
^prpers<prn><subj><p1><mf><sg>$ ^sentido<n><m><sg>$ 0.0526316
^welcome<vblex><pp>$ ^sentido<n><m><sg>$ 0.0526316
^contribution<n><sg>$ ^aporte<n><m><sg>$ 1.0000000
^assume<vblex><inf>$ ^confiar<vblex><pri><p1><sg>$ 0.5000000
^prpers<prn><subj><p1><mf><sg>$ ^confiar<vblex><pri><p1><sg>$ 0.5000000
^wrong<adv>$ ^bien<adv>$ 0.0909091
NULL ^bien<adv>$ 0.1818182
^acceptable<adj>$ ^bien<adv>$ 0.0909091
^prpers<prn><subj><p3><nt><sg>$ ^bien<adv>$ 0.0909091
^to<pr>$ ^bien<adv>$ 0.0909091
^correctly<adv>$ ^bien<adv>$ 0.0909091
^do<vblex><inf>$ ^bien<adv>$ 0.0909091
^enough<adv>$ ^bien<adv>$ 0.0909091
^interpretative<adj>$ ^bien<adv>$ 0.0909091
^well<adv>$ ^bien<adv>$ 0.0909091
^socialist<n><pl>$ ^socialista<n><mf><pl>$ 1.0000000
^hear<vblex><inf>$ ^noticia<n><f><pl>$ 1.0000000
^need<vblex><pri><p3><sg>$ ^necesitar<vblex><pri><p3><sg>$ 0.3333333
^need<n><pl>$ ^necesitar<vblex><pri><p3><sg>$ 0.3333333
^desperately<adv>$ ^necesitar<vblex><pri><p3><sg>$ 0.3333333
^dutch<adj>$ ^canal<n><m><sg>$ 1.0000000
^customer<n><pl>$ ^cualquiera<prn><tn><mf><sg>$ 0.5000000
^any<det><ind><sp>$ ^cualquiera<prn><tn><mf><sg>$ 0.5000000
^resumption<n><sg>$ ^reanudación<n><f><sg>$ 1.0000000
^*irreconcilable$ ^incompatible<adj><mf><pl>$ 1.0000000
^that<prn><tn><mf><sg>$ ^acatar<vblex><fti><p1><sg>$ 0.5000000
^accept<vblex><pres>$ ^acatar<vblex><fti><p1><sg>$ 0.5000000
^do<vbdo><pri><p3><sg>$ ^masivo<adj><m><sg>$ 1.0000000
^under<pr>$ ^bajo<pr>$ 0.5000000
NULL ^bajo<pr>$ 0.5000000
^be<vbser><inf>$ ^orden<n><f><sg>$ 0.1666667
^prpers<prn><subj><p3><nt><sg>$ ^orden<n><f><sg>$ 0.1666667
^properly<adv>$ ^orden<n><f><sg>$ 0.1666667
^agenda<n><sg>$ ^orden<n><f><sg>$ 0.1666667
^as<preadv>$ ^orden<n><f><sg>$ 0.1666667
^should<vaux><inf>$ ^orden<n><f><sg>$ 0.1666667
^be<vbser><past><p3><sg>$ ^cosa<n><f><sg>$ 0.5000000
^matter<vblex><inf>$ ^cosa<n><f><sg>$ 0.5000000
^look<vblex><inf>$ ^ir<vblex><pri><p1><sg>$ 0.5000000
^into<pr>$ ^ir<vblex><pri><p1><sg>$ 0.5000000
^procedure<n><pl>$ ^modalidad<n><f><pl>$ 0.5000000
^for<pr>$ ^modalidad<n><f><pl>$ 0.5000000
^single~market<n><sg>$ ^único<adj><m><sg>$ 0.4000000
^gross<adj><sint>$ ^único<adj><m><sg>$ 0.2000000
^the<det><def><sp>$ ^único<adj><m><sg>$ 0.4000000
^move<vblex><pp>$ ^avanzar<vblex><pp><m><sg>$ 0.5000000
^forward<adv>$ ^avanzar<vblex><pp><m><sg>$ 0.5000000
^discrimination<n><sg>$ ^aumentar<vblex><fti><p3><sg>$ 0.2500000
^prpers<prn><obj><p1><mf><sg>$ ^aumentar<vblex><fti><p3><sg>$ 0.2500000
^within<pr>$ ^aumentar<vblex><fti><p3><sg>$ 0.2500000
^that<cnjsub>$ ^aumentar<vblex><fti><p3><sg>$ 0.2500000
^ecological<adj>$ ^ecológico<adj><f><pl>$ 0.5000000
^requirement<n><pl>$ ^ecológico<adj><f><pl>$ 0.5000000
^be<vbser><pri><p3><sg>$ ^*ausentarse$ 0.5000000
^unable<adj>$ ^*ausentarse$ 0.5000000
^this<prn><tn><mf><sg>$ ^básicamente<adv>$ 0.4000000
^serve<vblex><pri><p3><sg>$ ^básicamente<adv>$ 0.2000000
^give<vblex><pres>$ ^básicamente<adv>$ 0.2000000
^basically<adv>$ ^básicamente<adv>$ 0.2000000
^experience<vblex><ger>$ ^atravesar<vblex><pri><p3><pl>$ 1.0000000
^environmental<adj>$ ^medio~ambiente<n><m><sg>$ 1.0000000
^represent<vblex><pres>$ ^representar<vblex><pri><p1><sg>$ 0.5000000
^prpers<prn><subj><p1><mf><sg>$ ^representar<vblex><pri><p1><sg>$ 0.5000000
^hi<ij>$ ^alto<adj><f><sg>$ 1.0000000
^conclude<vblex><inf>$ ^concluir<vblex><inf>$ 1.0000000
^thing<n><sg>$ ^prejuzgar<vblex><inf>$ 1.0000000
^will<vaux><inf>$ ^hablar<vblex><fti><p1><sg>$ 0.3333333
^speak<vblex><inf>$ ^hablar<vblex><fti><p1><sg>$ 0.3333333
^prpers<prn><subj><p1><mf><sg>$ ^hablar<vblex><fti><p1><sg>$ 0.3333333
^and<cnjcoo>$ ^incluido<adj><m><pl>$ 1.0000000
^pursue<vblex><ger>$ ^practicar<vblex><pri><p1><pl>$ 1.0000000
^*Nikitin$ ^*Nikitin$ 1.0000000
^relevant<adj>$ ^correspondiente<adj><mf><pl>$ 0.5000000
^adverse<adj>$ ^correspondiente<adj><mf><pl>$ 0.5000000
^*commend$ ^dejar<vblex><inf>$ 0.1666667
^prpers<prn><obj><p3><nt><sg>$ ^dejar<vblex><inf>$ 0.1666667
^allow<vblex><inf>$ ^dejar<vblex><inf>$ 0.1666667
^make<vblex><inf>$ ^dejar<vblex><inf>$ 0.1666667
^be#~left<vblex><inf>$ ^dejar<vblex><inf>$ 0.1666667
^.<sent>$ ^dejar<vblex><inf>$ 0.1666667
^discussion<n><sg>$ ^debate<n><m><sg>$ 0.1304348
^debate<vblex><inf>$ ^debate<n><m><sg>$ 0.0434783
^debate<n><sg>$ ^debate<n><m><sg>$ 0.6521739
^discuss<vblex><ger>$ ^debate<n><m><sg>$ 0.0434783
NULL ^debate<n><m><sg>$ 0.1304348
^ship<n><pl>$ ^procedente<adj><mf><pl>$ 0.2500000
^aid<n><sg>$ ^procedente<adj><mf><pl>$ 0.2500000
^via<pr>$ ^procedente<adj><mf><pl>$ 0.2500000
^come<vblex><ger>$ ^procedente<adj><mf><pl>$ 0.2500000
^succeed<vblex><pp>$ ^conseguir<vblex><pp><m><sg>$ 0.2500000
^do<vblex><ger>$ ^conseguir<vblex><pp><m><sg>$ 0.1250000
^certainly<adv>$ ^conseguir<vblex><pp><m><sg>$ 0.1250000
^interpret<vblex><inf>$ ^conseguir<vblex><pp><m><sg>$ 0.1250000
^in<pr>$ ^conseguir<vblex><pp><m><sg>$ 0.2500000
^that<cnjsub>$ ^conseguir<vblex><pp><m><sg>$ 0.1250000
^prpers<prn><subj><p1><mf><sg>$ ^desear<vblex><pri><p1><sg>$ 0.5000000
^make<vblex><inf>$ ^desear<vblex><pri><p1><sg>$ 0.2500000
^reopen<vblex><inf>$ ^desear<vblex><pri><p1><sg>$ 0.2500000
^reaction<n><pl>$ ^respuesta<n><f><pl>$ 1.0000000
^only<adv>$ ^más~que<pr>$ 0.1666667
^so~much<adv>$ ^más~que<pr>$ 0.1666667
^more~than<pr>$ ^más~que<pr>$ 0.1666667
^nothing<prn><tn><m><sg>$ ^más~que<pr>$ 0.1666667
^logical<adj>$ ^más~que<pr>$ 0.1666667
NULL ^más~que<pr>$ 0.1666667
^be<vbser><inf>$ ^necesariamente<adv>$ 0.4000000
^go#~in<vblex><ger>$ ^necesariamente<adv>$ 0.2000000
^necessarily<adv>$ ^necesariamente<adv>$ 0.4000000
^tighten<vblex><inf>$ ^endurecer<vblex><inf>$ 1.0000000
^prpers<prn><subj><p3><mf><pl>$ ^haber<vbhaver><pii><p3><pl>$ 0.3333333
^have<vbhaver><past>$ ^haber<vbhaver><pii><p3><pl>$ 0.6666667
^condition<n><sg>$ ^humano<adj><f><sg>$ 0.5000000
^human<adj>$ ^humano<adj><f><sg>$ 0.5000000
^adopt<vblex><pres>$ ^aprobación<n><f><sg>$ 0.1250000
^adopt<vblex><ger>$ ^aprobación<n><f><sg>$ 0.1250000
^draft<n><sg>$ ^aprobación<n><f><sg>$ 0.1250000
^in~favour<adv>$ ^aprobación<n><f><sg>$ 0.1250000
^of<pr>$ ^aprobación<n><f><sg>$ 0.2500000
^approve<vblex><ger>$ ^aprobación<n><f><sg>$ 0.1250000
^adoption<n><sg>$ ^aprobación<n><f><sg>$ 0.1250000
^conclusion<n><sg>$ ^negativo<adj><f><sg>$ 0.5000000
^negative<adj>$ ^negativo<adj><f><sg>$ 0.5000000
^make<vblex><inf>$ ^aportar<vblex><ger>$ 0.5000000
^,<cm>$ ^aportar<vblex><ger>$ 0.5000000
^work<vblex><ger>$ ^aspirar<vblex><inf>$ 0.1666667
^be<vbser><inf>$ ^aspirar<vblex><inf>$ 0.1666667
^increase<vblex><pp>$ ^aspirar<vblex><inf>$ 0.1666667
^prpers<prn><subj><p1><mf><pl>$ ^aspirar<vblex><inf>$ 0.1666667
^should<vaux><inf>$ ^aspirar<vblex><inf>$ 0.1666667
^towards<pr>$ ^aspirar<vblex><inf>$ 0.1666667
NULL ^iniciativa<n><f><sg>$ 0.3333333
^initiative<n><sg>$ ^iniciativa<n><f><sg>$ 0.6666667
^costly<adj><sint>$ ^caro<adj><m><sg>$ 1.0000000
^please<vblex><inf>$ ^por~favor<adv>$ 0.5000000
^let<vblex><pp>$ ^por~favor<adv>$ 0.5000000
^tradition<n><sg>$ ^continental<adj><mf><sg>$ 1.0000000
^and<cnjcoo>$ ^volver<vblex><fti><p1><sg>$ 1.0000000
^such~as<pr>$ ^forma<n><f><pl>$ 1.0000000
^become<vblex><ger>$ ^desigualdad<n><f><pl>$ 0.2000000
NULL ^desigualdad<n><f><pl>$ 0.2000000
^reduce<vblex><inf>$ ^desigualdad<n><f><pl>$ 0.2000000
^regional<adj>$ ^desigualdad<n><f><pl>$ 0.2000000
^inequality<n><sg>$ ^desigualdad<n><f><pl>$ 0.2000000
^north<adj><sint>$ ^norte<n><m><sg>$ 0.5000000
^part<n><pl>$ ^norte<n><m><sg>$ 0.5000000
^prpers<prn><subj><p1><mf><pl>$ ^deber<vbmod><cni><p1><pl>$ 0.4285714
^work<vblex><inf>$ ^deber<vbmod><cni><p1><pl>$ 0.0714286
^should<vaux><inf>$ ^deber<vbmod><cni><p1><pl>$ 0.5000000
^prevent<vblex><inf>$ ^servir<vblex><pri><p3><pl>$ 0.3333333
^abuse<n><pl>$ ^servir<vblex><pri><p3><pl>$ 0.3333333
^;<sent>$ ^servir<vblex><pri><p3><pl>$ 0.3333333
^support<vblex><pri><p3><sg>$ ^apoyo<n><m><sg>$ 0.1666667
^prpers<prn><subj><p1><mf><sg>$ ^apoyo<n><m><sg>$ 0.1666667
^support<n><sg>$ ^apoyo<n><m><sg>$ 0.5000000
^supporting<adj>$ ^apoyo<n><m><sg>$ 0.1666667
^prpers<prn><subj><p3><nt><sg>$ ^anoche<adv>$ 1.0000000
^certainly<adv>$ ^ciertamente<adv>$ 0.5000000
^help<vblex><pp>$ ^ciertamente<adv>$ 0.5000000
^in~the~past<adv>$ ^considerar<vblex><ifi><p3><sg>$ 0.2500000
^this<det><dem><sg>$ ^considerar<vblex><ifi><p3><sg>$ 0.2500000
^,<cm>$ ^considerar<vblex><ifi><p3><sg>$ 0.2500000
^have<vbhaver><pri><p3><sg>$ ^considerar<vblex><ifi><p3><sg>$ 0.2500000
^allocation<n><sg>$ ^asignación<n><f><sg>$ 1.0000000
^give<vblex><pres>$ ^motivo<n><m><sg>$ 0.5000000
^why<adv><itg>$ ^motivo<n><m><sg>$ 0.5000000
^others<prn><tn><mf><pl>$ ^otro<prn><tn><m><pl>$ 1.0000000
^*expressly$ ^sujeto<adj><m><sg>$ 1.0000000
^crust<n><sg>$ ^sitio<n><m><sg>$ 1.0000000
^case<n><pl>$ ^definido<adj><m><pl>$ 1.0000000
^social<adj>$ ^socioeconómico<adj><f><sg>$ 0.3333333
^situation<n><sg>$ ^socioeconómico<adj><f><sg>$ 0.3333333
^economic<adj>$ ^socioeconómico<adj><f><sg>$ 0.3333333
^call#~for<vblex><past>$ ^comunitario<adj><f><sg>$ 0.3333333
^therefore<adv>$ ^comunitario<adj><f><sg>$ 0.3333333
